{"policy_layer_0_weights": [[0.04913185629122243, -0.17700337788160408, -0.21263820742794265, -0.12744048656735477, 0.04203562819295046, 0.3987312825079249, -0.16653559562587544, -0.02106468735500703, -0.2750594594465812, 0.19712547794557236, -0.04776977436357412, 0.023502993388102574, 0.18969528815973452, -0.07958159927893735, -0.018249836195970193, -0.17069312096062725, 0.1252361118680865, 0.04298470841444895, 0.416980617834618, 0.0315144533552127, 0.21158008567642056, -0.04869799905792388, -0.3333494815222968, -0.05552442521594776, -0.1065663639671263, -0.12304506428921744, 0.2293881860549982, -0.012367294232541773, -0.18727103094858596, -0.1815314019368283, 0.13682886956058551, 0.03761971823086939, 0.1728625543652672, 0.38250502910956524, -0.19490788980046647, -0.05246218962715487, 0.009380137268499547, -0.11429791271400298, 0.20169850246071383, -0.1715612772018766, 0.0524271939264651, -0.0925574578355007, -0.1904651376689753, -0.08594853783341688, -0.3828170498947184, 0.1103543405271559, -0.07282514359710708, -0.25231177540738453, -0.21931294039527233, -0.0614301499222527, 0.0022615205971661958, 0.11423065077867592, -0.05966301617246012, -0.10077205345038895, 0.018975671270615974, 0.24747213024043763, 0.13037116098054663, -0.050257455075323774, -0.35953106782869976, 0.31593878520658997, -0.10416352862866236, 0.009643159542288629, 0.30863890393872856, 0.07373903904643994], [-0.0643654670613289, 0.026467328058992247, 0.1413130173453398, -0.11349249650213297, -0.23181688855752572, -0.019710074982018506, 0.08471644782931359, -0.10352084067336775, 0.08274816567132297, -0.17447832901526444, -0.02640192860681063, -0.1839410561754211, -0.05597928310003662, -0.15578513475788053, 0.008172775279389444, -0.0017653330600300072, 0.008538070919759352, 0.1901459744908012, -0.127002774923778, 0.03773541880491608, -0.22048273322206358, -0.12141393097683932, 0.045848204294694585, 0.15162575669395603, 0.21738451273988532, -0.08903104512657853, -0.031028916116848174, -0.255388565448542, 0.4059734574872542, 0.06061091828631989, -0.19377435616724642, 0.023925363794463163, 0.11658380497881009, -0.03740218578543847, 0.1779993766223255, -0.38662650500462337, -0.11574450891908092, -0.08063618169824491, -0.10249418654258567, 0.24659987513894327, 0.23499501738643894, -0.04075988049505164, -0.27253789048521554, -0.20187597090929077, -0.052380971602473916, -0.060903641581284106, -0.029768219281175165, -0.09935673533964323, -0.2532555313330198, 0.19626008012729673, -0.18289274524682342, 0.06396947792082064, 0.02372076854581692, -0.1980125193512586, 0.21724204479105588, 0.16417426180317285, -0.10643764115830566, 0.050367576740373544, 0.12586423144005043, 0.0021331740832081507, 0.022095750218381945, -0.06499308599570448, 0.07297099404859574, -0.09698138089700953], [0.1361152206222221, 0.23550889464744565, -0.2588609907741961, -0.07478327789298707, 0.07561519970746995, -0.13113398605852436, -0.1697333811773765, -0.35620552278870904, 0.018377659775007445, -0.2731375650976045, -0.21904969133938101, 0.02007654479417447, 0.06508252765940847, 0.1421207548194802, 0.03298051618301912, -0.026003894658093153, 0.10535861617268248, -0.047005800578841905, 0.18231626799069922, -0.22258754723604432, -0.009039223452317962, 0.0781132048045778, 0.06364022470272561, 0.08565133626599433, -0.088717642985424, -0.031731240357921395, -0.057645095693410295, -0.052662615222664404, 0.21799537701477587, 0.1048533304831322, -0.0910133163623823, 0.010694210364648947, 0.06919217467713194, -0.09334223257655778, 0.36021587760264656, -0.30945302000413827, -0.11415729744493384, -0.25557554063507415, -0.020464389979537624, -0.08754054722013722, 0.10705074285037897, 0.07627772036842023, 0.42515983054590345, 0.11104915816308367, -0.03317731778805184, 0.2937149288927525, -0.1972619982401081, 0.08502981397090216, 0.024870379303561677, 0.18238113792295688, 0.01032490771121441, 0.13006774070421936, -0.35199930291114667, 0.009677756528563048, 0.2580807517342834, 0.020366051998637193, -0.00026210772777909, 0.000385316543553017, 0.03258520304865426, 0.004087573934294416, 0.031324481687236706, -0.13579885902150635, -0.04332558458243408, 0.17813452855741016], [0.10493570921124408, -0.04032544384993338, -0.19329484170516906, -0.10997222370006805, 0.019945710812432633, -0.2340433145666858, -0.047614624019875526, -0.05885627765817293, 0.015824252372417073, 0.08255537511841582, -0.2042670732628147, -0.02282798689320917, 0.2580754567650409, 0.004131098141838062, -0.03656013584987638, 0.1459801654502925, 0.021500817325450738, 0.3390834236134168, 0.007565016442004741, 0.0007064671822232734, 0.20001318764256057, -0.026260432507324447, -0.221620519305238, 0.07635946159736527, 0.2772548942812273, -0.03402347305237345, -0.26080956777232345, -0.016668783842138286, -0.08370829231803499, -0.14408721237681485, 0.14201289487733526, 0.20993455157711033, 0.20004212804847918, -0.12148849947595249, 0.05244697938394322, 0.13878219262583333, -0.015386254923259284, 0.1039635049747013, 0.06810602603528677, 0.19162558552191278, 0.008765709554738401, -0.2744969052988692, -0.17684966299392357, 0.07368229260537106, -0.3878917503672169, -0.13166064903256644, 0.2841649776560747, -0.0783104032875576, 0.35518694048788424, 0.1829311386084418, 0.36058253342993674, -0.1172187235600998, 0.048598990703246976, 0.16079661091782213, 0.05376382136315835, 0.14478818701910895, 0.03939627031681062, 0.14397372915494983, 0.0707710431408024, 0.16265236603952526, -0.09360314549535699, 0.09767411574314712, -0.18010276035476042, 0.1093288733998595], [-0.1047036372083269, 0.09193198271550011, 0.2238949745228417, -0.011373035700355862, 0.4442466996459676, -0.16026737475029135, -0.03450967650842342, -0.18803600232757206, -0.17228833187212378, 0.0931390429980542, -0.09319549486581889, -0.2979303865473629, -0.01674921677257214, 0.04004073051251967, -0.27301522779171794, 0.1618937031682477, 0.08159970571020218, 0.08529891657001457, 0.062181755312054096, -0.03534397504381482, 0.22267922575483204, -0.12408691535036089, 0.017387615015260087, 0.22997348283008653, -0.024138855629569116, -0.0009021123663720644, -0.19681933040650731, -0.15372621394248595, -0.07830116719069573, -0.1048476572709717, -0.1332573505765583, 0.19166913973257854, -0.26720751263338643, 0.16676415345200607, 0.021693405456014326, -0.1226949875312434, -0.14811518755349287, 0.09106492570214801, 0.0760396169486637, 0.04347078231194775, -0.2204769666575727, -0.359278708871689, 0.05525943193372004, -0.315542414354795, -0.05950832651220122, 0.19952167988931033, -0.08566394243738698, 0.10441204723364296, -0.3028243001713725, -0.07456648418805736, -0.07785655390777323, 0.05115001638630673, 0.15523421451092584, -0.05302879850415609, -0.03801741137361276, 0.14204424287079942, 0.13565458064354133, 0.20555790784179911, -0.11528381460464888, 0.09390914627709303, -0.1982609469210124, -0.04442523305021867, 0.3362488793808394, -0.021686255078771866], [-0.11749634750296234, -0.09009040716057136, -0.017994208832148664, 0.12015653074546634, -0.02734543611255213, 0.2969913925715478, 0.04502377217327427, -0.26118999663646103, 0.030722468021217555, 0.1954382483405458, 0.03778457964090035, 0.14871547086711823, -0.2999522189245565, -0.010105072225252504, 0.17216121405549145, -0.11523389499956287, -0.34490659842580945, -0.15777282758376235, -0.20754986200996922, 0.14424936774058558, 0.17110892572046657, 0.24669588390670594, -0.043714473953844105, -0.1067420896019496, 0.2076886980443585, -0.20274677606712527, 0.17612477323338924, -0.15324221916451902, -0.3310573454386994, 0.24489093553286176, 0.001502586008883411, 0.25194039349961017, 0.17995867537433913, -0.27400195559872703, 0.12194822565039283, 0.2512287033864399, 0.04803040173228317, 0.07691967833492563, 0.16490885294665864, -0.12849305856977128, 0.2863808270966134, -0.16204969961904048, -0.2122785638386018, 0.11763694670384477, 0.12374467685571795, -0.2598447542428056, -0.3995451520371348, -0.2855303164617276, -0.07112513275654303, 0.1881603997034603, 0.02835747449787387, 0.0456383662029241, 0.1286739972390933, -0.06374030773915966, -0.01629185310968923, 0.06927532246924642, -0.29250434640115675, 0.24193861551749885, -0.26080462255688214, -0.059649974665307325, -0.10695232410081817, -0.23869500190672166, -0.33673102785841896, -0.1504718956682547]], "policy_layer_0_biases": [0.0, 0.0, 0.0, 0.0, 0.0, 0.0, 0.0, 0.0, 0.0, 0.0, 0.0, 0.0, 0.0, 0.0, 0.0, 0.0, 0.0, 0.0, 0.0, 0.0, 0.0, 0.0, 0.0, 0.0, 0.0, 0.0, 0.0, 0.0, 0.0, 0.0, 0.0, 0.0, 0.0, 0.0, 0.0, 0.0, 0.0, 0.0, 0.0, 0.0, 0.0, 0.0, 0.0, 0.0, 0.0, 0.0, 0.0, 0.0, 0.0, 0.0, 0.0, 0.0, 0.0, 0.0, 0.0, 0.0, 0.0, 0.0, 0.0, 0.0, 0.0, 0.0, 0.0, 0.0], "policy_layer_1_weights": [[-0.0024668746623822224, 0.027144616096527234, -0.20080808322293017, -0.006005516892282905, -0.19563711807287712, -0.273438377663033, -0.12701369528772855, 0.1482922672434673, -0.013953032847179017, -0.10697231709732277, -0.17981377245244118, -0.03436276311260245, -0.05952325003754557, 0.12027823777795948, 0.20778314374895238, -0.18169044156220568, -0.30731068639031073, -0.06821027705430818, 0.1502710710576704, -0.09950102539296073, 0.08773563414270691, 0.2649212339821966, -0.08874544358182591, 0.1056165941064374, -0.14843413128038507, 0.028673964793264416, 0.23661428548904492, 0.11071027227983535, -0.1819959596551171, -0.08771184181535688, -0.0830715417599391, -0.041002042830640816, -0.09853704887824001, -0.03453912408647555, 0.14470614027796272, -0.0847609254641193, -0.110253768775666, 0.15757566504521525, -0.16283388551916197, -0.010580276237595353, -0.026669226034362503, -0.0782328116338513, -0.06356968312161453, -0.07059748611047156, -0.3636568270769823, -0.0725292779839805, 0.23871321077730656, 0.12723083302011728, 0.284053990753745, -0.0365773847304706, -0.019871993186157146, -0.057918820752421885, -0.02705999724363026, 0.10795294617838959, -0.1997437900939148, -0.040053164813082937, 0.030362687536414423, 0.08320051782599205, -0.211591711096015, 0.00021223738781996085, 0.0021795937387402457, -0.059313378501745576, -0.11133563546410062, 0.06767525779487177], [0.13360999285816572, 0.01730304218573815, 0.11475671683929593, -0.07381968968675379, 0.0747410197983012, 0.04612612591245149, -0.029252503791650522, -0.038043446819616765, 0.06436231971693616, -0.06365414253617759, -0.35947925123462626, -0.04099454831987154, -0.16350353477573748, 0.2436279163909013, -0.307215487145557, -0.14592733288595688, -0.2347862342419927, -0.029696281580799264, 0.014241552238304854, 0.06573062948462564, 0.1110618275494671, -0.12301945859684242, -0.11176099999532088, -0.15284182924263245, -0.07859753643689252, 0.012612178162725545, -0.05147878451949408, -0.34545918209370075, -0.09693468859823832, 0.025791268138202605, 0.14523931254020325, -0.09802910629374292, -0.2518407310252944, -0.1246147309951799, -0.03863478066832206, 0.04701408092077748, -0.03148543701704908, -0.058586245359047384, 0.005499788917698333, 0.03628228387563838, -0.17628099212466827, -0.05790040200625431, 0.05711235316542157, 0.07518523627219133, -0.14995472060171675, 0.13448140136959497, -0.019569472137049713, -0.011635737763763863, 0.2216295429685577, -0.18340251937552535, 0.030502871236951237, -0.026446239641630665, -0.10064085995517627, -0.036477470245955906, -0.1486314810157738, 0.049496747981689536, 0.14202113323662213, 0.2892697589979093, 0.23937041906291928, -0.08991226251480584, 0.03264490612339237, -0.18450755093842855, 0.04291816032761924, 0.034162856294380796], [0.08921383908181238, -0.0015538767431443985, 0.01597409098305777, -0.12201432340307085, 0.21495624078640277, 0.07771570946956699, 0.08486257116854125, -0.01996089441887189, -0.0746812218259581, -0.0034060441908311226, 0.0010005168802904858, 0.02571741473352434, -0.021326502783261404, 0.06330578999216749, 0.041128221336128354, 0.11526043483972313, -0.03670854169629857, -0.023509022598223756, -0.009551574904048878, -0.3298246483274133, -0.018812344468697884, 0.1411857604765476, -0.15472286391503837, 0.010347061780566592, 0.061078529210472084, -0.04652448200109685, -0.24979027803554352, 0.12505736241381726, -0.24386919012037037, 0.13919455628052796, 0.010501756513715313, -0.253958161367466, 0.02593355479488092, 0.04712509103515593, 0.10734393303123761, 0.07469021380296989, -0.09412417984847897, 0.2309689930725501, -0.004059130854664863, 0.1669009218498319, 0.009024304590924204, -0.02083211501309013, -0.14816874913321385, -0.05328427844713559, -0.11558505405614544, -0.25064811436352846, -0.06637966065589843, 0.1720618429021355, 0.049525099041985474, 0.19576984217818935, 0.07715532207205814, -0.23602396926032992, 0.0907416656957879, 0.24941244545206967, 0.10175345174598538, 0.08618841859690002, -0.1820116078822517, -0.14163783300893282, 0.05188737090650134, -0.06795978874333952, -0.0888426603907887, 0.06500481188022766, -0.19542666859874705, 0.42025370782534327], [0.03241295270968072, 0.1592640155865869, 0.09282340811780783, 0.032889698514257805, -0.1779628437767301, -0.06125467571097196, 0.040064844325413275, 0.23292133431500917, -0.03446549191442224, 0.059432288790034045, -0.1480121870726936, -0.09872512326224614, -0.006848547579739348, -0.04451962379580542, 0.1921482221790098, 0.2139637119998445, 0.031834685405242646, 0.24003556403624285, -0.116790185667253, 0.1755936213348746, -0.09700897014691592, 0.026985321623637162, -0.0482675249300278, 0.12234899921099668, 0.034025443303215844, 0.1714128095920781, -0.13274321589637617, 0.1079127057703303, -0.0670016139178017, 0.009467543182000531, 0.05966746173606573, 0.2274598098521203, 0.1708923881413446, 0.0038635752387422544, 0.16353106277350973, -0.031942560220230856, -0.13807882936857985, -0.050912959215099675, -0.05550715415956208, 0.10147529210447641, -0.10436408756978685, 0.0709737326359355, 0.13092869703301827, -0.07835060582564958, -0.01799634057637766, 0.17909158681566462, 0.08177234292887461, 0.048909765840492066, -0.16808115476240995, 0.08653277485657891, -0.09426993973616749, 0.05980256299237472, -0.06856794491271179, 0.08095461549740793, -0.09563498582061289, 0.20617010159684818, -0.16087114031808697, 0.38357097216162994, 0.08040879046135044, 0.06711238778145544, 0.1689388676511765, -0.07068900248489675, 0.2657943103842291, 0.1335319156181313], [0.07909193502484799, -0.1470191775191342, 0.07057215992400051, -0.01692614031361753, -0.1683823342612719, -0.1442270253974962, 0.1682350398212125, -0.08666497161022282, 0.020293858903182263, 0.09463119690918353, -0.005563769594261041, -0.04802185936384893, -0.008352041546624308, -0.11792003139707093, -0.08617460357358628, -0.2732302755913431, 0.014152683191160092, -0.28693323938233317, -0.015336221658461558, -0.0012642915666348032, -0.0024235103885863825, -0.011334551791059036, -0.1867010706797957, -0.062491166766782465, 0.05196436002124564, 0.08506863899240938, 0.010926318080726541, 0.05827569513125928, 0.06773635385284629, -0.09385521889751616, 0.16148702096643908, -0.042990326461387215, -0.013361428875272507, -0.09051035271650003, -0.08104366380871406, 0.056753065310793195, 0.1518339922561864, 0.08995317115362823, -0.02606917230293987, 0.009085343180336524, -0.19102097435421073, -0.14425672666872602, -0.016661453437435643, 0.09255127313533677, -0.12869505225629818, 0.009604788016040741, 0.05974591406801499, -0.05045077199042853, -0.0013643907688245685, 0.07349477330213516, 0.09558829953451052, -0.01430642055658033, 0.055132186739599354, -0.24402220174381606, 0.018901864592696133, -0.1357026399855601, -0.2199928338591588, 0.06504565482657408, 0.15287153185140692, 0.0028598979579858336, 0.019047424695664755, 0.10990217307029143, 0.041267675136851374, 0.09296180810877745], [-0.015127016799782978, 0.058526101679264225, -0.1410147599895327, -0.0009306861571708978, 0.05258552445927541, -0.09391900245694719, -0.03768750131152279, 0.05757943523338475, -0.11614271014334633, -0.12289045296459056, -0.08414964813543631, -0.144222394605523, 0.05514798593067688, -0.11958779100809194, 0.14768986444592003, -0.13967098313912485, 0.052877353865436, 0.19261644259653035, -0.2635605788008006, 0.07556517544124955, 0.18712709903417166, -0.09297320343923869, 0.1362250341476756, 0.028865846620600856, -0.05034152979136147, -0.09116948498878918, -0.053832282162932364, 0.1027492338867765, -0.008359288023055255, -0.07992432587434042, 0.13042907487064334, -0.06073035782113867, -0.021034276972251107, 0.33363562669789465, -0.021833539311808762, 0.3227552311228823, -0.029011288168129413, 0.1650678181833246, -0.141100561914568, -0.2619661505931098, 0.05071359654580901, -0.16903850830030867, -0.11266022984193252, 0.09269935706007852, 0.07747247924684815, -0.08407174289100312, 0.1298920977520585, -0.10731410153121974, 0.35090139640489515, -0.022860117728776982, 0.12398491396691404, 0.012973349838063766, -0.0272119861849941, 0.06655467452574834, 0.008213545900537576, 0.07120132111370774, 0.02324792287701701, -0.000943554016869752, 0.05424904945748859, -0.12652003351583407, -0.03546201827138233, 0.13142610539994334, -0.02367964569911538, -0.05170444890994636], [-0.024862153223759398, -0.03294683347932209, -0.1122823834796645, 0.04801904587346117, 0.08242690007569925, 0.06550665769112318, 0.11085444945818669, -0.05302324578401115, -0.04990546054025962, 0.14042085311114924, -0.0073424021377700875, -0.19608770006139167, -0.1997115485199071, 0.13863350885197856, -0.1341556641902631, -0.09511303333648882, 0.10215327056974705, -0.06276097831187918, 0.06608233898243393, 0.11028836715837316, -0.04234716522562326, 0.15354787197442238, -0.1264553480021494, -0.08129243860456942, 0.062143012742501294, -0.07200023524452956, 0.08483977668017584, -0.06545693932396188, 0.00041341904399725906, 0.049128237679394324, -0.022652923332734, 0.012765074764948826, 0.10402107387534054, 0.05685821797588017, 0.009189293918943147, -0.17331660325404796, 0.08913882195424687, 0.07653899508033546, 0.015906811526615598, -0.17136544033016482, -0.07411090632603097, 0.0229035226988365, -0.017135449411779653, 0.016285073339774782, 0.1078234373053944, -0.03669274706729555, 0.15310350980994208, -0.04758715124518616, 0.05937721003500229, 0.1638720385155793, 0.04666327860796288, 0.17261848378436315, -0.16833736607308528, 0.018213374648624873, -0.1612606367616613, 0.1168956045842164, 0.01427294265077316, -0.03757637844714604, -0.035249914642563204, 0.21582475876472837, 0.22241069751283654, -0.025582970054861664, -0.039567426802088065, 0.1298306533199893], [0.08231137934321603, 0.018849823855593337, 0.03591076980880923, -0.09251913665256457, -0.2203094766638577, -0.10368985692375243, 0.08166237739764337, 0.06417132861511797, 0.28713081488703046, 0.06952697633876181, -0.09811285850834593, -0.033929540941399265, -0.16770240725083396, -0.024948161769542912, -0.10930480847430894, -0.1280484508945457, 0.15639544007483513, 0.14419272396109087, -0.01802047931710324, 0.022208239992642216, -0.13498927710850336, 0.1195986753823534, -0.14657760961270805, 0.2778579709557742, -0.012870035885923645, 0.017995362501636986, 0.2189046943677996, 0.02180286872190603, 0.09649554117844293, -0.017686508337500618, -0.3100484887764293, -0.33925418780789324, -0.056520803420843216, -0.027620319755528394, 0.019247395908580562, -0.38303482221121543, -0.08289392800215387, -0.003207706783743996, -0.21144990406551561, -0.05032223292454007, -0.16543831774679424, 0.06700352916534796, -0.011620939951732277, 0.02037804600254222, 0.003865904293412143, 0.07869869033428203, 0.132290108924594, 0.023436707956450416, 0.06956463812334245, -0.18333802039487423, -0.24327463545644037, 0.08666391351829053, -0.0737101492335756, -0.044433751642218015, 0.16129687530718695, 0.07065362623764655, 0.008295074095924686, -0.0867190574839158, -0.003314510198266552, 0.003968989105831648, -0.05724062652904854, 0.0564547486895961, -0.09122937190653886, 0.053636899934949536], [0.04191704627694315, 0.05143964030479975, -0.0033364639091780298, -0.23880324431471672, -0.1732847670150496, 0.32138219667180346, -0.1252869462559661, 0.0751163773986182, 0.09420402856500669, -0.003191721203405314, -0.1595912179802079, 0.05836435349226657, 0.03835255050378966, 0.009070486802002101, 0.00869719645510863, -0.13154439657114336, -0.09527898946763184, -0.022454936251298734, -0.12091502953497954, -0.1125733099240935, -0.23001688685465366, 0.004837690562646862, 0.011632805434749859, 0.003991321996617902, 0.19759166568843647, -0.07955966686922726, -0.0686043687260792, 0.075109304924872, -0.009511572102688059, -0.20627076688985793, -0.04070369843044884, -0.0029407218368894443, -0.09342620084668184, 0.29512028628460507, -0.056565387859379396, 0.20303864352945936, -0.06476034215232765, 0.017897383984063653, -0.024053695907379394, 0.009425892569351264, -0.36515174599223504, -0.12375461265841468, 0.06469878411447201, 0.077315202411978, -0.08802348757038606, -0.09940130923378562, 0.12315735979657236, 0.043114172412945136, -0.12191047358353564, 0.09946160401954997, 0.12594836809559196, 0.008935826681653486, 0.06804948224473435, 0.0992793432036004, -0.002819535631669706, -0.05613091910074018, -0.15329472418407258, -0.036342827125816206, 0.12197633944120741, 0.02818317329428554, -0.11284634285712092, 0.26667205011315426, 0.03371618370327102, 0.1373043183205728], [0.026526977686005013, 0.2779112592777325, 0.02945989813344392, -0.10689513446232682, 0.015522209858039775, 0.03416220913534315, -0.0847815789883365, -0.05816567620164421, 0.04364183516014261, -0.10640593377445491, -0.10474734414232366, 0.05650200754823632, -0.10858282116563178, -0.23689842685979048, 0.11876045492872381, -0.21558625158382477, 0.15508396478131337, -0.028616746905223263, 0.19576608402634366, -0.04223236251901254, -0.005357738920091365, -0.16118554564104912, 0.16041885616273777, -0.019870078752000545, -0.15072866295154388, -0.16339458079444677, 0.032658226686826934, 0.0038747274373819043, -0.05135979758094369, 0.18117765618448423, 0.06254457227841002, -0.0640515342815862, 0.039011022546274664, 0.09301055608470049, 0.14731996432246813, 0.039761166193156526, 0.03550951286967784, 0.14741545338001677, 0.1392389143083478, -0.056935765007306544, 0.09604603007915126, -0.002957082499212553, -0.15332462902239788, 0.22324200853110704, 0.058598794810993525, -0.17055315939781254, -0.04611060217607834, -0.04385350483403039, 0.02948013988715425, 0.0608748462917464, -0.08382514764733048, 0.14300930821049718, -0.08330855905597896, 0.288716645104649, -0.3515763018979164, 0.01180635609950494, -0.1725994516414736, 0.06588272904128972, -0.07802656673597229, 0.16005619464739776, 0.10967323743340264, 0.06195948764832476, -0.1680658505733689, 0.04442221354451769], [-0.12084779762117637, -0.05137240621883516, 0.012810366460278633, 0.08051416923683691, 0.0020299435174101037, 0.11527572138739729, 0.25865822279009276, -0.1596683736219693, -0.04597032766084713, 0.019701421725373026, 0.051358896480077534, -0.022457285237069757, -0.050914475215340364, -0.019516817587989666, -0.1439160764064691, 0.3761221993192427, -0.008790180644604796, -0.22698118356136338, -0.15591679615605722, -0.054689525853347846, -0.04770082756658365, 0.11645312527882064, 0.1457032638170106, -0.12090579697735536, 0.16336574466857953, 0.08550752427426123, 0.0374971793676056, -0.00901983566915692, -0.16152488996568928, -0.03174337083591941, 0.1024659306269442, 0.11838977176964782, 0.30236902044018305, 0.01227281635852672, 0.035515674062082885, 0.02769314504403368, -0.020124546546764155, -0.057388534278927414, -0.1258976702909755, 0.2773405438991261, 0.183890456133612, 0.08809485207459258, -0.08157821836466703, 0.0020470233022394833, -0.09926018633645892, 0.10265830125829843, 0.23807923039424567, 0.04753600072585002, -0.15859342943594856, -0.1998992175502948, -0.09667524948252683, -0.12030044927811864, -0.03518173820159587, -0.035405348732062046, -0.07812362141792033, 0.1024957537209323, 0.1513611754312402, 0.062295021245170536, 0.07535894974317925, -0.025556294945336743, -0.12120440531771139, 0.05241897572649005, -0.12012919529485631, -0.051012049252087494], [0.15019622680053346, 0.06020194304000549, 0.2994049220483406, -0.04333426651543956, 0.110139733245618, 0.08447129390879424, 0.002926409942966714, 0.031135716969322623, -0.036135338507584526, -0.13703448449059297, -0.049773743459435034, 0.044994450165801586, 0.022779296951842776, 0.12918789433823552, 0.1188840923747969, 0.030402864082257553, 0.010892725050793039, 0.01357600191547623, -0.07172955456003959, 0.13609856305287168, -0.003290391660681199, 0.32396277206319934, 0.03287160437246604, -0.22760650412717862, 0.09424854788970173, 0.04614224335045708, -0.008917571368253482, -0.2594622853555468, -0.005592884920561955, -0.17830566814709764, 0.18790256509011732, -0.07955894074572945, 0.0758137721720153, 0.05238584889550057, 0.30591043784925814, -0.14323127934425373, 0.04049624797667461, -0.16004634073703258, 0.026328112928318638, 0.02100326156616667, 0.07117037624122345, -0.03629012322738147, -0.08398348137458163, -0.038873896824382664, -0.2481905195674333, 0.1334764883379291, -0.13581566616764318, -0.13806452194651853, -0.0020702366544303502, 0.09562140661351222, 0.34272044925841394, -0.2194447676065234, -0.14194884439002348, -0.08240088456065467, -0.09130614870155615, -0.03978898582989846, 0.19410991880782896, 0.19537277565436384, 0.08722665838543875, 0.22470520123151405, -0.12318809342476902, -0.09241317736280318, 0.08451044061680736, -0.05433229316316911], [0.092267886585707, -0.18720834531654051, 0.024944509074092427, 0.0751013877813953, 0.09364650680765917, 0.16185143839510763, 0.08564819610825429, 0.13584673428590627, 0.0005425594938896321, -0.26909116858899157, -0.17903740103229837, 0.1681643338754241, -0.14712419025737547, -0.12592583266716398, 0.19219779468496204, 0.048153160905210365, 0.021595895566511834, -0.044396204144057615, 0.0703152871580443, -0.05350433155979428, -0.08280526425421249, 0.14981580868274533, -0.19393962455389133, 0.03409651933398489, 0.1498541586204728, -0.05877498494096665, 0.03660687656689987, 0.03262804214292949, -0.03678888235542575, -0.05233144488559433, -0.18875532674766746, -0.21244094077797973, 0.025968868384476443, 0.0022480911530312455, 0.25477547523430844, -0.10895079186543132, 0.03220037874458816, 0.17349559232452774, 0.06507310955206215, 0.09693284585947015, -0.16330697140265207, 0.22944719791487558, -0.07254115765271787, -0.03702153032088898, -0.04501443721465999, -0.14617318476863791, -0.030625093611706802, -0.12746278797994495, -0.09438471439344669, -0.11312163634913336, 0.044276540517378164, -0.08209398603890584, 0.18433322464886695, 0.14746619741458744, -0.14604723278800036, 0.06536829661568364, 0.03683563483044371, 0.27061479519772785, -0.04313307022814089, -0.10605846950031407, 0.09413689729257597, -0.10808050014345409, 0.019346129871181394, -0.04612037856866762], [-0.1980924361085213, -0.10025717936279728, 0.1607618358703761, -0.12887811344529748, -0.12719680184247464, -0.04786293945987541, -0.02700856659790717, -0.07802650641405781, 0.04425927719146234, 0.15455382391250347, -0.06853208012949577, -0.07670190699059802, -0.2573573620324037, -0.06576571371218823, 0.15500279184674115, 0.04916685246224721, -0.04035711274653208, 0.03804645255374496, -0.01422838802406565, -0.16219179546251727, 0.022316415627537764, -0.027906690190620073, 0.01598649486831774, -0.0014906509245565804, -0.058805396515694074, -0.15390447776925908, 0.054794698519869074, 0.19349973428447156, -0.21339651704298718, 0.0760159421505641, 0.414587044104708, -0.0029936542219454678, 0.04989421961616918, 0.29501402547819155, -0.15716432206304679, 0.06382920686385023, 0.20627108174018863, -0.1504230268045575, 0.02410364764194367, -0.1421445343255168, 0.0877532869848494, -0.15745555075041862, -0.18430925725700334, -0.044315016871307275, 0.15658379536596193, -0.08318320273908987, 0.09848726201068929, -0.11760978828045121, 0.2957019011238574, -0.21187664644821955, 0.05166648584273853, -0.01105843497869877, -0.25281487403250513, -0.11506744457883689, -0.2775011235138225, -0.025352345913298234, -0.050112627402898145, 0.022990271064231464, 0.11493743418430037, 0.14533473720968876, 0.00907939272107433, -0.19954791559086046, 0.037971948511615464, -0.20455577381341544], [-0.09550043509754025, 0.10988112857130383, -0.14885949368589718, 0.049865805729442075, -0.0065463001399795944, -0.09596891571926847, -0.026050446701866185, 0.184894225376464, -0.09986138686703729, -0.08749801768498654, 0.24775078364998745, -0.24769762390161995, 0.019576508745575455, -0.13352133239738567, 0.14025482938374814, 0.06272394006177082, 0.10476203348352267, -0.14483215409015607, -0.03334061789271233, -0.14332526719834493, -0.16594412456516247, -0.03251171854190989, 0.19454091908600135, 0.006255848026189548, 0.05186403330489076, -0.006972726766280888, 0.23792967968891615, -0.12276061462311891, 0.06903385255160308, 0.09241229230763809, 0.05238305102268331, -0.09113137475441946, -0.017579466838021713, -0.1488322283553456, -0.050593157791328176, -0.17614575628303508, -0.03755635711185372, 0.16477850371250985, 0.03690056035483913, 0.014166090263106796, 0.05368712024154349, 0.01699280586396964, -0.08227430684963956, -0.10833433181189484, 0.035676586070296785, 0.06538611284216966, 0.13315191832950757, -0.19236702724717503, -0.18023962189660384, -0.04887441133857524, -0.08448411613170219, -0.19620011251656921, 0.0619066101490073, 0.05931450278377, -0.1556279326786751, 0.03064012276517957, 0.10127335045714371, -0.12362679478239892, 0.022673727271758728, -0.1437766040407922, 0.14830509350319132, -0.15052503854327925, -0.13236846345916992, -0.06158018212722816], [-0.2694606818695699, 0.1933694321812644, -0.07335509654592277, -0.08104326473104095, -0.07983549986453876, 0.006915658537307623, 0.06627156423027558, -0.03614694192739115, 0.3610885495080427, -0.0651802676882588, 0.12019300857499769, 0.09140661254905469, 0.15912252099532634, 0.07510150968034987, -0.09760750986404815, 0.15339343513763617, 0.016994695996336975, -0.32790921289331576, -0.15340498053866264, -0.04340932935039611, 0.037125934606908634, -0.15962982425606795, -0.03320468036133142, -0.005503383478632196, 0.021196083864749405, 0.07701081448511299, -0.026265670250862357, 0.2499031428878699, 0.18385598456187435, -0.19882920736856083, 0.08363190161755034, 0.07568740553614745, -0.047997005643935685, -0.1310076034213187, 0.18717288000515298, -0.0016224726173547398, -0.16150181417187476, 0.06736031369035997, 0.2262540836952514, -0.08543059675108304, 0.019623528920343972, -0.016452291678639375, 0.260196037391985, -0.012817824786430248, 0.00362520235791341, -0.07260426724097413, 0.24854570366503884, 0.03805525346958202, -0.35052162161928757, 0.14175706318506584, -0.18107764652940658, -0.015474235778733808, -0.01992477000380673, -0.19852064431014224, -0.07959186218425793, -0.2055275295013695, -0.03146365685956884, 0.25254315629351437, 0.1282443984148265, -0.14978818422315715, 0.09632883933863337, -0.012346827561902406, -0.10299477988051507, -0.12696107114883592], [-0.04092804923800278, -0.10089759818852326, 0.11483265755237003, -0.07566004351326526, -0.06439290439651167, -0.3128077401779717, 0.051575578036271615, 0.11698115760602511, -0.020106861324315137, 0.05335625818180684, -0.01088691221900553, 0.023350145970130066, -0.13282117738754834, 0.02682003324190311, -0.13269192365532162, 0.030032995447263337, 0.19162023172324877, -0.05815403286137263, -0.059133517598787835, -0.13893828254293716, 0.03932912391847631, -0.020046951098041367, 0.05519703961611707, 0.10966138245620947, 0.19272081839876593, 0.17958720764948582, -0.05483805002580195, 0.10200548365303778, 0.09529654773022844, 0.03057603574031552, 0.0017862973741956968, -0.257468343689714, -0.0877381651683499, 0.29603389122617857, 0.14922645474210286, -0.050208277871263675, -0.04292660246403103, 0.1361665987126417, -0.03996763197449024, 0.12867534116031953, 0.06956198984292677, 0.08366153016558994, -0.10657824683208579, 0.13933036539539584, -0.07383927152175593, 0.025089648679706405, 0.1763472293276833, -0.023686978002484593, 0.2248729633171917, -0.013539658183851343, -0.14419781916434643, -0.08438445390146368, -0.13282576343295022, -0.08301764870649089, -0.03383545793559519, 0.20098205677810277, -0.009251361258683949, -0.08275715667751526, 0.06262466603949335, -0.09151220742404216, 0.12069268382087318, 0.21611968353794309, 0.023409047014115832, 0.023516750285516162], [0.024544556013696404, -0.1837793212588916, -0.06551641261085896, 0.2831191081733626, -0.09309771458222646, 0.01108453565733138, -0.15958242212822246, -0.13337448720390402, -0.009778654833916984, 0.15262909293796778, -0.1913896962117848, 0.17330882557194427, 0.19146448439056704, -0.12001744909436513, -0.14276537250484841, -0.20589124255660432, 0.04219349196121353, -0.011567029774868778, -0.20372102838937353, -0.17689401858908774, 0.028720716169707942, -0.1254468773199949, 0.2513796339958239, -0.029633433144711, 0.2792742304186054, -0.12745407821091476, -0.16952422633659106, -0.21132303681498188, 0.05129349766152566, 0.1090410741106005, -0.013991847885604647, -0.0646821989587432, 0.054352993489692324, 0.14935798113267457, -0.011371653570151345, 0.1888797801032298, -0.056678509787969, -0.16929749866084884, 0.03214286115913697, 0.055350956202085536, 0.01744050307487261, 0.0794284437541641, -0.15419877063909807, 0.02898812618356999, 0.07891252661788423, 0.11118093690138196, -0.13442517925818478, -0.07606398011263546, -0.022013344151934188, -0.122075345785293, 0.19118976064111945, 0.01426062731965908, -0.10320032972852401, 0.3078298516622506, -0.12262678376921785, -0.1119984768704269, -0.0939752798427351, 0.018080309958749926, 0.03976212422215681, -0.14641384040041988, -0.11396508370219664, -0.10298290916920166, 0.06773399954126666, 0.05585135807333235], [0.15732788815777457, -0.11175202023590536, 0.041972174779853814, 0.031216135284088047, -0.08484182451553085, -0.06107444704732581, 0.1910627437205523, -0.04383909655233935, -0.06656239529661905, 0.041887301571694506, -0.12231899989421384, -0.0775235791430194, -0.24660577855551813, 0.07125167865218342, -0.08341986868435267, -0.17316727682726268, 0.09265058291009595, -0.11363571869211757, 0.0170253088323385, -0.13782019726778785, -0.037672995479078986, 0.14285055065734686, 0.06400367833438926, -0.01767127983536309, 0.14823606656257304, 0.10283582416871861, 0.07255774962761215, 0.12301061339907267, -0.16304605898623217, -0.0788554533871766, -0.012655829298882206, 0.16432702169258354, -0.0981833801153457, 0.16223180402223686, 0.061785818723151774, -0.06267297527297784, -0.19789306256641906, -0.06092225320003042, -0.25198140168952016, -0.03910612305225435, 0.07924414462704733, 0.07266613782692488, -0.09091712483345846, 0.08262352870995027, 0.13541094463004882, -0.016142531214450365, -0.19901750931711093, 0.04508959636349951, -0.05176779688869644, 0.08459365375723552, -0.06285506307148592, 0.1898055228031126, -0.1621802778267324, -0.24807454414700597, 0.062309024535653894, 0.12630233098944874, -0.017618077123171635, -0.15662906499354812, 0.09205185179092228, -0.2311993061337016, 0.0175294659507128, 0.06335705089765736, -0.1409782257122139, -0.15035701336019364], [-0.05062256361358587, -0.20039093570773056, -0.00179989561686935, -0.06915632592222792, 0.2570799363326894, -0.13134925985356807, -0.028232711782146747, 0.016351001595473785, 0.14669553056007903, 0.14367331166413297, 0.14897298497954858, -0.09492817700788182, 0.00873754282480276, 0.1554787431285636, 0.0955399629248927, 0.06474047560501515, 0.020890683780362438, -0.11235529762121187, 0.24486475012627074, -0.2971518779706012, -0.08128493835343409, -0.00031694813001167157, -0.24691336591846014, -0.029924793655989646, -0.1152711267187971, 0.11418211474919329, 0.18092448072154524, 0.027776181250513246, 0.10244028164832973, -0.009200856321877973, -0.11371675895995711, 0.027398566859449303, 0.03757096125856609, 0.2876277389600154, 0.10302435218141356, -0.09456292405361799, 0.006520653581256195, -0.10475717667448722, 0.1658444607731015, 0.3088225496864773, -0.03686804367757748, 0.044963475299504514, -0.1390507961640124, -0.09928179673800257, 0.06412559755129024, 0.1886397155946107, 0.11788245506481372, -0.13511243261177971, 0.3456385847347654, 0.02145820863568303, -0.11418566230055717, -0.0025728106210543165, 0.06782122268847712, -0.11864074134564015, 0.0196777809396536, 0.11161795787979602, -0.07074636180397498, 0.05497818099037459, -0.21014746563810188, 0.16300178996604886, -0.009328389851295865, 0.05218349539517518, -0.013153033181070561, -0.015391537874078876], [-0.09583924706555248, 0.05270971597392027, -0.022818949766445797, 0.029466776186063103, -0.010588504058432723, 0.033939301761685685, 0.06349009797128896, -0.0021566232920860523, 0.3385537597048112, 0.07055621029994451, 0.16512176975989057, -0.055325777612311486, -0.054284760096003415, -0.19908831580834857, 0.19818116449507286, -0.05072882098977186, -0.08304293223277613, -0.042347871341285995, 0.13099129038750792, -0.026335805982361658, 0.050884489003741804, -0.13230629658520884, 0.026295257214966554, 0.09889551292668347, 0.09315295463635845, 0.25122937767750625, -0.07950438535733004, -0.1284474566630312, -0.16971412497166294, 0.08138171487770694, 0.16925525299757174, -0.1629906077932679, -0.04014356953152114, -0.2194412991803365, -0.02005778443703237, -0.019352733466728347, -0.015882749312038924, -0.20972657994193147, 0.05305031552750794, -0.004826102851544048, 0.2780172659344475, 0.024622794549008176, 0.0782159856246999, -0.15037781519879365, -0.05818190877960387, -0.04720827713874605, -0.055021416278636805, -0.038476726423823195, 0.1278615836550639, -0.1905594812008386, 0.16479704003161105, -0.04268357833855471, 0.063082625963581, 0.10481422964614658, 0.16973477942708393, 0.10448851392623519, -0.02589134211951795, -0.05550351986068163, 0.002870200275216269, 0.10290988964942503, -0.1857752502016869, 0.1310679085214661, -0.08725510092200434, 0.05715595165820173], [-0.03529667041841502, -0.08461052321147369, 0.03708398541912223, -0.09521929243802495, -0.03391862863990307, -0.16636898703363734, -0.04468633752969014, 0.1465425158844603, -0.08820859824003364, 0.007539772855598119, -0.026863662551117464, 0.1644897697296081, -0.08766056307805334, 0.0696992316110876, -0.07129869717115449, -0.0817767168260345, 0.12300321622760838, -0.028351788556190378, -0.01779759506559374, 0.12716916696075692, 0.005542642767044911, 0.14808766690303188, 0.13313816922387595, 0.03285581027315218, 0.25042198636398433, 0.056613882153157824, -0.07364619317195065, 0.03214067113197203, -0.015553498318205784, -0.1330296786306445, 0.04037077993244678, 0.0899764107692139, 0.1072745267588915, 0.0665622257673688, -0.13772414112899387, -0.15360022474548385, 0.06275513275559635, -0.09264617484518595, -0.1323411101863181, 0.15929913180208535, -0.2019323254926982, 0.08422183932551286, -0.11622831835484738, -0.005646814281953988, -0.020089873453412236, -0.13304478842729237, 0.010600664884683086, -0.07890294428001043, 0.048840343926073865, 0.34245778832590895, 0.13100106492566424, -0.12236665652021868, 0.0542822136204054, -0.031118291029897407, -0.06521091391342318, 0.023408112112926087, -0.03270212652311314, -0.26549822463289885, 0.028214059664409215, 0.09935272884027309, 0.28703244706262715, 0.025312886845216473, -0.021522505965080225, -0.362790423013931], [-0.031474588376256635, -0.03824385055468863, 0.022390035192631497, 0.13120086702639783, -0.09988624182458171, -0.09640856931991797, 0.020508111301639112, 0.026786126280534298, -0.09718396382827563, 0.1195416034908492, -0.002367685285484046, -0.12784855640144605, -0.11329091638339454, -0.04277812638673915, 0.1864086844779578, -0.13049432458437352, -0.028621405697332722, 0.06273411307437468, -0.22493999520049596, 0.007810356457850001, -0.013587801735529443, 0.2622936516933082, -0.3233511967707734, -0.09734173536296405, 0.04745813063687238, 0.20444062199274166, -0.02574416724117803, 0.0014027151153368283, 0.19080073698736283, 0.19041607078247852, -0.044677666600956276, -0.19893103693758835, -0.10111812965439956, 0.20946962282717854, -0.09837181399235435, -0.052643790626332065, -0.16387308188798705, 0.020872692907882386, 0.08380538706137126, 0.029657374329338387, 0.15089643748147877, 0.10223324135290214, 0.09766053149733118, 0.050812493822984556, -0.05727576872420472, -0.07953412471484288, 0.19055843323970376, -0.12785524684198468, 0.20050477979559714, 0.4098067030093373, -0.0031728619840645086, -0.10135668186627907, -0.014665785608260052, 0.11943084495467207, 0.046592662535180816, -0.009813359717497711, -0.1206611125370267, -0.06773958527220698, 0.04868086695170452, 0.12346374520431784, -0.2591106578973907, -0.004420001656020482, 0.13494617641215145, -0.1647548890954644], [-0.20512232561746863, 0.15284238018300875, -0.18957430397644517, -0.13062144478833962, 0.21648923496526518, 0.0765370485845558, -0.382284333943617, 0.18906970606115064, 0.028004287737883906, 0.08984697219990595, -0.15262930675831202, -0.0825616209187787, 0.013131625546691846, -0.06623568572043827, 0.1706161924363939, 0.10010739252344229, 0.007088832353426352, -0.04699506694360151, 0.028051827083592332, -0.04862987664793387, -0.09905987771068725, 0.13261320780680297, 0.2825688758819366, 0.20847361453679733, 0.03851067260132148, -0.08933583867299834, -0.056309470200389226, 0.1604854965588751, -0.00017656501176358536, -0.003294633138572053, 0.20067792853699432, 0.016206981042937704, -0.08822375181626568, 0.03882201328163635, 0.09419258856799319, -0.037891633769881916, 0.01658438195771556, 0.0612607243350866, -0.04742445500711211, -0.025853469193447574, 0.07260877817658269, -0.08719218512435561, 0.1643581919057914, 0.08765201656069223, -0.011365736440935408, -0.15274981375973135, 0.044034705600066074, 0.06511205004672552, -0.1084211670100329, -0.04210407105113392, 0.05539021176803666, -0.10767247911009811, -0.05627329655189542, 0.19760735602859203, 0.21721530094266728, -0.17235315613446545, -0.22075027973708022, -0.00043938601695041205, -0.07710373141430323, 0.04611439214195227, -0.09954603470789612, 0.006543446679745998, -0.06494941081111656, 0.13884442279196155], [0.12179962716971528, -0.028224280127462555, -0.1734163994332212, -0.12727031663353572, 0.1308224360581256, 0.01833569576349511, -0.018051013931020415, -0.04528085492980702, -0.056199873301662887, 0.09013948834667193, 0.27668863825638496, -0.0690921819592121, -0.09151251188069179, 0.00680503717981925, -0.07776252506359077, 0.008319084270355132, -0.17693963882738173, 0.25937428954857766, 0.20609743107788742, 0.015597936525289118, -0.055149865446704346, 0.018184941179570407, 0.12825638404764622, -0.33206116979973327, -0.07871341679222936, 0.031159011237637542, 0.03576660167521794, -0.19670931947755219, -0.03780829338499643, -0.05868021411392546, -0.15678357732029774, 0.24216325787722756, -0.05016243256487889, 0.1624292784582861, 0.04642124718659655, 0.12619206830786692, 0.04196810258847844, 0.043135613573378355, -0.0850317669277946, -0.09259852549762301, -0.045837438389918404, -0.28844796424696245, -0.12056624518094215, -0.02239909097035231, -0.028774942080732953, -0.005414588699930712, 0.051818305661781784, -0.008435571252936548, -0.03910482061308564, 0.016479770509532282, 0.02458651943087048, -0.22282800745050416, 0.14217194800203864, -0.06139517198668922, -0.043452193252921954, -0.16517961804629674, 0.045045788845863, 0.0711881521806103, 0.08675917304356218, -0.08481326000831364, -0.06792310667963351, 0.05766862164147774, -0.07384013296717419, 0.10073410856264507], [0.05725593840194927, -0.06923097972306905, -0.058191923211207884, 0.1411799991130263, 0.0648832118693413, -0.11975748741426212, -0.21148219053014436, 0.011965270471360354, -0.1651763301211632, 0.10871193757401718, 0.0719886909052096, -0.12171134957316072, -0.11618421222736636, 0.11845803452366127, 0.13935306012341023, 0.1345023478668402, 0.10118128202052488, 0.00526035661044374, -0.25669638828457036, -0.08091781106374543, -0.08941814245873024, -0.1233942338374471, -0.20009233862107279, 0.10146559146914817, 0.09581279240907083, -0.083638288769263, 0.25584455350829954, 0.1469633313597767, 0.10014691770753825, -0.11501809563209656, 0.18592449745399983, 0.10336725916968328, 0.0026644630260853398, -0.03259369898276949, 0.10894503299908204, -0.057187605125657834, 0.1417075953436165, -0.01857108674929378, -0.13765150676094978, -0.008425949194001423, 0.07438477223891984, -0.05301485908001778, -0.0257248187124979, 0.020392321791811663, 0.028903351223455387, -0.08615684889592443, -0.06441527444552958, -0.14378657139255466, 0.08344724074648427, 0.13268463864168284, 0.011592025729782561, 0.011973284969306533, -0.13067487378557452, -0.07684851004706567, 0.061718615619728794, -0.071648981967551, -0.0404839915665693, -0.0989999088184344, -0.23982201020131066, -0.1726815764618405, -0.06646528441744486, -0.08590742474824811, -0.07028460063681295, 0.1386430255007305], [-0.03683231908242632, 0.0211054178254594, -0.045209878442335746, 0.09951065179594999, 0.12793903638519216, 0.004098498233106497, 0.12187296714754642, -0.1280197748420188, 0.1647574824635255, 0.0238060783398863, -0.37457286501738246, 0.10926841681572934, -0.0805359529626082, -0.05073852295555223, -0.07795444787154117, 0.30962403611933, -0.06124537285642865, 0.0842170567617817, -0.29458283093134746, 0.1545273153941171, -0.11775371606961, 0.11658462903494524, 0.12028208369634967, 0.09112026027402427, -0.07775576715460936, -0.14229427427974767, -0.07488582783758807, 0.09659225146330234, 0.02498180542386667, 0.015122316398775685, -0.009714059799503714, -0.13312158451356385, -0.08448458994801185, -0.16186059288795468, -0.20934103591996908, 0.22358733809488426, 0.30149491864768496, -0.11622408678798311, 0.05309301290747901, -0.17367237717053255, -0.10944504532404174, -0.24402037385500283, -0.1310151884299511, 0.21147061416326446, -0.06093541202623918, -0.09366306367678649, 0.1132711113574081, -0.0793754277886607, 0.15719440354919828, 0.03152217750030427, 0.03621033803962445, 0.1981510484576891, 0.007737984553476878, -0.02700730335258519, 0.05803787417090039, -0.04313896227244657, -0.0861737467875221, -0.194399208505238, -0.04678911058516575, 0.10027001703714908, -0.152643407923382, -0.06771468344229516, 0.06719131427988163, -0.06752616227140427], [0.23804416856320498, 0.01485440904240423, 0.010276554643473157, 0.025642047787891985, -0.00869249078666278, -0.01760998025506231, -0.008728757630636326, 0.016760105754163715, 0.02440380891321181, -0.23409685474813813, 0.424993635141201, 0.041080633010694104, -0.129709476880802, -0.46155505775939765, -0.007981292577456164, 0.02461880626376211, 0.1079988126660399, 0.0028522698130268418, -0.005337776733831905, 0.054745029418123224, 0.10412710136112856, -0.14850287948532728, 0.024031539335435694, -0.11367548417078387, -0.041677594308841284, -0.1173248132418521, 0.058253674823731665, -0.12737172530945, 0.11252590979922424, -0.257261127546393, 0.13554285021310702, -0.11966968253337022, 0.06442471114352945, 0.28388169723840073, -0.06999196718713491, -0.2496383956583899, 0.23215696153655452, 0.08273865042374991, 0.24394464366871374, -0.05465760202360568, 0.11086251253243837, 0.03341888599154391, 0.07700033466618007, 0.17180177349117523, -0.039743091121387956, 0.057518251179338516, -0.029300225094930972, -0.018564821284165645, 0.15897903660953266, -0.11648243760435986, -0.10624949120709148, 0.08475732224361576, -0.14789301795261262, -0.049444892217354146, 0.07359504810300364, -0.11036430719219259, 0.2803477054622908, -0.03140869006974932, 0.17861347923698528, 0.025766254649300192, 0.10654200779283965, -0.05085822950720339, -0.012966172504072025, 0.07674348652568926], [-0.08326146581414325, -0.02736126306145336, -0.23695060976060278, 0.06465475557136405, 0.019808869559358854, 0.00828858350798668, 0.02722980306182776, 0.0679444747872141, -0.013497821970683398, 0.06881009940813579, 0.04494038146776897, -0.18329231539236795, 0.03946628125914651, 0.06509551646949871, -0.17222285823057448, 0.03808337714442232, -0.01690588619095178, 0.14358323262465478, -0.007209309330317615, 0.0558240085286244, 0.017197540149698924, 0.29012473043311193, -0.010852905552137675, -0.10266381994291106, -0.16603877559607122, -0.12096287319937182, -0.07462685685773351, -0.01981514626751449, -0.09914819634332007, 0.06298357758868652, 0.008953790479854753, -0.1730422423626799, 0.23377562368540006, -0.10359601820340647, 0.04230806289792255, -0.19825332570564203, -0.0801516473287343, -0.09379330385994951, 0.15134561886892398, -0.1000792651791589, 0.0071244044081706865, -0.23714088307871767, 0.00022864087145300124, 0.025078043576628906, -0.08899985924161148, 0.039906267688852415, 0.021843281568979946, 0.025865786366340928, 0.0021088851096783185, 0.15352453295574478, 0.17014462423456567, 0.015932665882524007, -0.06660778179830573, -0.255443027601633, -0.06807685572886277, 0.0464611715914236, -0.017321652179566285, -0.0743736013509959, -0.32942511907563393, -0.2437848165819685, -0.16358959805514528, 0.027337409471145126, -0.1562134109023657, -0.12489596289867318], [0.07600774700382465, -0.09779282118789545, 0.04214324204225276, -0.03215533627658067, 0.08344421164959259, 0.01897671682926526, 0.06725148068345944, -0.052799671912642614, -0.12077021524195174, -0.06139750996376171, -0.0693024921302295, 0.033946987489599637, -0.004133786037923301, 0.07315031776548701, 0.06010790038566024, 0.1769758623044284, 0.1603176767353333, 0.031338470304932774, -0.1278541660899289, -0.11672270027146435, -0.02253477955558705, 0.11224998360863678, 0.03422976704832172, -0.07390823031218643, -0.0601436609519483, 0.009589909018622795, -0.0780023238273331, -0.07795601293964267, -0.10032524359975772, 0.12032504652892582, 0.27999802107935357, 0.04883960966420918, 0.24423696855135973, 0.08863529628281647, 0.07153891706572453, -0.07480789044121372, 0.09484097229581896, 0.010254007238032168, -0.02028517053807557, 0.015376830955549316, -0.007030063452341786, -0.02494310464366949, 0.08103648334484043, -0.03138553234215358, 0.018330830453937345, -0.09290401236170809, -0.1936546626072795, -0.04372386898247153, -0.09030300233794347, -0.11330594470486631, 0.029239127071789724, -0.16360981325434537, -0.05787554282203245, -0.00044429399815278456, -0.025152356795511848, 0.08873382548314136, -0.03479189091382982, -0.10081896669320328, 0.1645295534757125, -0.0423997823077081, 0.16383858885046798, 0.11367135646552412, -0.015804456593880814, 0.05508024128703381], [0.1566325105660817, 0.19085371647651916, -0.010843150667105962, 0.22077297866876686, 0.08802211969272807, 0.08780124835806147, -0.03373144385095978, 0.0064755424443207485, -0.024542557829901893, 0.01015970156962289, -0.059282158921824465, -0.1946975023195362, -0.01535357411023542, 0.09324528697964311, -0.04375265456264679, 0.09879850329508569, 0.07984401236133397, -0.055552942384816055, -0.10964232490337601, 0.1428426400057169, 0.00266840576579164, 0.05753625089717876, 0.04287144753765508, -0.0275042682665926, -0.07021463810245691, 0.11109948109462837, -0.24428879049665844, 0.16530176843017655, 0.061319645060128616, 0.16109731266765723, 0.07499772879037368, 0.09227573378832997, 0.12771469055595197, 0.0017196932181474318, 0.22853659604952561, 0.03887666549168568, -0.11696891439779232, -0.07163970999346958, -0.0037942651139221103, 0.07786681015005983, 0.21567387434852403, -0.05651844875067153, 0.06511233591035627, 0.09792186713524748, 0.15656124235879873, -0.09192172752521102, 0.2153305619149853, 0.08394421608459825, -0.04144795854457082, 0.24632739430284117, 0.20475963675833292, 0.06804758875302348, 0.17631572588006425, -0.034996218369576934, 0.11815902741705635, -0.06873570538340497, 0.1484117495669806, -0.09000993869463926, -0.004184534362949656, -0.01172673245774284, -0.24452222713837424, -0.09011054967299167, 0.11868472092393782, -0.19002159117478298], [-0.0307122810287687, 0.20281861148905142, 0.10371612619890105, -0.3500991456322358, -0.03699184606299524, 0.06844259709325885, -0.07866522676076922, -0.053789597884557165, -0.06256465076225785, -0.016882520259667484, 0.02716318682545288, 0.3157562988787895, -0.17122626976800423, -0.11633430292575783, -0.15495900680095895, 0.01283896349210045, -0.04840847942490946, 0.1709149186860238, 0.044342253066655894, 0.17566338896846245, 0.07455671457614141, -0.14631360669872556, 0.0598695409057446, 0.08916690931383092, -0.06480451677444994, 0.023061448065428043, -0.03480662448402005, -0.17459838760320376, -0.03192944283795825, -0.23058086737501807, -0.09454288686191409, -0.028156031280487243, 0.12875158800984204, -0.31589678468541676, 0.15249903416415497, 0.07741589101975609, -0.21925347831523934, -0.008094081256368279, -0.18029605682654076, 0.022197375633191185, -0.02040778473880269, -0.15989383448183692, -0.2077735565140283, -0.040497669931693445, 0.04780850208512397, -0.21879912046219488, -0.02682903431974462, 0.19391284946913112, 0.016812247555444707, 0.12959720902834462, 0.016186085381040882, 0.016611806825488636, 0.043444446459232205, -0.04131661803484523, 0.06365960663307056, -0.020279385425907598, -0.045719651705731106, -0.07308457582230993, 0.007880189810892196, -0.09050194026733872, -0.11216012250328164, 0.016717700147866534, 0.20174075416900963, -0.0655415538980413], [-0.04370475223155259, 0.11344002119739169, -0.15490514738058134, -0.05065087281911454, 0.08809804890324863, 0.20562700810579917, 0.011005320447009035, 0.11917185914303113, 0.2038084629108274, 0.1273741408541571, 0.18392086202840677, -0.030797124794312316, -0.07728726768456504, -0.16280785251506585, -0.010400874686906734, -0.006697599610265911, 0.027331871992047025, 0.2230443497198223, -0.08413667125786982, 0.06513629932829194, 0.007482325869358455, 0.08862704037848312, -0.06143096856425431, -0.1770610063305407, -0.19630492624642906, -0.34465967218319, 0.02867579786082408, 0.19475271906642957, 0.07232429903140404, -0.2572027383721473, 0.05597129766023205, 0.103287829259924, -0.14390586523289872, -0.02815419405396534, -0.05207313147988064, 0.1186167625592899, -0.37794380900887214, -0.13960441823754435, 0.013639109158193725, -0.044568333637924146, -0.15231763848118657, 0.16979376976471774, -0.06426976122745474, -0.0028364257743144234, -0.03564208455889038, 0.01794931719502877, 0.42352853219800096, 0.00187542211428221, 0.3842589344628005, -0.02923293396936424, 0.010498078442590103, 0.1442447740866023, -0.1512101315532869, 0.06656629840173885, -0.21677131424467627, 0.17262710984904098, -0.019294032613439396, -0.05259712140348498, 0.12712130726895857, -0.1868840045598615, 0.03423629753900128, 0.17737488426995507, -0.03065130727742272, -0.18710768819210596], [0.3312233863255485, -0.15709914466605168, -0.005450361142376063, 0.22889693897317245, -0.051696438701176385, -0.09595270565782499, 0.2254966238583884, -0.04338782960448798, -0.015562510955938356, 0.019869183422535252, 0.17383268294325413, -0.1237802263831206, -0.005184659779341525, -0.06147228678975989, -0.10918997636339298, 0.004632419956255001, -0.08013954767359431, -0.10349368067068528, 0.1737321177320801, 0.07442675658174899, -0.07826748880679854, 0.12813624611642266, -0.22881223294173128, -0.14676993092635504, -0.020201205017840097, 0.003425342618267271, 0.0047968474024744755, -0.013548053360281911, -0.01340576902548904, -0.11974013972204742, 0.0008752693152529362, -0.07634290599701139, -0.05741472231057717, -0.07371913305296852, 0.4081192780754762, -0.05659774329875808, 0.08468850055731873, 0.0707496273270764, 0.2720222994443459, -0.18501508403807923, 0.01565497801411341, 0.012740972772486673, 0.23924036605445104, -0.1861017909075514, -0.042734754225107, -0.048853511203134865, 0.0632881194810169, -0.015254452379170223, 0.04314700694170238, -0.028670501533298552, -0.03598577193871175, 0.0028439167200552647, 0.19454586644047908, -0.10645853307467845, -0.16114996171173995, -0.1255883237807035, 0.15456590750674984, -0.061635141290227034, 0.12873085778430324, -0.0025618868672087724, 0.039651375615181325, -0.02471709329615554, -0.09326374160840252, -0.17669778881530868], [0.08377323721244744, -0.21080541644421114, 0.07506713109028455, 0.0012295528479246772, -0.25479185648322566, 0.1850642501812752, 0.165386850739769, 0.032623682200243975, -0.16572320741153287, -0.0012672658089410089, 0.20971126058815026, 0.31372730122137044, 0.008519384451069234, -0.002006658940649237, 0.1861811392752807, 0.002235552969936291, 0.1986644105358494, 0.07786606962497308, -0.16323260625229277, 0.06153649225254191, -0.12326586300836112, 0.09947309467676393, -0.1126935290887108, -0.17372992777910112, -0.15798775826851477, 0.1369475664870945, -0.14437854548903967, 0.10823372824665806, -0.04407365723757039, -0.06793037340593763, 0.11578589153902799, -0.1532075171538115, -0.010116674012844067, -0.044680851171883765, -0.007437892943057352, 0.14809945381940248, 0.004626477342856163, 0.2443154874425511, -0.055009568215395106, -0.11623006012902212, -0.1462917838335309, 0.023878916582273625, -0.11709179277864569, 0.03298485452649248, 0.11212517573415427, -0.05539573887986202, -0.26616873190453455, 0.12381414417823461, 0.18641799429195519, 0.17943233025886252, 0.1722006109454222, -0.05728100800693601, 0.052173504044648794, -0.052874303940366435, 0.08630944637159443, -0.08134577161193116, 0.04573863415320123, 0.06957446835215893, -0.09514582252049614, -0.06057758951158281, -0.053052565202352964, -0.11098375533949813, -0.026427417728506618, -0.008801279411605877], [0.14990976713708368, -0.014365156007708104, -0.11832040067015949, -0.24665538847917812, 0.13041996957843788, 0.005781482439191986, -0.1303127676125171, 0.04487807878870304, 0.06298306915887313, -0.14168305630358494, -0.005551026397791653, 0.16650780213820057, -0.19821735389763714, 0.00068997743101611, 0.09677122044594581, -0.07391256472370918, 0.011295252711060499, -0.21712504312060218, -0.0973213633563205, -0.08472679921103851, -0.017956394591314935, -0.06797670593486344, -0.1497446618711168, 0.07134326320359874, -0.04423849922596729, -0.1425632362836743, 0.2584515989953673, -0.044438679848500216, 0.2934642546227155, -0.24038505258913248, -0.04234688209545157, 0.015604955543340935, -0.10082525522744701, -0.07879972618014439, -0.15633765370655586, 0.061028923337157925, 0.10354365118611525, 0.13232944048533504, 0.002200634664551758, 0.11829298791423545, -0.17619549212332986, 0.08510316477842184, -0.25798375800739337, 0.08404056142469665, -0.12153834784291542, -0.17721262694082662, 0.2875689559470026, -0.03951463208380456, 0.11310544997642905, -0.10642023812776423, 0.14880721424709242, -0.18700372593216502, 0.03463394157726872, 0.11517640907764523, -0.0505517034852036, 0.11161473815543671, -0.052862532513273344, -0.12370802083754279, -0.0024828057767174853, -0.014590086451749732, 0.023438945336251325, 0.13351395460152926, -0.028643984379271847, 0.1886860480281643], [0.02967957141713842, 0.09093624039395767, -0.006752132336227909, 0.06727137656725547, 0.02623514415951145, -0.08422424188450277, 0.29318464648055326, 0.0684146784204941, 0.04939708333492064, 0.1951987083063619, 0.08117440756033306, 0.24088102506273337, -0.08129736003288676, -0.033215176938590045, -0.04514234225293608, 0.04989625154227501, 0.20532021058138863, -0.018965874813639233, 0.04450474345338677, 0.08311106624056214, -0.04456936780881414, -0.06537673668005545, -0.11003831461801225, -0.04638755683288524, -0.1384567764562754, 0.0610713523746344, 0.3133979029832236, -0.11983386723168234, -0.12693022011186608, 0.08090794578374114, -0.02815097881115893, 0.03059923641332449, 0.02777811711371004, -0.0687339062407737, -0.16054326793776824, -0.03170578481879061, -0.06646635105609601, -0.027082537558751226, 0.04268417734844263, 0.2163266576533452, -0.04255137891574673, 0.006155390109463769, 0.09086613026116483, -0.0918992469423555, -0.1866884284468492, 0.18469277987170318, -0.24286833223192186, -0.15557762856215757, -0.08015026040046465, -0.09622732849105846, 0.3196544332268988, -0.03565718292998846, -0.10669962022761431, 0.033020147891403055, -0.06898062444067733, 0.22708750738464406, 0.13148643529013893, 0.02153943600387876, -0.4426598699697068, 0.15740894105116812, 0.07318610689701406, 0.010110219592245668, -0.09504078429841004, -0.0668796492314379], [-0.033700358394014675, -0.06634723376062646, 0.05522115230365406, -0.11710004876053764, -0.2411723484409933, 0.1397844249118848, 0.034516068412698483, 0.0001501696019176033, 0.013072165829302321, 0.10189331990991699, 0.2527519565199557, -0.23446305210743784, 0.3167100000323559, 0.00951377281456125, -0.17062801969980979, -0.08418531311876123, -0.12629185725563002, -0.026548765311319195, -0.04356270565554008, 0.07654998035389389, -0.3315930081331406, 0.08369349481051468, -0.0008961508738639176, -0.088264986180416, 0.01905206218160176, -0.079652187954467, 0.03191380742516117, 0.17847323153156333, -0.028629662363365463, -0.07980968163357158, 0.15224674829633178, 0.019026472588415763, 0.016798139983506672, -0.17357242000140882, -0.13618973627266992, -0.09643185838131593, -0.09320693812577398, -0.10218324379649854, 0.10013575341282997, -0.05582905699188562, 0.025097213465759282, 0.12530388071166085, -0.047894593246846785, 0.07481446790043043, 0.09410453235623001, -0.01239882629849444, -0.11673973379499135, 0.02157413074017007, -0.05384472059284453, 0.06983514617042887, 0.10288785272494956, 0.09159983708333216, -0.09046132381469667, -0.03190577289490484, 0.12594232375488656, -0.07394446404908672, 0.04945053592273942, 0.0664589429164261, 0.004024536133091494, -0.07774845771622013, -0.06509961347047007, 0.04933905384245056, -0.2461013654429954, -0.2718592607147646], [0.09709984001467471, 0.0947787171988083, -0.006336403268621253, 0.1714645483729201, -0.1379851346572869, 0.10058349947020892, -0.07962925568790233, -0.010181357094314536, 0.049062065349884956, 0.033383590838057205, -0.16453147679542168, 0.382663628035508, 0.32472766040290935, -0.055946481021394316, 0.27044580778967314, -0.11001549292488565, 0.1962574420580537, 0.13255843655396066, 0.02776132982100401, 0.17841926794401325, 0.11483859654420261, 0.17868820740335378, 0.05189157749696059, 0.12346619124975584, 0.2817043302581102, -0.18331694908632193, -0.07864328565966142, 0.0837362558954028, 0.060735424007198585, 0.11750267592645171, 0.0018252383954214856, 0.11611895824983746, -0.2875821903790408, 0.17142330810263925, -0.27222335614119236, 0.06863855087399277, -0.08229246856738485, 0.09484806962568752, -0.062261261976881824, 0.1532013849984716, 0.25802686636393796, 0.09034866782467092, 0.003061825707548054, 0.03758269365375332, -0.04856937499182718, -0.003772449787350957, -0.1914466744130787, 0.19593283536409023, -0.10856786120920882, -0.16347428589895274, -0.12223949488664672, 0.12016378945070065, 0.18391601890277437, -0.06977673485287501, 0.12189152735342038, -0.24277675633087525, -0.02529299871113655, -0.05192381633064352, 0.09544319506446187, 0.007253300743857768, 0.090039630796946, 0.10694336751950766, -0.041460526036842374, 0.08133455388715377], [-0.17038734729548383, -0.21268399719963132, -0.1034131389991038, -0.1298469229381241, -0.17736269163739068, 0.1048671287101854, 0.01517319635270788, 0.05002925543345781, 0.031156023653156145, -0.12485591665215637, -0.14020505661522878, -0.003556316051659247, 0.02929568102754211, 0.010896989352098183, -0.16116971074810182, -0.03954115583717177, 0.12426019111365101, 0.07479839144854232, 0.18815693362572683, 0.10203975619777206, -0.15100839438138292, -0.14030354108510024, -0.05504164713427597, 0.07314567733251626, -0.07451878994524527, 0.08837406266183943, 0.004895465444851298, 0.1870562530061531, 0.15686246327472184, 0.11724202062617314, -0.20292796204041244, -0.0574228251144219, -0.1979985527085242, -0.06153422300572708, 0.03560749831621488, 0.1483116496109016, 0.058602910455109326, -0.09974610605354137, -0.13326300333350932, -0.21234911747524446, -0.14494684635813956, 0.044548234140146505, -0.10084017184277069, 0.12275249238754228, 0.1293024380407168, -0.1709172916992303, -0.1038036956118361, -0.038752509247655303, 0.3003188204906453, -0.046099626882212384, -0.12230264390480665, -0.08957749319794671, -0.3284740505801772, 0.0010316176368852566, -0.19094521563001668, -0.11709668945148262, -0.20061242793310394, 0.04545634076178748, -0.08412962617201329, -0.1997340539100281, 0.15123353060909026, -0.015332520588076975, 0.08293240330112521, -0.11201219008336921], [-0.06072896784723751, -0.07055454397328366, 0.1662971803718758, -0.040038584583309625, 0.05870229590600414, -0.008735295899064813, 0.13971618493137858, 0.04505560832738431, -0.052954012025065306, 0.08636794346109265, 0.05113127103711958, -0.08105220759353951, 0.17652294687152684, 0.10277530879802688, -0.16209473747709668, 0.04177956647817901, -0.02686758625765296, 0.018132767416901265, -0.1743442317162884, -0.14237069410986317, -0.20093503960849393, 0.10115910938457243, 0.06980509105618037, 0.33499524939183517, 0.20000173828626666, 0.1984864510890098, -0.05846744890436363, -0.2021579565549765, 0.07929312452759407, 0.017366665942471993, -0.1452399049552737, -0.17744513050619976, -0.006591835082122398, -0.11467972146905521, 0.04568478008476985, 0.045638351532472914, -0.03449507736873041, -0.04635772202639432, 0.024575504694330612, 0.17306948032669597, 0.17937451015959574, -0.11606636245765724, -0.13452463333858275, -0.1476813291654141, -0.0920902453380742, 0.03138645353972657, 0.08990906637823318, -0.08437742141861526, -0.03730054704628113, -0.08623575298961077, 0.21952399918865645, 0.14365237059858657, -0.0868573410540982, 0.13480382262396903, 0.2604973558502628, -0.07125610017847685, -0.08847738504838723, -0.19747839726597324, 0.03658495588450746, 0.26349097276033373, -0.03701187074077964, -0.15465543471579113, 0.1607848664375087, -0.10576593694816716], [-0.1184784478479759, -0.12959889449790912, -0.15772065218089107, 0.021341797677665794, -0.16498390971116825, -0.1743468608728004, 0.07793521763190311, -0.06670663648364278, 0.19377611702167835, 0.12311075094434465, 0.02881970979154656, 0.19275656810697916, -0.07220102864104047, 0.01905942421684865, 0.12610386741311683, -0.20909071735698187, -0.12426316417105966, 0.14155141365884907, 0.012509603316403614, -0.054505717558267865, -0.12065532492002844, -0.0682901271198141, -0.02945738435114669, 0.14656390665302482, 0.09520596796650656, -0.04302883322590696, -0.14334836271039067, -0.029860054134872787, -0.028773245069726266, 0.043042823488000426, -0.085504608136479, -0.07675625614273741, -0.03368589807399872, 0.11196823110808733, -0.03233464937370942, -0.032373759201916444, -0.057440277352013534, -0.26640959835209693, -0.14242600925472074, -0.049554757086801696, -0.059096367902981076, 0.0735616555736279, 0.0628366263980024, 0.03442180093081035, -0.04057487799837414, -0.012417009722538492, 0.016785371752714075, -0.13982306935941177, 0.056774642811269586, 0.25651364499080853, -0.1308175098203707, 0.06063908378698178, 0.017652668138988473, 0.024964435409461375, 0.012265891280821777, -0.13460913769951582, -0.061303975922061084, -0.04745354284964575, -0.15680815188910938, 0.032874379443988355, -0.038360778031523386, -0.1018276941009, 0.2920401503997796, 0.019191949380175124], [-0.08968641841049729, 0.0903594178926009, 0.030272529801853694, -0.07951873504139564, 0.12161017144470262, 0.12700786694256272, 0.02360011852717135, -0.2477033597020487, 0.3141681436102231, 0.08925315103658787, 0.21947221282473436, -0.09865831005827551, 0.0017113859407407713, -0.033662786451180655, 0.08715382018675968, -0.16769769808406668, 0.0009809430155000478, -0.08888559103056438, -0.042880530094418126, 0.0022807886899898744, 0.2658437707392107, -0.13045771408423687, 0.02348387484914295, 0.10446694351624987, 0.015005132194341048, -0.17008293205216127, 0.10260733082650766, 0.1489232797923761, -0.15456093437902077, -0.29895121669671576, 0.13036500994430147, -0.07836676909733746, 0.06233796782866802, 0.17114465017625388, 0.07355895109751862, -0.00873129116996521, 0.07214917332639185, -0.20754331021484224, -0.08992858754539443, -0.06654425490388348, 0.07166305148216846, 0.11930934983920041, -0.10200792196001912, 0.04088867023746845, -0.16133137509124465, 0.0033897817617289947, -0.05156785822794847, 0.07106803324049217, 0.17619753077054293, -0.19834874649082165, 0.08349636532239156, -0.08843635828892156, -0.05488220304691579, -0.062246323573149236, 0.01924553401940655, -0.012868647708493284, 0.09453207729585729, 0.10253819899940657, 0.030575026914949933, 0.01578904711621532, 0.035369318183155134, 0.03173609980967863, 0.011532774649854912, -0.02302916363198108], [-0.05453161157853907, -0.3588932822942885, 0.12859064869469242, -0.31143912403364793, -0.09219016870566335, -0.04965574079236955, 0.29007459843218264, 0.03403176532442909, -0.056454426038059, 0.0858803436558346, 0.0003083547680028016, 0.009910465491891118, 0.15229616555178896, -0.10975351847756772, -0.03633008153263739, 0.12669266014271835, 0.14367669238769745, -0.20086278289127105, 0.18397439767389634, 0.05960818568797542, -0.10007361006521688, 0.10076578725346941, 0.001546018267471021, -0.1250564843884152, -0.2414192669763482, 0.06672298175222428, -0.03355631713969397, 0.1311311586856817, -0.15252541174984552, 0.08808551250842175, 0.03598590452837081, -0.13093860403694818, -0.1439179783061637, 0.20466837424330053, -0.05956745232298496, 0.13669158358711242, -0.1058244721568577, 0.060966504285719515, -0.026173065592206318, -0.16531532427043144, 0.02514531266088914, 0.023745067559020432, -0.09745392037394444, -0.10706673735339686, 0.08020305484530924, -0.07654326811135248, -0.1619122071474729, 0.005598188805156202, 0.1271944034062799, -0.004194064736498516, -0.07658795636745558, -0.09500627961758315, 0.09959412066505717, -0.07278545592517634, -0.0018821796891241574, 0.20891994314598947, -0.15104274104428864, 0.05041350899046415, 0.11890071281127437, -0.033851897790614954, 0.12251502662935777, -0.3510407610153255, 0.12419083199548295, 0.0995902291593304], [-0.03911444860178972, -0.1667935268989185, 0.003238076841707961, 0.06964363593798555, 0.08473332432605366, -0.06853891550469342, 0.0057584050443606006, 0.05612292286658323, -0.10019738601166238, -0.10240126531749798, -0.1301428742238068, -0.11838100922768986, -0.09032745783818016, -0.05644297146753512, -0.16312694963949187, 0.17327562783203354, -0.02187706457323481, 0.12822154365858404, -0.15190408573837344, 0.15414308048890596, 0.07547672556614492, -0.08597849807036684, 0.10753933806987284, 0.2978430001278469, -0.07079685453360106, 0.062597484121317, -0.06089553041376946, -0.09285648712868252, -0.029726074961209267, -0.06848868383223075, -0.027672626468876704, 0.009351032621973074, -0.16700686973740791, 0.08643942527624296, 0.1453659036547556, 0.09290226231930869, 0.055195242236497, -0.004633190819205446, -0.004188153725589781, 0.04025110623478956, -0.012696147920476419, 0.12852991892233231, 0.06400952888208361, -0.16256281660663977, 0.09444657801971433, -0.035536679266783305, -0.09343148428067372, -0.18060859780233907, 0.1072285955764901, -0.09893364182088567, -0.07464414817569301, 0.09234536120297683, -0.03968662548136252, -0.08423492922197116, -0.10589575432095608, -0.11970876714909315, -0.13661324632700458, 0.049263567694485755, 0.05898450314569392, 0.11835937814818695, -0.1774162520693594, -0.030171719744792297, 0.12390597786425958, 0.0016660104428179061], [-0.11166626252604665, 0.1761809002248502, -0.11997957244882608, -0.18542126415115684, 0.02905436602284004, -0.046277646567713514, 0.07603706952138956, -0.006997635846216903, 0.0194014185143359, 0.031366410517900525, -0.16442895579382993, 0.24046630792704074, 0.11176924361862606, 0.16784566310827223, 0.23863636710540265, -0.09793132771237657, -0.020496010537349837, 0.056833433586483205, 0.008631127074074334, -0.06321676984422883, 0.18374287273534096, -0.24875595752884228, 0.011035072116666333, 0.09233982793786381, -0.1281986451494441, -0.011074530114062895, 0.06018694301538007, 0.19005801566768074, -0.06850609650795146, 0.03059538445410811, 0.13467142437545068, 0.09570627569736784, 0.02677948914254554, -0.16149370417057668, 0.057468236781129924, 0.08980820868770503, 0.28182599994835816, 0.06494298505684981, -0.12293870611351554, 0.06008235696924528, -0.03136189531983292, 0.0031127506809768184, -0.3128249508897939, -0.06797950192090572, -0.21386242375859987, 0.12816190092761826, 0.01216526471001592, 0.06194488969324273, -0.07868676215499273, -0.012671870005601896, -0.0801837057109937, -0.036746538554314666, 0.13239611898533518, 0.07732664090262309, -0.28004935809695763, -0.039700341618267784, -0.12269457657281643, -0.05095554918364201, -0.04744025415598256, -0.19492511647266375, -0.07819495594834239, 0.04633896448775608, 0.05566354177911833, 0.06720414297430913], [-0.17206251800951175, 0.15916502621632983, -0.0949569367277242, -0.14743981904404532, 0.14736419457498656, 0.06322123699560767, 0.099211881478652, 0.007110180500869607, -0.01815530907359639, -0.2997393821836042, 0.06333573345696031, 0.0836114914398492, 0.0932402864193313, 0.09142016285781428, -0.0687046766629636, -0.017333170655124363, -0.09401388541243894, -0.194037333853621, -0.006389496258710331, 0.17829150722887008, 0.04889204722593078, 0.1010713989940713, 0.14329101539134478, -0.108791213148854, 0.3244673518790197, -0.1140406187484041, -0.06589853077508309, 0.1887959054484736, -0.04224192786871779, 0.11265177842448777, 0.226857525811799, -0.03345850532286687, 0.1821952732159211, -0.048895411623764866, -0.12341558752273721, -0.13766097017508333, -0.01626237484022349, 0.09636113111170111, 0.021827013042711334, 0.14906594067470336, -0.13092290014499358, -0.03629245697894973, 0.12050560815907214, 0.13396568839942566, -0.07260678993058678, 0.049544262470085455, -0.056298742099421845, 0.07887205479304471, 0.09466964558641773, 0.05833250129333578, -0.0330460798497942, 0.03191691643154927, -0.05130823805613749, 0.10950984946908636, -0.07876083836250466, 0.012295602517034645, -0.010955660237527667, 0.01893360483011231, 0.08328841603516755, -0.07546643915198646, 0.2135176880972804, -0.023755092332387553, 0.012403721542425847, -0.04339311557462893], [0.08508835058440177, -0.10053514681183488, -0.1837801689111133, -0.03399288546115398, -0.031397542124731836, -0.24213750916403692, -0.03339572563449899, -0.21387922556917358, -0.1310392007501411, 0.06984183346675595, 0.07064878344681665, -0.15470780429911968, 0.12809161616881543, -0.08905155779616104, -0.06968069434671914, -0.04754244278071281, 0.0907536729586322, -0.16972990043227015, 0.09385680132979067, -0.09919998097857544, 0.05732541541251657, -0.03183283096516686, 0.05439852109378612, 0.04900912051598773, 0.024273118203418608, -0.08528727192545109, -0.05259096093351215, 0.11943747648050329, 0.11074168516501337, -0.18935082858730717, -0.2700177093440545, -0.044666955139598036, 0.23875511204307062, 0.13240217477045388, -0.11199888202745853, 0.08127689978723503, -0.11066848602124803, -0.09861441134547054, 0.054151835401949316, -0.20246202359001106, -0.08962955287730613, -0.06616259357005227, 0.13879567279074834, -0.20289890254851517, -0.026395673960695008, 0.06380666319999653, 0.054481387558967996, 0.08255058820253285, 0.05541469882300403, -0.07154878409372993, -0.03240252919700586, 0.02488858691288585, 0.04346809784875356, -0.1659237983278884, 0.004608054597342271, 0.019873830983142195, -0.03354240713760888, 0.12354763497911037, -0.02060091755780721, -0.2457614083525662, 0.08308393670721206, 0.00688671601341251, -0.10256149514890527, 0.0938587355823382], [-0.059361484980134126, -0.06161782252601641, -0.15579540049831686, -0.006306042138937458, -0.15488737140626915, -0.007696977212791009, 0.01465795762146492, 0.09869544961340915, 0.101029467335025, -0.14455075700229836, 0.06922264865996187, -0.043852155777029216, -0.05854123254851775, -0.11647775853154299, -0.04801267109453612, 0.06790634924428747, -0.1309458131222664, -0.08178060369947597, 0.1636539328740954, 0.06296184309305551, -0.22112529346009885, 0.16895238268972096, 0.0291324917043001, -0.22076736288240106, 0.07835328177683795, 0.07424251965776661, -0.17390124695740225, 0.025222104340646607, 0.05957560653714859, 0.19598994750835577, -0.0013810674474402799, 0.016856595753728332, 0.201047724615764, -0.17944245682427049, -0.1390722067369014, 0.18628227863974756, -0.0013138652946414581, 0.02056766581584432, -0.03149385467287149, 0.03323559197466879, -0.03537108596672341, -0.16616033290247317, -0.2283260530427199, -0.012794786928058563, 0.1005269904305154, -0.08443843835302133, -0.001606329698898119, 0.07728110343960083, 0.16182700784926146, -0.2564539103215643, -0.10054964610112312, -0.05438635624929504, -0.12773245502984004, 0.07803170294017543, -0.13445709584321427, -0.1270004070189627, 0.06414669722909573, -0.13105338802262098, -0.19120063160988737, 0.032616128666768204, 0.03502074042916209, 0.06687456559396604, -0.04129674403787379, -0.06016933457985074], [-0.0766185563933736, -0.04460963513461015, -0.02004717032307496, -0.1978975602605276, -0.2250703694706297, 0.11965195541626467, -0.005598642510174729, -0.0536633668478926, 0.04856868205500558, -0.27402423193070524, 0.08133687757750596, 0.03718875906021897, 0.08169384524920138, 0.13872187527320676, -0.05976786282097114, 0.07221863525652095, 0.026212834740736077, 0.0529030245360354, 0.00033725938006300084, -0.15721290398101317, 0.005689974511646354, -0.03246455716193288, -0.005133995519150237, -0.034855794311198424, -0.12176232241214469, -0.032284807360981146, 0.058894915154211906, 0.07891052191468216, -0.12158565225624013, 0.08013370307619319, -0.11002445722072636, 0.09853467704390781, -0.06187958385032439, 0.156993616800445, -0.08559742688007657, 0.05631470784318379, -0.09459373015975987, -0.11600496477719609, -0.16735776577960082, -0.14279780915923404, -0.047763042928820984, -0.13852799704943053, 0.04251878737422856, 0.11997845377719198, 0.007504237332479833, -0.030509066951686443, 0.016372452568454487, 0.2989786804165363, 0.037276089090921026, 0.08703702398523787, 0.07346729241897464, -0.04549705766314729, -0.024227815291331754, 0.124439011423018, -0.07517901384779066, 0.036537591561361195, 0.45751313422480955, 0.07593573611023928, 0.13225317193122116, -0.032057002822870974, 0.10338373031509933, -0.12565939783059998, 0.008033177531126949, -0.10928646311880619], [-0.04461679003335362, 0.15906960955790975, -0.25914181583671325, -0.019059988968608943, -0.12825306349771462, 0.0814798834146837, 0.0617510253588485, 0.03619007510062609, -0.027866111511243324, -0.28227782922404526, 0.09873002495755132, -0.007497938395638168, -0.03230395549173273, -0.08381455893999655, 0.07250990579831841, -0.25388467548720195, -0.13175581811770581, 0.11870133720146343, 0.0033033928870343445, 0.06853085218003463, -0.09141927895213466, 0.19922581223360863, 0.10741338857853831, 0.05302879529978231, 0.013052961721557996, 0.013379417476702623, -0.020590189374466016, 0.019662256449193394, -0.10557702052912674, -0.16640299416438517, 0.03196004549328043, -0.14951854282515536, -0.18982219087672356, 0.04885342449458232, -0.21134891516630366, 0.0730933004892659, 0.186253242607952, -0.05841854933963184, 0.27427112193268305, -0.2019862283667952, 0.053671954388009466, 0.09362116977987442, 0.059643509556036145, -0.035079569001494136, 0.04536144303162632, -0.06903488519508563, 0.10225043247010222, -0.1668345279392823, 0.35041754291477006, 0.06978568687533382, 0.05864920497977545, -0.04875621610000709, 0.039768726998977544, 0.06507942326289363, -0.072052308905404, -0.0052862618297957985, -0.02134635717924884, 0.061232148461731535, -0.020768067365245158, 0.05715041640358778, -0.07389474046412757, -0.09273616082983402, 0.025381438014199658, 0.10498545369655043], [0.08457764097751044, 0.03793329823335602, 0.10701527716293605, -0.014829732786007152, 0.06805326387549714, -0.15298922222280345, -0.13781894637646352, 0.12688112324290768, -0.1195133107891664, -0.1885045829954163, -0.01828198629234316, -0.04107381682187573, 0.07322621977759336, 0.0424772144543983, 0.050538206382235676, 0.04287641512019609, -0.09702977287712664, -0.027228358193496092, -0.19202747935833264, -0.011400006820679646, 0.08503479148204739, 0.07859183510911157, 0.15659066067218302, -0.10295096652399904, -0.12265290508592523, -0.04824911635214295, -0.13138960892925217, 0.02226454241987933, 0.0030778373689544333, -0.17303169233771107, -0.15222325944534462, -0.04296403495362724, -0.08938757518565912, -0.22783361175477101, -0.0313367554927924, 0.03596224440343815, -0.07397402679023639, -0.023980913135808888, 0.16865308811587915, 0.15419660213490868, -0.0757950497141363, -0.09414163744223315, -0.10015353297162863, 0.07348355737073027, 0.11033675106141039, 0.14500820175717588, -0.15251577207039269, 0.14582023374871994, 0.051405679253398735, 0.016916085703605883, -0.06235734284373359, 0.011888955458478458, -0.07418478469206427, -0.23239406020069459, 0.011705092483828455, 0.09138510020206549, 0.11075849147375279, 0.10825359995240115, 0.19828091243287654, -0.19380975264648234, 0.09640737983833883, 0.16514230370232455, 0.04244918759032161, 0.06865386001512552], [0.19640997163264606, 0.026968992200778294, 0.1637486547119815, -0.14841572508796239, -0.02587502167662476, 0.029527881740501624, 0.10296152395197174, 0.24518047958632125, 0.1161162239679489, -0.019768179859420643, 0.09755900142520024, 0.004073177221808136, 0.06340569271719047, 0.030796599846951146, 0.010520436043093323, 0.10407645210286454, 0.05186283745621992, 0.14773413111761713, 0.2211232877626663, -0.17705698797200525, 0.13773733272899585, 0.09081084509734795, 0.07709804032535232, -0.013564867973719166, -0.06841897735026331, -0.04386802829788275, 0.1400457658058365, -0.057354529657573046, -0.130205292653955, -0.14410758296896314, 0.008570059540313233, -0.04861218969407231, -0.1064762744994936, 0.03886160600205785, -0.020454240096949693, 0.13004928438332222, 0.14783418128441034, 0.11169713446316824, -0.01679739735872227, 0.019785117218849298, 0.023190183662595537, 0.04861807753519827, 0.04619445804857011, 0.046321744485599774, 0.07918692342348461, -0.11062711942666073, 0.044903701025654365, -0.0054423795370722805, -0.04458190806194073, -0.09784322328450372, -0.16335454971010094, 0.1310232306029246, 0.043565842626870056, 0.02605131514163808, 0.009208088896695315, 0.11002885304155786, -0.1191549858786415, -0.06849042009907012, -0.00011412900468381444, -0.2371663654279831, -0.17636132983803246, 0.15374537024967994, 0.1599839857191417, 0.08103713546466096], [-0.008441241468504137, 0.18075399617038393, -0.17860911325359474, 0.029001305433870198, 0.06171728563123561, 0.0732245671218181, 0.12611904698994525, -0.02095267873416689, 0.013672030359622075, 0.12353852162201395, 0.05542626313939133, 0.11382326162447096, 0.05367881473946039, -0.012967425869858233, -0.011000392016981695, 0.22769167831632445, -0.23598240282900276, -0.007492513552810898, 0.0842327928454322, 0.04689365214084746, -0.0628364542317247, 0.1611744311195346, 0.054027032468488896, -0.14539304065593495, -0.04228251837718499, 0.0603467036459898, -0.17769892462754416, 0.08987424654605171, -0.055081094043129955, -0.1108842176955853, -0.21965523621656544, -0.01915048674205612, 0.1254473838315423, 0.03832556722218405, -0.18008532790258622, 0.11127772888385566, 0.19956275870658396, 0.10585906876891239, 0.05023025029546985, 0.050242255810574295, 0.05598044021400459, -0.22556035192826235, -0.00858550943318022, -0.03326784316963211, -0.16330109805632426, 0.11209797267296391, -0.041727970812605146, -0.042174334041023595, -0.047841009896746625, 0.05402808132073717, -0.14497240260382516, -0.07000775736983104, -0.10319189012039731, -0.13635938793355154, 0.007391443855862352, -0.054504732897932145, 0.18478042714108345, 0.018625197549818222, 0.13071731183864668, 0.03884662902268028, -0.09139911639898159, 0.212949705139111, -0.11723201798794688, -0.22544251754607214], [0.0319746977659247, -0.2429374795635149, 0.09610286690636186, -0.05551836637941638, 0.0770420720597562, 0.07737916607074961, 0.002434493918720795, 0.14802819511595822, -0.007462360257232532, 0.18288155905161027, -0.005268072769700568, 0.07293593724462238, 0.08573592993319537, -0.21830280316430073, -0.05363249377005561, 0.03151721464376737, 0.03291144600355659, 0.0434391863982496, -0.14605246453201967, -0.0174327717096931, -0.07701746663605923, -0.1058082070642457, -0.11904316338133715, 0.03366697601391228, -0.09779283344970073, -0.011000260853964203, -0.06709324580515724, -0.02977069583242073, 0.11097357588303393, 0.16163928522842874, 0.21074430672055405, 0.07474058266106658, -0.05120095634184262, -0.029477642662529037, -0.055591520919466314, 0.05053516111308393, 0.10020851481577253, -0.08365669128514208, 0.026935821604685422, 0.18119029293246486, 0.20473667822527228, 0.19124317803110374, 0.32061030346520286, 0.22112037530375064, 0.18329745473502962, 0.20708705143767378, 0.21813165200067253, 0.10218791317026736, 0.06177384564173224, 0.08139039159209967, -0.018290323055496927, 0.2227203542672074, -0.05916308492056594, -0.25980205912852206, -0.04543071805582233, -0.17761465779055455, 0.005996754206253547, 0.17079475104261518, -0.08931367255977489, 0.11894942834172714, -0.12044407567800568, 0.010864119577516445, -0.15195288830495654, 0.0191213306342783], [-0.06592200521963258, -0.01732451565249188, 0.08828959774235817, 0.02186386157816747, 0.07919270415373277, -0.0016100684142173216, 0.06134092214535011, 0.2436492097711465, 0.05476837595835108, 0.12868447428376095, 0.08800588489990498, 0.05453591884480111, 0.14625016945444888, -0.026503031061864052, -0.031807311880889096, -0.14346166502762728, 0.028217333483540434, -0.2300138483309407, -0.12943278374737802, -0.012224287008652036, -0.16859539856400932, -0.05046149475082863, -0.00685967354908538, -0.06293490601175705, -0.06460645313612097, 0.07043103716724754, 0.14852411536287075, 0.12971649299090018, 0.06638416115934559, -0.1570113990048362, 0.13600221467259474, -0.07720249039300492, -0.019509719563179363, -0.1198095722566393, 0.05429630627818395, 0.29531056813289486, 0.026644219453124104, -0.27586047311914075, 0.18375724372352242, 0.08032577467122694, -0.018179948841387326, -0.11814349100932901, 0.12807530537075842, -0.08204590583799447, -0.03790437868373434, 0.09511312351257342, -0.1940134231057248, -0.17868646709459166, 0.11896996855065779, -0.02131007403550382, -0.11296297165556657, -0.08855166508897516, 0.13740590087327487, 0.04403385249620246, 0.042063123737412084, -0.19277596992606935, 0.06831392893883514, 0.021722673174027707, -0.2767064384928742, 0.05166581502726195, 0.006959307746762238, 0.11038249352473933, -0.12861920879486524, -0.08003203119192288], [-0.046857808285061336, -0.022279094872670765, -0.1848242996028088, 0.11345048215251392, 0.18459739414797566, -0.024590819046081284, 0.1389037736492232, -0.08391079020570136, -0.0528468020338648, 0.12868056427324626, 0.11912376649554773, 0.22392002289253696, -0.11227611010969317, 0.2305102531869489, 0.06066306519344779, -0.33481745479972763, 0.0036706810260699655, -0.14477730195274185, -0.012546184041805394, -0.0480674561279397, -0.04649176360511762, -0.11390022621882749, -0.17506097163176154, 0.0906239802312367, 0.16952471027436378, 0.21201547708491456, 0.1901647748235309, 0.2182464860682376, -0.09604773497839954, 0.10577220335591951, -0.2920348382799372, -0.06862081248754481, -0.1198511062385488, -0.06576451686218077, 0.10832892560518995, 0.08706323875981044, -0.038549676130281915, -0.015139377422103915, 0.11918971732704614, 0.006260232172403126, -0.12292299835234226, -0.01955425682085823, -0.11975747872401966, 0.1581693999768712, 0.03799838743809448, -0.11863343653321737, 0.022992036224352204, -0.008972864348257602, -0.3362915769907394, -0.11404293846284333, 0.1841030691775142, 0.028133789761750495, 0.20260441573489216, 0.008553444945890604, 0.27379800249422337, 0.05045505689571261, 0.17930438958324552, -0.06440878436907312, 0.014823074273900809, 0.044776716359899736, -0.14639224772490325, -0.25524232722420653, 0.14079965286009696, -0.01697609875052669], [-0.06980292550087415, 0.05969855016656667, 0.016781574367733386, 0.082307245437204, -0.07744574795540572, -0.2248518462269653, -0.1252485537712694, -0.11926292935433669, 0.17880074955953237, 0.044301253578183854, -0.12718558402003452, 0.06753883206435578, -0.05537263771738371, 0.02098410596119141, -0.10103642920914986, 0.04821037720687107, 0.11219543487454783, -0.10004613834065093, 0.12837155312155862, 0.02926789177604833, 0.024055113479509095, -0.1030897893645673, 0.16809280831458043, -0.01090963710955884, 0.06338014003670651, 0.01627174520231095, 0.04148826962504134, 0.05915768721834751, 0.11912105549455271, 0.008987984788910807, -0.04495606605446165, -0.22610262933560232, 0.06838290402589568, -0.10467137691590142, -0.19741791521126192, 0.1323890919188546, 0.019494035313901103, -0.2624861519503202, 0.038151262849000084, -0.010155682050048003, 0.21928747225148199, -0.19815746315947433, 0.04093481064156072, 0.40932696676295977, -0.173906031492653, -0.028756379077263586, 0.2095688140682562, -0.01374077435904033, -0.09978938572808949, 0.16887209382370794, -0.03870081563885281, -0.11126132063012747, 0.03942693321455316, -0.12546653777953662, 0.10854901239876184, -0.059409383820854776, 0.12003225964953414, 0.052563652994769075, 0.020681227132284808, -0.013173475776934842, 0.21198096095587285, -0.02391671012974317, 0.057246413316597286, 0.11583508057429286], [1.715938477990409e-05, -0.12644583141898708, 0.04785278961024263, 0.09730010719781178, 0.23409576098552431, -0.17269151138253738, -0.08829478904385284, -0.10411322625235013, 0.12822234626810014, 0.11972096261380556, -0.08674473880622545, -0.05043326143381968, 0.04321433753876673, -0.003679936214162912, -0.06392268412781191, -0.025293708215552997, 0.14131608737309137, 0.04014675092479963, -0.06828343924298855, 0.28696483199785333, 0.00461077227316726, 0.17026915178317212, 0.08926882033333564, 0.05012812072704373, 0.186104348728501, -0.3208287045667466, 0.03377247593256559, 0.04790543622775766, -0.05002162504724019, -0.12155834401741833, -0.15004343987152305, 0.12301128706935074, -0.10817848333492368, -0.1863296058813027, -0.10632488920426704, 0.2556386384153263, 0.2606916377989878, -0.1562688380239786, -0.04348752936568542, 0.13235949850208117, -0.03952184481636541, 0.09361489264895222, -0.16661600738499197, 0.1132672725122089, -0.11242337132611827, -0.06063307436954958, -0.03471266956182572, 0.09557456104605741, 0.06376071706610761, 0.11022436255765174, 0.10182752273114797, -0.1312588962401478, 0.28566233569671173, 0.1508778910134904, 0.13288544918009335, -0.31103506453348073, -0.142203626324497, 0.057251279602143455, 0.19924250432197926, -0.04193025727858768, 0.02923502993060666, 0.07347245825720017, 0.1920966118445578, 0.22205299713255866], [0.01950191028455364, 0.015207297561154635, 0.039509506178931, 0.06894629952896113, -0.032060733888731416, -0.1600603052588972, -0.09496012470863294, 0.20226660133092705, 0.1067176864427762, -0.04460263347637422, -0.09830396343439712, 0.12966683424193257, -0.06251837656139246, 0.2563683435749504, 0.014519379639602046, -0.08790305068773754, -0.0484268914447755, -0.1240033880531293, 0.0009779754171256956, -0.07679003964475536, 0.09283784411727015, -0.005396739028039349, 0.03903685297829826, -0.0880653132317305, 0.07776108239904207, 0.07416934882328934, -0.1771610027287647, -0.04966909307603989, -0.12241718899618219, -0.022684952089269787, -0.204528870434572, -0.1549123218284266, -0.11157302521770882, 0.1878553918695828, -0.04166924258892351, -0.13675251473658084, 0.13090319416809237, 0.05590758176053272, -0.13571232932758995, -0.09685754800376312, -0.0005807331665183503, -0.13519592421908075, 0.008659545221713022, 0.017099268625381924, 0.0468734982827704, -0.1431744471900079, 0.0411674263339795, 0.2501431881702299, 0.077917027725716, -0.14575772420192262, 0.004790535948104945, -0.23026258326107713, -0.2009454602950588, -0.16279757252245283, 0.03397211580259061, -0.0346504842751402, 0.04163548871695457, 0.10001282015187597, 0.08592732346433885, -0.064095139507781, -0.1528600782792887, 0.2130973008843106, -0.042183658023454494, 0.03852642131956489], [-0.04758712345095458, -0.14231932356972768, 0.04460285840659809, -0.04857190242784494, 0.12831962900710323, 0.1866717971832115, 0.41181300362975953, 0.17133017231451736, -0.3593596212194212, -0.06769452025795397, -0.15127853887128254, -0.06551566664808184, 0.282104991460848, 0.15911039879063651, 0.14881886460829744, 0.0498815008641951, -0.19778745223631544, 0.08250536615673729, -0.14187459018118853, 0.09571911393965225, -0.17506432988109094, -0.08093503729752542, -0.019725979557501154, 0.07505176561036922, 0.06406527553594697, 0.17040953539499978, -0.03127210927189582, 0.08915177143329293, -0.05732663101425483, 0.0484829634556603, -0.02921719901118055, 0.02523520859994848, -0.04467386577451829, 0.01994387704845829, -0.1692774923257655, -0.02725969440507864, -0.206101387466705, -0.0417731236161844, -0.006353872139669889, -0.0650931752357766, -0.169174180602442, -0.1725459329656675, 0.30849163034991767, 0.0795845523708769, -0.005409273279042366, 0.01282831805007668, -0.17362283128236916, -0.05998961652657463, -0.07274293200347616, 0.08765451382163648, -0.07003956690108397, 0.03134601638238165, 0.25107330547734, 0.18052756176565934, 0.0024542320671246897, 0.017463782937599256, -0.07570885736967439, -0.03386404997694402, 0.04695474317380027, -0.08081625557609816, 0.004236191713535216, -0.07886421505814999, 0.10973417407861055, 0.19003334271975614], [0.012431878089935344, 0.041658177137770355, -0.014298013037099567, -0.28409083613661884, -0.00309962727108909, 0.15463672100506984, -0.0034604058750707374, 0.049261480594706614, -0.09371992551963315, -0.06599320853913561, 0.1216777488440339, -0.1412396838110782, -0.04084777352007384, 0.0666290872408904, -0.27665495920151356, -0.0005084332029007298, 0.054985172728306046, 0.20990355854303003, -0.17247017148647106, -0.2693444747544583, 0.12742199065598764, 0.07387629769937665, -0.16812547766388855, -0.14510616724431202, -0.1943777698233668, -0.1756665934046554, 0.16973396106248834, 0.08890520908237298, 0.06087602249428847, -0.12291537254478643, -0.14166195405998916, -0.05405263038208063, -0.11289670913741326, 0.09979704317199385, 0.0431198706287702, -0.017598699786040603, -0.1934507323519234, 0.1822194643155616, -0.12450604039966728, 0.01310070726259061, -0.023214400176753597, 0.13818115927547117, 0.04175304538082578, 0.03409806725105435, 0.0006042686718459322, 0.025665936188780644, 0.1311372590146866, -0.019069705421942987, 0.15859893976485806, 0.04776513127462765, 0.20396166261853182, -0.13527987733405292, -0.26799993373453873, -0.153088966809378, -0.03737108827322837, -0.16615905367719608, -0.2059023442776899, -0.07206097702362553, 0.10169072661372232, 0.06453100438850744, -0.1771475252585365, 0.015134870607326678, 0.20192952121886806, 0.1576708722173367], [0.21520754536217668, -0.12252870454520158, 0.0045403440808861936, -0.07112153202157727, -0.06757483768589549, -0.02176731041982918, 0.013473348881739827, -0.1838784636148405, 0.2306023349421789, 0.033297758881219476, 0.07236485064062652, 0.2851061435161054, -0.04694571277919229, -0.07455347578711655, -0.07130155816440999, -0.14495847426739875, -0.10299690909213512, -0.04264725686257203, -0.07768211596790281, 0.027266037971253567, -0.012967946458946757, -0.19300187303706445, -0.02385472990208337, 0.10013577745441642, 0.11153855005019178, 0.15411944564451585, 0.09563698393765163, -0.03813600544737134, -0.0137728019076449, 0.0006910343838820778, 0.20020073298726523, 0.08132183530876444, 0.08854851737366559, 0.013804784941330566, -0.15680337264710867, 0.09869698578597215, -0.1324808163862061, 0.14925434234596732, -0.12537804066068914, -0.016191889260488704, -0.16042843655572298, -0.09315861124913179, 0.08594164626514571, 0.03205550282571228, -0.008935629848198219, -0.03547416229756792, 0.028277390515908492, 0.035256437807590996, -0.32372806247304436, -0.15718862723374577, -0.05405772961253977, -0.04978325305228113, 0.0007788901725268066, -0.16360291310712494, 0.13072962777312444, 0.04910411003902015, -0.021758954747029092, 0.15454098428625626, 0.21758737170915113, -0.03743931343645665, -0.07698416961318053, 0.035262680879432816, 0.31178428843814576, -0.0618376348389467], [0.11104002259347526, -0.16961619059806843, -0.07309648777353704, -0.03845210695502269, -0.1052397741636456, -0.06588345869737555, 0.08739442705813483, 0.13717158421266518, -0.03333256176656138, -0.2246624329210011, 0.07496769719019299, 0.10500310420016093, 0.01950911439758038, 0.03231145725768973, -0.022833790047668705, 0.0574055048373782, -0.31843648727743407, -0.20807361698918433, 0.02487689941527972, 0.17255037846682175, -0.12575128474905617, 0.05677708630890262, -0.03582579283640857, 0.1430441174431063, -0.09927310208320686, 0.11219091714295953, 0.0860605564235063, -0.08010989558961619, -0.04282145925413024, 0.08968418424089435, 0.07253867693544033, -0.09249591697019338, -0.13967862769473796, 0.3018320819573921, -0.1327417598364284, 0.049584819963854304, 0.23993074904014036, -0.023312824569928055, -0.0610673294423578, 0.1428929566904706, 0.11542523307409716, -0.015271391445085119, -0.09142648298717139, 0.02265076179383501, 0.012517352146022188, -0.16981275435376908, -0.19380827053894026, -0.047233845868565064, 0.12921500111790638, -0.16340435119133997, -0.07588787850913307, 0.1601714013799802, -0.05638779427810469, 0.03007045686918828, 0.09554743985235319, -0.19439909924957505, 0.11858334107186629, 0.2368638496682655, -0.016101869025985587, 0.0678092120507159, -0.16507646069692722, -0.14270940266103213, -0.10104724887708406, -0.12171700538701351]], "policy_layer_1_biases": [0.0, 0.0, 0.0, 0.0, 0.0, 0.0, 0.0, 0.0, 0.0, 0.0, 0.0, 0.0, 0.0, 0.0, 0.0, 0.0, 0.0, 0.0, 0.0, 0.0, 0.0, 0.0, 0.0, 0.0, 0.0, 0.0, 0.0, 0.0, 0.0, 0.0, 0.0, 0.0, 0.0, 0.0, 0.0, 0.0, 0.0, 0.0, 0.0, 0.0, 0.0, 0.0, 0.0, 0.0, 0.0, 0.0, 0.0, 0.0, 0.0, 0.0, 0.0, 0.0, 0.0, 0.0, 0.0, 0.0, 0.0, 0.0, 0.0, 0.0, 0.0, 0.0, 0.0, 0.0], "policy_layer_2_weights": [[-0.0704240098529493, -0.15635414950348792], [-0.10334463582111555, -0.320566838892274], [0.1942511494498944, -0.061790072032036264], [-0.09279237452952951, 0.07577450749195974], [-0.22709175965165096, 0.08024541483076633], [-0.3843820149318152, -0.1760531393056288], [0.21956363360850562, -0.0854341108804553], [-0.28827823009606024, -0.014601763179951191], [-0.08754719762261044, 0.08610650893954906], [0.0579467535413266, 0.15288783927759889], [-0.20178070555622776, -0.005495742046364518], [0.04185583118156883, -0.04214505319908079], [0.044802252233868904, -0.16239130329729712], [-0.03862215942069294, 0.5029704583101716], [0.010883275707762496, -0.09235641487841423], [0.4391330997878899, -0.23072894966197932], [-0.030399230474560102, -0.17542388792271227], [0.07437005169501067, -0.09226158964367148], [-0.29081340343742157, -0.13321494331032643], [-0.044008297194654454, -0.10925024759187972], [0.12587051850110337, 0.013262224292110391], [-0.1012904153013853, 0.01589665647050366], [-0.087123029039948, -0.13448262848135747], [-0.04464807108859538, 0.03516478797834191], [-0.3133010945043219, -0.032180301020923514], [-0.06209974929098984, 0.08974295414693992], [0.05928991665978321, 0.43145060951230774], [-0.168162559531161, 0.12831460145712298], [-0.11886698967537186, -0.11400544499819977], [-0.38964492248842986, 0.04426353845789312], [-0.16555176941517072, -0.07972648691347095], [-0.00635613533391782, 0.42462210845687104], [-0.24861324680132824, -0.29560381353119186], [-0.00883014632050533, -0.010052628910034441], [-0.10372021951467186, 0.16201549588955902], [0.0453442159464539, 0.07237050406040534], [0.16758982971686248, -0.16403611112588573], [-0.03094250909565231, -0.2405013034301987], [0.29156762656815327, -0.139624608355905], [0.25598917016275424, 0.16328750561953675], [0.3402255979512089, -0.08445413671807239], [0.09525816990962431, -0.1145445415401026], [-0.028122871919868772, 0.05185513203235973], [-0.31594351397297504, -0.352612509475801], [-0.03622595839775734, 0.0067785608606667005], [-0.0665874888976008, 0.02891976995487401], [0.014872203521314763, 0.2962897510328606], [0.04389644756692973, 0.2919521910258602], [0.22095806089042916, 0.12492793993747858], [-0.19309621962610965, 0.1743301958345015], [-0.1987017449345617, -0.050592036366399556], [0.314140385952092, 0.0014377328849122656], [-0.24593163128902434, 0.095974727020906], [-0.1339942301535622, 0.23424746179113973], [-0.17979654063003833, 0.13633150737932415], [-0.1725076929574299, -0.13813742924005268], [-0.01564825720238994, 0.1510055353318055], 