{"value_layer_0_weights": [[-0.050601027901217475, -0.33069820516522475, -0.029083191239138915, 0.26064719750255216, 0.15410751581462057, 0.20469324626401408, -0.1467338426269466, -0.108460121368172, -0.037049019023073865, 0.18005372615103388, 0.10473374073351893, -0.012838697784289569, -0.023360749891653064, 0.011725334860348425, 0.14091972669585515, -0.13085166166964962, 0.33417555329405707, -0.05624536905223622, 0.18927482949983396, -0.39705199825391746, 0.27899788895288563, 0.05752156649238561, -0.2474214773928104, -0.10685433755623082, 0.04424610315668455, -0.14752889216431847, -0.006846267642557592, 0.05158177994499775, 0.25757127586810136, -0.11972142396889321, 0.09742713464262144, -0.30049449619891144, 0.18396910687457638, 0.07737708909151822, 0.09857202414796272, 0.003584064408553976, -0.13049417172024672, -0.14612737420473937, -0.13486327061646003, -0.12485627874542703, -0.04076051731791145, 0.1534210934335271, 0.28440880479652353, 0.12152951679007344, 0.03929338457473019, 0.03977056643474543, 0.004224466636375785, 0.2330335451562962, 0.14401024997807343, -0.1271450734552604, 0.0693468789331242, -0.2584499712556728, -0.10284788112897955, -0.01420916526072254, 0.13008446530827045, -0.1999821831333284, 0.34700138199608765, -0.03377285442487481, 0.09310411644153055, 0.35076552042106246, 0.03672259408734032, -0.18835755745521238, 0.08497082736377722, -0.1042110317438], [-0.01055266392872827, -0.13298246952186626, 0.5104647899394887, 0.16569232717870494, 0.0390647528474397, -0.04595313719585975, 0.09697547862183654, 0.2444398299304733, 0.1770369355625703, 0.10581123485315518, 0.0659566437216758, -0.3620972456244474, -0.00811693040732328, 0.11843047794005755, 0.41333461637902863, -0.3205735885065581, 0.1136018478578126, -0.2139514532893552, 0.21153410280409607, -0.09648300626365786, -0.08118728567381175, 0.3263179475110266, -0.127033314435804, 0.14841355744503518, 0.11852251789206568, 0.06243216732357075, -0.00416205678454721, -0.18380977896595233, 0.4087160102820887, -0.010796798937434396, 0.02901140966727372, -0.1022816817795773, -0.1404740135326981, 0.1722108274843832, -0.11959642768930559, 0.002833177161307987, -0.20571844008946868, 0.29107368444381365, -0.09207904970941531, 0.22051419490199484, -0.0549810867547938, 0.055761384723451116, 0.1133807322823548, 0.1787823048685579, 0.024000251817668513, 0.07995933105090586, 0.11600355648914328, -0.057394897727828735, 0.09816461696543237, -0.24467605394309214, -0.042264299860667744, -0.43896416970721824, -0.282698481990082, -0.009678585716885896, 0.09716280329247637, -0.08944566385725272, 0.10478196392244617, -0.11621927957203598, 0.05149882043559833, 0.2575334261822074, -0.14024721854535588, 0.16924128750865317, 0.024307135651566135, -0.06781270757977546], [0.1426670183425327, -0.07719610464277696, 0.14661622800866692, 0.13374304232905224, -0.024640490444149968, 0.22420971731583964, -0.03163046380664762, 0.3768912878964919, 0.3426119595980151, -0.03979672818546991, 0.20595886052557486, 0.26081180939107224, 0.24695679411276128, 0.20919529216206112, -0.03994322624499368, -0.01226051500948149, 0.10236727207099147, 0.056975040381415216, -0.22699163640685832, 0.25962854025552523, 0.10537703635683482, -0.35374248539891007, 0.18982258974529825, -0.14595654111241216, 0.15220778428911244, -0.12801886203043414, 0.022032490197268856, -0.30118633622298885, 0.1878580600046093, 0.08637810436403719, -0.11053701237981481, -0.26377459053264335, -0.12679177379413145, 0.04340078868810291, -0.016551393972761844, -0.2255531990218181, 0.09841482049554108, 0.1510381138603209, 0.1133368334185473, 0.3048266483724356, 0.034771041441572864, -0.15459873093608037, 0.2853096300170215, 0.08183094864257309, -0.06497166003344128, -0.2572544972515708, -0.12310466000824892, -0.24171743933542347, 0.03856904685032996, 0.13106975775895607, -0.45752812677748284, -0.02746885133049544, 0.1578260426452029, -0.04874837033073698, 0.22346367362238664, 0.04029201596945298, 0.11987403903320794, -0.03078929913681295, -0.07471435277851496, 0.40235168718928277, -0.11185704535230245, 0.21368032829567252, -0.050561052922357484, 0.21852736232305572], [-0.10005203311471388, -0.15984758855470174, -0.021023624778925883, -0.015300529579398139, 0.04777976634914357, 0.13011831458544687, 0.029193200474121817, 0.0008592117026177618, 0.09968817175507433, 0.322546668168417, -0.09516987322965499, -0.39644552628106666, 0.1735989104899899, -0.15660353447397488, -0.2097171609539864, 0.10886717351187362, -0.1790485806588256, -0.0896792243071472, -0.05582629067877361, -0.05751427939185618, 0.04162298072783818, -0.2208907079066294, -0.04306245082229142, 0.023712318926275677, 0.004411600830925224, 0.24064698145504732, 0.07916075535776688, 0.08003252074005202, -0.20312391178848554, 0.124334712693875, 0.08031986925787479, -0.14225384704408367, 0.5129504806030103, 0.05193533499124836, 0.04486744828742713, -0.14292359648816536, 0.1549673733859842, 0.13732123231395826, 0.02388514015650471, -0.13371271337267845, 0.019850419600933002, 0.1737269523079296, -0.019193912986717847, 0.037516131742269795, -0.03502564309598447, 0.17384705326896097, 0.10357835113430323, 0.01637031138528395, 0.08889448607580373, 0.15542962748772068, 0.1972016001233601, -0.09756230071287215, -0.3344748979433148, 0.14820681209968112, 0.17578928104236374, -0.2709868957177134, 0.059352356558098215, -0.41786610700439053, -0.049634855077522445, 0.16409289058687523, 0.12714630994207435, 0.054974641553207984, -0.02369431149737576, -0.10227926966366635], [0.14339642129479951, -0.11433595618980504, 0.24150889524993865, -0.31266238535321417, -0.09966740879105171, 0.21846776440263213, 0.013738936674256241, -0.019519153615777378, -0.32337772175083535, -0.03860563632267815, -0.11912756919756368, 0.0686216516605604, -0.32637659609881253, -0.039448617064798096, -0.37487469748679303, 0.0712429871614315, -0.13276488318350502, 0.15578258905595238, 0.2814975938437018, 0.011389904494163572, -0.06818689847085196, 0.08930693890402693, 0.05399453363501133, 0.25596070471837684, 0.016677819880536956, -0.03341954786404272, 0.12108713809500615, -0.1543124230573995, -0.22599622796408378, 0.10785003620185442, 0.30564318501478543, 0.10479893921240069, 0.1626802956383368, 3.7639205480859965e-05, 0.23241740996214533, 0.02863563967352605, 0.01029096044981787, 0.07122761554339332, 0.04055140726304823, 0.3936625528923754, 0.17398152043396517, -0.009117464295067598, -0.18457596824464884, -0.11410401975702483, 0.1307998053960924, -0.023669327798594018, 0.08408884886561949, 0.035858452824139256, 0.011982443809843205, -0.017804529446117146, 0.08342998699236975, -0.10103270601703271, -0.05778819762649677, 0.05426541611130698, 0.09937782139081955, -0.03383505896763569, 0.013787692827907332, -0.17658448052617998, 0.1399124444274613, -0.08156598384039454, 0.2700522223681095, 0.10716809115063554, -0.08411903712482917, -0.0701874401102136], [0.004087146451903469, -0.09660532522490774, 0.12625594790405045, 0.03151190671930688, -0.2063702092847816, -0.13191113175406172, 0.07791216095901293, 0.22964435467616848, 0.139745204583339, -0.1987705708319232, 0.054491411925244704, -0.02950882207293418, 0.04632063793607672, -0.12011975167335535, -0.05195590958762065, -0.18854251169144837, -0.04608690628695316, 0.15149824253944152, -0.11545292638892724, 0.0014820146949693933, 0.33237494201163525, 0.30336068761105633, -0.16527450644211777, 0.0532693971095624, -0.03466505247944715, 0.14095202480066388, -0.029584903536447337, 0.27832779227706045, -0.04852369573348313, 0.15594127971787375, 0.2013718967394969, -0.3269288067489348, -0.10872926124485337, -0.1030206782095722, 0.1101249445427987, -0.049298723164089536, -0.14016264113315496, 0.0013560899228782645, 0.15976587516667023, 0.06234595595138948, 0.026164526893817194, -0.08948366000295335, -0.1933129148433813, -0.04877358824468519, -0.02190393730871477, -0.05847293693425485, 0.13264504122417428, 0.039248335209146674, 0.2670758708885881, 0.12921400845047942, -0.2817435649704371, -0.350880825987675, -0.12363411006792412, 0.07020129365629901, -0.021317062850939046, 0.1484534969457814, 0.09026063420289442, -0.1835185584007487, -0.1241322309794123, -0.14073000464792063, 0.06139162981138323, 0.14994660527608789, 0.12247166482837882, -0.2175639891829838]], "value_layer_0_biases": [0.0, 0.0, 0.0, 0.0, 0.0, 0.0, 0.0, 0.0, 0.0, 0.0, 0.0, 0.0, 0.0, 0.0, 0.0, 0.0, 0.0, 0.0, 0.0, 0.0, 0.0, 0.0, 0.0, 0.0, 0.0, 0.0, 0.0, 0.0, 0.0, 0.0, 0.0, 0.0, 0.0, 0.0, 0.0, 0.0, 0.0, 0.0, 0.0, 0.0, 0.0, 0.0, 0.0, 0.0, 0.0, 0.0, 0.0, 0.0, 0.0, 0.0, 0.0, 0.0, 0.0, 0.0, 0.0, 0.0, 0.0, 0.0, 0.0, 0.0, 0.0, 0.0, 0.0, 0.0], "value_layer_1_weights": [[-0.040312532565326936, 0.0512894036988358, -0.06632757347244923, 0.008479381401742911, -0.024411129490813876, -0.05031592794186488, -0.045481293963173346, -0.14068654362225452, -0.015729201397487687, -0.058338524446683686, -0.029542673735056712, 0.07212865211154545, 0.07066341033602994, -0.195428156073255, 0.04002118819856352, 0.021507057102535716, -0.10860214410228324, 0.006164335966731599, 0.22986353919516694, -0.01052722178267302, 0.24362568783863797, 0.031462414882109165, 0.10518143497978164, -0.22785845532405688, 0.0436025221935199, 0.04168849591037165, 0.15634951693129412, 0.16343651192432043, 0.06668396156705625, -0.016813395622322654, 0.10105794757828486, 0.18817402246291715, 0.04108322488577211, -0.2230835747410883, 0.07451679987812052, -0.1807886148115311, -0.08085777931493529, 0.14239080263786, 0.04147415314014727, -0.20638150546853867, -0.04159523198348786, -0.19981784976024292, 0.07655234880919028, -0.09221227965481023, 0.18005667200161937, -0.00954681455347662, 0.016602895804426563, 0.06409535238196852, 0.0335535143418599, -0.08947844455885154, 0.12537631048147194, 0.1470184442968986, -0.08178844947230708, 0.029433875026402854, -0.03972880908589101, 0.07790296742761098, 0.2018698663557929, -0.05529383972323659, 0.16433630049176098, -0.19787210022074753, 0.19194555085724838, -0.02471664709504909, -0.0782729532521287, -0.1728303085301394], [0.09548209014761871, 0.008899842331191817, 0.005167130382205649, 0.012122798848068501, 0.1614290833291239, -0.08173004196550293, 0.15119667909607531, 0.004096501298189779, 0.19220631102083885, -0.009456420457113568, -0.0015261515832164197, -0.2250416353891588, 0.21405609468947304, -0.059446380247506675, -0.05561229968029645, 0.0860103746215126, -0.017016115683281464, 0.10287670613389384, -0.20597644315859903, 0.17512025408193865, 0.036685548623664375, 0.06836882201458212, 0.3074674669512803, -0.062116708312961226, -0.03607228810661188, -0.08644315559970656, -0.15875706812677692, 0.16959355501461587, -0.008716995232601462, -0.1398786934219454, 0.10420948998966384, 0.015409414461131914, 0.017606351252165163, -0.18943269745659846, -0.01137496408500742, -0.09377025697409945, 0.09264906557679949, 0.07136737197608832, 0.021314241416696314, -0.020676284060807355, -0.26654515304748166, -0.2663846071675639, 0.09148663594305144, 0.07094366423451086, 0.08552471291097138, -0.19533150146152742, 0.10955854136889642, 0.11636892387917035, 0.2133048567197359, 0.1791629391847595, -0.04300849675142279, 0.07679711089322706, 0.04863056010618999, 0.08905571998349261, 0.29769988808770426, -0.07119358873008762, -0.016547512237747176, -0.05645090762614264, 0.10976890522570049, 0.08832119736162107, 0.08674133325257097, 0.048504744935133584, 0.04968138844229592, -0.06748300967847987], [-0.15600121104927717, 0.002269801080057487, -0.06443765227915951, 0.03575200994326566, 0.18945575052913505, 0.13867112611084742, 0.18057201303484366, -0.19361717590038321, 0.04621140916394615, -0.13209624651410448, -0.02883950818771796, -0.1898787956434602, -0.10430200491704185, 0.10761205358086583, -0.10925962377135241, -0.17298910469707243, -0.18211218126769355, 0.12969422664185642, -0.05570158474854653, -0.05592989560345295, -0.1310933534611794, -0.052946196999450676, -0.01431314877429383, -0.12309611547343706, -0.07247470918715346, 0.09644142214784866, -0.087914627730569, -0.06406807632393677, 0.22864367928897622, 0.042082041479571806, -0.024672089277210506, -0.071140883592571, -0.06039322374343052, -0.12569505983551266, 0.06291705450025808, -0.016067648576462763, 0.027141524598160844, -0.1669267330395901, -0.20619399460629018, 0.10556748766141602, -0.225716511514453, -0.11159488324957721, 0.12460784363120303, 0.004981225372976206, 0.013918203559164984, 0.08560048425854651, -0.10729423817862642, 0.05333689003698852, 0.012051850510642293, 0.0575961674231151, -0.09493073617350138, -0.1554316885547261, 0.15904462867640198, -0.18962484124953435, 0.34903830930793744, 0.042306602657988426, -0.04631046101785163, -0.003516424454258055, -0.1964722006992417, -0.009747875127607466, -0.24622848928246704, -0.03862936339684526, 0.06096281074670564, 0.015552419931464988], [-0.004963205975634862, -0.04985412343882682, 0.09374813857634447, -0.06381197072607074, -0.07305467366774315, -0.05882682808945012, 0.018633893622525325, 0.06254633512258127, 0.16498853313546288, 0.061725010830994936, 0.07861403464503644, -0.1824581050911093, 0.024138227297342524, -0.21230089254730006, 0.03329323304062536, 0.23849885826488973, -0.023732311954941052, -0.006760414020363938, 0.06181589685886008, -0.13990587042604957, 0.03386171858959269, 0.07924228282221452, 0.0042818304299696765, -0.08716731906193398, -0.01855854435600511, -0.06557599680294941, -0.07838706935970097, 0.31087139076948483, -0.05944723414737858, 0.04571536113525755, -0.1862598878202152, -0.06744102176515797, 0.03658236138089578, -0.08397593850035326, 0.1263729134319499, 0.23372451600316818, -0.045462037133688675, 0.0873030738573666, -0.08528980928444004, 0.09795629876817462, -0.160719986796921, 0.19327389202336975, -0.03262662529433259, -0.08809344079459903, -0.20679177350609648, -0.06472391626435552, -0.1338410682258187, 0.04919117448476777, 0.2268007349638494, 0.04392503509866976, -0.08061235911409419, 0.25763638370373876, 0.08282122245649018, 0.06311020188543166, -0.1351383256335283, 0.053702035999894385, -0.04990699079619608, 0.18914004541891735, 0.035428549102191426, 0.047524633845637196, -0.006266534448349578, -0.04309565569700136, -0.10392020964619081, 0.12570675293617115], [-0.027566633635862887, 0.11890188862452199, 0.12222247491221831, -0.03417123409147565, 0.02550303933154225, -0.08043111636102883, -0.10410550406001541, -0.0597758689400044, -0.06053396762829388, 0.037531548613785895, 0.4074087231159879, -0.059490468645261384, 0.14050199670195068, 0.08645560207697069, -0.06467694336129816, -0.010893896549553531, -0.13200609811877864, 0.006831714235918408, -0.1307783025772762, -0.20997956302234755, -0.11118111773338629, 0.06554015167754992, -0.2697794379395725, 0.09850282555076811, -0.04921040204049497, 0.15286623137027242, -0.07980023608837207, 0.03146114755493139, 0.001398761155749106, 0.12516236884619109, -0.07808659585009474, 0.1465075245866888, -0.15860993850595115, 0.024586851236127676, -0.3488587268571695, 0.24012716647251697, -0.08611941379319447, -0.06339209816657591, -0.05443819804061551, 0.03153745519736836, -0.07202782606349921, 0.08991296586216084, -0.07920934753679933, 0.10507694480471283, -0.06377771281371221, -0.1078468386221533, 0.12003634502925542, 0.0047899818600012035, -0.018448032974456817, -0.13974797371202174, 0.0039036446597508195, -0.03972569930084689, -0.10663868312250202, -0.2368849591895411, -0.24267028676753863, -0.07276404419789767, -0.24251244501400407, 0.007823738020263624, 0.002137107140618046, -0.14869518377497762, -0.008450347901320224, 0.23525567608372275, -0.16958748881721417, 0.08355202833484084], [-0.026184605593919465, -0.10730521006115824, 0.048100254695836515, -0.22753580368732437, 0.10980522293326678, 0.05551452582610665, -0.13711900787266773, -0.0969453733991417, -0.2201255684648962, -0.04487194824987414, -0.24831317222998486, -0.06699024516198904, -0.17266722454564787, -0.0335620129060279, 0.15438549714100666, -0.03714430572520299, 0.027239370092981222, -0.15642346385543096, 0.08182031422890965, 0.0266323042819819, -0.24396996394037698, -0.19246389166562877, -0.1748402959904581, -0.19101525520619078, -0.07541937225193818, -0.23086639190095748, -0.06857272576903208, -0.11593038896163771, -0.060041184904477435, -0.054950454086762135, 0.056429096042356824, -0.03704437653835289, 0.027580523835031928, -0.14553335425435754, 0.01839348145985628, -0.036330742895783134, 0.056061108285485245, -0.07623231073880753, -0.07586860504384955, 0.12536590604616055, 0.17894320236973404, 0.27086532445209377, -0.10475424146924464, -0.1476572268433525, -0.18095943388932054, -0.04678798592199103, -0.032408550849529635, -0.09414377058162951, -0.06189986096748389, -0.00743457226170574, -0.07867927436655227, 0.2508810577891154, -0.008871030297990806, 0.10592438011193904, 0.02211232662719633, -0.011369187357722469, -0.15356655945286135, -0.02051092445375907, -0.12224967077704414, 0.015423120993753644, 0.07374234194842301, -0.02217546760790011, -0.0670160431330797, -0.18860953881264572], [-0.1827348668201864, -0.019096665741905976, -0.08254236955676258, 0.18724106520945158, 0.18991911730751768, 0.12516130197399064, 0.11450897018571611, 0.01953650766791061, 0.07898984933734489, -0.08123680293266537, -0.13086133273485925, 0.08985103181527855, 0.056579348040331254, 0.04197868472477184, -0.10672801748919926, 0.0679346660009371, 0.012131875096573803, 0.14807346611630498, -0.0558930182675091, -0.1330829946606349, -0.09679010321307423, -0.044446479835532036, 0.3495159294256173, -0.07307377336244181, 0.03848286586043055, -0.3052298397638792, -0.2547466668772801, -0.04103962949192521, 0.08762076781353477, -0.17278546711124276, 0.04510250170385077, -0.145455914682592, -0.03817733331729205, -0.16916073153304328, -0.12319925671209653, -0.07172363423764691, 0.015582875063121627, -0.11738369396649313, 0.08350274854340872, 0.15130710096626723, -0.01620172908321601, 0.09915403593143964, -0.025061207808592084, 0.04571327044766149, 0.05937922005941455, 0.3562069400495715, 0.18634941133694494, -0.09922323259574146, -0.04590571975696928, -0.160673524813398, -0.14570544627536006, -0.04154768334389003, 0.23282252339468934, -0.11614590738620452, -0.018189726002309132, -0.07687309187942122, 0.061750120236057304, -0.14881039274062166, -0.2315869944486767, 0.1842868580592978, -0.003347169812916814, 0.043529379557559505, -0.006286447993158535, 0.2055130314455743], [0.05309548438522479, -0.02539303359703339, 0.01625977794874338, -0.21718201547833849, -0.1681897776466423, -0.06364950904786991, 0.0492227671444046, -0.0273482246510192, -0.23883563181349168, 0.21002682802155967, 0.0014640371370170922, 0.03687076419369178, -0.07708606907741651, 0.2699745452645096, -0.05792567444726534, -0.05125071400908912, -0.0728414018720565, 0.07521954343717861, -0.06212764543716173, 0.07908519342455853, 0.17731327890170878, 0.07126870756170545, -0.1922856479616601, -0.1514883295926798, -0.05120908081183818, 0.03872650902544815, 0.01300797029558196, 0.05537079454707762, -0.0755542086969808, 0.008843133541893146, 0.177062057674054, -0.2572082365183583, 0.09529148243978615, 0.08780540943122418, -0.03946265001483366, -0.024931323755756005, -0.21707248021094816, -0.05589892927758622, -0.054324062397565896, 0.07216240408988261, 0.26564960483332983, 0.0060387681726787636, -0.1317034706235716, 0.026401600337332066, 0.0010018117133542253, 0.22065622321477688, 0.2117517223548184, -0.055103384910469684, -0.22590414787805185, -0.27297206289019726, 0.1451714914290032, -0.173233997094954, 0.11476933743415128, -0.04427127239483599, 0.1165043881467723, -0.054954451968991694, -0.016069689416917762, -0.07456753090859156, -0.05744996426026598, -0.15105722280530084, -0.10326521989784715, -0.19331802665254652, 0.21465931172435507, -0.029321273406765713], [0.007955612067272229, 0.07919945972086702, 0.11532613612267498, 0.05670986350456153, 0.17414267589093302, 0.13464186565714004, -0.06517001584083028, -0.030827172733945165, -0.07484747817475246, -0.10394697091288768, 0.09684156828725343, 0.0022762636134868574, -0.07276820488797361, -0.03351707299318959, -0.1804705520721756, 0.1905589837512294, 0.06819788892940752, 0.0094501891058122, 0.10329064716229858, -0.0020418353192268035, -0.21594576017168282, -0.18389507875143551, -0.0049785394334940095, 0.01568192006547301, 0.011618854144395613, -0.16373912809610278, -0.15614120434309064, 0.07941002137088107, -0.2671315168437149, 0.022057215600981405, -0.10904326724169233, -0.13576353615305764, -0.12742950359603214, 0.056808365142273734, -0.03203678449826684, -0.05288061850855649, -0.10507663624845157, -0.08814974760938644, 0.11407001437998397, 0.08305252194413983, -0.10575537685111501, -0.012848098981837919, 0.07204410019402334, -0.09552387857890612, 0.06323624201016705, -0.08324209745223367, 0.05136287496735264, -0.19340782208225105, -0.29551929603046045, 0.008617347746144121, -0.06855926956491949, -0.005636746349544199, -0.10886311518388127, 0.06526222306518216, 0.16443856653189307, -0.28136124277459834, -0.04312479723726886, 0.07440285354664822, -0.16699579939215242, 0.08139247695818376, 0.12575324138344476, -0.131620356455069, 0.14328650070840457, 0.10036386014604586], [0.1727126080356045, -0.09236513653898831, 0.07205993550985247, -0.11229008874431348, 0.1796745871291109, -0.0866532725708812, -0.11580897160424657, -0.11081169004304665, -0.02017080050024103, -0.01686941615650545, -0.2310907474845423, -0.18858968643704574, 0.20500773759469823, -0.007954493639875108, 0.0563816086733878, 0.03966535841298716, 0.10313916091289406, -0.11522173593463471, -0.044646749536055116, 0.17618857870469043, -0.04208237876191214, -0.0501733017382224, 0.1454465153388165, 0.10811707754038401, -0.07914623037983445, -0.07285517095548633, 0.025128715218143596, 0.4074382812566591, 0.07097670094284583, -0.17685855872989167, -0.12682602535577484, -0.13245657033263925, -0.14223062198659056, 0.0060948300513975545, -0.21254494596615967, 0.052051462130673215, -0.13047882170808447, 0.036041506449943875, 0.11189558197496621, -0.21764635896416562, 0.13731191112350827, -0.08220209418829555, -0.14521547603746063, 0.20142182921111804, 0.037222115802990965, -0.12111542841371778, 0.05595520352188378, 0.20938298424327656, -0.00796069876230111, -0.11727384750320538, -0.00534024028506787, 0.18739090693373306, -0.0908288086718051, 0.2313967688571874, 0.10700223985791377, 0.15250178108896842, 0.181200985320957, -0.16766719564591695, -0.16984656355618188, -0.10658542552167204, 0.27774036688834297, -0.10232592669924782, 0.06311496618906978, -0.07946493490549604], [-0.19276944648410896, 0.2122035693800748, -0.04258905156533218, 0.10904998404435232, -0.037034094455988015, 0.11004871941432387, 0.004311426350484335, -0.11853722092289938, 0.13928637224964774, 0.05503555615978412, 0.041661487952929545, 0.034882689923535035, 0.10846254890072635, -0.02628709777690767, -0.1324559760481981, -0.11385481087445234, 0.03412771294175736, -0.021766416186438927, 0.062308260391345106, 0.03884104368282836, -0.19188963856031, 0.12994553906863468, 0.12397985144683056, -0.09977116366008126, -0.12440155168648016, -0.07647447839953059, 0.10490445681639157, 0.04954339804456484, 0.20439399757195065, -0.12784450518339205, 0.24080789562136803, -0.023290779036735803, -0.10567191003388171, 0.06072022956377266, -0.057868171268350574, 0.19735699399861664, 0.02410708846198072, 0.20650741492234653, -0.027378485519795506, 0.10294524862446999, 0.07801134384572644, -0.19030281675474453, 0.19165013422063212, 0.1577350842012527, 0.03373865957487181, -0.12181555036918248, -0.014437770551681078, -0.02826655019251251, -0.07056804871888643, 0.004156225096163502, 0.06046819279826257, 0.0029308209617682807, -0.14002751561114105, -0.08238004772564517, -0.023543288798343602, 0.03490520235665615, 0.000641226943648726, -0.010972948142321375, -0.22422461710889552, 0.06152571383290616, 0.029150183449605793, 0.07405232518343541, -0.03610568805629468, -0.008252172429356773], [-0.1861918340415396, -0.11940675345484648, -0.1653848356989597, 0.0646943147403068, -0.023934276643982566, 0.015787160913083347, 0.088524730751574, 0.05085083620220476, -0.195778824635223, -0.09207824379211837, -0.2665810093011772, -0.05009959497754635, 0.10601241847518833, -0.03827016101087743, 0.008015263888052255, -0.17725251323127464, 0.04824769513606971, 0.0033424257567410353, -0.2801846901394554, 0.11453988210791198, -0.10943528871310648, 0.11614641828403406, -0.054436630758242045, 0.03168619708230835, 0.024796065128218536, 0.01396205534214929, -0.14453218017200722, -0.008581502954280083, -0.05420841654273647, -0.07112955035634203, 0.041737662876168896, -0.10583350273306259, 0.10685956787970577, -0.08154848896429374, 0.2221110026153964, -0.058804716721303135, -0.04412974182071589, -0.14561477997532848, 0.2616183131651502, 0.09291916565401556, 0.07070202457074706, 0.16718638788498466, 0.05311525391535101, 0.06754271108386546, 0.09945333428348256, 0.012148101496558863, -0.1752879836600192, -0.06379325597007852, 0.24409618957777462, -0.10700774854216741, -0.0368341768504943, -0.09949301918777786, -0.16810797775919953, -0.05468169534412238, 0.2449510557366694, 0.06005328332475965, -0.00045191651108915593, -0.09471124996910099, -0.0009948059567626087, 0.006467863602188052, -0.09979028340869964, 0.06482330910426636, 0.17640836826694326, 0.1354566606551287], [0.0810484245379057, -0.09022147070655989, -0.10127801230718093, -0.044176533440460984, 0.13961003139874403, -0.01018292358885232, -0.026360513408133925, 0.014942211527869398, 0.08774777843183994, 0.07162597594682536, -0.0750498453088409, 0.010890363472810725, -0.03833281200245782, 0.030865693767967942, -0.08932613110461131, 0.05384084467084092, 0.021178087241220403, 0.11693424179704506, 0.1166551704188486, -0.005337007700848954, 0.13073892360876677, -0.06817547316250468, -0.047745860265305265, -0.2470215229829015, 0.11451019277211237, 0.2637664621364523, -0.15178122265599042, 0.1491033335049136, 0.13799940757617102, 0.09500287157042202, 0.19892246693311152, 0.08489746097489352, -0.09601840117970922, 0.06964847895688442, 0.09165097275614564, -0.054177894171899534, 0.15280082153912497, 0.22178451538061653, -0.12482527188541753, -0.26972263396677726, 0.006131863011125374, -0.20290039242603763, 0.27502758892281703, 0.12102236269938285, -0.06335996102958373, -0.001988175464468317, -0.02359153900550353, -0.30315670590100957, 0.10419146053961828, 0.19433004937513798, -0.23091428779540768, 0.12002652451049699, 0.05991375416801576, -0.035036921022531635, -0.1724536779932217, -0.005738606224153612, 0.13475423576677503, 0.18126637880914678, -0.14308443216600905, -0.16168584304359485, 0.12710519628634648, 0.005489358121140341, -0.07071117229794048, -0.13873837110606152], [-0.11270675528068831, 0.11881853841663574, -0.10530949109944698, -0.11609879541777522, 0.1385245854047872, 0.05438391901611162, 0.04390711153052525, 0.015244187739664392, -0.11312049833762693, 0.11920254508707137, 0.12025698302845289, -0.17677320244144246, 0.041281553574947734, -0.16478989095700725, 0.10381789194589061, -0.14119639635272305, 0.25813013056966916, -0.07392952154958284, -0.1334914645980761, 0.1997672153214168, 0.09794843391232594, -0.07676982756919962, -0.1326246421073869, -0.01567611841943313, 0.05603570676837222, -0.038978448905462204, -0.14552982743814655, -0.17068447620840776, -0.02523025443499092, 0.030885005003680722, -0.12914842770456092, -0.10880435581839908, 0.03422591639757939, -0.056545187138321316, -0.18170818210124134, 0.12147032231522131, 0.143474281348453, -0.016050031841953947, 0.08333363995798636, 0.010656717443833884, -0.05268781242536062, -0.15515371252539592, -0.060078345962042506, -0.4590431901473193, 0.11846628705442644, 0.055041370184553164, -0.07023466482877347, 0.07143487436757545, -0.028057738258450836, -0.020940603361692112, -0.22098434785231014, 0.04702783136104853, -0.018118720667903286, -0.1242080133719124, -0.10156070544417818, 0.006364159442649307, -0.08094616919435746, 0.163788225963357, -0.00891418863501873, -0.21563244437828225, 0.12451719366622627, -0.07766280242352595, -0.25311641781610233, -0.13959309442678486], [-0.26452188951199657, -0.05844845453763783, -0.1097543760455775, -0.04678263316460299, 0.07898659513201164, -0.17234017312989727, -0.024526633535891358, -0.055081615573391314, 0.05146656318498417, -0.11728986235663723, 0.003132255582361304, 0.08843668484628368, 0.08295769123125646, -0.18188765540012636, -0.2756068208969115, -0.10313129984547974, 0.1598285558525166, 0.14870927051314647, 0.223254564946853, -0.002717390646161904, 0.00801560917487419, 0.044984171546111666, 0.08367852790102973, -0.037185724948479215, 0.027571681951275625, 0.030874704818473816, -0.005734371989679713, -0.029980040160237777, 0.08595412269937902, -0.10272398140810271, -0.14410129512191713, -0.1561387395177951, 0.11535791802456972, -0.046434653209870454, -0.09932596141522981, 0.13496621991557264, -0.16986820493505883, 0.05969355089491691, 0.08368040357009542, -0.0430987262502456, 0.10165570374593846, -0.11911638154198402, 0.28849464820006826, 0.027108387598609753, -0.17653477621296917, -0.18986026756162713, -0.06921501849086382, 0.10362784343903936, -0.04559826079647413, -0.09117526593435739, -0.09920473447260024, 0.16048435126973432, 0.1878589177185832, -0.038666603509949354, 0.13007599581005316, -0.31014667999503176, 0.19533657576218694, -0.11487983632685257, -0.19149820280489357, 0.003703841558829584, -0.1247418516226638, 0.01915542525404658, 0.2573139229157974, 0.05977759688578547], [-0.09371669154315512, 0.3138644571901867, 0.12920212135331086, 0.1754863493459858, 0.15998986421134273, -0.0037344738593379687, -0.027020107722066655, 0.05395351473386629, -0.16065946565527525, 0.20301028692558046, 0.05229894770245224, -0.038711037023423406, 0.14386858189453128, 1.9706650874468208e-05, -0.221778429531434, -0.06921440479632875, -0.04927717368664469, -0.10047224620453707, -0.15011904937749365, 0.029966304346019556, 0.14120443225373597, 0.07612860721187285, -0.019504446373484585, -0.131198770564536, -0.1612784738595377, 0.08961819580963326, 0.0682286144031051, -0.13716795620283787, 0.047400955038342865, -0.05036012412977868, 0.024073441460673726, -0.05712856951253443, -0.008893944839083501, 0.017369259544782658, -0.2185119762154718, 0.26982521608804566, -0.10605205401808816, -0.08870852686746303, 0.02825356546477816, -0.03852642513411897, -0.340904242280703, 0.00012434228803654275, 0.054174399314700986, -0.058063110405913165, 0.17209774067309988, 0.069098887785656, -0.1775965616038162, -0.01628591270711103, 0.057094609106254586, -0.021251410742674445, 0.012955376784235981, 0.033235423284812944, 0.04409487410760676, -0.05315449517477045, 0.004400951089770487, 0.06444676424796024, 0.16977551615132347, -0.01611988591729923, 0.19016177026885153, 0.0435961117174304, 0.05300216781409932, -0.04671790064859569, 0.020273393262721658, -0.13181493678267872], [0.09693516469659352, -0.06988823086070109, -0.1210022659594524, -0.1141022919638042, -0.03865193106988835, 0.1071084447006512, -0.02124313498693483, -0.005229298252052222, 0.050572594545282096, 0.046770516554078434, 0.09350987051552291, 0.1088097367119385, 0.14156217309882224, 0.15866764501315728, -0.1951085297815093, -0.1411433626949782, 0.012809684698950193, -0.08557455363079772, 0.03604542376041777, -0.1261349444975769, 0.08734636200369443, 0.0035708816086886227, -0.1891097526356203, 0.07316200481665631, 0.10060806109715591, 0.24268776423672947, -0.13096873903055442, 0.0689391813590372, -0.09771163812496306, 0.16125798147729026, 0.1725159446421632, 0.021857124852278576, -0.12509643401492493, -0.15281529814638653, -0.08768067716635404, 0.12452619629942448, -0.06382989792416739, -0.03206379721844735, 0.04117766226402965, 0.1398692387114188, 0.13302296409632658, 0.00828931633855591, 0.010796386369706782, -0.008476841878190616, 0.08942053372512641, 0.0812316569060748, -0.062223630803030026, -0.12442708262047793, -0.2337318303203904, -0.24543856630406644, 0.012481401984755058, -0.008537278123510102, 0.12915499600553274, -0.05997176561132292, 0.08968265425973719, -0.013307544554670368, -0.09847730041875896, 0.017019801621901295, 0.13177079909629863, 0.1436198293684896, -0.004834534406530875, -0.24933709932944131, 0.04953648288197582, -0.09637006728510727], [0.017720936785881113, 0.09346280528449827, 0.08545234336039041, 0.21341788516149154, 0.3489447411244915, -0.14721923839358111, -0.18070012241438346, -0.13539144701523123, 0.09687338892436573, -0.0213176172132741, 0.003109257336008497, 0.025187699296092294, 0.07581270174028504, 0.0033801609902635588, -0.024800326440900956, -0.04113106636731855, -0.27205871894242234, -0.09710224961131807, 0.06384198264365035, 0.04738873128582529, 0.027491790354588125, -0.07049928254042426, -0.056793056658532716, -0.012828082980807615, -0.25416764237387385, -0.190409941751693, 0.05495791038461004, -0.08963933220694455, 0.004885715843646585, 0.33282256469830185, 0.3399500772928421, 0.03334711658892755, -0.16841022815796103, -0.03904980336299656, -0.08156516695213133, -0.04430261931199854, -0.026636166611177563, -0.07370772769460843, 0.18124251217463214, 0.15131879907443063, 0.216081650122704, 0.03315513182422902, -0.06531831288128215, 0.10106468507401516, 0.043872680111793835, -0.0528569279688439, 0.1411010271213642, -0.031656641086930025, 0.039912992003836766, -0.27194372974547626, -0.22036586869898375, 0.027059246462474484, -0.019854401017783775, 0.03406385280364968, -0.07251735852623765, -0.10373793040973578, -0.0890847282000689, 0.05944141413008752, -0.03844125722272467, -0.08240614187179705, 0.08266638201959672, -0.07359286672761843, 0.03221691685186092, 0.10282388401260638], [-0.0501658773979655, 0.02076350959064849, 0.1581567315480957, 0.08295789468870453, -0.07862368895661705, 0.06926915928453857, 0.08946494337510877, -0.2148853218267976, -0.05109948942174769, -0.09552188984198932, 0.0889249085217305, -0.34588698877371254, 0.22708859250016566, 0.062082777980978734, 0.01657439657946314, -0.07171297573551806, -0.19034120158287557, -0.0054162554193450145, 0.07287175230342235, 0.0629105146501759, 0.24090432260425418, 0.15308965060478252, -0.05324414350869694, -0.12088180465257867, -0.1796045742028552, 0.15351550641332204, -0.04321644623474124, 0.24172768360907193, 0.12236949579856997, 0.008343264828004333, -0.011007205142088966, 0.04692960597781903, -0.18598074330139647, 0.06598565387465581, -0.05437265786540778, -0.042507454284045065, 0.1340560046207702, -0.005873347645678681, -0.09597604072521426, 0.10997943563171704, 0.05157336788893997, 0.17856227682301024, -0.07118793324554039, 0.016919288125456015, 0.08799290696702919, -0.03910966391159101, -0.18406167757956693, 0.11936360164653996, -0.26867175218397005, 0.006253646946017433, -0.21091409665494626, -0.0028152748456435482, -0.07196452149454434, 0.04364647198460566, 0.0922371617418158, -0.048952922430521226, -0.20298500952854726, -0.07412634250682767, -0.10797327597312464, 0.0005346490489642675, -0.05440481040979847, 0.07301795578478185, -0.017338237775235008, 0.2187083009090895], [-0.025539476482320828, -0.1009017612863144, 0.05164267289151424, -0.13235371331477466, -0.1096886200419246, 0.0961745151393775, -0.23072990786133923, 0.08701714132059266, 0.11071774898042183, 0.11612101316462253, -0.08471149912825512, 0.0432670442593158, -0.03403841531382798, -0.03863638634156267, -0.10002972025473604, 0.2830281780558924, -0.06957374725143055, -0.23502198387862536, 0.14812347478518312, 0.16644859726041406, -0.013125270932678122, 0.09777994742544896, 0.17806440529689097, -0.005357298513770751, 0.12083491965429848, 0.16802035232579238, 0.05867062287390525, -0.04167558012563206, -0.10899989376648575, 0.3093820255935838, -0.15842499990395517, 0.07278730552478377, 0.03081870297720346, 0.1669713608503564, 0.09386264911781722, -0.11211394651205477, 0.04114588421177868, -0.10905316067805536, 0.14020896648851902, 0.03123409597744598, 0.0582353808061563, -0.15170034501360793, -0.02352144001986264, -0.14404349432769373, 0.07158618148981079, -0.19354707254044487, -0.08198913382550413, 0.23875393523584496, -0.11866288395196807, 0.10963639005856535, -0.17152989299106353, -0.16077209236193513, 0.11586204830431973, 0.058081494121318175, 0.03425479082292978, -0.05361780385454785, 0.03159186697708743, -0.027128445758236152, 0.16913547145868602, 0.14104901790836394, -0.022923579198716376, -0.03595751891892212, 0.12697231992607705, -0.049518470818500505], [0.14997043069358656, -0.013874644820957197, 0.08551769642049324, 0.0899396717401989, 0.17156922087357757, 0.029002983485323024, -0.010213870319602542, 0.05113593284091407, 0.21701097301189995, 0.01114168706789517, -0.12753171903568464, -0.039290750642773396, -0.2201138549092476, 0.23990927853538935, -0.03944507217898266, -0.1391702568292318, -0.1395208926810886, -0.05915818240966735, 0.02398713665374039, 0.14310233332976705, -0.004548287338395185, -0.08742413000603891, -0.08047598980023588, 0.12442209094445388, -0.17682775563983077, 0.05933453169386829, 0.22100120352453673, 0.035751149828511505, 0.17781007426870904, -0.020220964232311157, 0.19271924124290285, 0.006554685229324343, 0.027354212597672862, -0.006182056115583767, 0.030335817403859884, -0.10934602520879645, 0.30440206059351016, 0.1944976393595104, 0.037090736176912845, 0.12917959599377576, 0.0135562330660901, 0.06718514146105635, -0.173335347680074, -0.06326362935551078, 0.08103142465784012, -0.009540806722022298, -0.12680253421081217, -0.14837354482546683, -0.006395375921138026, 0.0405765043249167, 0.16680232565395403, 0.27346967909318864, 0.0539148175057509, -0.10155975001213782, 0.14559053060975208, 0.09174839049838508, -0.009193613400379283, -0.028245919701928683, 0.1912462474161999, -0.1509500592103421, -0.028745873776229194, -0.1186324810637542, 0.21340751554489754, -0.0775000304870416], [0.011035295350220934, 0.10145355664325141, 0.06300749803358134, 0.050586266229536915, 0.04086089803752487, 0.016367919982353766, -0.08406822440729998, 0.06394940457861162, 0.17475045818005108, -0.2914685326078283, -0.18998159894621422, 0.06613517712719455, -0.009950826040335712, -0.0011107994742221875, -0.050543458416977195, -0.08989580849328467, 0.057116668627933104, 0.030958202495282652, 0.0676420753837161, 0.09226664792236604, 0.18751662362155044, 0.09047718595453058, 0.11629008121417135, -0.07407887489092758, 0.16204450586799704, -0.09323057455875969, -0.17444244461361638, -0.030389629103558437, 0.02491230376996157, 0.07884783046199645, 0.020807842364604374, -0.045800917439433035, 0.11978364513063616, -0.06482849281804325, 0.07449974341220342, 0.09385038205628385, -0.06122222752473588, -0.16708185239943243, -0.03137528628584796, 0.0026585959374325853, -0.17097439589098262, 0.15976689253354165, 0.011536558593729943, -0.09119811303519151, 0.1005155662824177, -0.03079259313279466, 0.06185771149028774, 0.0025822377501334413, 0.01052268945691785, -0.02780370183181903, -0.17311878596791674, 0.006242058142696244, -0.15482752828703733, 0.1772754205915568, 0.01275843189159765, 0.09263714841735238, 0.14371697660871066, -0.14461511598196686, 0.15468297330595868, -0.03335531107805381, -0.19844863152905923, 0.07505421094205222, -0.0133371445070239, -0.14308349865332115], [0.19640709515592436, -0.22304143427800607, -0.13558167649812367, -0.065023813578359, -0.14358468563069204, -0.045295927038673106, 0.21791643740471098, -0.20608064807138185, 0.07720061796809005, 0.15361304016858868, 0.051318421655796274, 0.16882394029465472, 0.14910699616492318, 0.04057780379489335, -0.020800493788916716, -0.18627220048460183, -0.059258174893501575, 0.154825912794564, -0.18658922176023693, -0.10535639448965829, -0.22741789478065635, 0.1012663526588902, -0.04152438339677506, -0.012791833293470046, -0.004964956357415188, -0.07765288094000476, -0.034840775293476234, 0.0803140204641087, 0.08662737985577773, 0.13546850738485028, 0.12189374812321647, 0.15272902458956816, 0.07673321777335539, -0.22119610686955063, -0.1709732581296967, -0.06951391799816789, 0.09744340344640429, 0.0380527405403425, 0.045178461827845254, 0.023933165356804658, -0.07252902916224026, 0.1769834972597599, 0.074904212655604, 0.056794276918393546, -0.19773404702849642, 0.013513249443897677, 0.003976361065610904, -0.0646296243015283, 0.11129533025378112, 0.14672432351694129, -0.1426773638858521, 0.005201447263748034, -0.04721976023402294, 0.0353813582298892, -0.05202757333514005, -0.1596661984051806, -0.05383714940893636, 0.03191184643128986, -0.08112357921017194, -0.0693190089513896, -0.04079242229621717, 0.08916146297423566, -0.047887652119174354, 0.02691546788622866], [0.07019380253071524, -0.14167794869820705, -0.045113296909925514, -0.02312876583589988, 0.061968586573493536, -0.06951326778965604, -0.1815914763740208, -0.0252905729762004, -0.09082048319556563, 0.21401463879416813, -0.10448789772373657, 0.07758420772877216, -0.3198019597087505, 0.051411171839087035, -0.28050243200983377, 0.10672159990711386, 0.009705448927726311, -0.25032670028994497, -0.2915500165365621, -0.21046460789505836, 0.05348513662754836, -0.2184756242299028, -0.11901469113942197, 0.20666368246512917, 0.07967657885512128, 0.10057523266158025, 0.1400687388441392, 0.008504806344840963, 0.035042512480228535, -0.14231288484620047, 0.11292945625118526, 0.16667124315404017, 0.06480473283399256, -0.08119788719585509, -0.15032256783592388, -0.24232944636878176, -0.12847409036177246, -0.1614405928274189, -0.08238042485536588, 0.099453202156065, -0.034729571721075304, 0.09946315502191912, -0.09062683773289633, 0.09919854610202924, -0.054482651442735834, 0.01637811716110541, 0.08582065902905871, 0.08661853699159265, -0.019219575986925315, 0.02016043066846457, 0.005912173032390385, -0.29019475822630775, -0.09791799507195365, -0.18999319027086012, -0.11428720049452964, 0.002116942666515874, -0.0699645349648426, 0.07286613290125289, 0.10759040278159643, 0.08552749895488425, 0.1495282822977149, 0.08842884117963068, -0.04835501453457266, 0.16781209603858088], [0.0616917237794349, 0.041624998351896494, -0.07124856822692528, -0.03754612687037649, 0.02342869600175325, -0.11443522173816323, 0.12687372920817763, -0.0747320855077113, 0.14059591614631572, -0.0009269496812189242, 0.22451333366496762, -0.02072389650253717, -0.020852537850340067, 0.006955656302850276, 0.14067225584304754, 0.16159124842607736, 0.15170263520763663, 0.12122218025386365, -0.2069022153687146, -0.08878983155584376, 0.03740116956306296, 0.10161690534820239, -0.10943565887853858, -0.10013052756247547, 0.15600935736143565, 0.06173250302818341, -0.024314413898751268, 0.18728235219093578, -0.015265803492091612, -0.0996133992276672, 0.2895555832913292, 0.0036771703650711005, -0.07682021195661932, 0.03180259166983647, 0.22279423863521083, -0.04239029550569205, 0.07265528596367211, 0.07520708565715212, -0.09305089464847534, -0.08691503046371382, 0.03461962911130991, 0.025690865329985522, -0.0882377723519472, -0.05999051940888869, -0.09713392588554426, -0.24389008033038692, 0.057467177502971, -0.051727219592961504, -0.13627619247399653, 0.12449302673024115, 0.017352750402268562, -0.055218396101449525, 0.14120359189058454, -0.013813670899113237, -0.11597271016828958, 0.038674642394718496, -0.03439167248838228, 0.09376472853270401, 0.13488978030307763, -0.1764432204198002, -0.002893847867292882, 0.10175797636545102, -0.20987674545137677, 0.22276862593360852], [-0.08441818177982281, 0.20276447928460217, 0.05274664773907448, 0.03815988119646753, -0.3050254207013412, -0.05714898957564347, -0.10387631590789037, 0.06468447238691995, 0.07346264948357639, -0.18345759993821611, 0.0833901451963903, 0.08159964989534735, -0.01748873688608204, 0.023366839484177743, 0.09911414735885955, 0.2701941196053586, -0.14077804836052593, -0.084990263953716, 0.11671230625895015, -0.09600647596657241, -0.1346843835324083, -0.009042037097357403, 0.13036031336003082, 0.12227378094850327, 0.047009721208600246, -0.08609473758115829, -0.028108533214181757, -0.1892313754790639, -0.01928045018721947, -0.04417021076952198, -0.023917202646127976, -0.038027619355466245, 0.21164518655498876, -0.10686606077925663, 0.08201264829570004, 0.2120429754180469, -0.037201759907047875, -0.1086505610987497, 0.09388609399634573, 0.10601395612191139, -0.03249629662611489, 0.02085982394308166, -0.05213324054667236, -0.0285188981415625, -0.15238806992312276, -0.025360690447674927, -0.012328523329526794, 0.05691828899685801, 0.13922399663487411, 0.15503693659074255, -0.13227433548199508, -0.15505365564096754, -0.08457891365963664, -0.027147790291224425, -0.005593573405863666, -0.05541845274319489, 0.11727590886753182, -0.286521104019676, -0.004711957376210789, 0.017567529187754186, 0.04357491368899568, -0.08835121546319301, 0.006467150573160229, -0.025602655308621037], [0.1742753200614836, -0.10547256585197261, 0.07033568616859544, -0.010395620137858176, 0.15490339940213954, 0.13707260616806288, -0.12662424539591366, 0.0805346059598482, -0.03431095881433704, 0.1500772527499462, -0.155558380295383, -0.029350935913740297, -0.07538751471393274, -0.03178813978806787, 0.0015332808397921101, -0.05865489354931239, 0.09009477666890277, -0.2286877460546431, 0.009589291508407649, 0.10467771759061008, 0.04059605599074684, 0.1204239205125854, 0.17726187010634256, -0.08306223087162576, -0.09632997293087861, 0.3047406227633584, 0.04303821334116504, 0.24424451997959515, -0.34500149777580597, 0.04845975468561739, -0.09320204991147467, -0.14516695815297653, -0.06432918344260247, 0.18379836005671352, -0.09287592304170049, 0.07396631812386094, 0.021181453607590658, 0.005380248653249219, 0.0782108591470479, -0.17113370233098463, -0.08092986049761113, 0.07536057740218484, 0.2719170927181914, 0.12111105347780121, -0.12791715423502156, -0.13423970182299225, -0.02919065592821706, -0.10124683677899451, -0.14930013646406512, 0.08536164043213725, -0.20068297975326163, 0.030753040131917913, 0.1168465752271731, -0.05901934722134334, 0.002381057495965621, 0.18887287066038805, 0.0444024996637433, 0.22351984819440823, -0.16888730625699994, -0.011778184832721942, -0.1293814540611364, -0.0992062135669794, -0.06865921743842407, 0.3099255588216258], [-0.05267463966201359, -0.051720274469654756, -0.2154594551260526, -0.10826313820398781, 0.018680758306758898, -0.11491281578754449, -0.2722916715379139, -0.2572306002748969, 0.01823088510183766, 0.10795881783518253, -0.22455365162248273, 0.032867612816206156, -0.16589971504426834, -0.23443322836505415, 0.05248024474844636, -0.04313326712889772, 0.14428725139895845, 0.17480455235474468, -0.18496661731063052, -0.3502589254436334, 0.17101114471226248, -0.03306866588611419, -0.12225257655244759, -0.10096173397849817, -0.015405070106577684, -0.02766978409043936, -0.0774055228932946, -0.09022968798567803, -0.03465603817989071, 0.11064047904198643, 0.0743340886627551, -0.2805673802347504, -0.06080256619704243, -0.16557287659180658, 0.14918944530435604, 0.12517444888393348, 0.12417596408867411, 0.010346654005203178, -0.11576987961429158, 0.07473980783603662, -0.06837856822912236, -0.00489630135867528, 0.004874498174663047, 0.16700443596936734, 0.021376728327038963, 0.2181529824731689, -0.07751702876558335, -0.01222610622273746, -0.04409446488571647, 0.019511102144320728, -0.20400713975569934, -0.059124567462310706, -0.0059249681109287055, -0.24202002607097722, 0.03485384046734732, 0.0161838269609894, 0.037050949903995184, 0.08503207919916637, 0.06524734755728309, 0.15930133671287786, 0.06125502109934702, 0.11472173179156102, -0.1444054845073586, -0.038733586325137], [0.3021177542950083, -0.005967584568543344, -0.0915525507464796, -0.05066113840720675, -0.03523666898410775, -0.14921466672907127, -0.10260106190163444, -0.18136864742709863, -0.01127168257370851, 0.16072376708070646, -0.17940425099798188, 0.1321823783065521, 0.0506059556065797, -0.08150334831063222, -0.13725083328753265, -0.11526606491336919, -0.132684606264606, -0.22783370507183168, -0.0032369006748220455, 0.030890056451962057, 0.15380132415596384, -0.11236638161612326, 0.0432592379265549, -0.023749723950493292, -0.042040971418731, 0.16283785043140353, 0.03667550010526095, -0.09819951046152765, -0.29550305303725394, -0.039624421941219984, -0.0034595778530285824, 0.007511715992308717, 0.1884775240330926, -0.09057505581813785, -0.1178767359891802, -0.17639440961658281, -0.045890889085477955, 0.030842934856721183, -0.09909804208338767, -0.16527534349492265, -0.14030090581721416, -0.15021702135452267, -0.19553417874325052, -0.13400609861010218, -0.10945626999575261, -0.06954043566678289, -0.04653667669148071, -0.20354599802086223, 0.11663188628080956, 0.0932868171857287, -0.1535931282169785, 0.001174639161361981, 0.1096908744840188, 0.131743627073835, -0.12553609779704333, -0.06628579266338049, -0.18034601978294096, 0.10349771199839898, 0.06747479024025425, -0.12375463847653204, 0.013524367320005263, -0.137126486593244, -0.006499643325602476, -0.046446994332358944], [0.11402001541899655, 0.10019111134704947, 0.10672988610619462, 0.04890968289354168, -0.09732359550676631, -0.08869183258324119, -0.19562627069686905, 0.05372599668866745, 0.17264348291297488, 0.034571631798208206, 0.07365321189635268, -0.12304656553492088, 0.12325076273056082, -0.015532542265706847, -0.18918019444023745, -0.06648691800147519, -0.22238602495901102, -0.05455789639552799, 0.1437016880387532, 0.0324337472521199, -0.060037139716506316, 0.006376835776776342, 0.11948072680810261, 0.055983926835043295, -0.16480930560195023, 0.11529785729473695, -0.04517929252346762, -0.03909266110591601, -0.0018989312229459293, -0.3564253633434021, 0.15520343531739716, -0.07779295060236087, 0.015303416945540521, 0.21101697146803347, 0.010169901906301165, -0.06264360725175812, 0.18727467572082315, 0.05252903538850876, -0.03405189560001378, -0.06087229186829712, 0.11805716417996745, -0.02947755160943281, 0.07681728409507443, -0.2737303331521728, 0.013522140914007604, 0.0754074805209236, 0.08627205886311874, 0.04634972248607071, 0.1111402345343894, 0.18753340443308708, -0.03703089403314678, 0.05754390194814981, -0.14040816145102916, -0.1230172795581884, 0.25500527023738634, 0.19591606425253497, 0.03725496681966183, 0.04011487647231667, 0.18899388279790616, 0.26717246257744637, 0.01809276888381714, 0.06884624615232614, -0.11424035602145724, 0.12449900476123833], [-0.033486393798383675, -0.01189843811398811, 0.03940966859945142, 0.22597177567417287, -0.010891532479510656, -0.09385557994041001, 0.13988569871372794, -0.3043764871760222, -0.010812392565245776, 0.07885347951950632, -0.1344549467647568, -0.11300398537694484, -0.06828214479679304, 0.034981053316882914, -0.1265402931646971, -0.05439491962378001, 0.14724791450917324, -0.23535548195528275, 0.11953546926633654, -0.007012754055473547, 0.015895118934618282, -0.2652811221974754, -0.022209096384688137, -0.14138285833386338, 0.10636675255346931, 0.033231785432035005, -0.038224440252526054, -0.2015611547220811, -0.27642146341390483, 0.09617732944574905, 0.10087239924075793, 0.02094600173933859, 0.044843003626769115, -0.002242662255769488, -0.12531287033709892, 0.06660727032015139, 0.027314421137721145, 0.13416426571007234, -0.029581843386291027, -0.03160339759782075, 0.057178963527880614, -0.12143777488516684, -0.0284873421546881, 0.10722430440899879, 0.17390671201245722, -0.16680357988149774, 0.04747372618068904, 0.015538843695433239, -0.17748137913820744, -0.13160816488865038, 0.11779401601307728, -0.061078175799474846, 0.033581510846075725, 0.013528696027857577, 0.04352771257206029, 0.012818030351921854, 0.10837671573284767, -0.07331773316473096, -0.001374456718206585, 0.2624249267599284, -0.004642420348791494, 0.04568943141827672, 0.20851161111955963, 0.09784415006294048], [0.07365381324114305, 0.04495041434877863, 0.01300225788787432, -0.0065861442094978535, -0.11278124820513256, 0.010787064819251173, 0.04051084366312403, 0.02153758006777909, 0.04127892719335639, 0.04088437749581371, -0.0621421642560355, 0.010153510855726723, 0.03644784376257501, 0.23377344850330284, 0.03059270734094226, -0.12217211909995618, -0.2691245173987128, 0.045625702937551124, -0.0014519917070506423, 0.03660675338940552, 0.1976845637791029, 0.21851647083557257, -0.034788515446357283, -0.0991978533132157, 0.08415018185795195, -0.12137095225011621, 0.2644799954543117, -0.13146375660073537, 0.01775695747934817, 0.08463061312942609, 0.08314696783305296, 0.08131447311893203, 0.02262231221457046, -0.03769765904563971, -0.20337187564605783, -0.03971965592173069, -0.1418786812774545, 0.10950117554334765, -0.1568335298956596, -0.012979340416787619, -0.01286526042348761, -0.05634055358637467, 0.026273987225918526, -0.16325191837273165, 0.01614402851769809, -0.006526712028593428, -0.011702445541071875, -0.22568149701669776, 0.07210290721579479, 0.09090148458405733, -0.3146727965625765, -0.1668317019066642, 0.005253870484683742, -0.073115237021273, -0.14792586386846315, 0.1275271940546722, -0.038276732341196225, -0.28099562325393856, 0.04980970269242945, -0.09945360679152676, -0.15906218847987189, -0.03251940449087961, -0.3107302277963122, 0.1212779495069742], [-0.071864879024865, 0.20917581307267363, -0.08236446919255297, -0.11827214138605789, -0.10902136215002166, 0.09436553206187719, -0.04723610205164251, -0.017406826543939952, -0.06417820418349021, -0.11843778874414379, -0.025988470179778424, -0.003390422711901954, -0.09966386661438154, -0.04216645282742455, 0.04417055196534052, -0.007286822193394855, 0.0642298945016968, 0.08598333916529727, -0.00660433862748944, 0.038241351101715546, 0.1430303438676296, 0.07004790625396004, -0.0004287725801439577, -0.09646556848544101, -0.09980893731208423, -0.08819856119817544, -0.3046939036547592, -0.01305536847133924, -0.10392604204380822, -0.09325967319288853, -0.11640424907090303, 0.04173230028890799, 0.10145489446156258, 0.07310897448068393, -0.1311202163620768, 0.00711632221010055, -0.018340108120542202, 0.043344460189772366, -0.31896727565306426, -0.1983944217103306, 0.04811231388953851, -0.3584931841702573, -0.1277948531152325, 0.2792597151780598, 0.07467731715561388, -0.04457159010121402, 0.11582037736212342, -0.18774918974755517, 0.07454655214691525, 0.22177999217669142, 0.01632771083283492, 0.08642889443708375, -0.17729248168758915, 0.1043124331299216, -0.015446183923380836, -0.10945089109851125, -0.05884384358684018, 0.021783555921259624, 0.054102513919472885, -0.15945125551286482, 0.16795883110145837, -0.07110372329675436, -0.13101815681397314, 0.013477652886498168], [0.04652757057937348, 0.15344997593976786, -0.0964316359768966, -0.13560503560225703, -0.0709587672945282, 0.13550497793939736, -0.26574768248481445, -0.08804338373674347, 0.22586387126154508, 0.14195999094764689, -0.13030724150595194, 0.02767875915264571, 0.1517062036888722, 0.07007996128817337, -0.058229071692329715, 0.16130983759935882, 0.09315916214936537, 0.0824606337449798, -0.1611443584637133, -0.017059940630179828, -0.07491513059733873, 0.026446385060990164, -0.13585836553062475, 0.006348915125873426, 0.05280714077849478, -0.10337507955963096, -0.16535299822802954, 0.07104646956348995, -0.05954176910691294, 0.26960332604755266, 0.017343319379888953, 0.0013369627582234761, -0.10562661527117478, -0.2131376019137314, 0.0419471253133702, -0.06646671326676828, -0.11295647432805772, 0.03898365635007453, 0.0785661110921375, 0.05953296567163943, 0.030996407040772223, 0.10627324331043078, -0.0051975778995994515, 0.011925306779461934, 0.1021119010737029, -0.053719902810819495, 0.027309658886766477, -0.051165053614713144, -0.009586260072321549, 0.049067207887241365, -0.07721974526599615, 0.02712288555786055, -0.051805550496705724, -0.11007302216430417, -0.11314753848156364, -0.11799711940878914, 0.02358305936330579, 0.07567699356985702, -0.1536516938414612, 0.021194933246165993, 0.165007930515139, 0.04877468012875899, -0.21874955610267452, -0.04251643203847904], [0.028349911442294973, 0.08599451607453024, 0.23744183891409862, -0.058770523974193856, -0.04203070072067262, 0.018454042766849827, -0.26060322312420225, 0.1309522984299167, 0.027543760042751653, 0.14229969251489308, 0.10847892972465585, -0.1241030047178632, -0.12173081219792646, 0.1429219421137195, -0.026758574010599844, 0.027928407178758146, -0.08546771756936489, 0.15520721000842702, -0.01550026852464025, -0.08697680007535182, 0.08243207803390405, 0.034382255055626434, -0.09594763824362967, -0.036676811846586645, -0.18453297871730096, -0.08411852213955968, -0.004764776988679084, 0.15097881666421037, -0.1434888714073846, 0.07943850254114997, 0.10404526356050661, -0.0040213737522419475, 0.32029707739504587, 0.17198084902255178, 0.19252845885922099, 0.027730663680049054, -0.11677366580789283, 0.1006231964703097, -0.16443263370615968, -0.008331608926034085, -0.15146167266166027, 0.045546763931397775, -0.19031983530588323, -0.3325371338261203, 0.009164108222777426, 0.19391236019038205, 0.05647202527208257, -0.016830141347008498, 0.23943285400756045, 0.17587729573719, 0.02759047958760139, 0.0224707717935319, -0.08137997274563351, 0.013035529621974438, -0.052352003046138795, 0.036489163787638744, -0.011613205347574188, 0.09064591618701265, 0.07847531857421798, 0.18824697994272163, -0.15548610542077204, -0.020688987878753753, 0.10095412779245296, -0.10547450283552524], [0.15582004538860605, -0.018224795457175196, -0.16359929118290978, 0.08598645264152885, 0.16163858027434294, 0.06981600757403826, -0.07861080994164367, 0.26079079896402685, 0.16828787947896476, 0.10289595283474409, -0.017538885421576667, -0.05973450986083512, 0.2738860650301465, -0.2709545559601714, 0.011026713474660327, 0.1211351963975968, 0.05386115606812393, 0.12952903712323696, 0.22104448595341444, 0.08965510505101774, -0.13129180034252735, -0.07421782425756134, 0.02511674031439804, -0.1098259705139547, -0.06324677302740846, -0.08589770086440729, -0.030031239977732695, -0.011386017505266022, 0.055681995380325464, -0.05683010068066314, -0.0446758913240299, 0.09326111031531034, 0.05261799579926863, 0.13310122286595522, 0.03981881116682761, -0.27975104495431474, -0.005248938570793351, 0.03848462436098564, -0.06597233170616694, -0.16652039550414602, 0.18027910416427617, -0.11610134740427648, -0.13906144281830793, 0.08857171755700523, -0.03469448218779194, -0.0566568329239783, 0.1822834458386007, 0.04405945495141048, 0.20718402108903494, 0.16801624276914973, -0.04150809058186399, -0.04040563996320813, -0.027411137954251263, 0.266504184498153, -0.030056444660685466, 0.19251075691178368, 0.12071065455147116, 0.1814083538065603, 0.07860068106734522, -0.19160409907325987, 0.03326527569656816, 0.07949752660458617, -0.19035904129399364, 0.21227125068864305], [-0.0530610157998705, 0.14053179620883463, -0.0118525732461031, -0.20279909962140072, 0.15474995514271603, 0.18579493993176835, -0.011005929425086507, -0.06411885652704534, -0.19975234248751192, -0.012065653699123846, 0.18181762951028252, 0.04215518780497672, -0.04340069248111457, 0.0046457465765740525, 0.13477167500933568, -0.09987141515662985, 0.14058757736781172, 0.024422075977871105, 0.1371243395509659, 0.02059008273322551, -0.12234671594529666, -0.0014747346934527931, 0.030664488460798927, -0.07753007008737502, -0.021897420833573242, -0.01717179018989554, 0.038372309623163244, -0.24276238581125242, -0.03661429365268087, 0.208495881158442, -0.0984275349983446, -0.03804189138390508, 0.20491823481961843, 0.0614149618171422, 0.2669473872774975, 0.053784816850895464, -0.05731860254481158, 0.12326897132102647, -0.022913789040171943, 0.003506118015539175, 0.03511543409685, 0.08486308410332088, -0.25066144847841665, -0.14556357410683177, 0.12089651931868593, 0.19026097143018095, -0.05889984686929694, 0.09560589644921016, -0.0015796245672861425, 0.12750550476628156, -0.18096020334264393, 0.1459640858141104, 0.03769993356950387, 0.1178588343241994, 0.08286821800705409, -0.023750575947684174, 0.011508881324499246, -0.13165005208913463, 0.013938936843666082, -0.017467369594256533, 0.13029050978436973, -0.10708374517962255, 0.10830826201309414, -0.06364656304349998], [0.014297758831889022, -0.06399427936716233, -0.10229884278120974, 0.0671887021837077, 0.019555162836989017, -0.1679223631162968, 0.3281318739419779, -0.0934845444881091, 0.043869666540252664, -0.32822969026926246, -0.052502472383012325, -0.07042418523077648, 0.07835262224196124, -0.08516899046592413, 0.11840094794682585, 0.12533976328293334, -0.0656510020163699, -0.011890697865435578, -0.06681610851398441, 0.045960764304683877, 0.04169240596234122, 0.08230422110245411, -0.059754159261468966, -0.06130695907345034, 0.18627983403674186, -0.01612105551676017, -0.11009921261900399, 0.13681856022480293, 0.14502575347283275, -0.04751993779094728, -0.008135279725883553, -0.06429711645068367, -0.3621713358654765, -0.10191013701266227, -0.3510127921455573, 0.05818880041494999, -0.10478562750279338, 0.12417267675798616, -0.07853326238018168, -0.09093559008206542, 0.14673927620770555, -0.20420773329207723, -0.1343611116723615, 0.2845644965520591, 0.22115144321007935, -0.1573411415738246, -0.08001396151089603, -0.04141453006739911, 0.0852058011236294, 0.16160348288726145, -0.004598679876550952, -0.06947819089055512, -0.05552054365183698, -0.11138158553408528, 0.05090213802975505, -0.15350322923553794, 0.143383245349364, 0.1441135238677254, -0.1673940012608114, -0.20820292205310117, -0.06281006814589433, -0.05573579025272806, 0.17685788714057912, 0.15550061400632634], [-0.13973701402593128, 0.04655720058964071, 0.12266074904405938, 0.054645350671518454, 0.011566220694620705, 0.08518999621705782, 0.0028390043543804764, 0.0912293128790195, 0.02846455975058653, 0.051367686866770706, 0.24309967602864613, 0.254391491504957, -0.07453570606079762, 0.17770690966628855, -0.014978599388651634, 0.17092781570648405, 0.09455448209361932, 0.06149473410741589, -0.19196613290526543, -0.1280195569327384, -0.20281826372643605, 0.07786059713403162, -0.07779145403936809, -0.017177148626879614, 0.12130149596641714, 0.2580669164457248, -0.15747455957050313, 0.07220008646970545, 0.028323088519328975, 0.04035553433674597, -0.06257562521567359, -0.0892073005902785, -0.183905972485555, 0.1773189936817165, 0.046976221545105425, -0.07137656897708552, 0.18172823435846094, -0.0027797829303973856, 0.1794048477162976, -0.01175738195700578, -0.22545986114184982, 0.06908433194464836, 0.08246315803742513, -0.0025018329865863333, 0.13383909332133875, 0.26408475409327103, -0.1284070128189966, 0.0178072576555811, -0.09193609306563315, 0.11643100363687095, 0.08515591370242175, -0.05939128359808466, -0.03388783995000072, -0.016487808228248073, -0.10407660517182732, 0.02295305022660532, 0.3218283725296141, -0.1278362042331615, 0.09220596982955295, 0.006807243861391026, -0.024573870402193033, 0.15979310679877298, -0.1892032457320036, 0.02577826964786486], [-0.015336270542157126, 0.20530705016523842, 0.01907462672137662, -0.16641023496854346, 0.11732037469121805, 0.03574791863964936, -0.12226460434651858, 0.12342215839251046, -0.05501032898336987, 0.18804150070063397, 0.0750042722412522, 0.24503884283401814, -0.027519357689634996, 0.1147409779599921, 0.15171962513102055, -0.059324878430247974, -0.12468125151539243, -0.0999467785226924, 0.16135553184388016, 0.06403426890433336, 0.15503836401285215, 0.13456799805477843, 0.0599431109063884, -0.19774330933306702, 0.1359971833678717, -0.040704482210158405, 0.0009261320644552805, 0.050663179971770014, 0.20253244406194162, 0.05532954174654703, 0.02286637220721853, 0.025912882217703066, -0.12941977681446665, 0.13351562421922109, 0.16763914187774173, 0.02112482651451392, 0.06745200481909581, -0.1846010562711373, 0.0869056060679018, 0.05978174437480247, -0.02005493396157284, 0.145191702856845, -0.1239257091716364, 0.11664864934051909, -0.003094772876978821, -0.15270380071161452, 0.10384784413985641, -0.06936684548921924, 0.13679202072180333, -0.025374692506860367, 0.1032339533087854, -0.15190829948431628, 0.30879672492102067, 0.18606256333903715, 0.0028973045258599245, -0.22177531001641607, 0.14085220392969372, 0.33623911960409664, -0.1961351635903756, 0.19447929491307783, -0.039510928376130725, 0.016743657687081265, 0.008368894974419484, -0.2359014307554573], [0.003910319265571653, -0.14999163467234522, 0.1664330753960171, 0.049846744976671915, 0.02240444080690319, -0.10061077043621465, -0.13240051353420876, -0.09078791226666133, 0.15720192207604508, -0.01780316697268329, 0.1220229066481514, -0.1831135105953753, 0.07372280366436877, 0.0439421068253021, -0.1549878980045144, 0.0646743114631539, -0.07009049187657605, 0.29334529206706494, -0.01137307188677302, -0.06883544314869817, -0.11429295515219944, 0.020223208351355732, -0.26177643654648236, -0.009888440293191575, 0.05086718136669492, 0.17717339472999866, 0.048048696328537435, -0.08681359031229553, -0.036644122799283, -0.04313938115992658, 0.10413953397071496, 0.22890257744070905, 0.027845618530654415, 0.0757927874014697, 0.01815111697450656, -0.0030945557380308423, -0.23779926760673603, 0.08509965490009762, 0.07586600103720431, -0.08812113031035648, -0.0471011214566486, 0.058919262579204525, -0.057303504799745233, 0.017761504807797406, 0.0948220082529727, -0.24522460380025213, 0.027183765021689548, 0.10331327716938637, -0.01095273453645708, -0.2786342963002491, 0.20166235854292985, -0.17587719541442956, -0.10457882030272529, 0.3008754380008121, -0.05297896091890302, -0.16245996270986526, -0.10013028734670806, 0.10962099566055952, -0.24553700955703744, 0.027144715830008905, -0.13125458143418023, 0.058889713226258515, -0.0481507438116292, -0.06326798706190977], [-0.14463867288982316, 0.1377808606019645, -0.00399652318030468, -0.32749523046203916, -0.0948959183398993, 0.029569677015348815, 0.09865453373620753, 0.11516959336202644, 0.07974694694116038, 0.21132108394527138, -0.010853845787743299, -0.1357233623194616, 0.21287771846629974, 0.00814923598180002, 0.018604646646292116, 0.1437058286355908, -0.3185451818426541, -0.0037526457714780774, -0.1005104252161273, 0.08752354710765205, -0.04012725196222263, 0.03347605989480901, 0.1017016053303989, 0.06590579183824097, 0.2665741514153269, 0.03785682301010523, -0.20258454454902824, -0.1099157485830666, -0.049283458820682045, -0.09413313983087221, 0.1078496778745803, -0.1306518868535296, 0.1283351406233981, -0.05555221178367816, -0.11976848272197918, -0.09528043351339122, -0.1244965153551278, -0.022201129128415573, -0.11767757168815439, 0.14091307120397528, 0.155223283331872, 0.08557462464696843, 0.06104438542691237, 0.1296997003187412, -0.058842921809981706, 0.13952807577493945, 0.2242678387937376, 0.005753408630733136, -0.04781945412512362, 0.09792962362052006, -0.0005902677038988757, -0.02384211389494142, 0.09091911554944798, -0.2090121682312865, -0.021289220502425297, -0.24930544930680743, 0.028935934682391078, 0.07430079082508305, -0.04583229966187559, 0.28866391199022684, 0.24861055222327239, -0.1591672316472853, 0.06945023152409727, -0.14960977245029716], [-0.06263963299656587, 0.12242497504278677, -0.21792004517125352, -0.1087666556607869, 0.1573776118522387, 0.06651132137245992, -0.03610214982543633, 0.1910239926011827, -0.016200197401012178, 0.13408234208939304, 0.15983911883459517, -0.05742869582390012, -0.1918114884457894, 0.007209379834340622, -0.0544056317548329, 0.03369434964705676, -0.2160980735038683, -0.046744131638214524, -0.08535120250550547, -0.014438672443053623, 0.022643058712760056, 0.25412454215185587, -0.253472745328693, 0.04421002607302655, 0.07407101198185573, 0.0320391675564323, 0.19047124584400685, -0.13235528489229703, 0.047001812008809006, 0.06023511212170282, 0.1354932797851631, 0.057345168063973585, -0.08714763644906552, 0.06145014020375105, -0.05508090196232929, 0.0012318275539420181, 0.14190260161870408, -0.07392491369575664, 0.04442804103493395, -0.012291743768058588, 0.21100708907828575, 0.2604578740568531, 0.2009435191445, -0.08774732955638284, 0.2459883970470055, 0.020161934875785804, 0.07823556340384671, 0.06520253576972072, 0.13372180977671042, 0.09663450219014541, -0.013332581780618453, -0.15028093230935244, -0.035084497013227973, -0.058036495462575076, 0.02744644986535417, -0.08720677549485241, 0.01933540419096061, 0.06742614135066873, 0.18536937891375663, -0.09326051003443846, 0.026701879468441835, -0.043464003353458916, -0.04964529713421602, 0.04910230341768894], [-0.06968045085241659, -0.26561580506388316, 0.04651878656194804, -0.0627153967445539, 0.028821651411523357, -0.05974958119906302, 0.0025632675098911455, -0.1728328639816147, -0.0036857509990728056, 0.11279304983858382, -0.17143121876478834, -0.11765133370788425, -0.12168984808891192, 0.031365686461486526, -0.23492400215272044, -0.06702091939149978, -0.18248643233430473, -0.05711332316175439, -0.16068140774111686, 0.21798511753662964, -0.05308335181072647, -0.19033574768744516, 0.08564521917543266, -0.05147143989712461, 0.018166189533087792, 0.1365016798370243, 0.028223460332267192, -0.07619360184879821, -0.02828146848409435, 0.102174409847934, 0.10940350287354919, 0.23450418330949543, 0.024134552933912, 0.07317347598191544, -0.04211015526272738, 0.05106381570185654, 0.06544338715137009, 0.046090351373190494, 0.16657162557890606, -0.1485199335125958, -0.08816368851338266, -0.22544506465935088, 0.05462390515592207, -0.11669360643440199, 0.07253295778001442, 0.10724935367202239, 0.034688568977482646, -0.07500084659514887, -0.2819048163417161, 0.07488417602976088, 0.04239444480823404, 0.3214810676702358, -0.23054409234665899, -0.05423958446642597, 0.086037617126061, 0.022038281707264507, -0.19606085412487353, -0.14390076270147195, -0.016857652958005488, 0.053991715923180236, -0.1377606581301278, -0.17362807489644497, 0.2838079525772732, -0.02683961926914932], [-0.28695029053403875, 0.09884859833396589, 0.18477429397465778, 0.16583845872804368, -0.044778622869470444, -0.006597255676135854, 0.010824102020548527, 0.07414616497304205, -0.059548545406899835, 0.1728869554083654, -0.029006999176367718, 0.03334967824845036, -0.026137163378973493, -0.10356332019396572, -0.17950598445221408, -0.03146758305692644, -0.05141301651435216, 0.12199011096817187, -0.025213937397695375, 0.0970417546729035, -0.14296911490460837, 0.16098267529964186, 0.23538823552292626, -0.15373800053131298, 0.21134166298860693, -0.26119409950487066, -0.13774267078070426, -0.09823712465393696, -0.2230434224626105, -0.19135424951017077, 0.024426099659315997, 0.07919504673078745, -0.13052707933469884, 0.030403388815497326, 0.07687198518568054, 0.07283478716275026, -0.14472336838034036, 0.08802881648758422, -0.046038886344908755, -0.06847060615987847, -0.17146404524030037, -0.08730045519599379, -0.16973009373464956, -0.17246322762848937, 0.13884229805120663, -0.12601490171407506, 0.017056510021204663, 0.03615206278187774, -0.07272335216439078, 0.06730312667117799, 0.06743144128091456, 0.015651640628667623, 0.14417081030125117, 0.012721211251924741, 0.11162731906282092, 0.03495873348033416, 0.12737528920644517, -0.15524660166980375, -0.08450577176163396, -0.09421580333789555, 0.048025080985847665, 0.17804400522961938, -0.10379268813071314, -0.29019574485234756], [-0.11927101038384208, 0.07491155671044093, 0.15788900073450904, -0.31372883383299843, -0.00619987592511391, 0.14555161569804845, -0.16203557455303227, -0.1087810286400377, 0.0598897728869938, -0.08009505264934967, -0.06519116401785284, 0.08768806628439178, -0.031827685465245996, 0.0036013417809799115, -0.1458778041500104, -0.2323237786310445, -0.13536529141495282, -0.0431505511751963, 0.2007336882608646, 0.11052418043404294, 0.02751399997884564, 0.04120025907388531, 0.12139237193284165, -0.0685047318955407, -0.21433812341742614, -0.16158150950220213, -0.11276275128367357, -0.10326090417941271, -0.12792023152175494, -0.14089375100193044, 0.010434782818876373, -0.02787135374060093, -0.09186343511501176, 0.1418263932631557, -0.017908932838317942, 0.03907897441072431, -0.06755970444042166, 0.29311556898398233, -0.03055808971990286, 0.09610993780247476, -0.10772317060777979, -0.1463512909874825, 0.18703310801096035, 0.15780518535973845, 0.17290644149329504, -0.07245499035278667, 0.1565884013287502, 0.08642510915825856, 0.013340645828096284, -0.028348629824161472, 0.0738488813034537, 0.044473247949803764, 0.016742984194116742, -0.18853262508807686, 0.13043334161923104, 0.13161368273405985, 0.1191997703829402, -0.14745270181470924, -0.008414054424491632, 0.30147818655003117, 0.07710834365500703, 0.06150440057244032, -0.13620162045236614, -0.008623116331727689], [0.21542121921154028, 0.09638798367190393, -0.1387584444437093, -0.049533111480326304, -0.02568448256996701, -0.25633933640549994, -0.003527486921374555, -0.1675615159977514, 0.08491343107932167, 0.15385220477881867, 0.035188783886368064, -0.1512640653940953, -0.053806295229809835, -0.07915230063149956, 0.00708745061583597, -0.010430524665626327, -0.0607594846923184, 0.03240286743874441, 0.20165427049669962, -0.15571598299463657, -0.027391553522964712, 0.0056420153358054176, -0.08709466544944344, 0.028190680790097813, -0.12737067074241293, 0.035007132561156944, -0.20021869434074605, 0.03506151846028626, 0.3133175868451978, 0.0783247909753638, 0.10513240254026636, -0.0814004297431233, -0.04565291755833852, -0.14485262093289628, -0.12626969543025807, -0.1953201220815745, -0.00040390858853329677, -0.265344237041595, 0.08588192223710185, -0.11127247457512472, 0.01180178856566541, 0.16360481812071212, 0.023118540723939127, -0.2858804993819544, -0.04759874728125369, -0.06093361465481501, -0.3200102509550783, -0.13870993276137797, 0.03114686016617328, 0.15314436285699923, 0.08090172960564591, -0.11017453468773616, -0.09800185144026433, 0.04350904558077129, -0.0731947348197928, 0.016731362827540005, 0.09421069314731512, 0.13759406313270067, 0.022548462020594334, 0.2500661095125221, 0.06701061099425198, 0.044039425514060676, -0.18351698917500958, -0.05922049341832711], [0.20708833559103113, 0.04451269206171891, -0.026501182220101473, -0.04799296855145432, -0.11381102264220178, 0.06820119421222745, -0.12446887949307461, 0.06492159875727882, -0.13696091298700436, 0.12182379499504571, -0.16705113539615807, 0.1338247453607733, 0.04382376812648644, -0.14832447327908785, -0.3182655916126064, -0.0562330015568105, -0.15469645538698942, 0.1730363904178283, 0.06727265867130439, 0.21872029507250293, -0.04283726139187879, -0.10329583364869135, -0.13937099939706865, 0.01923657694346822, -0.09062677081532897, -0.1367921168365997, -0.009189949186693788, 0.14221666102443128, -0.07120934327732645, 0.05469382270256413, -0.15305267976350953, -0.2226101037277289, -0.08257584434052591, 0.2146727613516483, -0.02895671163843304, -0.04301158819128426, -0.08607364734359213, -0.08019090838690857, 0.23337402589153536, -0.08700850507055287, -0.0968311946174384, -0.07586903126481104, 0.1093086181923691, -0.10027303280190748, 0.0015285937790846344, -0.05061364570737188, 0.05521725783793202, -0.19804670846803896, -0.06867385462167483, -0.010756362154345573, -0.08896545165553574, 0.19429431567791886, 0.1854736755292177, -0.1839677003395266, -0.0298290477954428, -0.0592261535655154, -0.005763635322608751, 0.04670567621676928, -0.3071519968800557, 0.32415603953750843, 0.034549437073490064, -0.0752314808597383, -0.07752433332905663, 0.10729329031863852], [-0.03316551350509915, -0.007715597443726929, 0.08484378168668386, -0.0498653442305866, -0.15798672157087884, 0.02086654439421215, -0.03676760672640186, -0.025799796799634303, 0.19360148149995463, 0.4043594281271428, 0.2554301742930977, 0.22416266247622502, -0.06065648758754119, 0.05904571275777992, 0.05271793043740904, 0.05160626495648107, 0.07316241590733787, 0.09227608525823855, -0.03448383144268636, 0.0005152317987204408, 0.04945549750535331, 0.005804080916251151, 0.027602148865048828, -0.11582291961288108, 0.12864261847748634, 0.04840172324158585, -0.1843590378018707, -0.3129834616952511, 0.2667824283051414, -0.00966385444995107, 0.1404546817978247, 0.07436843571032457, -0.08786195592171643, -0.09534486261863642, -0.03637377892356763, -0.1805156524179049, -0.11447268101296364, -0.13100477777149014, 0.1549105210338677, 0.15237129618671158, -0.0531009545180361, -0.0562811869624028, 0.12509814983204134, 0.1295696381527842, -0.07873411206090099, -0.031433618987024826, -0.10182493457144715, 0.01787117549782146, -0.04124699001922911, -0.09569198777571944, 0.05286265451927858, 0.014766059901669409, 0.08720880464206572, 0.03145555691957539, -0.2808765100536611, -0.006618078061653644, 0.0700656074207331, 0.15171487491470068, 0.03619374682139233, -0.09717291680160442, 0.0029713212398402543, -0.06399403690378416, 0.09280114860632654, -0.06485239623363123], [0.12414490189879523, 0.05431635248886641, 0.05059253438792627, -0.21236223307827554, -0.08600491250566034, 0.20303230266019345, -0.11953176843153289, 0.10496506790548411, -0.11698861121535793, 0.13875157575864702, 0.0034974689069779074, 0.08550620408336254, 0.016240761900581727, 0.0015747687084123293, -0.05493833739215731, -0.08982661903484368, -0.11053013333596895, -0.07697303175376465, -0.11920461280080628, -0.09389557703226464, 0.03437685790624003, 0.18705680684710096, -0.12818211498091392, 0.228945595081557, -0.04641644046492716, -0.18827896517113582, -0.0404772839962094, 0.010053663204641482, 0.22482188380394072, 0.047807245584087756, 0.1862411137196179, 0.028720249905200553, 0.03188307628695875, -0.2574701341224084, 0.12379935077984452, -0.08419706799041254, -0.04091938867501582, -0.02147424156086484, -0.0607211228252609, 0.12013221777810226, -0.259696328034815, -0.2856911419683328, -0.1343612410917898, -0.013900059746831296, -0.10060821609811856, -0.04309504651728216, -0.138208224727201, 0.11677701475073575, -0.10451311853517123, 0.05047941880614645, -0.17743936274384597, -0.03264932011546337, -0.23238151807012247, -0.14679928143831958, -0.12270987937597931, 0.11527397495024108, 0.16367207492027314, 0.12857027709769828, -0.06912891987050064, 0.04846176439881317, -0.128244697455991, -0.046678828671022354, 0.043313788011227566, 0.08710215809813854], [0.20107544983007108, -0.03543152999017589, 0.01617451707398625, -0.03949196904480083, -0.0723841463206323, -0.004476284411592922, -0.05204688180494564, -0.012663807810493508, -0.09547760572561273, 0.05327746311326185, 0.0793250275055935, -0.04480908398074717, 0.32793499254274394, 0.07351849228046393, -0.18491084840593855, 0.012617304271097338, 0.13918551644767974, -0.050023251154522164, 0.04907887412151356, -0.029828204509131356, -0.12204732730594486, 0.08421263277044301, 0.03970680612473206, -0.05089733458280735, -0.09089829888852688, -0.33793405511945895, 0.04756145888687799, -0.08082141605659808, 0.11971878585767505, -0.06990082579656359, 0.2028157612734581, -0.11324504071110175, -0.10870221282131816, 0.1498158096989722, 0.1593936360005192, -0.18024285787538932, -0.1589806827752799, 0.03645111955282765, -0.07883521179841699, 0.07445895991027437, 0.13625046070017993, -0.030279817583349, -0.007649489133689607, 0.08215132619470386, 0.183637030843422, -0.04654650697778958, 0.10426033342182793, -0.1523274793291655, 0.04373172309795656, -0.05324568691605383, -0.10140346144869952, -0.13451298449673932, -0.10595027093966719, 0.003182928190460686, 0.16771325048212082, 0.08342441330163407, 0.17844007731551148, 0.05708558587433117, 0.013118079896972168, 0.03224004974948238, 0.2162209988587561, -0.017787835695102682, -0.08312232316559792, -0.0010896596430768574], [-0.10086649951105642, 0.04870889881873774, 0.17266282870495148, -0.1100413855213613, 0.23686825447318885, -0.07122242250807113, -0.06860709401828048, -0.05378178793662623, -0.10260404186021886, -0.05303192343282835, 0.049522195124493656, -0.012936065977518531, -0.07984251608650243, 0.2417015963911417, 0.01590124693754003, -0.05752312927131097, 0.03321038780503424, 0.23281624918678243, 0.0702997861599899, -0.1016624571212069, -0.041188227879236976, -0.11926202819337903, 0.2290572162736574, 0.09228221748869997, -0.17730267231001534, -0.03188995795795804, 0.034099751452038404, -0.08365872400432334, 0.04831996405519757, 0.049746274046981766, -0.18039440778950483, -0.1168733729975048, 0.19630576043220532, -0.047218503205166094, 0.13082380340664754, 0.09351813606934113, 0.10436534241217818, -0.048042379981470595, -0.05762347452962913, 0.1776725208726766, -0.1183107272741275, 0.030391630390398754, -0.03348307793956174, -0.1535652051947846, -0.1186223821485231, 0.24663473787639142, -0.20344736634894184, -0.06696072524787791, -0.15835227556995293, 0.09847568642412581, -0.20001281875325813, 0.1466955807044774, -0.08915359039963726, 0.06331392222556316, 0.0035956072930732274, -0.014487143981136711, 0.0025125961553809978, 0.2613943950315537, -0.07670749833866079, 0.03556505121196797, 0.06983435330754797, -0.14686888426077038, 0.05190949903401067, -0.005882174718722642], [-0.1505864996218289, -0.2888193373111978, -0.20488939042806575, 0.12754920151565488, 0.05156657163772862, -0.04789659273417257, -0.03782985544120535, -0.011654149974887527, -0.08016750714303128, -0.02622689408065472, 0.18165576614004722, -0.0805327776578298, 0.009422876267946996, 0.018980587838816683, -0.01769122742354268, 0.04911048450707066, -0.027087973441277006, -0.12993642113661635, -0.015876068848519144, 0.031133139177569658, 0.14126655394805468, 0.014929505998967326, 0.08074516045543367, 0.10391249234387201, 0.2020719754732891, 0.0007100152383824716, 0.11192529203820728, 0.11637752356468375, -0.1557526397234497, 0.10626732136408854, 0.10793943664211725, -0.13695398176572943, 0.004924365861958716, -0.03845611406077983, -0.057686654511143715, 0.004963690558315708, -0.15774788871513576, 0.052425875581051086, -0.07018750045373015, 0.015086965340881622, -0.17793400475826357, -0.10070435815807074, -0.16263151401550563, -0.13399095612563744, -0.047045499822338126, -0.1492788815278473, 0.19116089179520926, -0.036033574339951496, -0.004031931932862277, 0.08612798272568196, 0.14178501468212448, -0.3715914629301271, -0.15660741307873421, 0.22474815935216963, -0.054180740451489746, -0.02478092801257762, -0.06274879832346182, -0.05300247031064361, -0.03441093112286681, 0.15086346020180494, -0.07213205284797747, 0.007051390170181523, -0.16629060708261628, 0.10310842591347227], [0.03753103517900648, -0.06107394185734754, -0.002933803491310184, 0.03514665343193552, 0.05582623517153522, -0.09298263909961381, 0.00011314626373785297, -0.1612078796050604, 0.03521445800280728, 0.2846691893446039, -0.056621426331839385, 0.04101698910139498, -0.11699637025590355, -0.2043886609988217, 0.04145863471519038, -0.02028113219466415, 0.1661443112464002, 0.20456914030838177, 0.0890127847080098, 0.12683366278083597, -0.04526406035771234, -0.14869495284372497, 0.059383464556642514, -0.0064186670617475275, 0.1320986428706916, -0.0025427923646585645, 0.07798313048385934, -0.06118380227610758, -0.028349338408170475, -0.058264098106644256, 0.005263369367363051, 0.1297235184479949, 0.1522508687782638, 0.01433779012955257, 0.2588189785702298, 0.021518483011819262, 0.11245214442999674, -0.060794677566248116, 0.10716853605902299, 0.17732517483897475, -0.09944206026406029, -0.02298660080302377, -0.01637466926550448, -0.005317261117308759, 0.04847825929965345, 0.23209644637249752, -0.12642544480868717, 0.06050155596583365, 0.016986616290121995, -0.011202473269400385, 0.03637461028656326, -0.11554582252186055, -0.08955047265447241, -0.03566806176087738, -0.06517385590473594, -0.11941340593187381, 0.02521804674557605, -0.20701765873912598, 0.09162938721957946, -0.11173266810749544, 0.0529785753612781, -0.12485826645252428, -0.04115131210073311, 0.16529200616069803], [-0.013689047667036951, -0.24999624690840147, 0.13450892846306264, 0.12116859720780808, -0.29725027431336537, -0.16048124946924902, 0.05661407487757092, -0.07104118168947772, -0.14674139740260403, 0.026945816253467324, -0.07046062080772204, -0.03070093032787964, -0.1193601893943438, -0.1531430727710952, -0.18450922853021312, -0.07301759235741052, 0.06976656281336925, 0.08733112992571056, -0.1539736814823319, -0.3003798430955585, -0.19104937355245305, -0.17735219214632483, -0.03799921262838008, 0.10300171909339417, 0.17185719448681183, 0.03144191423453522, 0.06735126239420272, -0.22557774405770836, 0.24808132050265347, -0.05429811392798539, 0.14323385585384438, 0.0801637414325205, 0.07151894723164873, -0.11853043921618901, -0.14914564376157452, 0.13465060826611022, -0.054145350955811716, 0.04960774708845801, 0.1642620966651476, -0.09183289885191614, 0.019159977660379506, 0.1916541933166499, -0.050660726096420874, 0.05014707349705449, -0.07366204019503679, -0.15525468639715134, 0.054328708425186695, 0.021371892461197188, 0.04767386983586953, 0.06837374835926005, -0.2888169874805569, -0.15180115640914818, -0.0052525130751207546, 0.07011327514429432, 0.1542509894924156, 0.03129297687005127, -0.08313410908569427, 0.09429627890247944, 0.054080542057869406, -0.05814821758196101, 0.04117817845050343, 0.0617590512630299, 0.08228882876511988, 0.2122879655980229], [-0.10564133236846925, -0.17321368710810658, -0.0005426860278557695, 0.0567648833737411, 0.16635342397230388, 0.02631173612346174, 0.0330068301424002, -0.05451368143096837, -0.07300725366816697, 0.08779021636887169, 0.007095606172404494, 0.037363491410249625, 0.1690066717621306, -0.057014192415125, 0.17140684627436498, 0.032158319791681635, -0.025323795333510587, -0.18825488577226165, -0.18945059462963898, -0.11349572196465305, 0.018864277779710007, 0.03484688866137144, -0.06580042866660173, -0.14770722764610392, 0.10553566058353304, -0.12549270267162538, 0.08706244824932521, -0.23698813382479025, -0.12744044053532705, 0.18730081268264778, -0.19554197626398487, -0.027199440126420872, 0.17538814508673609, 0.09145587778882265, 0.04002240342216251, 0.05654014106150618, 0.15800848034797904, -0.18125449231549914, 0.14251344239254807, 0.12220341744099, -0.16751095203009964, 0.03386794199942822, -0.10735413117531371, -0.17963934506840307, -0.05458151807493517, -0.04329643263027026, -0.14285560237984346, 0.0785811570546303, 0.12945416249065478, 0.08010112631326873, -0.032869809679188615, -0.03227623121072181, 0.09269295013305734, -0.01593597046513741, 0.2786595232455122, 0.06147355405267444, -0.07294539713370327, 0.12295199672682752, 0.016073614224782932, 0.22140489447062697, 0.11119577080229158, 0.15722309867117137, -0.05838746101758211, 0.09398085008033018], [0.03553801843084565, -0.010536346904457828, 0.06681028300711729, 0.07582629508084672, -0.08886951239091538, -0.034045134175676894, -0.1128314303118138, -0.008373419284625715, -0.10504911340204058, 0.24170510004571108, -0.20246473916382654, 0.2183431455064054, -0.13020124627636667, -0.18181850691781182, -0.017867867186199395, 0.08795384922956757, -0.08462690319393303, -0.04806794832784766, 0.13270494268362343, 0.07240898751132502, -0.10610810561341086, -0.13544446960228088, 0.20463964746052576, -0.028799878382600844, -0.1113326768422853, -0.010545527542136697, -0.10749055502638478, -0.04218144514755707, 0.14357338058332625, -0.0447578811295325, -0.045214892560117494, 0.042598431385661384, 0.18499368498529076, 0.10224514670603978, -0.19756163073122268, -0.017858820360405724, 0.06280654591393643, 0.04928340398687224, 0.08847809227374617, -0.047937259050537244, 0.007507784525201614, 0.10041614168917759, -0.06797845161954266, 0.004816997913544935, 0.1426336858259049, -0.08272692246322658, 0.0901683446011378, 0.20834136555829647, -0.15774797251845815, -0.08844732346715266, -0.2041316371401018, 0.03445723827062524, 0.1917080918204652, -0.05798510375786888, 0.045603783903796935, -0.06360105902417772, 0.008003286488415164, 0.023964752562968275, -0.27408793561448874, -0.18393539026373784, -0.07804602256476562, 0.04639361234139796, 0.1232625093193907, 0.021358559562100123], [0.021192332188864876, -0.22532969961165886, -0.015969871250288148, -0.05816609335181862, -0.07520327552414845, -0.06847515524286311, -0.048259349627517836, 0.08884304705039821, 0.03032577429368198, 0.05518142023539281, -0.03054818780874945, -0.08515883089789988, -0.004421086065864459, -0.11578150332091945, -0.062169033182773156, 0.21469148129077933, -0.13548942530682256, -3.7086785811164555e-05, 0.18740405721533324, 0.016137849057129405, 0.025628896005893062, 0.05352528608046413, -0.29320165552864785, -0.22138571590248435, -0.014662577644377253, 0.16144664766313374, 0.0008265371612033231, 0.08457896983293026, -0.17009005255874385, 0.04697989568020088, -0.08617159701898328, 0.008050978107618246, -0.1398032041963803, 0.11338333048179186, -0.06427572659584406, -0.14171142387300506, -0.08496962619454453, -0.06904943021326869, 0.13665121101025493, 0.009899900596441687, -0.06374731083177489, 0.02856936703435281, -0.04032699157949734, -0.13835563192058434, -0.026855782962743557, 0.009290140125279652, -0.03810557280456785, 0.13409713965373252, -0.08300111551641633, -0.12205436075490537, -0.1955667723229211, -0.15796990551410112, -0.0021424233604215256, 0.20008055697987398, 0.10360346598611542, 0.3597721844063437, 0.23868451077045685, -0.10620111347059918, -0.20754940206295616, 0.16371676829888693, -0.054973264989748076, -0.07767028032773413, -0.08614586623095993, -0.17428154822587874], [0.21000172875576228, -0.22114455251464352, -0.004240445210586958, -0.03301606548831409, -0.0422328074900638, 0.03984513819650382, -0.05955472731497671, 0.11673481697608779, -0.02324759189767969, -0.011947309297630049, -0.09179501600464082, 0.20948378871938192, -0.051630786666905154, -0.033725749772294374, -0.016405625984603583, -0.14079705597765446, 0.012154637180876764, 0.05525674588080093, 0.06835413401739221, -0.19987699961241875, -0.11241270391793563, -0.14841263547796252, 0.06297981604689806, 0.13717524738886588, 0.11460147488287853, 0.18154275634427286, -0.01512829852568657, 0.13622238937858222, 0.009437951981279828, 0.08590815046100557, -0.17342085524103884, 0.18662241832306725, -0.03680349057239011, 0.08028484349152942, -0.2882278127132357, 0.019692610366803504, -0.05914554312911914, -0.14898029000178678, -0.18731295806079173, 0.10591752366663305, 0.0007581413617138728, -0.285662788748269, -0.023016279111939954, 0.1462532124345906, 0.1904454633853993, -0.1622306599911716, -0.04711238359918011, -0.14915445424910212, 0.24839005769777867, -0.22911145114688988, 0.09328605193563129, 0.14304527143866103, -0.04761304798882553, 0.16648975711380345, -0.04641954037247873, -0.05375579187337924, 0.19387602311835386, 0.027970721186762835, 0.09737400609642916, 0.03298382459783347, -0.016341431672543153, -0.07358927566703057, -0.05925160742269536, -0.2514427226465478], [-0.2825757264892892, -0.21389912046262316, 0.030645272629148797, 0.15920376589318622, -0.08296194526103663, -0.08064546652128961, 0.06458508199426481, -0.028750121979742346, 0.1496401415661354, -0.11527118573122806, -0.15147547399025257, -0.1605821585232214, -0.12050423734057235, 0.02205538772389926, 0.08040692240404153, -0.010500054965576015, -0.023619017910139577, 0.039553349603971874, -0.13340729750393446, 0.05839928302868571, -0.01688306959196598, -0.052381011483874085, 0.11421330838731664, -0.04883336456669693, -0.10314201028479553, -0.10296503937304044, -0.23500277996092722, -0.19106842144944308, 0.13930791574042845, -0.20493532395405648, 0.207772925153494, -0.30876997184018656, -0.23562321852650348, -0.15896376038339127, -0.014844876131778068, 0.002200968319971181, -0.053083193373856634, -0.0618349748179294, -0.09582249971724685, 0.062170105966593954, 0.030563276425752253, 0.1211694903079902, -0.2297273647984605, -0.1780588755345588, -0.04740826962091825, -0.10820431288207309, -0.29624294959928194, -0.11367306393907058, 0.16418020865334124, -0.015318272988995974, 0.09083896509435833, -0.16212403395770775, -0.008851220893733715, 0.07557389141143522, -0.10798233258580874, 0.05967586470271146, 0.0651738298961331, -0.11142274015586008, -0.00859616255121133, -0.11189664098565592, 0.06878034286773652, -0.04256272480392052, 0.01492051356881375, -0.05304592414472245], [0.006516318129734529, 0.07411051170471944, 0.19261829377956222, 0.03343732097237198, 0.04764296861841892, -0.08537392962439472, 0.021826594673367346, 0.11840602717074691, -0.06768322482138905, 0.08682876365525402, 0.04048502016122072, 0.06462016460030726, -0.1817071554696132, 0.03644279456992655, -0.1526485755730159, -0.07662345279809551, -0.1497312225211526, -0.27075290583529843, 0.06443773762721376, 0.06829293840210063, -0.05514749376810565, -0.09228213693672573, 0.33665280399265746, -0.12763828340479244, -0.013547834755587778, 0.16154017281923083, 0.11012448222239919, 0.050147697528587824, -0.10920668512093769, 0.03563400055686166, -0.018860266929833322, -0.07300150279332474, 0.012776844412220087, -0.00690910173955017, -0.07976614289748342, 0.06462056831120547, -0.1112119423517933, 0.27948625800248117, 0.20002193604333998, -0.06550646956359417, 0.2697549531894064, -0.22184891404841797, 0.027068439300993796, 0.09033706850147195, -0.06752724264602653, 0.18455480663057436, 0.2297187671174545, -0.1735237175368648, 0.19035798786547925, -0.17822415046935197, 0.04818021162568189, -0.03627720905634307, -0.03642179769314303, 0.12181628230039913, 0.2150248797002182, -0.013067745668968261, -0.21642434661067278, -0.02540477663528235, -0.0028297363336022723, -0.004762360489756275, 0.10468662671588805, 0.08697722712811017, 0.07608951993494327, 0.032586324072574314], [0.20906809018289718, -0.2430645101167863, -0.02327399729079875, 0.021832671625706335, -0.0689976642466765, -0.24296745723030339, 0.15316571932926482, -0.025335063554070163, 0.16034027021634706, 0.03198990872009282, -0.23208356862536123, -0.16345055953688992, -0.30829183926571296, 0.08095751559926459, -0.02197736905704009, -0.1349500148897818, -0.05287564703265263, 0.06045588911852417, -0.001024181092034274, -0.1549257287798312, -0.15179576151842106, 0.06951511703572819, 0.1423352453337712, 0.05979120248075355, -0.06803100814922293, -0.0249481842754068, 0.16075113350981235, 0.1595000238773575, -0.03292097554466759, -0.06970040682514934, -0.17678861739297755, -0.12922014993778852, 0.10311828442125712, 0.029670034172662077, 0.06794532728512473, 0.06351684167197967, -0.0823319256877805, -0.005214783241402708, 0.11180386155556889, 0.02990826810551528, 0.023522789482662624, -0.10892284312608581, 0.09040217868502975, 0.10146620430343392, -0.15518861120094707, 0.043758404306797005, 0.10212286955461658, 0.1148010262131864, 0.1541676348021254, 0.02568584152696453, -0.06655733285452042, 0.10437915870821786, -0.09914636387003048, -0.0655282768295879, -0.006223411550417129, 0.20901352684834235, 0.05054111599856425, -0.06607212891555728, -0.07875718504339091, 0.2722955366913221, 0.06798775129380522, -0.25298432852243663, -0.0053066395428240315, -0.3187789833167984], [-0.007934590718860025, 0.19481644618541386, -0.016243644319098253, -0.07997893055892337, -0.06926303194246791, 0.02188720023456466, 0.16123816165974209, 0.008476205780520414, 0.3017274926177879, 0.07770236394956616, 0.23834698757271072, -0.03136401792706484, 0.17780984380208098, 0.09300242749733537, 0.2113477499741351, -0.11122313316300238, 0.20605508877278605, 0.1070570587744446, 0.12982618987752975, 0.011353665136169611, 0.02754199777166013, 0.05330714442001342, -0.10153460091630409, 0.1154954121413468, 0.07766760175876991, -0.10767135253647225, 0.07357183251662118, 0.29228847859766743, -0.05673536970084337, 0.1311951298604919, 0.08455803473881678, -0.131618810367104, 0.12022714150779498, 0.1005997436002765, 0.1348833593966724, -0.2883958789413587, -0.033839253721781586, -0.06108639215090597, 0.028688560970874903, -0.10693192633597483, 0.17258198312355427, -0.09405413173772142, -0.10990063799906502, -0.055347923875956904, 0.0184389375426049, -0.08344499742918778, -0.11984203591340435, -0.30663709332874073, 0.2153192697365136, -0.12928109936327145, 0.05535613726962099, -0.16894339406535533, 0.20384948681536494, 0.08855337630549359, -0.1634137154473554, 0.03107478015143918, 0.1593795565775114, -0.035181122247695984, -0.14569802525553902, -0.18020573346096477, 0.17037983870638934, 0.06918452688076268, 0.10123055824512074, -0.1442161364290017], [-0.032398952474882343, -0.07512653621107529, 0.00682927743816267, -0.24955151418192645, -0.15708540581064342, -0.08056964529080189, 0.10870581334289516, -0.14334643812102815, 0.1320188827501067, -0.051230772719105346, -0.10534454066526469, 0.062015371465005825, 0.015976735253579177, -0.016191469985658513, 0.061602471181439133, -0.16821733101569586, 0.22832511716764248, -0.019955282315850364, 0.04969356525837951, -0.014849912489592764, 0.10168735710704464, -0.25630074175840606, 0.1261897911919407, -0.20584275408208536, 0.17542030813451875, 0.24399009914749087, 0.020953591230891758, 0.035738590289042256, 0.12169301808574402, 0.05155609731737147, 0.24810971052167857, 0.04872879068359346, -0.13386620925086995, -0.0777947720832494, -0.13474428526907803, 0.04592109991707321, -0.08876328720982235, -0.017901074232576673, -0.0573872325002309, -0.1934526181683931, 0.22298662517992182, -0.02974071802078872, 0.0850413914297007, -0.17801925006997077, -0.08066101192005401, -0.11929228096015893, -0.19217813124280883, 0.10025927253040358, 0.19875977390544658, 0.011356165279026638, 0.36883812791738113, -0.04397992650144418, -0.0796148406255484, -0.13989142141825386, -0.13225968254283013, 0.06586662972767356, 0.01515376711634206, 0.18692610428093345, -0.02329306652044726, -0.11768099352233567, 0.03353449764505037, -0.1469124142889753, 0.21493705038336278, -0.04865789256851257]], "value_layer_1_biases": [0.0, 0.0, 0.0, 0.0, 0.0, 0.0, 0.0, 0.0, 0.0, 0.0, 0.0, 0.0, 0.0, 0.0, 0.0, 0.0, 0.0, 0.0, 0.0, 0.0, 0.0, 0.0, 0.0, 0.0, 0.0, 0.0, 0.0, 0.0, 0.0, 0.0, 0.0, 0.0, 0.0, 0.0, 0.0, 0.0, 0.0, 0.0, 0.0, 0.0, 0.0, 0.0, 0.0, 0.0, 0.0, 0.0, 0.0, 0.0, 0.0, 0.0, 0.0, 0.0, 0.0, 0.0, 0.0, 0.0, 0.0, 0.0, 0.0, 0.0, 0.0, 0.0, 0.0, 0.0], "value_layer_2_weights": [[0.174247290297043], [0.054461024565771704], [0.15890545488466526], [0.2527600787553522], [-0.017762362898755813], [-0.06768290325417739], [-0.07027532843684267], [-0.044208280916856], [0.16443510472859657], [0.14191542044961644], [0.4120656445339286], [-0.10075191764954501], [0.11327949265690603], [0.16616720336644433], [-0.06753214428958251], [-0.06480979377283619], [0.017488777397711288], [-0.21669805482321414], [-0.3911413343794075], [0.2398533449785753], [-0.1516059140745377], [0.07411632028248816], [-0.14417580727846463], [0.2774570181092639], [-0.299116041193287], [-0.0377374099185971], [-0.15612145660687696], [-0.016621482301967132], [-0.24042879333837386], [0.14879531356233922], [-0.25747569913803603], [0.02247911732996182], [0.04114738186863469], [0.060180819147989756], [0.014373031376805132], [-0.20551697873534652], [-0.07843542400487581], [0.16538377417198996], [-0.24446545772631734], [0.0561131693975806], [-0.13970468408041942], [-0.0861618989338913], [-0.06563081681238539], [0.28438722369442176], [-0.1910675207556977], [-0.03613295976946512], [-0.06230693213195104], [-0.037702022379348964], [0.13540297006254112], [-0.18714005357095867], [-0.24454751818342], [-0.21394947096771524], [-0.2980231024648033], [-0.10093714345550214], [-0.08983544646144626], [-0.0886290629722183], [0.25909372632770145], [-0.42102205156976297], [0.01221707773447853], [-0.15834403550258638], [-0.39561351580666176], [-0.16462015820820888], [0.1007068363023512], [-0.2393722199741852]], "value_layer_2_biases": [0.0]}