{"policy_layer_0_weights": [[0.3246260933492083, 0.10056237569486537, -0.20845230555028613, -0.4924115521416365, 0.012873773068835519, 0.26842473623847063, 0.14202834066218573, -0.0752677999024263, 0.12533062593425584, -0.1405126175751378, 0.020639249959141542, -0.00018714104088186714, -0.30227292439149, 0.2258820401799501, -0.08223815996433978, -0.06222922570925092, 0.009348975825576023, -0.14480794785039264, -0.000138346005908838, -0.03427034405229754, -0.25100391701430536, 0.11065030980446909, -0.20683377495951102, -0.3264108832748473, -0.0214993018620658, -0.31796151742767054, -0.08403089946008488, -0.27618351541255043, -0.06280172235848447, -0.05845136813490135, -0.36030450079746734, 0.19631719885319301, 0.07135821660938789, 0.17099499622322212, -0.13456996360895607, -0.24591411566549273, -0.271630727817701, 0.0790743933291678, 0.434122978523016, -0.08036152364062973, 0.007069807378173041, -0.04559132464935186, -0.2438507413936632, 0.012699210345426886, 0.05148385751432276, -0.3938923205913979, -0.04635998252489701, -0.2870500436598245, 0.11189796812196477, 0.009048842280638576, 0.05509410457482559, -0.1969101987986545, 0.2509487089180294, -0.14866229311984155, -0.16093953095704214, -0.12142351352145844, -0.04377074585883957, 0.1646581437731405, 0.24080662457559796, 0.059620017583736584, -0.048843608606827724, 0.03193288809983904, 0.08400324102788777, 0.22908419944039088], [0.13182498624662692, 0.019343745822946325, 0.011578095466504016, 0.19195497431207578, -0.13412756006163049, 0.23771386780418538, 0.027311576828853417, -0.2121686277486129, -0.02834731397534073, -0.1406553420463199, -0.23404108892436556, -0.011540088603839932, -0.10745422198897474, 0.07850169299573735, -0.053426075976565394, 0.047454878349504445, 0.13970892407431995, 0.12583010713467696, -0.1856991988195216, -0.04159963602886983, 0.46573967331166893, 0.012745272059377253, -0.11957209366509135, -0.12930485845164463, -0.06714655856172329, -0.07665571318063519, -0.30284074092901364, -0.19057205545658878, -0.20077405710961105, -0.0639031208521682, 0.29415917446893414, -0.06017965825994414, -0.2420211239874868, 0.0030373993363817598, -0.028375916510445964, 0.04889206098134893, 0.22102645130921475, 0.2351969208124976, -0.09941376658330547, 0.07597828755888704, -0.17848980938811768, -0.1490586404224991, 0.004339780051016784, 0.08663170582980373, 0.06230713949836163, -0.19986069917517899, -0.2358463643422151, 0.2609734015968307, -0.1284380637013013, 0.0785068841806564, -0.17222921231541183, 0.05492079045911353, -0.12733386615744077, -0.2872045903386761, 0.014229753235347671, 0.4569488742229371, -0.02609584991976247, -0.1694535340414228, 0.09674449116546001, 0.08954449628440177, -0.04795660617893701, 0.03692936412231856, 0.20153330997710975, -0.2389825996341424], [0.07810169646755194, -0.05874683587183313, 0.3900273044640105, 0.17797236100222658, -0.13607995390449515, -0.1139775168976257, 0.0073031923803687036, -0.12386767631717513, -0.0706366086344711, -0.07309384050341146, 0.06826902384178174, 0.09315710306348712, -0.03561035574757054, -0.04780346423093352, 0.3354370243744163, 0.0497929415708724, 0.06947733181671027, -0.1870536761868905, -0.1471488420983814, -0.2043885612987949, -0.02912223617934199, 0.09413039534469705, 0.1440682970055611, 0.2762960175606314, -0.28928472366000907, -0.019433626977028023, -0.23620076554194894, -0.1633110034514711, -0.13175297479572842, 0.3623685153416574, 0.06786185063285265, -0.05813472653265274, -0.08218719745158004, -0.12249841533497122, 0.06381769966012923, -0.19971589195155165, -0.12062099025062072, 0.04434061470748039, 0.18157183156333173, 0.02629174356893345, 0.035936569810114095, -0.3516470441981666, -0.22924602452803694, 0.033809139966844884, 0.09947013891093202, -0.11473217596241042, -0.029774518213848012, 0.2847195764288025, 0.28943815613420765, 0.14854683343368516, -0.11011193441476767, 0.014286060400203577, -0.11452788885881904, -0.03218938809489748, 0.1154929945035561, -0.07144600824962974, 0.05962370506099984, 0.01884656334356679, 0.23345526484440723, -0.1901403363461333, -0.16537438616279912, -0.07083905958420982, 0.16441524906924912, 0.06181442620727389], [0.20030722520018682, -0.15023637286047004, 0.26067649113553926, -0.18865122928833522, 0.2057604573595641, 0.025769634746895764, -0.11032915546144452, 0.28329454555392625, -0.07235712303520454, 0.10309904587288556, 0.16817173352120915, 0.2670541416038816, -0.022394048830198646, -0.02136943229290364, -0.5287617439561055, 0.28461079772109227, -0.02925169753622211, -0.01777846142374457, -0.03654375779883615, -0.17040122721594236, -0.10607679863699415, -0.3018022494696372, -0.01442732282538538, -0.03661739009329283, -0.0026472570321830202, -0.025350841369424098, 0.19883409369973298, -0.37289702848127043, -0.06231673796042982, -0.12959970219453923, -0.009608281660182938, 0.26920545143024693, 0.19303508469388922, 0.25716039240512834, 0.03603106656106746, -0.2870132974818219, 0.04489065348958305, 0.22522068165946188, -0.12112808789096731, 0.11177498628056512, 0.27892369345392176, -0.20046906239585313, -0.0397690208859244, -0.0513006816899233, -0.049650906611057685, -0.1844622379415237, 0.13462138050036893, 0.3223597122931545, 0.20226934486664688, 0.059189832109192694, -0.21274872410780366, 0.057328781468224385, -0.14588583839845215, 0.09900784640916321, 0.17667334039426894, 0.19378007687490809, -0.10575192093442705, 0.401916169180891, 0.21323058774313694, -0.027299072883194334, -0.3794768478015523, -0.1654204630063033, -0.03790800750550168, 0.05327908190820707], [0.017602970944351634, -0.024757290263529682, 0.1722818707954961, -0.14648461354883824, 0.010170634038374305, 0.3585921307398265, 0.10297342712616232, -0.0681956285714235, 0.10639718141368659, 0.14125341311916356, 0.04133014893152967, -0.270317879230668, -0.16722924935565334, 0.1457774619082722, 0.059470072470320504, 0.05436016858185824, -0.1180762238154116, -0.049054074654149606, -0.0938327192689269, 0.09413546860412907, -0.3715077127495402, -0.0492909064188294, -0.07348690903044942, -0.038729314144804655, -0.038799991652830344, -0.06666809033221639, 0.08034972935826351, -0.11533540433371385, -0.13853566943931908, -0.08298433370046081, -0.12943824480180596, -0.1308753354699448, 0.1479216072344791, 0.07009403650186041, -0.016775984928129165, -0.066321243792889, -0.16581990058115972, 0.15324095792927467, 0.03163911616399792, 0.022851978300676038, -0.2018595075341869, -0.04137446855136455, -0.0972066757141097, -0.1269523275697079, 0.22110769635121139, 0.16923249263158122, -0.3395803897879686, -0.012504046041353158, -0.22533036574527826, -0.11606911443091891, -0.03966443203796659, -0.05285894561275877, 0.11787587745184018, -0.06036141583660198, 0.026248977198652487, -0.13170140254368615, 0.1378131895745289, 0.014002143236818478, 0.030403287612256497, -0.15109928319490928, 0.2478272706999996, -0.15672088795617536, -0.2121472990296166, 0.06812619135425736], [-0.18143805940608976, 0.1078368146109622, 0.20071467790454178, 0.29266570605467096, -0.06910762097533037, 0.25801844787838535, -0.26870981798333193, 0.1031963322520682, -0.2612289770853383, -0.15348837369725907, 0.16284645617129404, 0.33283509083681784, -0.15127966279660518, 0.16201314151747775, -0.2439430584522672, -0.05865668351607536, -0.18056088897362418, -0.13584350194866637, -0.1629897430831099, -0.2798004974781042, 0.21623236627443249, -0.15786712620062432, 0.12805659728339117, 0.10456625574349952, -0.053679510735497246, 0.1699157855210191, 0.15406306366982855, -0.07110111891056355, -0.4090069085870687, 0.24491277821896604, 0.19858067442391064, 0.08287497418383431, -0.10816391434117957, 0.0850870605769083, -0.1290109842628739, 0.22246609316726407, -0.16904852655333746, 0.09981458577566214, 0.19197363139994983, 0.04031339817389168, 0.23206328770700002, -0.07585601178988662, 0.04308447137768126, -0.0337303400601994, -0.19003274683000804, -0.0036093238251937824, -0.03596504921306398, 0.06616616126700381, -0.22153579923152064, 0.23046503268549, 0.05360790863881885, 0.044339687532531286, -0.07355138440213918, -0.11432626167968618, -0.03162647948608745, 0.09142745738972602, 0.13030520306251026, 0.28204881179030095, -0.17007608898202015, 0.07274384544448133, -0.07949976079105414, -0.3282528554293508, 0.3961437163255026, 0.05021631592055491]], "policy_layer_0_biases": [0.0, 0.0, 0.0, 0.0, 0.0, 0.0, 0.0, 0.0, 0.0, 0.0, 0.0, 0.0, 0.0, 0.0, 0.0, 0.0, 0.0, 0.0, 0.0, 0.0, 0.0, 0.0, 0.0, 0.0, 0.0, 0.0, 0.0, 0.0, 0.0, 0.0, 0.0, 0.0, 0.0, 0.0, 0.0, 0.0, 0.0, 0.0, 0.0, 0.0, 0.0, 0.0, 0.0, 0.0, 0.0, 0.0, 0.0, 0.0, 0.0, 0.0, 0.0, 0.0, 0.0, 0.0, 0.0, 0.0, 0.0, 0.0, 0.0, 0.0, 0.0, 0.0, 0.0, 0.0], "policy_layer_1_weights": [[-0.045222570557876464, -0.03428739661800971, -0.15077365876225132, -0.07354562718189227, -0.017621910423853308, -0.042151024761578844, 0.10359728552589773, 0.04506652641297602, 0.018096011287430172, -0.0023957673469432467, 0.019134554048548025, -0.024174913729321172, 0.23428345563073322, 0.23248301732909174, -0.09016348175010377, -0.0556831152259322, 0.04742068184124116, -0.16204337764786242, 0.05889709081347571, 0.19962353133139682, 0.05151790817671159, 0.13843676859922663, -0.03353567161499288, -0.15090138420937954, -0.04494017897172469, -0.040086743242587076, 0.009817528337516727, -0.12806600034745924, -0.18281296144195347, -0.18062439834024716, -0.1655070283279592, -0.11796986135169354, 0.062261624325845394, -0.10372214336463265, -0.024567743891979868, 0.023283113980785964, -0.18423037729237887, 0.3265449506567758, 0.02536657177364008, 0.011334627418259023, 0.13078943054558098, -0.40700840630162277, 0.1885987557244643, 0.12385549636817905, -0.030999449459882863, 0.1595622205239536, -0.17715315320123762, -0.2103108542105867, -0.10073530690823512, -0.0936241285759206, 0.16705129013192904, -0.2408102547749142, 0.01634889007532071, -0.006941773133262241, 0.023672714459167524, -0.09176206610850952, 0.0034310459629679816, -0.018500422483659913, 0.1455398485238814, -0.09242321294967765, 0.14342562824063082, 0.010720638826820368, 0.29184485720765097, -0.1394227157467532], [-0.0166782822276678, -0.20711922147814446, 0.01715473683853302, 0.1424950368088506, 0.03393414347672721, 0.1299500285020907, -0.07134974062610952, 0.033319666368023165, -0.3494272586504831, -0.14286280331911844, 0.26574725524904425, -0.06445218119389091, 0.16906685383855496, -0.038194712961295355, 0.27883281775426794, 0.18619195852045295, 0.16833525636118193, -0.035860098151286574, 0.05981628283808986, 0.03622373826558061, 0.1656632984989443, 0.10963210653443697, 0.10295426327897808, -0.11470686714385193, -0.0622651099572894, -0.05471276595179664, -0.07289194639704989, -0.030239407554446016, -0.10538458153543487, 0.09065274695524383, 0.027916882509996004, -0.07901574638110871, -0.04990242466377007, -0.16535957788103486, 0.01914001911154718, -0.04613959681923391, 0.13508914810434403, 0.07342875499841796, -0.19294165269291427, -0.02556274389562027, -0.10949168745079875, 0.012102288332596578, 0.09205263951098623, 0.05423855402253464, -0.04004056759241754, -0.0061839875221015965, 0.058831512681519496, 0.11136838011823767, 0.008182152199695779, 0.05998046067860471, -0.06002811598100586, 0.011424105767378989, 0.18650105815598117, -0.008194854440409231, -0.007619801083788156, -0.09373670560428911, -0.20189913577006294, 0.04843139023821426, 0.17786577404521553, 0.16926868338144385, -0.059085566259757694, -0.04234273675283071, -0.05520625462754461, 0.20517925528196854], [-0.17405137124847764, 0.009131820278325702, -0.025687058964848, -0.10215017822384832, 0.0332030141117916, 0.048908109538835565, -0.07581420501756114, -0.1123273424252371, 0.03801437966240405, 0.047094930307853486, 0.07207967439919306, -0.2623651102789197, -0.13894587541328676, 0.06222152559492329, -0.009861818869037588, 0.0284217384111902, 0.06567408064715759, 0.06637301407896615, -0.0915921477970715, 0.06483594407520699, 0.22397650097594987, 0.06604377832079586, 0.21113390534440843, -0.04083948150251145, 0.06241422811704478, 0.013068616716064213, -0.0876208006643394, -0.021887154332938485, -0.08007379269780616, 0.046586991973089645, 0.19521113386666153, 0.0399751145091433, -0.035904972998000884, -0.09031117513630034, -0.11178669384452836, -0.14516902013283017, -0.18586250541266014, 0.08462143282970759, -0.07629678515119187, -0.19932536673322673, -0.016469754179475642, -0.07789556201786761, -0.1211439355946802, 0.1736058345752359, 0.04122289859290613, 0.15009221060765557, -0.15370999764353324, -0.16683814375336503, -0.016751796373562156, 0.108114706608546, -0.11110085245158137, -0.03927239937311654, 0.24683839065339838, 0.1971535688693743, 0.07750188387360249, 0.21283337644703507, -0.1234976100376377, -0.056121414642515785, 0.28385314619785923, -0.10982063442325045, -0.08652176475873914, -0.17053830130733705, 0.041466394436263064, -0.03697382266132053], [-0.1267719091721783, 0.006818450603474498, 0.2316946819690315, 0.003123936037129558, -0.10670984891995829, 0.06619697552256422, -0.159337765983694, -0.21865844041376492, -0.27653314726047573, 0.032136011429890976, -0.0427487645224806, -0.0435833409330198, -0.071311383884173, -0.17654277337055663, 0.03500788745008777, -0.060006564905198206, 0.06560745320097527, 0.002535372928481434, -0.24870431328877265, -0.025161580678072372, -0.06669419132622509, 0.025409128297004837, -0.17290308902248397, -0.09555294799340891, -0.00700551720159508, 0.10324157571428681, 0.07550807395369698, 0.04639471682893933, 0.15090259481515036, 0.15742579902921555, 0.0740530571336279, -0.14276792137847255, -0.04431969705875557, 0.014312615287830158, 0.21911574193760783, 0.3220378819067586, -0.034980647617996644, -0.1636419893420017, 0.1817152699917534, 0.05048141719159005, -0.07299278089252578, 0.11222534626377277, 0.16331411352479908, 0.025156415666845445, -0.04733396490931872, -0.053035984995472414, -0.03879793120653331, 0.2974412124905957, -0.03128568485717928, -0.07407372215770665, 0.04615384599058858, -0.10916799281846547, -0.21489272274242993, -0.18797757242978877, -0.08384908210059258, 0.06956360681044682, 0.08948517490368188, 0.12553455626764065, 0.06544734005541405, -0.10694766372370978, 0.1589875450985591, -0.09575992664786472, -0.01879009683745052, -0.020585583370860125], [-0.2724392088319553, -0.1337451403251662, 0.0773688894370711, 0.013631746613599581, -0.02113593779141142, 0.01690377720327229, 0.0033810848952676342, 0.036524507756134195, 0.11445471137179956, -0.1553368755991935, 0.07751442283463787, 0.0710330026787234, -0.12189482913014335, 0.13854639655034662, -0.10226915711448324, -0.06781195885139935, -0.013867088638975726, -0.1172208491183076, -0.07849288494384417, -0.1990014440148068, -0.21611224020553732, 0.1442358971004387, 0.0905087418901231, 0.07858679290489382, 0.0035033633750670666, -0.07423435830669611, -0.12443210572008788, 0.040453459238002365, 0.02690079457217822, -0.0762023346399398, 0.15891204805166534, 0.03370300484700663, -0.12931958416433031, 0.14285296008613255, 0.23857907693515745, -0.059419387181076096, 0.0680386842176365, 0.22947713929545874, 0.19195978011565434, -0.1478992027573635, 0.12999135334182282, -0.02233842561942023, -0.2989329409050827, -0.10275645123929486, 0.06891479899467956, -0.08825545694206349, -0.17705100820620362, -0.07619127987532949, -0.03785888154874901, -0.07420751557904194, -0.04722994675415825, 0.11588300006700153, -0.0001719872875203894, 0.21179017642123707, 0.002984503161920622, 0.1708961282475851, -0.08831579873634868, 0.08746104007001601, 0.27755121502555724, -0.08773008094413759, 0.2097807658645823, 0.052435296696692724, 0.2355977127745423, -0.07766106559510923], [0.002990723096547102, -0.009075683662028537, 0.16438709591823308, -0.2120877529909292, 0.19427432697212296, -0.0639282132938129, 0.02769309110586592, -0.08735071151585015, -0.04574727374315851, 0.03625730866623969, 0.0710450681604365, 0.06978655239486163, 0.047219380850404086, 0.013298875227311368, -0.001068707464609464, -0.019499851656453095, 0.27730684650806514, -0.05283528416615856, -7.879361480487266e-05, 0.09607271520750732, 0.2500480805952376, -0.024140477309395773, -0.03150021100776064, -0.11674886763338954, 0.09597438406781954, -0.07239250036780312, 0.16280959805407225, 0.032300043772799006, 0.22727624203761376, -0.11523872252984874, 0.09558579800139562, 0.19206105984920557, -0.0709953840799488, -0.13667502980634424, 0.09591569265778732, 0.17112008511277763, -0.08857683097728156, -0.1174874687196552, -0.06884936250796429, -0.024186044723641945, 0.021691883621051254, -0.042334967673435295, 0.05851749570879998, 0.08342327924131274, -0.028632271560807415, 0.0650189072600951, -0.13236831752565553, 0.28692820315983775, 0.09752302131550102, -0.02127268767177725, -0.14593411662714328, -0.2680557993950435, -0.03928597339405764, -0.018872658613908987, 0.08413907500143435, -0.048049342501796405, 0.054734262179584006, 0.11538678694058765, -0.025228706128771244, 0.0027830945342555823, 0.10425616999175512, -0.016682193002117766, 0.14410218845570172, -0.0815064963305276], [-0.1742115029094702, 0.02010033515376795, 0.0033057549319777265, -0.11637382360835852, 0.15825346199037602, -0.1936175052388565, 0.01862389317021598, -0.12276685477442019, 0.04154721225788441, 0.12352394929917476, 0.1609785749601166, 0.05157115582237907, -0.15061188669287753, -0.030203668496513198, 0.03618568690009762, -0.06230150149454907, 0.008384717900056193, 0.1718906146613617, 0.16108883107062205, -0.006358142093611539, 0.12959627537808285, 0.033499014751918015, 0.268211712143395, -0.22516054364684102, -0.044467212664504374, 0.03485709022530538, 0.0407280701436668, 0.21857602163691087, -0.08490233516303688, 0.06828645822868809, 0.04485081141393133, 0.12807308226549335, -0.01852609233602163, 0.015831807194239364, -0.05983389201313051, 0.0927678569827947, 0.009296392778942286, -0.038959007059398136, -0.14575572393594416, -0.09511532479590211, -0.2730010693033431, 0.0638466220728558, -0.03048467019507879, 0.21294867778359594, 0.03339055206827668, 0.0581814893343431, 0.031953790963995796, -0.02426472298216506, -0.08289043436144071, -0.009690575011336728, -0.07116505406833347, -0.08804310033632204, -0.12731619859749868, 0.01917479212845643, 0.05209125514573971, -0.03588130172963203, -0.12450626874532378, -0.02105068103767973, 0.12474780855845805, -0.13303146539444802, -0.06345234880813855, 0.035480890815024556, 0.018252062436112375, 0.002039820718451234], [0.1673282314699312, -0.04719384871410329, 0.04850156766313332, -0.05715602485480064, -0.14169414563730512, -0.057880341720354514, -0.12059687434158457, 0.22056331802313275, 0.0477396901826967, -0.08179198003840879, 0.05258828472467025, -0.08910983876408633, 0.04785321265369039, -0.12250334989965661, -0.0903796320862458, 0.11278024697630047, 0.044758162924456835, 0.06463178335191551, 0.01950655247672339, -0.025690126401231986, 0.03371756656695986, -0.035801537613350094, 0.05556519862122684, 0.08301571608450307, 0.07622196525098145, 0.06404185587009505, -0.06574914652030459, -0.06129388809110545, -0.03383813777751928, 0.060873435591884656, -0.01879045421652481, -0.020786497898360103, 0.07802568498322358, 0.0028873200170895755, -0.14650294789143692, -0.06337395939518317, 0.06532798603775952, 0.09925227798558307, -0.16144532473956838, -0.0016858985574366892, 0.20962524341830896, -0.07728635859236954, -0.22193571829790526, 0.08195129267530245, -0.05977401402134886, 0.09259742622610398, -0.005837359631354419, -0.14964551063165554, 0.062016641060545094, -0.1873592769224348, 0.026497920165418857, 0.021753749439061814, 0.0072969219417367975, -0.008159397533192482, -0.22890370874782157, 0.23121007148115205, -0.06572021508416545, 0.06698350981283836, 0.09955541295250281, -0.016694843745767192, -0.04819277031559201, 0.02411707759677321, -0.07014712908053225, 0.07725512561868107], [-0.13215304707916692, 0.11789382160301579, -0.07537308995944189, -0.006144271792318997, 0.012887403687519379, 0.0028185187448518867, -0.014588928480190682, 0.10067991568106781, -0.0404680281345591, 0.2854750318604671, -0.21821840395730527, -0.0009608183030191358, 0.020758255390313785, 0.07808175685586875, 0.14514393771319595, 0.08681602657401945, -0.0494893032254242, 0.12957252998774385, -0.08997046095092702, -0.07315139878835492, 0.2411453443035186, -0.1619327655870464, -0.12567890634632506, 0.13400180574527223, -0.02202593043230248, 0.08503239163939201, -0.07681220134275839, 0.22200309849337094, 0.12320392107798474, 0.08873098075635269, 0.15309649889369403, 0.06082326447372348, 0.11519260583991084, 0.12679918311107935, -0.04638465950272925, -0.04369405482193594, 0.10240571457907378, 0.1525265503231688, -0.10002687590187942, -0.06364753111430058, 0.06155690930286684, -0.07321824485124534, 0.05140153682168776, -0.05799989339895682, -0.0013510674863881885, -0.06122169764278507, 0.005216154889280663, -0.009441706981751043, 0.2654402212453311, 0.05993012598006718, -0.17522502710037108, -0.1292535404534181, -0.09466457731797638, -0.021597420872342406, 0.01785127742039149, 0.05064249210533893, 0.07757577113494432, 0.005364522954142914, 0.032608984586774324, 0.07196694455504624, -0.16313861963269877, 0.10373652143003137, -0.134460145595116, -0.2927947178330504], [-0.07726285690523046, -0.07415786555873831, 0.04143747511027975, 0.11869496260780787, -0.04231840443525895, 0.02780416229293422, -0.03568850929815245, -0.07770800902543225, -0.02983207652158338, 0.07245914120084387, -0.07794367336561064, 0.0018524366235876033, 0.05602642756946775, 0.13414909614450618, -0.024851241860121522, -0.11569189946644812, -0.24669309429596703, -0.04424075122872059, 0.10942891559862704, -0.04657038700104569, -0.00013684024803291866, -0.1106988355349146, -0.045081056180839595, -0.08204077053891279, -0.2083350291164859, 0.01826021730177739, 0.11023789696588099, 0.06723811309553035, -0.14348355812853703, 0.27596838299454957, 0.03202072354008492, -0.14404576070731884, 0.012374797797031899, 0.25070672362524316, -0.10565867909659502, 0.12788279300526464, 0.25440523899519196, 0.02633082971757742, -0.10780291345551517, 0.1818650566469886, 0.06574217806888034, 0.02498094032530238, -0.010910570227334328, 0.010235925966261985, -0.1688744007397254, 0.04632934075551603, -0.15934773562407137, 0.09467988385078742, 0.2782550443631998, -0.027165144005786034, 0.09537308948831637, -0.08539743975073616, 0.06142533606798142, 0.04389331590843126, -0.3091864901820411, 0.20381202554114805, 0.07591766976543117, 0.007895705045798495, 0.07248611238473039, -0.06518624281607233, -0.05701008186292209, -0.05995870508246589, 0.031763996374070125, -0.19798978124081804], [-0.07089494748824984, -0.2939626832083537, 0.02123159366234143, -0.09977494837777708, 0.19426925832612682, 0.02243688301801901, 0.10858594385382586, -0.04338141480237894, 0.08296511049584385, -0.10032713869915974, -0.03995310393570293, 0.11358480693256187, -0.15485390077748712, -0.11565035437006227, 0.09696302557247352, -0.009741714377953846, 0.030447197038341593, -0.04296785680503963, -0.09862564774549376, 0.051754241573940325, -0.05826188888766152, -0.13868795860433616, -0.014907599194467255, 0.07941668905889702, 0.03572424950880738, 0.005250858472567375, 0.09182996251453596, 0.09377210792890447, -0.1357190857727774, 0.06784893043567947, -0.1325958552914598, -0.021243375887786232, 0.004203421894694541, -0.04549690039438614, -0.02010939603214012, 0.028953399473401167, 0.03970908152428495, 0.02725034175568233, 0.043868535178254515, 0.08324296694459907, -0.009286806083270559, -0.0521880021664096, -0.025521979459586893, 0.2277278033594, 0.03938188383985536, 0.14328391346924949, -0.20766686898126382, -0.06858801522777076, -0.16285921489601446, 0.17292826104152798, -0.04060213397322212, -0.003277986686329356, 0.03252785140891413, 0.15371550663046754, -0.1370069290334309, 0.10784641209908562, 0.12967843899595508, 0.030090539488878108, 0.05424544335909147, 0.07967695190619363, 0.021328053202961883, 0.0848154919536343, 0.06288776132389111, 0.15401489751697067], [-0.0512491832927273, -0.06286746365666111, 0.24366753565367222, -0.024872836430167314, -0.10793893099120114, 0.05886055149937351, -0.13215982407643226, 0.21492830396788648, 0.13847438302614679, -0.20640628902459965, -0.09057022335057978, 0.04225896149513578, -0.034035359381385986, -0.03944414797514298, -0.16921860408503742, -0.1562706174359133, -0.2102989714132619, 0.04934055835335422, -0.005498185810591184, -0.057109173987547536, 0.29725407094466866, -0.24900466524134332, -0.3525419267851295, -0.0008455609560458493, -0.13227120771179104, -0.3347948658514998, 0.01780923655604856, 0.01750930060980536, -0.022946308150556288, 0.08898201061474505, -0.04320491195515233, -0.20694151592563328, 0.0010374099266962822, -0.13533809573234845, 0.14542583461097364, -0.08837850478862855, -0.13193460395735865, -0.04169350615142256, 0.04610256423932605, 0.05307313535466872, 0.3054588025393936, -0.04017270508936518, -0.1249261789452611, -0.31076775115528177, -0.055050510402640807, -0.14104465462288132, -0.05105727342969402, -0.023329205873570968, 0.1254734828092072, -0.018116445599676543, -0.12297302676551015, -0.07027906976871827, 0.07088412254169636, -0.2733739426392962, -0.028502352773480073, 0.09552280316029005, -0.02341126066068643, -0.15892826403392912, -0.05690204265271032, -0.09999228311226827, 0.030587898008107434, 0.11810846996742418, -0.23547338004725413, -0.15283457934823222], [0.14800126354517196, 0.0168820346359657, 0.18858470057544505, -0.0256417062669017, -0.17567168924009405, 0.15026192058424662, -0.11023577811663078, -0.2273771891596863, 0.06743764391046593, 0.16324566471600077, -0.023175372314614542, 0.006160292716501937, -0.060333485862740135, 0.048125489336183075, 0.17931416712436266, 0.2908135625147166, -0.03697814349844566, 0.05904739825021196, -0.0449739402941078, 0.04951601294434773, -0.0464576284464923, -0.20206627730474971, 0.06287117162394233, 0.17711982340125096, 0.12477813070021716, -0.19179719510969986, -0.03959625322554314, 0.20659958095114886, 0.009918210689389887, -0.1364991458866681, 0.048696132973005596, 0.09089928189510822, -0.1252388679911433, -0.015913965809935076, 0.004005838496747282, 0.06804123356239167, 0.14374073006752386, -0.053258913608762615, -0.07283301722986477, 0.035423622745181176, -0.029329675536491438, -0.12961029814640246, 0.15471454329160841, 0.05819613380481958, -0.08037998340547586, -0.025018739827663644, -0.04394212198030556, -0.1832908154874089, -0.17000262774189717, 0.16599081795221685, 0.10349656145865524, 0.15819854944196604, -0.04139805031043723, -0.09762951997704798, 0.15031303670365984, 0.17059182246189186, -0.09983117715889411, -0.15635014840452505, 0.09660122792012704, -0.034769667495181004, -0.10567406316213698, -0.09770944053299264, -0.00021499296055127085, 0.019117133808025925], [0.020576268214742285, 0.05607161648720775, -0.05709789184609868, 0.12301631218159424, -0.21090611854495345, 0.058672681124130995, 0.2953115870543292, 0.007729505420190227, -0.35144885579263485, -0.07036824166499668, 0.15147578322237187, -0.1171022601082375, -0.0436073812819352, -0.23033615622892467, -0.09108482152585584, -0.05566622070072592, -0.08083274876112966, 0.12273873574488509, 0.20721487885468237, 0.16159805099382002, 0.1395430245284404, 0.09571899189843877, 0.09344713354013484, 0.06470739876587109, 0.07952931816726141, 0.03771222376646722, 0.042233185623038016, 0.23576195707408548, 0.20446162170009163, 0.1402696361391266, -0.04887695338181012, 0.040460419579212197, 0.07367284364781834, -0.09429054822031593, 0.15673333600333136, 0.030039609250414784, 0.02365733721073658, -0.0880630973249723, -0.028994547736557828, 0.07116643527850613, -0.07116833609355959, -0.0061571250820431165, -0.05545105166475832, 0.20879642846960994, -0.061399127661194534, -0.06594282651889494, 0.013676815567539712, -0.20206564493236273, 0.1710154926249625, 0.027800557624298665, -0.19243014630768132, -0.07906313606504205, -0.1269802457989524, 0.08816647255920794, 0.18582785788520492, 0.013088016503502286, 0.13716752313807892, 0.07569007608305434, -0.07809991055579464, -0.12973563468918972, 0.09757526282926726, -0.11711485605247657, 0.22601256369286693, 0.017747067996224365], [-0.04537356201086425, 0.23825611116033443, -0.06896617028421383, -0.08765145582295673, 0.11268093393950694, -0.044629935872348654, -0.1997682703468157, -0.07473746139015804, 0.18661264354986598, 0.19230468874811452, -0.15995657820170636, -0.19704050706658285, 0.027564119868285306, 0.0972735595600572, 0.16590265326465978, -0.10389762627813426, -0.10671855478646246, -0.06156076302891042, -0.22008754391584542, 0.07623158761932129, -0.17392751348180266, 0.20048310299808106, -0.030293425213418275, 0.054467958756887494, -0.1404060968383193, -0.16090893737837653, 0.18775853094855324, -0.13985532370953027, -0.13106812353563704, 0.003857125981006211, -0.18309230423215048, -0.06801277482056982, 0.02420397832538969, 0.05699559468389508, 0.14578864181450488, -0.10937055390316072, -0.058841976319274035, 0.04893919861748018, -0.11265976188316634, -0.062206055981895485, 0.1908625300300537, -0.22732728004972688, 0.06792841776209889, -0.15064260542807248, -0.025444021787933088, 0.03239910091832153, -0.22600596270668896, 0.08834728401815574, 0.01452023189438007, 0.001627418917693368, 0.06679625685495141, 0.11483330376307473, -0.017440821958396413, -0.10760137067189965, 0.08514728877303716, -0.09975348875978611, 0.17069009263336335, -0.007064486775428687, -0.12933884020640626, -0.03670073276305606, 0.03252528118560271, 0.0874887749447532, -0.2762365392124725, -0.0032794374765326988], [0.21015623988408658, 0.010698122453608853, -0.009716907972241924, -0.12992455803959962, -0.06745814490063377, -0.06697736592156515, -0.19215643381622072, -0.07031771697665593, -0.28399507097675275, -0.0055240633888955825, -0.18108728915258193, -0.05226874122930942, -0.06900761340435134, 0.04259098302988157, 0.13400483700483934, 0.06628451998614061, -0.12335962021879791, 0.2068756591742874, -0.10604373260037459, -0.10115582302909108, 0.16061827605425494, -0.013203107425210275, 0.0422380556478533, -0.1398407350827172, 0.006293706498645182, 0.025947833481541557, -0.053272172575865806, 0.18157074823822916, -0.13688663156689237, 0.08133110714009247, -0.11252638994887405, 0.09885641491206845, 0.05319140844221803, -0.08771885005632522, -0.24325375830446191, 0.28269669154304805, 0.11608378717472455, -0.0955951547874887, -0.19171592850573763, -0.015566391701240682, 0.052460555589026854, -0.0213751426725643, 0.003893178172276003, 0.07602566203739736, -0.01759829148882911, 0.012323134385258946, -0.25173291036635037, 0.06486717406234027, -0.25248264711849183, 0.09003906468563465, 0.0613989466333061, 0.16864939254596598, 0.1090453475774164, 0.08016597217172826, 0.05013559615489387, -0.131956276673775, -0.38442553876051117, -0.03806732167902889, -0.2971857850870776, 0.16160269351678488, -0.31100090030423466, 0.0032524641962650472, 0.12314807922225858, 0.11443664616527577], [0.2022487188885997, 0.06754189022968321, 0.04166701652755645, -0.15322104489123672, -0.022819099284329656, 0.12487049386639809, -0.04982173715655431, 0.24801241192067547, 0.18702724941694593, -0.005679540325769845, -0.04217406735259398, 0.010574193411847687, 0.06472137200363183, -0.14131236725336307, -0.2867222620289819, 0.09776620000094088, 0.14086511249468323, 0.10187632018522147, 0.02640118028065049, 0.0914610742892416, 0.09030823406619504, -0.0037274285694680704, 0.04418123304043241, -0.012231587847708999, 0.0706364082411992, 0.0017635596553253986, -0.09597553598264795, 0.1383454298860736, 0.10141022134465547, -0.1434830008339875, 0.17185892227710742, 0.06963713989638819, 0.08246346669432195, 0.032101592292570834, 0.038700442252816304, -0.06500617039854437, -0.006607348326861993, -0.2143184558219871, 0.16255428410163614, 0.003222305874701925, 0.10520174829370195, 0.03958631566656505, 0.041309796881070185, -0.038149095843130455, -0.0771247399634266, 0.1359207223411646, 0.18630411378481065, -0.042342761108294664, -0.014209300521613873, 0.12785503883005137, -0.1918294692036677, 0.13716350983894046, 0.19755467497680032, 0.017575966154153442, 0.15541304296111036, -0.14819750142247184, 0.02764756871454734, 0.11899078119711483, 0.2636997372960884, 0.3592565021710327, -0.057023337165718314, 0.02158566743979476, -0.12520155099978417, -0.09372503256463902], [-0.15509248111533452, -0.008710048593660192, -0.09596413785980147, 0.04543916710040146, -0.03941924516278719, -0.2528860519279295, 0.127664741515797, 0.21485516288267387, 0.07698427747653278, -0.1513524800740538, -0.07473639001628325, 0.00903549609548096, 0.2987723573851745, -0.11872493501471512, -0.04624385541172405, 0.15713496521604092, 0.05689464092921525, -0.06923479340703495, 0.0049517362695067095, -0.05982763538749331, -0.22251208144383886, 0.11160695510004674, -0.07021991601568454, -0.20430124191101515, -0.02591844471570771, -0.2552928931282257, -0.28869697151162815, -0.007777011719571311, 0.045526940142189755, 0.11137552268343415, 0.0030351684721664635, -0.11725250661051399, 0.06845222723686632, 0.030992350371330364, -0.1469643715718165, -0.009958044285851711, -0.022141312532246608, -0.1763824190699814, 0.1828315314223037, -0.020668757377725368, -0.04794811826674115, -0.06685215418531378, 0.09151512721407931, 0.04939348207886274, -0.037317999667159776, 0.2746934020403841, -0.1099614271117159, 0.07226539711477381, 0.0796347203299253, -0.17005975972223886, -0.010393498250742352, -0.1587145940046703, -0.08805553134040502, -0.1286422965824874, 0.11302932183223798, 0.17523946291217413, -0.0719987376084954, 0.02058269099495941, -0.1416447265356908, 0.02201842631378228, -0.09612640790332708, 0.023103884775070697, 0.1504041326531561, 0.061884343436683274], [0.002708096256178234, 0.15236624856235745, -0.03392586471894482, 0.13629709755353736, 0.24865800999148024, -0.041753308282828236, 0.06599694517260349, -0.07735760737753018, 0.0011564037499242968, 0.1788258115395164, -0.02539237280402167, -0.014173849620674127, 0.051480560558080646, -0.057404105268007995, -0.0016739839189288492, -0.04954101425462702, 0.004828971199839647, 0.012657711389646269, -0.06263314919565764, 0.1687849102861455, 0.04589876851252355, 0.0835335028029977, -0.15017928504612627, -0.09067474868116394, 0.10185308566895954, 0.16510351750791988, 0.028618894069347724, 0.032245373588711344, 0.07123150126509366, 0.04878465722034896, -0.18982720887184126, -0.06319702146490344, -0.10845604773094708, 0.11467406292535312, 0.03231614851951627, -0.17885945855201668, 0.08825124435476019, 0.03138134702745346, 0.057488842737474434, -0.030840204040951072, 0.13946196464405042, 0.10546475895542623, 0.051718737768062815, -0.021718044705885516, 0.01509157060804457, 0.0046916180254074, 0.09145392240603879, 0.004155854266792771, -0.022259179516908416, 0.0426575067467824, 0.10968057218007111, 0.005764261787424387, 0.03218684914710804, -0.09175619565803073, -0.11468092636519638, 0.06306559026866064, 0.12652607292443155, 0.13948252708787898, -0.043800889704466946, -0.0625923217384363, -0.252266669528785, -0.04926147040836576, -0.04809534365895539, 0.09692244076438697], [-0.04624443719284791, -0.0015192551157332268, 0.18477498936034314, 0.1376050514791255, -0.1075164343715534, 0.05679826349152606, 0.10977540155698391, 0.11504044651462572, 0.15066080165032816, -0.28455518837834953, -0.12000319813545171, -0.07650051816313566, 0.04188206261656776, 0.028608720654145884, -0.23377745886115003, 0.07808717571987794, -0.08378154405975613, -0.0013769949018652707, 0.09397159539798226, 0.09380901883359184, -1.3042060528857972e-05, -0.13379485119165005, 0.11899914625915285, 0.1790235880766905, -0.14561840070425225, 0.034964594915930854, -0.12161328153115011, 0.2641762828744982, -0.1896274283678918, 0.21329505165353366, 0.03617129262391826, 0.03132534446718673, -0.04275409237470498, 0.19329788897408012, -0.012226459472140263, 0.12271861061977811, -0.11699021848926643, -0.20727247293657067, -0.12315016951132196, -0.06721425450080282, -0.277446101626119, -0.06672470094260965, 0.12873556670445546, 0.01310794050913066, 0.013707201487466236, 0.127358556610029, -0.0855493960169628, -0.10105482076394229, -0.09377705903335037, 0.12045698463642876, 0.058336340994370815, -0.06182263396781762, 0.03979424249709281, 0.1936107006325474, 0.1007710512558436, 0.008793786701307045, 0.16024905112054835, 0.005649430617285289, 0.14187481239973238, 0.18487472469410304, 0.24981636420279724, 0.03918428590685248, 0.032908309919261546, 0.11737151171309601], [0.23682951907087593, 0.08173694637380352, 0.07244719407467608, -0.02359494057242917, -0.060077033132878245, 0.1838208755282706, -0.07197055504641926, -0.12329979637615225, -0.014179767264045157, 0.017109519624350446, 0.06541388714201181, 0.031202555596735026, 0.04332596327210771, 0.12518854302657792, 0.015438009907563183, -0.04429131050221664, 0.06471516511256906, 0.08378798578200876, 0.05392284160053296, 0.05484775888588505, -0.08613704662505095, -0.0678656997338317, 0.04281390542876175, -0.04538840501740286, -0.02553080830375612, 0.0093255287230219, 0.09022269393135116, 0.008630595310437507, 0.023299735208305198, -0.07280263972989416, 0.03299271507730554, -0.0976215709606209, 0.24152445106512002, 0.10512283566345865, 0.1292285860047633, 0.2109790064658491, 0.014057884105733724, 0.08211620567099537, 0.207237009594213, 0.2492161046763013, 0.026143441775670226, -0.1455014857569826, 0.19321768303023024, 0.014101063424409576, -0.010867197617016607, -0.029300173556582054, -0.10359729650514166, 0.029651745317837888, 0.040909304007651075, 0.12159057126494557, -0.11048493729047339, -0.09013996142835816, 0.006539800773983269, 0.09015896567406206, 0.0808078110344972, 0.13505291835004052, -0.17111003365509708, 0.06249145018808505, 0.11302514382887058, 0.061964512199573184, -0.11513772701722674, -0.05396179994707316, 0.017930759937985184, -0.07297412457288406], [-0.023780543123691707, -0.10262586095203467, 0.0007876580861101521, -0.02312508554116909, 0.020672616500609173, 0.021013760968632427, -0.06722842668761693, 0.09834478645171042, 0.12701151353577553, -0.029225985747387207, 0.006454696371834286, -0.013481775843539774, 0.17520580298856817, -0.2141830113174289, -0.03142607078015491, -0.0531830365098669, -0.12566899838058337, -6.919925621796332e-05, 0.21413855928669898, -0.010215430130276534, -0.10518906656064136, -0.1049286708344925, 0.06548320724349119, 0.06427237958336186, -0.0911707704113603, 0.14102537783949012, -0.06081952125126609, 0.07682100552986713, -0.03406923723529718, -0.1915597068988579, 0.024372059224941508, 0.13221099117978177, -0.11780932581591151, -0.01537237214653962, -0.22919384497443532, 0.14501911435645445, 0.01604346927393004, 0.10657362971587107, -0.2251638344006401, -0.06785844563574736, -0.08700062883265823, 0.09983790187843833, -0.020222969076080118, -0.03314213326058317, -0.0001464623179498156, -0.07421422447824932, 0.21443138853413415, -0.046681829214808415, -0.051409942476896626, -0.041362811817205, 0.07946199984175394, 0.17783897277702634, -0.18611141325070832, -0.005321163586737579, -0.023716735784419112, 0.17567603688274938, -0.1471050268417045, 0.0283047393967817, 0.034369164879252255, -0.000624988448173872, 0.04235340268074435, -0.14076600720691307, -0.17860941799034138, -0.08430505761389638], [0.045575926067814236, -0.04994161553445162, -0.02605083371898865, 0.28058680386213364, 0.01902653158817525, -0.007683552574723084, -0.04190037402679492, 0.02286698708851452, -0.06533880717378698, 0.12609599011666675, 0.09604826927032974, -0.0410808603280396, 0.0913999681048544, 0.12195736380024431, 0.05526546470662586, 0.18460869347662284, 0.02205011210425699, 0.07298586487574209, -0.06006120599969792, 0.21006046648736454, 0.09907690564810144, -0.012157166622124885, 0.034364423430156055, -0.17759834938909802, -0.14287579912979279, 0.0935099709713628, -0.040935280656492885, 0.12841085195639654, 0.018858341643287802, 0.08856093307558661, 0.1619923855277687, 0.039347060009882216, -0.24652715813453804, -0.09721402943705759, 0.1595855529408989, 0.06528815125619894, 0.020476585671728074, 0.06319665419921412, -0.10354141301347003, -0.003233345697294809, 0.13505984609604108, -0.054139369727714916, 0.056496866968871455, 0.22039034013083464, 0.13511146753004175, 0.03306256628844674, 0.01946157849490225, -0.15217450097585228, 0.1711024492685422, 0.004212177850931292, 0.02489721151407785, -0.16505259969594221, -0.23650942566088218, -0.18140464220688424, 0.08001946031988794, -0.08207284702066202, -0.056745130384569305, 0.09559883561248869, -0.03281480403692734, -0.10734541901529371, 0.010792347642931854, -0.008213615581633115, 0.11310568805161719, -0.025389377446684732], [0.1825066383002746, 0.00035538415050095885, 0.2338245630232376, 0.08143851873125675, 0.07092026697349037, 0.03205703375036202, 0.014665202796158214, -0.035517738128218505, -0.00020711786443718897, -0.11283388827663894, -0.08382255097209193, -0.10435638023285104, -0.01525290534890523, 0.04891115301200543, 0.028611673000278042, 0.06668334442167255, -0.0792154487462943, 0.11920145800999322, -0.134377443505689, -0.12024231010618713, 0.30562238327162244, 0.15115549682349944, 0.060840889669201384, 0.030403711190778386, -0.10747892064164474, -0.1726641975162623, 0.12299488850943244, -0.07362379331822523, -0.007991189439426559, 0.018976553627822513, 0.14729896863519606, -0.055514441311909093, -0.16988787262456226, -0.26379147702085876, -0.013115381769419508, -0.006091538678431026, -0.12006109969755191, -0.15027105044499384, -0.0349692845553127, -0.09046514850716436, -0.004978722072965134, 0.2719346919328379, -0.07197971388882086, 0.14443332361500205, 0.026040257577455185, 0.17219129507772937, 0.02339324030962955, -0.09149768882988, 0.12697288308171498, -0.03422056619386545, -0.0609491379992269, 0.09219023069727289, -0.051936742448284966, 0.040602619873489794, 0.08398448383145045, 0.02471560073892792, -0.1905862275945254, 0.07517931615462725, -0.12032780493033723, 0.10749406343885566, 0.1289904753769292, -0.1936621045558404, -0.20374720747577874, -0.04850737611692665], [0.08029374837413981, -0.13814936269235997, -0.10701352769142611, -0.35506833930233417, -0.17525169736871468, 0.07304316457214957, 0.025645724722263983, 0.16611590008092494, 0.0798262499023612, -0.1131486509832328, -0.3087817840741456, -0.03683275277588711, -0.13506042766259044, 0.006680719691855212, 0.0647772930137131, 0.04338631239162332, -0.2713966537926668, -0.11425112157646947, -0.028153896796544512, 0.08040233745501404, 0.20941958638039704, -0.06264253146840214, -0.08757262968626878, -0.062099594819129196, 0.013903390116694673, 0.22792803112885965, 0.08121422008295415, -0.03158524266652236, -0.15251360488767327, -0.2002005958256152, -0.10461394675191335, -0.07940702184477706, 0.11771301565148888, -0.26746883687678924, 0.016222041861210363, -0.05843042909820803, -0.03717048216213006, -0.12782392920822608, -0.2017737215455063, -0.21628786790926918, 0.06712886699868854, 0.05727425344511761, -0.007369703592128236, -0.142657548226587, 0.1851980001408075, -0.05891158364543202, -0.08440661839084208, 0.08287123147721076, 0.2249407315785525, -0.1008718207156076, -0.009036087281446201, 0.0925120627594419, -0.05819380904255487, 0.3131045082903722, -0.07540027685655364, 0.10466914135877393, -0.04822663992491559, -0.1612184755413157, 0.0622411362615527, 0.004851834127482203, -0.06250375170897118, 0.11780461616397449, 0.01569245762441165, 0.09320484969460947], [0.13128701580301103, 0.2326180007439273, -0.01709626136234943, -0.04183919771009878, -0.007968451964025446, -0.001804071511573858, 0.09484625557801164, -0.15777137903094388, -0.2650669350850574, 0.10951698342760773, 0.14530482212103354, 0.1820371663566694, -0.10571232927680707, 0.07685279181709262, -0.2861633253265432, 0.09968422514656207, -0.03744259780381469, -0.0012417141628058308, 0.19400430155053613, -0.10821302388921658, -0.3651601948128494, -0.11640886825307753, -0.029184313191719068, 0.07365622836149777, -0.19878235298387475, 0.1265365088040896, -0.056487354611642025, 0.041701692746791585, 0.16314941170156017, 0.10042582410495712, 0.16798782067137238, 0.17332206586424653, 0.21383208205011953, 0.29695853504854247, -0.07585656636517227, -0.2331027384696855, 0.0329331612348853, 0.03859093194686732, -0.01304748940562012, -0.12284217235516402, -0.00620635667909731, 0.10499461295246991, 0.02998442495827128, -0.08596713319144823, -0.22481063258280276, 0.17274871431231936, -0.03230140791681126, -0.00496468932585186, 0.10863996283651868, -0.03487530052153457, 0.18052971891251457, 0.05174479302525454, 0.23532544693829782, 0.021264033382448914, 0.08962502796542271, -0.1866777380217414, -0.07979574658766958, -0.03182884565735895, 0.05656612227826516, 0.157430459343291, 0.2747742174624586, -0.17874176269712683, 0.025804374927608814, -0.14252205559431844], [-0.07871537937697641, -0.3110833665634981, -0.13576002663764225, -0.1319486865221278, 0.04077756743475636, 0.015092377256472413, -0.06001432389768829, -0.09006834387281323, -0.14832026134913395, 0.1438963013667323, 0.13578176827258837, -0.1523017513946915, -0.27216006644583, -0.16822852054911236, 0.08144796505738942, 0.08741606590921208, -0.034267867486516335, -0.11031212684555329, -0.2170563454983357, -0.23730873829868457, -0.1802247111047955, -0.08681347498884039, -0.001969270667672576, -0.2861199329141965, -0.06055023225104929, 0.011179912161135952, -0.14127698504764308, -0.0416837695585061, 0.027168305401536832, 0.11434568579102168, -0.11571780185228617, -0.05853579420129385, -0.04508855065469185, 0.01200965531913502, -0.08791148656296888, -0.21015468159066372, -0.21104773115058872, -0.012870165401481445, 0.09193886233478228, 0.08969897848086038, 0.1643115614633013, 0.22387396418005256, -0.259100984664808, -0.020740396438281718, -0.02643858071465125, 0.004863673427539441, 0.05694347080158012, -0.1510799462681245, -0.17141811938277615, -0.11192679388482088, -0.27247132003779034, 0.030367920972803143, 0.16619946838656252, -0.1349792836202865, 0.15486036638027748, 0.14401311298709318, 0.24255742402045027, -0.1187983107854835, -0.128743534933719, 0.029962661988855277, 0.18672724722892595, -0.029910859496229476, -0.19613831677470467, -0.07446281664465007], [-0.012520643232458254, 0.07367282762695182, 0.09889360614250373, 0.3218579576874786, 0.05113773802614019, -0.1542269449848905, 0.0666988777793874, -0.11920174968243524, -0.0055334338496464755, 0.005932308479539093, 0.009873657981707345, -0.14099581225545324, 0.0470787269508786, 0.05642371141228531, 0.0010337419366167626, 0.08435420655920331, 0.048797682726858055, -0.1122109424441703, 0.18936163931041675, 0.01642007392410533, -0.10291849806695619, 0.06221614509930471, -0.04141431368464048, -0.03190914176048516, -0.15642158669078304, -0.04493880181750816, 0.11093319101981226, 0.057880848803671996, -0.06400151577712784, -0.03137971041029777, -0.23931867228815373, 0.03818678260151165, -0.29806249657642436, -0.035809484037049276, 0.06991384198405252, -0.07656698311836377, -0.201487715038319, 0.014054367357462528, -0.066637534399161, -0.09393665601271901, 0.0517833594918021, -0.1384078693703249, -0.17663239524051566, -0.04081363464922293, 0.03439341434004231, -0.12512659173486693, 0.1748966005471756, -0.06458140834674471, -0.12365808234293897, -0.14085141542380836, 0.09300708955757306, 0.2663792641876371, 0.11547870385392392, -0.047909028743107186, 0.2371918702230531, -0.018642127155653932, 0.20848943466125214, 0.003193606230451637, -0.14566358635677432, -0.2279972307316119, 0.05823105405642829, -0.04280432662334739, -0.01662557512239198, 0.005063576849113577], [0.0207643443767161, -0.042787575312212056, -0.1085906237924759, 0.12595191206981377, 0.003141571532648398, -0.13470389514329215, -0.0010397710177037487, -0.12413171847017644, -0.0771449176072673, 0.22782746422146577, -0.2635085510404764, 0.15475102320422468, 0.06038010805602713, 0.0735870624643671, -0.2353207286975912, -0.04327562098915858, -0.24026340981502073, -0.2046306988951665, 0.09197105061461375, 0.13960694137783874, -0.18359923768662254, 0.07477722358053399, 0.11186303228936778, 0.21317641338299803, -0.1762592186572345, 0.12084576882308526, -0.04309159710690987, 0.12664327578388784, 0.0023771120785928503, 0.00413414204222144, -0.019514873181547272, 0.13720347822120155, 0.07969147563620603, -0.1059857152966901, -0.12481956551901102, -0.1368808714114796, -0.08869511181052202, 0.1136502160081128, 0.07858625867351064, 0.011669755975187613, -0.00678010673347265, -0.1703577674018294, -0.0654770719630208, -0.10102595748010856, -0.1330196723698492, 0.0006710788767931415, 0.012387111458667216, 0.09960131352510304, 0.07638481723143772, 0.32276318267723847, -0.09242614594206826, -0.016201363012194703, -0.0611313088202355, -0.0003680623013129134, -0.06865752720741339, -0.10367546587751815, 0.09129843457722814, 0.07737413229326467, -0.01292540817038651, 0.30490953038074614, -0.11339909933686944, 0.12200443424934429, 0.2600629302731625, 0.04461730814750822], [-0.06973441521180931, -0.14113559569152215, 0.08542608539337367, -0.25137650245814036, -0.08446216925991712, 0.04031604190256404, 0.07841846100328506, 0.234502659027407, -0.29548620334797415, 0.04351726218441481, 0.025822041619419093, -0.15675097624705903, 0.1440217338385662, -0.01958932104539324, -0.02281858855826189, -0.1283920483053403, 0.053413818475814806, 0.1382155309730179, 0.044782932719377895, -0.021503464359002543, -0.052015909313565555, 0.20851381730946994, 0.032472923572084485, -0.019128693541471994, 0.027197181902638222, 0.03282296003065227, -0.11480391148221371, -0.06779651720859349, 0.20243322963611646, -0.22330504738468226, -0.10651936658321916, -0.017748097949587118, 0.031565855547295525, 0.17113984560732565, 0.17167201495159698, 0.09128852777095386, -0.08904053051934958, -0.05387886473802712, -0.010364467644730894, -0.08590359582565185, 0.3188716672835878, -0.021772201209386895, -0.08220773465553113, -0.11609191286847181, 0.057419704553164745, -0.21469264962091775, -0.1505856078644498, -0.16633162887097822, -0.05696724537116047, 0.08472868714220319, 0.03267009066084238, -0.013640827012630783, 0.04806789650781255, -0.11670734765728967, 0.03520417280170711, -0.012820651768520312, 0.14919969989904994, -0.06768983901599314, -0.017038987262664198, -0.013841160148165197, -0.0864570338238432, -0.013198795717960756, -0.022061183417782293, -0.041613685522159015], [0.018608628503469046, 0.026774933313223143, 0.037827146169553946, -0.0022272678706451356, 0.356305456734664, -0.19806273154582527, 0.11239729577768225, -0.1117539393383161, 0.06907901935441048, 0.16610568947477838, 0.11862818654908619, 0.12414786906854469, -0.04883581408179456, -0.04076448020347862, -0.031095878517994977, -0.048271735661960545, 0.12746786876426536, 0.08765007092706965, 0.09517819017615531, -0.0015852648942062718, -0.09126581120617197, -0.009248637032848651, -0.18665376671253492, 0.2232580536894123, -0.23717441576387838, -0.03895166107599143, 0.11264561362447173, 0.08187941742973145, -0.04392516199734122, 0.06870585148798589, 0.12193030047269804, 0.10206672126368008, 0.008327572924870536, 0.20595744904898794, -0.08699505246755126, 0.01693641253533009, -0.20178531031368024, -0.09691356173535276, -0.20573404415301477, -0.04312413554218811, -0.046363097729396445, -0.18041582602700532, 0.12218659156573032, 0.1671292005025827, -0.10024208576067803, 0.021373333363426457, -0.24075432981505615, 0.18895003246412748, 0.06791342117364264, 0.006971601735592882, 0.19499761231697485, 0.04957580307263199, -0.2106548935672834, -0.12271828214475303, 0.059157944165848596, -0.2315754122570313, 0.12389487654434786, 0.13205303868854454, -0.12288904729115543, -0.026582069330624566, 0.0009745062207782966, 0.047599541993197714, 0.10583781464410993, 0.03403031023402737], [-0.032151537359777445, 0.06798262342347289, -0.03630117866069742, 0.05854517842176771, -0.1016826721820085, -0.032721154064248976, -0.05086008423860921, 0.09720425486817479, 0.02876387632745693, -0.011972431259770102, 0.06843229929065413, -0.04304606930074127, 0.004518544584332756, -0.01217217033359134, -0.028699634483602868, -0.0681433217738956, -0.1845097435084458, -0.055864442476335714, 0.004664303848109511, -0.0634215968337341, -0.07795503455906659, -0.1431818820385122, 0.07840641002824508, -0.15577356462079617, 0.049481583446633996, 0.15339761819049264, -0.027448630001516705, 0.26389521691937945, 0.1571978207091586, -0.10354444778450002, 0.032750832820059764, -0.027175466056011177, -0.1018510308867048, -0.12887421683613215, -0.23225294032473676, -0.1628100374133337, -0.09065639421952428, 0.11318865733382374, 0.23779593961831516, -0.17832593404233363, 0.17221084678039925, -0.10959570776390411, 0.18021571156750907, 0.26832224482356853, -0.05628509637893891, 0.0877849034259108, -0.03168611213291085, 0.019154112760674857, -0.22270865064195372, -0.0684782802476002, 0.07580439586993715, 0.06984891545172685, -0.04417052422490609, 0.11217935973583147, -0.16050587390100043, -0.262699938954067, 0.04849705088408859, -0.09617904336500871, 0.05102594292851246, -0.39284687011484404, 0.08833932992447757, -0.0643338827697122, 0.13742488884050127, 0.043179010807593246], [-0.2233968581688366, 0.03878169737642288, 0.09883779649542943, 0.1202986839396593, 0.017887041486244173, -0.0021223435728113527, 0.0737685288554765, 0.1276046980528195, -0.0353719105753901, -0.10690793181711379, 0.06607099410256917, 0.03610468526102734, -0.005731071498592981, -0.036634898051731694, -0.1415034014995299, -0.04280677662944847, -0.0042518033066278795, -0.28812263006606587, 0.07697612676577052, 0.2470791358341548, -0.010677406373302698, 0.01727633582669446, 0.1894435871712317, -0.023412798512708194, -0.16171151836521933, -0.2609439714489431, -0.07642655432560136, 0.09932067926569473, 0.08873399093457643, 0.16338535927768114, -0.0438578545193066, -0.11538394207525567, -0.07140790938753908, -0.039608148650504986, -0.038754086610264166, 0.11113334010063573, 0.004882092840844975, -0.12924818139916908, 0.07527152428114323, -0.011723662157252747, -0.0024936616441828307, 0.012910420865627102, 0.004751539372288255, -0.29547254110505033, -0.10151487440905452, 0.013050455624694948, 0.07643047480803165, 0.09542271584846858, -0.11931716994863115, 0.2662287553557762, -0.2567396524005571, -0.19997054683772467, -0.11809233821460428, -0.09564502573188563, -0.1619438741320073, 0.06388925286371593, -0.14418663568878773, -0.051551020659144464, -0.10616446511879671, 0.17933199006139783, 0.15136988254997705, -0.08947876752772564, 0.031782126320191256, -0.34379097208804943], [-0.1098516493241593, 0.1823309238393822, 0.09228091116840394, -0.0049256162841937075, 0.1448243461741637, 0.0560594672651504, 0.06215140059074435, -0.01038475839903524, -0.03759970648973316, -0.19585358757307034, 0.08658411057520002, 0.01029140908082762, 0.22222659647686493, -0.011305283466666758, 0.15366011568917276, -0.05188780573415485, 0.1109492290386209, 0.21120978870872453, 0.03151991107176812, -0.10922333502478596, 0.15986256726808465, -0.11062326751298551, 0.010921461931716057, -0.14841589258398438, 0.11476593808742216, -0.08256045852636117, -0.1959017921314033, 0.006005100050887563, -0.0017723916008806975, -0.09929933335273194, -0.15042588719220096, 0.11774703450715832, -0.1204590106838845, 0.3106620763059833, -0.17547619401752423, -0.20551133868781685, -0.07341884247374283, 0.008964120638067107, -0.1505094958625198, 0.2559333192349736, -0.12841513835950247, 0.011717815611826936, -0.057756175240830175, -0.11598809415302716, -0.06393605434992466, 0.09128171187688693, 0.21725019652679067, 0.05145228289875534, -0.15451400129831272, -0.04733822836369571, -0.17790006852633208, -0.056319449722083324, 0.2237860960072528, 0.017887546861109112, 0.08617125151541219, 0.12623911473438687, 0.42459296619677267, -0.07845654964233086, 0.1575369178304882, -0.1010533614149329, 0.09851379842333989, -0.1479360982393617, -0.004621667113459299, 0.009453218765658864], [-0.03580880719702017, -0.07516595780308587, 0.14157324474297237, 0.073840577820641, 0.1346366946875858, -0.022054614979400068, 0.07092168626149127, 0.0510605571618229, 0.08184215938812062, -0.252418947471082, -0.07437108323715143, 0.05344693490344623, 0.062152561221978354, -0.08596092843488821, 0.10634864022370791, 0.09845647664993763, 0.04276016883125424, 0.04702809397848569, 0.04939721786981246, -0.0920319249256575, -0.11432962536978573, -0.12418280215605268, 0.1868413994911898, -0.1298982929893207, 0.2992693520445897, 0.35196091286633174, -0.032927574817040346, 0.07133879681747586, -0.1873503774972144, -0.11439939763080662, -0.2225635272039889, 0.15741850995506382, -0.055367127046957204, 0.0718107507562931, 0.03526095889671717, 0.08069119292618343, 0.06657671529836892, -0.10929016449324137, -0.1885827967978559, 0.026586684918024555, -0.08811847239101459, -0.02242717216831028, -0.10043217152727957, 0.029776672222396997, -0.02936628521432252, -0.0357720861664547, -0.13557133703528138, 0.14290364387753882, 0.016372615827649907, 0.19044851610913385, -0.03384901599392301, -0.2301679772155136, -0.017945040025402773, 0.20536927595166932, 0.09075183209378708, 0.01183187442962225, 0.055866916012206495, -0.4035528055015645, -0.249887144585408, 0.04361462517174194, 0.14521289367295065, 0.17845001302961488, 0.045401924822249924, -0.014722753098044232], [0.13659699003325446, -0.12777904700278056, 0.19372609576136576, -0.16372957045804115, -0.12477817119469427, -0.08018222396940793, 0.024288052158760672, -0.1225640461008881, 0.24480514508628826, -0.02211149322199012, -0.09877697413979984, -0.163455403354662, 0.08570888000130708, -0.03586934028676797, -0.08058206755854912, -0.04573000637669786, 0.25215653256765863, 0.14517908502512436, -0.17514318056572037, -0.1585609855660159, -0.04090212518995205, 0.02339529963013142, -0.12085951179342394, 0.11045097583370266, 0.20157926958945263, -0.004169846501094814, 0.0008863800266699712, -0.192180102281482, 0.11722687824677165, -0.08098638507932758, -0.04845758873860825, 0.09142331639461468, 0.22166126959968854, -0.1600753554711134, -0.10512192165739842, 0.13121974551966917, -0.0019540769358367288, -0.02308306809115854, 0.07690587725127314, 0.19570026238588512, 0.011747891310854557, 0.22221104083046198, -0.04855483875849211, -0.046002726975239085, 0.07323253487325657, 0.0058972505664979325, 0.1431242140520834, 0.14467576608867183, 0.20589613619630817, 0.10807050270980079, -0.12228305588326026, -0.08514858913579548, 0.1741486794877917, -0.16047258471449802, 0.033620206549948656, 0.1416215177138294, -0.145751924385647, 0.15952620415897809, -0.14360056537290555, 0.11242423727537625, -0.16892332669126467, 0.02329222615914184, 0.012897559184920943, 0.07119517921322509], [-0.05092634683591273, 0.20906191597100526, -0.20610799448416708, 0.014332602441153334, 0.19923384563176452, 0.03409284159516741, 0.2099922450149612, -0.056873947261000334, -0.1405669367028158, 0.05199419919703554, 0.16222845985837042, -0.16951467437778642, -0.028056256752414094, 0.08412229686256702, -0.01681096158650964, 0.013353745388829951, 0.10158986626759131, 0.1542044093693142, -0.021032703233578143, -0.03843022457483555, -0.2032891936758221, 0.007034040123381092, 0.0293836203472127, 0.021385688964636763, 0.04368090999321251, 0.031120309900166454, 0.14713325633263488, 0.021300260454097553, 0.127539755934866, -0.09416297533846842, 0.08003337108709958, -0.30265108543545843, 0.10572790355658962, -0.037089024109431476, -0.013312371445621588, 0.15062091466430397, -0.11323272545169791, 0.023438820386853635, -0.05880205246375292, -0.25008309095100834, 0.0450370966563677, -0.049223100998476085, -0.24128365414407033, 0.005657675370584772, -0.06748158853401115, 0.09081048656455254, 0.037366402504676134, -0.09292252501323357, -0.047716215777029024, 0.10406787125783953, -0.07595785063524964, 0.10656162499341654, 0.15251955420772023, 0.21882722207123623, -0.3357688175665744, -0.12676771842867293, 2.9559138020065553e-05, 0.04035556164461448, 0.07656493930177143, -0.09114221619191507, -0.08572202532517824, 0.09122490530786699, -0.07540782617443473, -0.006894464249630957], [-0.04615138442464918, 0.13806349649232544, -0.13519116609169327, 0.014735832210802867, 0.04403644599375036, 0.014834628833290757, -0.17890097197155755, 0.06809936163802742, 0.0617427920721086, 0.12252800968792067, -0.07857351712448468, -0.0635723042278975, 0.2777507937507783, -0.005774519713739238, -0.2538375617574562, -0.12365910595781687, -0.11275644398237636, 0.19382684328426503, -0.14602945022877548, 0.07749440101219707, -0.018344810895123503, 0.12623377079387957, 0.16326872123786346, -0.12722667185231018, 0.21112542027928427, 0.11809320302576462, 0.1348000114164564, -0.08442515878229839, 0.17365605438878834, 0.013568407578031955, 0.16353926794446608, 0.15227445005621262, -0.10867318336254334, 0.21116301221917927, -0.17767556123525652, -0.07478832798616161, -0.005705281176516404, -0.0653315708808955, -0.21063408881933993, 0.07832197582070687, -0.19095235010321965, 0.23683206276762023, -0.15552417737036667, 0.02845992407177108, -0.3245091080868434, 0.1363054092822096, 0.0939640700906465, -0.11171592595082433, -0.38118647004315587, 0.1538744213519815, -0.14703181002254806, -0.08687374155734075, -0.1135922525836726, 0.04000224389670355, -0.03134825491288927, 0.1282431292020892, -0.04639492925607117, 0.198385797267451, 0.004025856010232557, 0.005257978619516608, -0.19843234785297723, 0.07824127620695569, -0.005515578484792293, 0.10113784769710632], [-0.19241760435473537, -0.04632646624713327, 0.08787977857019363, -0.06967442522047687, -0.1037447012672, 0.06477010943753861, -0.016339699660277127, 0.02883368720185947, 0.06076635253483957, 0.0036484336434947653, 0.006053200736476457, -0.056187827589543084, -0.1998763090184896, -0.04095569734039019, 0.06112612290145308, -0.30989436152124444, -0.07189510247411879, -0.10993682907029144, 0.2983056672422494, -0.2748927587454863, -0.09491062312496568, 0.002640560669997148, 0.2435551917750289, -0.05458622986329747, 0.01517171133141209, 0.00057372335999897, -0.0694943423858152, -0.07596199117965778, -0.0553264454889037, 0.08610263183682532, -0.002785379616310331, -0.02871377911018122, -0.12981342986464298, 0.29975999957847793, 0.2461849129830254, -0.10731746686823386, 0.11577058950038557, 0.20584002811833477, 0.04679469507010843, -0.16159878849628911, 0.10122155423329045, 0.20533692093164307, -0.034397973997212276, -0.10297037412428882, -0.12507918904629478, -0.1258641843621214, -0.08785752057065523, -0.09145300799356845, 0.07324915471414202, 0.2795953290880257, 0.09239530700721506, -0.016388233044316684, -0.013942335259921935, 0.2384754618780083, -0.0022458178279570647, 0.04069721065076489, 0.11437922432504677, 0.12246165797083532, 0.030113877825545518, 0.06561283896102771, -0.008590150638776101, 0.03116710725015152, 0.15679331704862973, -0.02955500302186969], [0.0024749978013051573, 0.010690462463388294, -0.10586663086126512, 0.006213143601666382, -0.0705309114644843, 0.0161428917236364, -0.022164315351120865, -0.09811402477712725, 0.08239330458990705, 0.019938818203833683, -0.24255475327631051, -0.009464128341241593, 0.05620702457132004, -0.03805710929444823, 0.1673829478539062, 0.15681808999021404, -0.23034349562271986, -0.038826398336567446, 0.18973812992042216, -0.09355505856791188, 0.22051851276231546, 0.06938924359112741, 0.13817009373949682, 0.018885060479911318, 0.005597187968539762, -0.017555357395191647, 0.009841692359506193, -0.019543694648045357, -0.1008879229947751, -0.01829288334464563, -0.04084601180173831, 0.07204830082079593, 0.007953509716390141, 0.09961210802225248, 0.09817885764434992, 0.005966914516098568, 0.07224775818762082, 0.029405530082063154, 0.10209396544109058, 0.14058731577134342, -0.02433236350819017, -0.05648246617321846, 0.1029630042256105, 0.06478013144349305, 0.029787262531694902, 0.07713954184296408, 0.07637128217541181, -0.26292904884629686, 0.22790116619215878, 0.24301425121517478, 0.2136712183029268, -0.04086696549553156, 0.19821824662739226, 0.004410318477892018, 0.16707047155087046, 0.0970926772252669, 0.1970210653545077, 0.016346065751157404, -0.03511562103809967, 0.12402856761833361, 0.23915525767941903, 0.015503064631058125, 0.021213182524594722, -0.04166950465298388], [-0.022863902687859056, -0.06124639753580606, -0.10793494663939618, -0.0228962496128792, -0.02765102875413229, -0.17356283651509483, 0.08402323392974154, -0.03912173739308263, -0.02260172633604694, 0.0005608197517304591, 0.0759185653184097, -0.09421834633763379, 0.11545163513083265, 0.11107330136651379, -0.10765408743688935, -0.09577354706484245, -0.16668949338702618, -0.08098320508542017, 0.07472468779250267, 0.23854498420554632, 0.19720782205103676, -0.13850062173482353, -0.051001085831561266, -0.02948178036426762, -0.018725128510042672, 0.10456110756478607, 0.010811652044423498, -0.11984382529081934, 0.02990721063613829, 0.042094038501864536, 0.006657432593032682, 0.13914048727118683, -0.0729486688384792, -0.08716784580835947, 0.12201763936597901, 0.14940509397998056, 0.22089819059924298, 0.03969585189624245, -0.23135025265257064, -0.11386605824620637, -0.15479220189621096, -0.00992729001961571, 0.08201225985725058, 0.1677710531464222, 0.08886367193378142, 0.10469095479085125, -0.07435828480894385, -0.026048750838090003, 0.1880430261826582, -0.03742192536090482, -0.032855315213390426, -0.022694621712321564, -0.1793683493988383, 0.045104613619496754, 0.020865972176993708, -0.07229729707137274, 0.25857903850139846, -0.11751655845627051, -0.07497641215269459, -0.04245974928638809, -0.07830372049769407, -0.2798433187878182, -0.010211343362357569, 0.04177746751020658], [0.02928622764835398, 0.0534350583707884, 0.09046233577441594, 0.024508740618582478, 0.12180821079922209, -0.045078597592912134, -0.19056169302824313, 0.04467270526677682, -0.038370582085192936, -0.102303885878004, 0.113610979536987, 0.05559942132552723, -0.1448438536223826, 0.07428018141968737, 0.07148978332142245, 0.11567746907231313, 0.08785070642846711, 0.17515660383769105, 0.03167204077255594, 0.04656526826048598, 0.03106897638365823, 0.13395859239178262, -0.16977418523784366, -0.2636813873922756, 0.06888335855605167, -0.0709260988337219, 0.032092058274895655, -0.199455972697691, -0.15017392905006485, -0.08770820248456915, 0.09813368224709658, 0.08779490986851501, 0.05895703104753112, 0.10786900665821651, -0.16440785057531418, -0.04152385426764845, -0.04823191204729133, 0.10261976597348198, 0.028007962407847885, -0.05241499625469034, 0.2025487542157033, 0.05413980449726956, 0.2041712701361307, -0.027099144127939512, -0.18836358440064002, 0.12991156033720672, -0.05838099561672584, -0.07466803323768892, 0.15051301494977168, 0.01190993832658455, -0.11664806206924902, 0.28116579902046446, -0.0436636041135437, 0.1688519919027232, -0.06104999031868459, -0.13037927783735065, 0.1779661471125158, -0.25257256179468, -0.14045630743133258, 0.08191028399308363, -0.07968110286065162, -0.01798101465712969, 0.10558227040664171, -0.055093397820244354], [-0.11475792356383284, 0.1399402140411768, 0.01334201287450332, -0.15953555276848713, 0.08888975852153161, -0.005800787221172929, 0.12658204458399874, -0.023164543622686114, 0.0077356646261614445, 0.02193585144707363, 0.04902852770283969, -0.046309211783826056, 0.2130894414710892, 0.09240837209568452, 0.10629883504317754, -0.07236350617771886, 0.1789471764202747, -0.009986241470465902, 0.021537502777785798, -0.03698905923401619, 0.12039448633198419, -0.054399743072194265, -0.0486452243133042, -0.11522224107014765, -0.0032458295660070953, -0.2531174567692327, 0.03894000572313859, -0.0009928615452064451, -0.02650928420953613, -0.08753792584904446, -0.1379588038425266, 0.09424181112462943, -0.09215209323687712, 0.01635442327176636, 0.24085764585734135, 0.048207205901996876, 0.06752506256099677, -0.14218251076246588, -0.01237154712487034, -0.014675439642415104, -0.1820395331923249, 0.10224057540726998, 0.11226370891298731, 0.047380060637638714, 0.2458950676170057, -0.0877179142564671, 0.2264123355701571, -0.1341540508946734, 0.11888482006818218, -0.19743740936328205, -0.07149974208202796, -0.2212709999147279, -0.05618199967429114, 0.21870724260128188, -0.045582453509948856, 0.021541661736560743, 0.07274435407471747, -0.2302029724365606, -0.055793339590244455, 0.14308387217137145, -0.09697780445742159, -0.19479228682340777, -0.23568052860708713, -0.21658775167073832], [0.21866067863557703, -0.16283363668700945, 0.11191582337592547, -0.07166788061128478, -0.18431754344974924, 0.03228855678805027, 0.12728153303028908, -0.0773518775590624, -0.2627177737992475, 0.1004039397484611, 0.0563119554596218, -0.07553556776111088, -0.050294688167050086, 0.02246480710951898, 0.20090474284270995, -0.16451829381895786, -0.10991284673569733, -0.0551319625980589, -0.1502105385639487, 0.1412095069467322, -0.2840935591090469, -0.12687307870332148, 0.03860298556060177, -0.02799415512340184, -0.08503678929348651, -0.030699465369270047, -0.05651194951965669, 0.04854614461246263, -0.0607931713748946, -0.10678350324356709, -0.000543868953392328, 0.2205257010222849, 0.30966751861686886, 0.09577253400326197, -0.04780799440817211, -0.18272523789373138, 0.0705673645969729, 0.14362017149000528, -0.07547544319630325, -0.052208053398654225, 0.163940184904106, 0.014084148493827331, 0.16125721603775434, 0.012462783925622146, 0.10485576113239198, 0.0020978618208535313, 0.0850375288803118, 0.3118476818478738, -0.07206062328361326, -0.06121322880581554, -0.05893236008262987, 0.08518774603847207, 0.024065798581841012, -0.1737563781321476, -0.004328513907132402, -0.18282189432951965, 0.06950452555341471, -0.028101285225869892, -0.16506249833142397, 0.060309195958654145, 0.2752188208265239, 0.08813473658263744, -0.08564720101116886, -0.08252793074819159], [-0.1154407541493683, 0.07449181053661881, 0.11512364832149705, -0.2311468283122032, -0.1321900898119399, -0.10174867683979809, -0.02447957038841917, 0.059130786931423034, 0.06160299132584754, -0.15817916465399107, 0.007007531295778196, 0.20553040004957768, -0.011529564352854902, 0.40670561237628994, -0.2421989904406056, 0.14768133814237158, -0.10142573314620645, 0.0538358971489493, -0.010971139588335607, 0.06508319183777807, -0.09468342793684133, -0.10929246042011236, 0.020848501218513074, 0.03160060797641679, 0.1491535936109976, 0.0678865543201583, -0.22578936573403852, 0.010172165051982953, -0.11617179455861665, -0.008607847838657211, 0.03979446519119329, -0.061443631116728445, 0.0522880015295184, -0.034216715449520776, -0.32571382451849334, -0.2126980846002973, 0.06613250929843352, 0.1680334332495775, -0.17538368062611956, -0.12934519777912262, -0.02150302591783934, 0.14562142789422985, 0.02326211906690966, -0.1044417378882425, -0.10397948011458044, 0.08406802929676553, 0.0020586882871330356, 0.14338215571284735, -0.14745079166023714, -0.054969372837058654, -0.055988188536007136, 0.0009143036985249696, 0.20014911804051091, 0.08459178962368241, -0.07176811770077467, 0.04812191590778387, 0.1027861582761006, 0.21003712260156696, 0.10332045717811185, -0.06104308072997274, -0.11961966715645932, -0.140110796376362, 0.14167503401908838, -0.0026261173644389238], [0.13200931814710096, -0.02224509525741225, 0.19118773113771365, 0.03379647075096824, -0.24298506645754933, 0.14114219052371138, -0.05399142412741167, 0.16534734833285045, -0.14709234769974627, 0.10129638974815287, -0.1066708887989692, -0.03402939219417121, -0.07446292941576774, -0.12042172653086507, 0.07509756310715522, -0.2637869113554136, 0.14431832276674686, -0.11463781679006144, -0.026504788309781896, 0.009193532649887615, 0.005768981157350826, 0.1459755906715621, -0.07311671797887363, -0.12225411877353931, 0.21862346572982386, 0.10274643860271353, 0.04824367470222669, 0.059400137552034875, 0.0024150786350846084, 0.25507331133429695, 0.03859582970329101, 0.2076064969274934, -0.19249525768970469, 0.06704531215734907, -0.17210116339782344, -0.1753400374387422, -0.060612334217570896, -0.17933103354504595, -0.22341879112269905, 0.2496372145630205, -0.25499076010023, -0.04250039836089201, 0.13997057551905343, -0.2565658517130855, -0.027188344360249472, -0.11268043055770077, 0.017783990904103302, 0.10626647423912662, 0.17701039767780985, 0.19538325318998673, -0.06515968091226794, 0.22690565464842422, -0.10240621704882308, -0.08472115087799878, -0.10002578638237865, 0.07124787368546488, -0.06982549103795875, -0.0010343780810067034, 0.13951936833608602, -0.050674887957262923, -0.09936343376083749, -0.23782144621959364, -0.07126878017283965, 0.05183156005013044], [-0.056056077760830235, 0.12225224006698074, 0.0736140747089031, -0.030263090472754578, -0.050848445623533106, -0.07659021981803335, -0.12605168368970013, -0.2014006023037279, -0.012199133920051201, -0.014272330030712165, 0.23763109902578475, -0.0590825133870274, -0.029442088101964258, 0.31321596976100047, 0.039180861668224806, 0.003085083769031534, 0.09445298302357549, 0.03616674970696176, 0.0880205919452772, -0.00048800966701631, -0.11898076817188735, 0.11473262978769336, -0.1423517079326115, -0.005771249469868313, 0.05598553221760148, -0.16991785090671452, -0.15423171651830045, -0.17992873060109904, 0.22572754949438079, -0.05094070047835036, -0.10816524962081461, -0.36524278042951297, -0.0564025158663181, 0.06463743925884421, -0.11175517701548866, -0.062361765701398925, 0.05651509903170158, 0.34482820420200533, -0.20869586703803028, 0.09811224705960912, 0.058167305713845735, -0.2073800648745659, 0.13950904702176675, 0.11459458114342956, 0.0924375348509109, 0.049103274636233346, -0.15648472882956835, 0.07235287067782281, 0.11813369717457785, -0.07990075674485368, 0.020848751552172837, 0.03327743860481587, -0.0075505374629519515, 0.056422743471293, 0.013014353890006292, 0.10397676649237447, -0.0973111690499202, 0.15478559712761197, -0.11875014739718816, 0.10175419570487561, -0.284052499805845, -0.18681820701216087, -0.018166306500239714, -0.1515492216256728], [0.016932377783683127, -0.07607317638551246, -0.0005189795705794611, -0.13408524574664846, 0.04272495174709297, 0.14899261543173806, -0.18498650649778137, -0.047087338345623474, 0.09333996906041424, 0.037086418191653224, -0.042790865695450875, 0.12396954290960004, 0.19669077440816754, -0.008017737462894345, -0.2111642176371889, -0.03369569786476088, -0.08749481000654195, -0.12691847034617654, -0.051346078994042275, -0.20153529999725983, 0.2815615485495491, -0.050277480575811356, -0.12130168611349242, 0.1874535447132043, -0.08556520815340414, 0.036927809199356836, -0.15924029587705563, 0.036756160285986446, -0.0055913712469743354, -0.32870556866133954, -0.017651841743332137, -0.23287945411001662, 0.18481161456943826, -0.1637300200893095, -0.07006947091546004, -0.027681126572098712, 0.052941929690002096, -0.04332153133934759, 0.01775687483325225, 0.07681042068517704, 0.10983369740266323, -0.06467021759261161, -0.20177211400930925, 0.004722568308163359, -0.11885194668890955, 0.04933541509236946, 0.088314078255233, 0.023940453001327525, -0.16567909240218887, 0.09505533523154902, 0.05714251762325332, 0.058455173591991774, 0.07353109892703406, 0.24529601511564103, -0.0001731127921099536, -0.0930779360760408, 0.11336724127720925, -0.015030874966073264, -0.1774421062094031, 0.0009929667328396443, -0.07246299050484048, 0.05536380474952588, -0.1154735251458018, 0.10636377092073024], [0.057719054846257674, -0.14478178897892158, 0.10285742288041039, 0.03859996068884176, 0.19528476573342987, -0.1130017537609452, -0.0684703871553912, -0.002934167665846858, -0.09887325001580108, 0.061631083181757564, -0.20204160576857524, -0.04256534284491398, 0.1648278320991787, 0.2134402323187508, 0.11355428885572401, -0.045709535015270204, -0.04929281091956046, -0.19587905559803387, -0.11469519392704804, 0.22749383407635662, -0.0339779781813696, 0.20145595778381728, 0.18089062617305693, 0.02800098487835287, -0.06461621575157152, 0.13084215746613467, 0.324861231777981, -0.16094755166023333, -0.19188957155750297, 0.14685539244773838, -0.3384668601104586, 0.06505292840799519, -0.06896309863538197, 0.11739430428882697, 0.03483522379490303, 0.24969278395947253, 0.1857608601437339, 0.19559275625570416, 0.11057949305510234, 0.3129357597799327, 0.04589379955069188, 0.06875611471244357, -0.03072355695258724, 0.06637722975970022, -0.0434047579062575, 0.07430106564653793, 0.2731977059634488, 0.04718895264745174, 0.028243736651809816, -0.07517617109795961, 0.08474691737642084, -0.026475408204271585, 0.009856388474208343, 0.0021293872508692416, 0.18053071607695592, 0.021905077079522828, 0.12993630968839093, -0.09806307757467976, 0.06082540805497328, 0.11393901004213954, 0.14439868484144505, 0.04588652968624633, 0.0004434826518365608, 0.05317612401647622], [-0.10617336742215756, 0.24525907661088556, -0.23557549681834875, -0.11757870689710183, 0.10716089732109502, -0.011908985795060936, 0.22466900943935794, 0.1471043012038882, -0.1031739172377298, 0.07906363938460806, -0.16707818608888192, -0.20901655019954118, -0.08956406919696314, 0.2656607179958524, -0.2959833984157212, 0.07473553351771763, -0.05736365753591293, -0.16565185703294652, 0.08621094632105132, -0.2594867557178368, 0.024899578766597506, 0.1348035766722385, 0.16412603102961099, 0.15505729473345378, 0.1449959036222322, 0.015289547679554316, -0.09907061523508207, 0.06592310978458985, -0.05922175152550832, -0.0013568544686354423, -0.06969688456190493, -0.14587013971650772, 0.10801875555170028, -0.1581476471129553, -0.28956859680753483, 0.0009762649470111796, -0.011248391721216723, 0.09336682212516907, 0.06621840692642969, 0.04825862171918316, -0.14265332118052984, 0.214893088056333, -0.2379125461437669, 0.03386786226160696, -0.030153170997888817, 0.298175344814594, 0.08643879147369041, 0.13232010395110047, -0.0065102189792120135, -0.12381101479193236, 0.07996694212585385, -0.028493167775764026, 0.23710422304709863, -0.07393007059037743, -0.022386549533354075, 0.23041092630711818, 0.02599080553217088, 0.010798903393039164, -0.03258268381835963, -0.03469715247959154, 0.06653510842811713, 0.0018706499219279123, -0.09006683365705805, -0.246291165771748], [0.11224710015078762, 0.26715993060493826, 0.16251671715279178, -0.07949565212400488, -0.04215766637084276, -0.16995895948608367, -0.3114525947625034, 0.10221487471591653, -0.22738901110912943, -0.22706664315176356, 0.2779563447771217, -0.11563214340525307, 0.04132496172511533, -0.0059682837634450646, 0.008917345644022702, -0.05174273778499797, 0.18570207276834827, -0.04696014198870639, -0.09886283993351845, 0.18002522834419216, 0.07998091400214968, -0.09215286428926348, -0.23329799162293433, -0.2764820021359567, -0.10089574599530765, -0.04819459562724628, 0.10805038436126878, 0.005667910142794721, -0.018458697909585448, -0.22947021882674648, -0.18845277539202046, 0.001802514711672136, 0.1253555014828595, -0.17663727274401675, -0.01660453348713608, 0.053324366405309485, 0.1155102138210603, -0.026685552496228962, -0.010183627214348047, -0.02689471404369695, -0.08320958666933657, -0.40957205789468115, 0.08068183651022576, 0.13132525380805846, 0.06031430845284683, -0.01496599229344919, -0.09235926455957244, 0.18557187153568952, -0.14391770696294098, 0.08411177597014696, 0.05422503289300041, 0.012055472580617526, -0.1343828966473979, 0.008123656917333267, 0.01684501769447291, 0.12537847365172275, -0.0787249358583588, -0.08916103478240414, 0.06002258863030721, 0.10964083480558245, -0.03695543055082297, -0.18700852633377057, 0.07845182487138731, 0.15278733692811755], [0.12941677597435777, 0.11109629468815654, 0.16712650458489528, -0.13727868239528088, 0.1960355651222154, 0.21583278171330408, -0.142411095759262, 0.18425833611304204, 0.06062700492876222, -0.09754570038856095, 0.128699099734725, -0.18879392571988973, 0.059968957691144166, 0.08986859353743655, 0.10758304726362562, 0.037804073826557455, 0.05152760563081008, -0.09355252023346325, -0.09928889002355575, -0.05560045585770943, 0.18214412549606615, 0.003591844286132659, -0.09575446870879498, 0.07524613724227942, -0.4213360894431623, -0.004853825000000519, -0.20758737840264352, 0.033055175145304844, 0.1582220560852876, 0.2287806096469666, 0.051311722986184985, -0.10435235280882126, 0.17093058841500128, 0.12826058152051784, -0.19062758091431248, -0.10905265226712943, -0.08004191092244596, -0.03675169005378601, -0.08586393779181009, -0.19250810725649387, 0.27553324389426487, -0.07385104159892401, -0.10143138903216962, 0.015501218382383119, -0.06939996585730147, 0.028021133288020517, 0.14648841885581831, 0.00516285394263001, -0.030538287623134798, -0.18943259556912667, 0.1326123405222159, -0.07828846655357488, -0.05978039495753309, 0.06487554994552605, -0.10345419886154394, -0.017308848785716705, -0.015025140255001863, 0.1799456277861365, 0.05394817741468347, 0.005486522237360521, -0.01970903855816459, 0.16045238149214006, 0.042828995752823534, 0.19751217714787705], [-0.11561899247744743, 0.149610527434261, 0.09080836942549857, -0.09000150369450896, 0.05199285659117107, 0.0654128947000131, -0.23494080532410486, 0.14912008865004522, -0.16539148360455055, 0.1837192805918416, 0.21115896602998283, 0.11296950129181449, -0.024039866631216433, -0.15016329001361248, 0.0923197686287761, -0.2965035168993184, 0.17866000845159524, 0.09131654904863432, -0.007660229868785559, -0.04827792130368319, -0.07616826484169302, -0.010443596984163079, 0.041743680878517986, 0.18399769229175061, -0.23864390487702347, -0.01593432634609842, -0.01563629860176366, -0.035727930482564764, -0.023552330859162425, 0.1427762716166563, -0.023916962941177622, -0.005778646152157236, 0.15221937954058393, 0.05195980732819404, 0.09803534641613808, 0.0649634618861803, -0.1486190415782052, -0.18120125453693145, 0.16664477526639465, -0.013510359576512875, 0.13372628870908224, 0.028105349784551894, -0.0234600716175592, 0.10255805216094735, 0.18898134234427325, 0.04164039080397693, 0.14213379064329218, 0.016116026304525896, -0.20132999600879029, -0.028644781039644053, -0.014002267648449281, -0.11746732433326493, -0.060020602741074715, -0.0014367628536237091, -0.22212032147732536, 0.12961022253893414, -0.28435567607784235, -0.2113970948492485, -0.07811324645802323, -0.03257484583000448, -0.031121379544467406, 0.06188770678598618, -0.1286122138682844, -0.07871015469574644], [0.20198366298311243, -0.011528217975029707, 0.2328039762749447, -0.0016013505869114418, -0.12153492594485547, -0.1506642306069223, 0.10288053232138614, -0.09975235306698055, 0.040739496818890025, 0.06873490304784395, -0.1698996924170478, -0.1127281898066106, -0.07011148834688206, -0.09897348308217267, 0.0041673721730748495, -0.1415449104759483, -0.029955822953344056, -0.02967579030368102, -0.25306829012235327, 0.09195556689366623, -0.014705448261466119, -0.23231563176433093, 0.06682149620343594, -0.26259282655747423, -0.08528878115830218, 0.0758746818870602, 0.1607738433143519, -0.13577600437531628, -0.11986558100665308, 0.061646637547697995, 0.32557011136673086, -0.14159579634205013, 0.08819474259617605, -0.11995479845601056, 0.07310135335082475, -0.16481515565196156, -0.1707367842000719, 0.27348553514979157, 0.12134606074646831, 0.11843657198896161, 0.20263600167570991, -0.07817227154875508, -0.01561842560711355, -0.05442329451132707, -0.023273732923261143, -0.04290405596886212, -0.009458386502748398, 0.018661645255382317, -0.012363343803766606, 0.209154929090379, 0.16185564069370353, 0.055740367480543666, 0.17690053431046282, -0.08687977577077051, -0.13630814181081122, -0.07162804316536675, -0.2076233197042136, -0.002665325548887717, 0.04449783615024357, 0.016188301630580652, 0.04605323134430999, -0.06150864762881479, -0.18122777606867863, 0.0029157457691916214], [-0.15678950167174344, -0.24363566597131092, -0.13038338597715973, 0.08491265981193076, -0.19941982763945107, 0.1819379055953711, -0.06729500551205561, -0.11881701608149277, 0.09905907245241603, -0.2382694999626268, 0.19324728726987822, -0.05623863603402522, -0.10032661616819506, -0.1326635002345941, -0.28322019392186565, -0.15603570905678937, -0.14122310295451784, 0.19908733509791016, -0.012018204340385153, 0.0069843587054440135, -0.0784007108180512, -0.2057506137668145, -0.007934327781189979, -0.027610445386947527, 0.12362674774135186, 0.38831944210535024, -0.04264930972863483, 0.08781517048870302, 0.20809857559140146, 0.0010414537482643599, -0.06390954850901064, 0.08743865540034858, -0.2425335759379056, -0.14460145762102875, -0.06932045262251187, 0.09089305540444814, 0.06921419054731132, -0.21044774895649176, -0.1936217394296346, -0.029451939871504424, 0.05652534975979364, 0.008845991622681952, 0.10522256157063596, -0.04900586877622349, 0.1771057560848402, -0.09361924302050172, -0.02237628474027969, 0.11579587917419316, 0.166440511237105, 0.015533340154488104, 0.06140082248088638, 0.003534620447109482, 0.09862835083907863, 0.08750603804879716, -0.017319612062684675, -0.07628768871673344, -0.11250304366052628, -0.06841671980150212, 0.20472206140133958, -0.2590800551712675, 0.17904802428838074, -0.10562697657465868, -0.04062172890550125, -0.23932320260101334], [0.11664686053975644, 0.16446546986477184, -0.08002983530723945, -0.09971570543580602, 0.09384204724151886, -0.0985280204848433, -0.07219509540520068, 0.02098972240909753, -0.034224472730251386, -0.13517148634108617, -0.10300971746842764, 0.038634011537534325, 0.07869703112281272, -0.010799187359233423, 0.03993791128649263, 0.2299639713456387, 0.03160848535253151, 0.2620011949881823, 0.03161226321031122, 0.025898092179164597, 0.062043990748900164, 0.1667927550975908, -0.18023354887759085, -0.2532144373614624, -0.1821921985478634, -0.14292706706004796, -0.04156699893579225, -0.005840044931171386, 0.014335688453179514, 0.09488025648338345, 0.09319152981986317, -0.013675107007357617, -0.1466744006143785, 0.11010640583696914, -0.08244176981124927, -0.15518149007130128, -0.05180683573088705, 0.0023037270697864984, -0.0643092168019316, -0.08409057960184535, -0.2294887561151863, -0.03729384093644438, 0.032849248840282945, -0.10742156113282397, 0.09880353425621943, 0.1651800678001604, -0.025615887952726995, -0.09974219044258355, 0.11725017806623945, -0.20856217737554072, 0.059290144299148195, 0.1361927608068288, 0.004217685018602899, -0.129953764247059, -0.06070195278361805, -0.11134972428585609, -0.03569898576176488, -0.1764199249801946, -0.03715331490880716, 0.17480890762919646, 0.07636263016692538, -0.08083287964563156, 0.022071385153948908, 0.02090081317126005], [0.15585577673237336, -0.07768486463244603, 0.012698708001263747, -0.15891128011269873, -0.14929741451215844, -0.10647667997652573, 0.15874105400139193, -0.06426817973683803, -0.05492948165729333, -0.11430756875583589, -0.21351707813635107, 0.035179080649621955, -0.1611512520212109, -0.07693233411605872, -0.018630455529899833, -0.041592355767617564, 0.05600992216496154, 0.278662223320679, -0.011292462844699218, -0.09574718182059871, 0.1458709562492221, 0.011928884705772906, 0.08858458376328515, 0.037455539557616845, 0.07523331695671906, -0.010461814549941887, 0.0034343097527663275, 0.1006216185538678, 0.10379732347785653, 0.04740827526130566, 0.010029970299764717, 0.16993887296777038, 0.04377610117502551, 0.0857390808502444, -0.06349307606789636, -0.19508699200509194, 0.28106349275351683, -0.026843673466574763, 0.18848313305968709, 0.13397632453676883, 0.08270068828705843, -0.1538874707182322, 0.1185217453942571, -0.11757662965134184, 0.23753505152836643, 0.027466892113467475, -0.06087858030464348, -0.13946833154492685, 0.1315393499564276, 0.20502037986988061, -0.12120481320790222, 0.03377208762737262, -0.13291352100484968, 0.11706431544543155, -0.03584509494481318, 0.04848651890085507, 0.1372939999107237, -0.035003092628720804, -0.018165210992731537, -0.06555577704549045, -0.19177019959945926, -0.05578659394062051, -0.052797137537134074, 0.12667832072768795], [-0.045145143685556874, 0.23452630692176715, -0.07768763975899898, 0.14107475696556207, 0.12877459003002828, 0.04309930951519092, -0.18657743017157827, -0.06716302838666767, -0.1988945470772482, -0.09394820560336636, 0.012315346001446782, -0.00930470719459105, 0.12649364674914101, -0.14781256653608832, 0.05465507919372632, 0.04059547360439364, 6.839222694155429e-05, -0.0032770659087971365, -0.21537802639712395, 0.042240316557570975, -0.06831559857382187, 0.02183633180700337, -0.15226240897991103, 0.030761746551338343, 0.09245756733801813, -0.13526492062100265, 0.20663666688066942, 0.04602466987520643, 0.13065623412370672, 0.07424982057960215, -0.024938097319021354, -0.09102036118372829, -0.18552060082761834, 0.2787310357567731, 0.015347293232448196, 0.05338794468947064, 0.0021474175252930083, 0.04803390756523082, -0.11256623998497942, 0.2011028819317514, 0.04934758133147222, 0.12597929296631158, 0.1698828843663172, -0.10515861991308231, 0.021617959046181145, -0.02114845318849062, -0.20286112919236918, -0.04733604305479347, 0.030462387038331235, 0.10157255062286324, 0.04680785328762082, -0.15703691240534493, -0.041230861485308454, 0.18359657766777052, 0.30140613802406857, 0.07842548843918068, 0.10544352689420766, -0.05936690491145228, -0.03550742176168967, -0.03544837316876822, -0.2404182936073777, -0.3096490011150998, -0.32318100496555496, -0.026672748687152498], [0.06584556567916987, 0.08583328635635426, -0.11028982240667322, 0.014721749785523243, -0.019179254689559836, 0.15069690135368483, -0.06665824307448602, 0.0268872973354118, 0.2706137493290138, -0.009163995103692512, 0.0955189024559361, 0.15031949397300667, -0.11812993825254697, 0.061282615150792155, 0.14906619759183895, 0.1422761499838722, 0.15571385399237528, -0.13059857876096118, -0.18622880418085452, 0.07666860170074806, -0.10191455867080756, -0.1698621055890783, 0.013329486405518365, 0.17503136012444567, 0.11452957645629937, 0.124133046575049, -0.22688322965686855, 0.04504999641651545, -0.13342757860912965, -0.3149707847520791, 0.035679840777662605, -0.14053424834890452, -0.15742886824789726, -0.16286810573242658, 0.15905795701170017, 0.013037958276821686, 0.0562235930194316, 0.10818008258539968, 0.0018020433937027548, 0.09702582635991126, -0.018388652844272855, -0.17963490741863225, -0.09714052244673009, -0.004631021507409948, 0.02138657151505724, 0.07080588823133055, -0.13152580699406952, -0.015013377092406199, -0.07238348937630035, -0.06379101954685633, -0.20176161308416934, -0.1398620153208798, -0.11226097302601215, -0.08914353067064962, 0.004178625162436814, -0.1104828409657287, -0.16101088584543918, -0.13574872480006087, 0.08278208933644252, -0.15664859633752864, -0.1311986592325844, 0.03877460890143524, -0.0432909888940627, 0.23987290166293285], [0.10353618338559449, 0.2195784540870941, -0.33832054753533614, 0.026663542874050778, 0.19996725972194626, -0.017556627114156304, 0.04846861674005319, 0.02007362365780843, 0.14825267235612805, -0.1435856887990371, 0.0018879689103998524, 0.04345510219151764, 0.030141526668505177, 0.1034726745608447, -0.05548459100719598, 0.07111367384921019, 0.010571390314221643, -0.18713212772395554, -0.11778274677795979, -0.096082708438044, -0.13489808702475733, 0.05991732362577221, 0.13684357477017356, -0.03849815824526311, -0.21143754808011458, 0.15475562999865475, -0.03220299194002801, -0.17778947697088782, 0.009673504897954715, 0.17700497498175283, 0.06901853874624146, 0.05881927398462783, 0.014447523899825253, 0.16321552914350565, 0.006897904594688569, 0.05640000674392655, -0.08570936005387014, -0.07817791400117244, -0.04842925208999478, 0.08470545804621084, -0.028748752594241412, -0.012034946117052447, -0.19642845192788885, -0.22080884068917012, -0.002524845305358674, 0.15820328262106195, -0.20942203212218322, -0.13440320096261849, 0.21095732337002554, -0.006491918722969822, 0.022168730254244054, 0.043607846218216485, 0.18952186940965474, 0.03849831648233956, 0.2545416722184064, 0.019680539355006972, -0.12288771455275449, 0.14530480086020978, 0.10307342693429741, 0.2612322051961083, -0.08156600745945881, -0.03238255524375323, 0.4181165964828177, -0.07659159645032511], [0.04415744429480918, -0.11369471084580929, 0.04077450971663961, -0.14315929685359882, -0.10618903750692142, 0.07283336146489003, -0.1227579109883127, 0.08872398252191316, -0.06397888770252273, 0.051512665204939266, 0.05595162761348395, -0.13091676575467764, -0.04190328370953504, -0.11593174205834192, 0.09220946156536627, 0.09368977573617167, 0.06728427395253989, 0.07444098776281821, 0.006266992823338728, -0.05342600745909778, -0.06526640635071228, 0.05775416207114143, -0.035987133006531516, -0.10248475215176556, 0.026084830542802508, -0.11052776771058198, 0.08699437150303957, -0.11820204516398963, 0.1163995295370073, -0.28938199534979275, -0.10746696802758078, 0.042661022421402774, 0.07932616754344696, 0.05530006284773527, -0.09698137859684428, 0.026853807608597607, 0.11351670439994933, 0.2276437134470741, 0.0231813595586886, 0.060287577260059705, 0.10482506960997842, -0.20205061206036184, -0.032186036593800586, 0.07728609171430222, -0.014475905128136814, 0.04899817021270836, -0.07654873867097921, -0.055269026206328446, -0.14356606238702965, 0.07251752343481686, -0.10396202966173074, -0.0037384048392343017, 0.03330067882445265, -0.04929974211713849, -0.03504177834239891, 0.04114895485783806, -0.05354288986059605, 0.08166671468627955, 0.03180884978236353, 0.2012107432848463, -0.10555540941183612, -0.05277970214928136, 0.1470935988009663, -0.20833431019448193], [0.05547918690408046, 0.01739743900230654, 0.017477377356559805, -0.2421766798842508, -0.18160875995480347, -0.02357217726936897, 0.12591523546355957, 0.09792680751306737, -0.2351962107274912, 0.0862469603309225, -0.2548908478431125, -0.24761118968345947, 0.05399296191217192, 0.07142195096155561, 0.052662706614331284, -0.05332868255117433, -0.06061933479772265, -0.012589452561041206, -0.1683100134675109, -0.0994199605124949, 0.057421607552074025, -0.01021225478783489, 0.131127045330155, -0.21953167733481146, -0.14559401173254913, -0.028591318641239614, 0.04171708620416839, -0.07772162070512634, -0.02577892707767733, 0.09921590919647102, -0.053072158737369715, 0.1615775340701779, 0.23638345868476174, 0.25999894287012276, -0.06141238433194327, 0.24612195605435322, 0.004796404921160247, -0.07865623077850349, 0.006060196232512612, 0.06313965758667549, 0.06955652686786513, 0.04841720203882002, -0.005768866197147587, 0.05502207954209084, 0.07724139743813964, -0.16198182332071095, 0.08484354373396093, -0.21932959876367739, 0.1538338220959135, -0.35063299307102463, 0.035280841620608745, 0.103231216656887, -0.1216243961754301, -0.08998050480440165, -0.20599791221786554, 0.08966754293311652, 0.008429041322326448, -0.09946574064555569, 0.02666021842847954, -0.13714832048347336, 0.06287165309048588, -0.1349059270796956, -0.0846754730472661, -0.16611321178562236], [-0.04866647166461938, -0.10473142324893715, -0.010322997159727693, 0.20483620997333235, -0.037222326601291565, -0.03751320525522267, 0.06839962711506938, -0.17142860757828238, -0.05654042662681343, -0.11864008275907209, 0.0070410117101672495, 0.07277669187438691, 0.09160781874264022, -0.10071628095454817, -0.18134949720430374, 0.17088980881061538, -0.2217726538874993, 0.024722547018464585, -0.062149234779594886, -0.004650663296847823, 0.009510251981237382, 0.21782942097915634, 0.11904275823330022, -0.07091676387889795, 0.2560896719971558, 0.02457497454030139, -0.073123306869538, 0.14683440978553317, -0.2420087011352281, 0.12055093334570086, 0.023376570529537552, 0.2643679990971733, 0.2300561596332161, 0.0073532516156130595, 0.24444632216986656, 0.17944005189689954, 0.08843789290567704, 0.3027111156348611, 0.0652917579173266, 0.03905503745309437, 0.00222238430251898, 0.23353316232366067, -0.1880150091122407, 0.12144781725950714, -0.027403863134628226, -0.19380859261811065, -0.026806083969189553, 0.08723363649686387, -0.08092545103555894, -0.01671060817869254, 0.1282612387095607, -0.056819096571454814, 0.05776248425212249, 0.007825514498560759, -0.07181370201017508, -0.007754800689949313, 0.1760481393328434, -0.10503951485385596, -0.23517157816551845, -0.04042725219902807, 0.05932331465615603, -0.041600606188265415, 0.20206004479004694, -0.1266846499294812], [-0.17256866809371676, 0.07389565220139176, 0.022623882461739415, -0.09714374123007144, -0.06416804252819382, -0.18197600766802405, -0.12535492710821644, 0.01857415750822597, 0.2219684611670829, -0.12648877739436318, -0.04918952710241289, 0.07085409753584851, 0.1166930792008028, -0.05809294009839882, -0.007085805676547198, 0.0027849532720124674, 0.027641084017577405, 0.05883538562787616, -0.06962309670577727, -0.17531171280603014, 0.04115257398173021, 0.12059945454853756, -0.02964718215827377, 0.025916566446669988, -0.07181148847838772, 0.14518739987274148, -0.07907872033749568, 0.10300907938364928, 0.23895341323500416, -0.0910654269521799, -0.02582379230138507, 0.1568567064333788, -0.22474024635417278, -0.033386468913614395, -0.01619893460227142, 0.0028949793987971466, -0.003956211832281869, 0.17104724470919072, 0.02236660594154655, 0.09087044421992195, 0.02364492325038694, -0.04508617623440631, 0.22249836193409578, -0.042307620210288346, 0.19311610536101015, -0.15820681860410327, -0.06684628189484312, -0.10987200905630007, -0.2246655394257246, -0.04203289881826629, -0.03667296812830746, 0.18366081581772223, -0.09241068291469463, -0.07555744258271122, -0.00907236617933322, -0.052737840208897914, 0.0265644938674826, -0.22219000051029444, 0.03731273772559826, 0.10106387414836392, -0.31378927178611316, -0.17635378771411647, -0.04362555504690174, -0.17793121316934568]], "policy_layer_1_biases": [0.0, 0.0, 0.0, 0.0, 0.0, 0.0, 0.0, 0.0, 0.0, 0.0, 0.0, 0.0, 0.0, 0.0, 0.0, 0.0, 0.0, 0.0, 0.0, 0.0, 0.0, 0.0, 0.0, 0.0, 0.0, 0.0, 0.0, 0.0, 0.0, 0.0, 0.0, 0.0, 0.0, 0.0, 0.0, 0.0, 0.0, 0.0, 0.0, 0.0, 0.0, 0.0, 0.0, 0.0, 0.0, 0.0, 0.0, 0.0, 0.0, 0.0, 0.0, 0.0, 0.0, 0.0, 0.0, 0.0, 0.0, 0.0, 0.0, 0.0, 0.0, 0.0, 0.0, 0.0], "policy_layer_2_weights": [[0.02935001961772617, 0.08471021950050091], [-0.30477038455522554, 0.19160537815878464], [-0.0906902158530377, 0.010869833925197823], [0.011551239397085798, 0.4636798099791392], [-0.024281532521257435, -0.05765778859634437], [-0.10648000327240621, 0.35275440908938693], [-0.04253962938538327, 0.06255706813968127], [-0.06225225280343516, -0.21892824685451825], [-0.013029930280404346, 0.13941766956924018], [0.2939457798198776, 0.25286575430856595], [0.2658266947850482, 0.030170619300852814], [0.037049559600353825, -0.17740955277861714], [-0.17191967936389688, 0.1581365668528003], [-0.07564143302982092, 0.14084925425934713], [0.036910286586372534, -0.3676278850311171], [-0.07141631547420438, -0.10914273771041746], [-0.016665891640967864, 0.09395102146351027], [0.07209432072273446, 0.2711445459160498], [-0.05664744792066993, 0.04367515202980635], [0.18182135886489795, 0.23124423212118958], [-0.22178142823442626, 0.2235818760306975], [0.25300784159636913, -0.039134985429476896], [0.15121878318914725, -0.001625536987156904], [0.06344694037664099, 0.08869927354566577], [0.3873065047611133, 0.3130084792483438], [0.0005857600470402462, 0.009227396349320802], [0.08564408150766757, -0.3390586588021994], [0.2363917231324715, 0.045603488624978906], [-0.05117354642619146, 0.10006373100474636], [-0.07310698722895508, -0.0615364087334351], [-0.041607551604294635, -0.12260292654001144], [-0.0019680342419757706, -0.040597634786000765], [-0.06257353598741149, 0.00372077295213876], [0.03455061777612566, 0.14165671613409236], [0.10328476114679162, 0.18228307475890537], [0.1918573657910621, -0.18064407418462983], [-0.22525841006075448, -0.03832205771845611], [0.06448890373142667, 0.005957044024602859], [-0.15778492682159534, -0.19768701458907675], [0.049596416767780434, 0.043648767705379496], [0.051331019231004416, 0.3623038063182031], [0.2872883204091075, 0.1530022719830766], [-0.30939325909718196, 0.2608674574835704], [0.17763934621547967, 0.12808214027139025], [0.2657475903022293, -0.3386241861884797], [0.16242554724967648, -0.07216836294417794], [-0.16793571461322174, 0.12336430517271031], [0.33826032203253115, -0.01656433452282687], [0.041131308232759456, -0.046789179252505864], [-0.23152496206590853, 0.010790703499503571], [-0.1961937889262667, 0.11015692928145629], [-0.04302486682130992, -0.10833455144263895], [-0.20918436708273352, -0.164066649775792], [0.5580502038813056, -0.045758817781035625], [-0.10657856151122982, 0.18174109036053476], [-0.14970239346638278, 0.19250826028304333], [0.19831580100886284, 