{"value_layer_0_weights": [[-0.13147623676812648, 0.0342768488814041, 0.06183947577596102, -0.06996925514031326, -0.3800616820242722, -0.0300851219223631, 0.23218380876339526, 0.05499755404680832, 0.03482144344966132, -0.1453545399875884, 0.34006620250168296, -0.3615275089340336, 0.01102017783271705, -0.18006609217730804, 0.011577508164636584, -0.014356160271996887, -0.2738722286351384, 0.16994296080862428, 0.026598948884755492, 0.20919599207205727, -0.11212872742235847, 0.14214875210368386, 0.29769964588719205, -0.2592598824146563, 0.07428036486651009, 0.0765511741746404, -0.15998820389321775, -0.13843858303101914, -0.15771087307723333, 0.004048523092181931, 0.05780262175374431, 0.08036055366069549, -0.07311386402561396, -0.18090333656151822, 0.12204839652715717, 0.12259138858423844, -0.11890648575688248, 0.08299905927900862, 0.1663549538676634, -0.23710055059292343, -0.40143400940209634, 0.06558157030358823, -0.24466758960600188, 0.23932940775425895, -0.019349946717246425, -0.023703093722935394, -0.26941328628094274, 0.026317426150706324, -0.07156837704950071, 0.04780801959793234, -0.11967871906167153, -0.02554528776530824, -0.021551125583503666, 0.22078793167053323, 0.26377158710692733, 0.023312773250731687, -0.29570008729982566, 0.055103112601346774, -0.3119624474608969, -0.32484225113732296, -0.18718640743713383, 0.04667093826320081, 0.02597857143120288, 0.031038234068723115], [0.09590371767696389, 0.002536138807207109, 0.13841579509294466, -0.014238940149086348, 0.20741846983730705, 0.11610773020776724, -0.15955132536939715, -0.023935334354612932, -0.05617291172518171, -0.17331020769918704, -0.03170453100200519, -0.0355236181631481, 0.1380311438567097, 0.17821283324750947, -0.0362219719291978, 0.03245621360139533, -0.26871867895579526, -0.14355564815468277, -0.11611407378587987, -0.08624215616210582, 0.3032030433623906, -0.07959589533465158, -0.14994184195269022, 0.3677053586542414, -0.06006789443545904, -0.09855727132177723, -0.09506959409959435, -0.028268050263739082, 0.07209356724723812, 0.015552221525966527, -0.1827367717321342, -0.044916993224511516, -0.16351697764695403, -0.2730053987143809, 0.031873060770494344, 0.2666357033738992, -0.21029506382118512, -0.09551361440835816, -0.23471472125068374, -0.3783098466394837, -0.1725574495370727, -0.08923823272227968, 0.19234634712315724, -0.08836230102161495, 0.3268213605631701, 0.06958401856095453, 0.05032311020078654, -0.02085533683059851, 0.1439256366400348, -0.01373678962415498, -0.07025357364799245, -0.08304084800467668, -0.2086028509988787, 0.3062000250111538, 0.14989353230902147, -0.5147751200364566, -0.11162741750965952, -0.08409379505918788, -0.1746811547240721, 0.053628656379054576, 0.033724822543776956, 0.07718450813261547, -0.09057042048035067, -0.027653384587420782], [0.11323274380344012, 0.14081745589500125, -0.04668076922606262, 0.2486070777514005, 0.03290196633334332, -0.2172527069462982, -0.2217733587730036, -0.01650578436307932, -0.3482841327754584, 0.20885277526462037, 0.030607212280992894, 0.09381281555644072, -0.10273695612673381, 0.030948628518472212, 0.07371422966319761, 0.11836189937432211, 0.13364301575261361, 0.1960581248802486, -0.05458622264462025, 0.2149567162154985, 0.057123631069142346, -0.17216469391655181, -0.16208173525286387, -0.0007906042600264148, 0.07119467301606873, 0.07499453225756839, -0.15416717897659654, 0.008607510115929183, 0.15684907009793214, -0.08351470409211581, -0.05282164114083094, -0.03334388154433535, 0.026092349792401933, -0.15058245417238708, 0.1795517514619923, -0.08905977743769065, -0.17087264998901727, -0.07522818274262441, -0.17505116043899563, 0.06099233333737117, 0.06650596910546336, 0.18011748071541334, 0.4650491628953833, 0.042826210498987896, 0.10236572688756154, 0.12508069365430988, 0.1310261502320938, 0.10102943783125684, -0.07023623874078933, 0.021163950363398305, -0.3044106915658583, -0.12940086986783697, 0.012109756227314507, -0.004535961398010292, 0.0680995756762413, 0.04020052258453433, -0.06481777318754595, -0.05190867594046642, -0.0711212598031847, -0.06338328888891302, -0.21372786773796631, -0.17901067615475974, -0.1979147341554412, 0.17348642417018906], [-0.05017895230548727, -0.23689421534450072, -0.16471083702964423, -0.024081705450181276, -0.001999951304534328, 0.021161198257318034, 0.1950020484246795, 0.23707186210344, 0.06553182000100101, -0.039121167450186276, -0.4463330382658992, 0.05499717373360188, -0.07922366504658239, 0.1799177561128209, -0.031272100433468696, 0.20301371512071725, 0.00842890306802535, -0.006287568885712827, -0.15429731510599698, -0.1820506987705078, 0.18982038343643035, 0.20156377245420964, -0.21104522032838896, 0.3692047475184467, 0.07979892241245225, -0.20617331988755763, -0.07237457417641767, 0.22126586178592397, -0.3609300662271644, 0.39617196505572555, 0.15755240800056616, 0.050227287859339304, -0.3186029023806295, -0.02407448689943268, 0.08625996004335902, 0.15271927308371064, -0.08020266956326991, 0.30022267832663335, 0.09129117264425644, -0.12639219448307623, 0.10753226930696554, -0.02556763553777042, -0.2636636461800794, 0.1984565738426, -0.07064950962546267, -0.09566793880015675, -0.06092407169132484, 0.007267921454090331, 0.09230903977042937, 0.027931414808159215, 0.2734529790711743, -0.03174607407116907, -0.03638016307291289, 0.0953615129864745, 0.07073807601905047, -0.04093049086653958, 0.0304116083688707, -0.21892774354572678, 0.4292272429918813, -0.34043098356657864, -0.19848516507289102, 0.1354385483804009, -0.07441034748526765, -0.08545443133578375], [-0.1734936594242815, -0.006037067516816469, 0.06341479107396435, 0.0008882809946088319, 0.06815031544915685, -0.08235955245162013, 0.005284205278989994, -0.04620159673228766, 0.31860443640007347, 0.04919310449368034, 0.3340048278766097, -0.02643784133459349, 0.010994140420046414, -0.14794238637984625, 0.02565564319912423, -0.005675653715942245, -0.19370932215594788, 0.12393511945106434, -0.1839701143734351, -0.019773019583251315, -0.08661422191678307, -0.10935574271069068, -0.01405297866142226, -0.1962130982889019, 0.1217547957163935, 0.03502833872150559, 0.09695446443970535, -0.13419226803251139, 0.14157708150263074, -0.07241157059025191, -0.02871492408230095, 0.1492264790762931, -0.018408856346422024, -0.11436608599637238, -0.057474314372328285, -0.0023027916588531047, -0.08337153581648728, 0.17855756718393245, -0.04117054535930049, 0.22768136770008893, 0.08545133956026457, -0.037845393504150254, -0.17217100163603793, 0.0997533177689273, 0.07265601909124601, 0.1078367345091441, 0.16048275310993013, 0.11659216238187602, 0.11626735342030944, -0.2366847814344004, -0.004390216311624189, 0.26226025199823705, -0.05149322301746112, 0.31099197793888345, -0.04371593041608088, 0.19854950849674133, -0.12626669392655598, 0.05997973463062517, -0.16278921086757409, 0.11640235179800548, 0.2528916302636023, 0.022528530454831563, -0.3065857226719602, -0.19012655235479348], [-0.23158730379330014, -0.30541705421657417, 0.11045330516070082, 0.12671933607126948, 0.12729929277869287, 0.23779695024951558, -0.2343281961827617, -0.007488770766510698, -0.1401276964433759, 0.02817319353818574, 0.1362991575238064, 0.04909710488683574, 0.3052210819880346, 0.17506375332267202, -0.1335492848143842, -0.43349699398730207, -0.0018884313387706022, 0.19905506977839696, -0.08246366991264266, 0.08095407263895932, -0.027559024567362214, -0.056585389952539464, -0.021417077823932998, 0.21552599026347163, 0.15563151660916907, -0.04980616249566194, 0.008252394430447863, 0.15815881099070356, 0.08727892073575859, 0.04985912154075513, -0.04053117612495529, 0.09451458411377389, -0.18536118955731992, 0.14619560911527968, 0.00884835214838002, 0.16064994382321934, 0.17652209907662128, -0.14929382398627605, -0.05964747669814196, 0.030584184245169323, -0.24139473219365457, -0.14267244619727984, 0.021430844475104197, 0.12826149654821617, -0.005828054302473347, -0.03958626943203912, 0.3911602897888501, -0.2193823904534985, 0.17155136104000532, 0.21338549770974888, 0.20429183983712074, -0.08310772229542117, -0.09870338646015456, -0.33261316933170165, 0.30002151611281885, -0.3483804915490391, -0.19024342767251184, 0.14034114822216512, 0.15416544907454405, 0.18689739175868594, 0.1800309824624543, 0.0022564889316169768, 0.02094822382350873, 0.21724719273251777]], "value_layer_0_biases": [0.0, 0.0, 0.0, 0.0, 0.0, 0.0, 0.0, 0.0, 0.0, 0.0, 0.0, 0.0, 0.0, 0.0, 0.0, 0.0, 0.0, 0.0, 0.0, 0.0, 0.0, 0.0, 0.0, 0.0, 0.0, 0.0, 0.0, 0.0, 0.0, 0.0, 0.0, 0.0, 0.0, 0.0, 0.0, 0.0, 0.0, 0.0, 0.0, 0.0, 0.0, 0.0, 0.0, 0.0, 0.0, 0.0, 0.0, 0.0, 0.0, 0.0, 0.0, 0.0, 0.0, 0.0, 0.0, 0.0, 0.0, 0.0, 0.0, 0.0, 0.0, 0.0, 0.0, 0.0], "value_layer_1_weights": [[0.21847606647529264, -0.12756764545132696, 0.05699220300534181, 0.04016308273489644, 0.2210610428006662, 0.07890719889258202, -0.007267272477497939, -0.23371940065528865, -0.2133918554594973, -0.08466634979551016, -0.10141314049994717, -0.16894526179688324, -0.10539257769033965, -0.05700102672869243, 0.2194513201792069, 0.002793698077491155, 0.04490247696309311, -0.22306828066020318, 0.07809013139368598, 0.021732414611290697, 0.17205819670413822, -0.027085588950955537, 0.08404935854953313, -0.04926253999229411, 0.1301894581321261, 0.11379989322746396, -0.04569195345071004, 0.187838384473073, 0.3332234160194603, -0.21423484800308756, 0.11819369364145617, 0.04649982481008505, 0.0017271025608366875, 0.1517156750817435, -0.041262816721511185, -0.1663304473043075, -0.06682607632169389, -0.07622899646751988, 0.0037705248141472083, -0.17868293042848987, 0.011530292157907983, -0.1824642248232435, -0.05802733775567911, -0.01998083070331307, -0.03580444959776018, 0.1582276708760943, -0.04250239202157876, -0.1775801322594025, -0.041938171246050884, 0.2820876381706039, 0.023040436313110316, -0.27575373296590033, -0.11707254694153345, -0.18390920090252286, -0.14440216535298073, -0.42405373535572044, 0.04544434462277492, 0.31339645405722943, -0.00576208915155242, 0.07957055653118168, -0.1843133172653049, -0.08801206031869974, -0.042607909812662347, 0.09977780025338258], [0.12433754551687103, 0.0010340711318952585, -0.06986887370441476, 0.07997756982957463, 0.2154574109924204, 0.11180565881120039, -0.14854885213365185, 0.09729048839816737, 0.05489562907507595, 0.3003041016218571, 0.22542549391681316, 0.06465184096662795, -0.012561471292091054, -0.08451865274972013, 0.06864058862912668, -0.0232740833153077, 0.026590744778590268, 0.04081728676023784, -0.09476340957926306, 0.13759224820833107, -0.0443139233345078, -0.14014442629149787, -0.08514960120799962, -0.048411026256525186, -0.06871004484404906, 0.08419117022452728, 0.2991580656121488, 0.05804918305587812, 0.0916258866867063, -0.14687263936499095, -0.07650540771161105, 0.16085691623983434, 0.13316130323535852, 0.06478477024195829, -0.2551153191628373, 0.08994285335484951, -0.06777879026885478, -0.012224047917617957, 0.17861449956683026, -0.045711738735203886, -0.07285755967581496, -0.11170067686568025, -0.04668928887862082, -0.13814311749825206, 0.1656834201251634, 0.06925373236167445, 0.2416853929696234, 0.13609987400705276, 0.14153264555297643, 0.052766868143622955, 0.15241957810735046, -0.3108252921720741, -0.21167395176824988, -0.15336561991076336, 0.23942836385943375, -0.23979905929060893, 0.029581213895061412, -0.0739899346958054, -0.04565355404873574, 0.07711990606535869, 0.04902387240758796, -0.10629059101666612, -0.04513030972396351, -0.1352856517517689], [-0.1470411437042626, 0.019852346335611407, 0.048860719211559274, -0.22331424377945297, 0.2783171686556479, -0.03312347296186594, 0.03128494570967876, 0.18308895385433704, -0.04874779851567527, -0.05781216964117188, 0.13043390877155805, 0.1327802640644844, 0.15635244269531562, 0.1919689892260061, -0.044857608298725156, -0.10642917152497862, -0.010158034264920405, -0.1355408746675165, -0.007845139937077012, 0.14640683941997182, 0.01748260037480072, -0.035833719301855645, -0.1770773732123543, 0.11495922513823642, 0.029318682444212932, 0.022907373903962906, -0.024179563801077414, 0.09282519515682787, 0.06828395769721414, -0.07341362153371538, 0.010083383454209106, 0.25387611897689305, -0.15099659629905793, -0.032885589149207535, 0.004291881217828938, -0.15679542840244545, -0.03745051782835048, 0.08578278871595822, -0.028797205244091927, -0.15025649804409072, 0.19789473094218107, 0.05619987916326368, 0.15310151417138135, -0.11064933082411506, 0.1191200495794293, -0.04294928955506192, -0.08987020341342411, 0.14867264327607999, -0.029950101127936744, -0.022567650487277217, -0.016014009815627922, 0.0823456429722358, -0.024390949880117477, 0.032582617412457784, -0.12342844505860252, 0.24099496483881774, 0.07415423105123478, 0.17354277081151923, -0.2561491346362866, 0.03001621005480074, -0.19697804555549073, -0.02400033467719418, 0.25078614130238513, 0.03466809557506731], [0.07962321612846812, 0.25274279868052424, -0.19394952235006882, -0.007302918350199955, -0.05096137736784731, -0.002341293490558012, -0.2109620850770471, -0.08327343940903904, 0.23150650419747218, -0.23900424363326275, 0.1577608127143051, 0.04590739602447532, 0.0724948791923931, -0.10708029358330874, 0.14573058735704852, -0.02163886017947838, -0.0034837423422573854, 0.017525341756095218, 0.20537723917738804, 0.1909033018612152, -0.10739016633489969, -0.057566320791165346, -0.13546195344126497, -0.09980046455979409, -0.05700501516471529, -0.3804799385751436, 0.10705154510748482, -0.2273077266156441, -0.06683181700008213, -0.06499649770950429, 0.09071119736748016, 0.06866309140030477, -0.0776260003373388, -0.16847089729763606, -0.09808905230936328, -0.01720303067273054, 0.02022791389894291, 0.22088129659158168, 0.010946391964874066, 0.23394411548919766, -0.15891025350836835, 0.009027291210134097, 0.006198453424368382, -0.12933068477391904, 0.10335724740525132, 0.13287071457469415, 0.09586450341277758, 0.2283082969227546, -0.023571974677250335, -0.023230545027310066, 0.0037717843970778956, 0.0770454897100909, 0.07143722730974446, 0.07931049228865543, 0.013161023828026851, -0.04352835502785854, 0.06718317007970546, -0.010334068807452156, -0.19099307488324457, -0.16479901419601106, 0.0011415196315265365, 0.11948811516807264, 0.11103562347686476, 0.08496660117614457], [-0.10150013903055338, -0.03483914144251211, 0.27803126172215153, -0.13447228367336733, 0.07033960715761438, 0.06347547099706256, -0.2342623923859564, 0.04555540131677884, -0.16496451101623152, -0.09597246494176485, 0.07106542390057935, 0.050677443325615294, 0.027985560346048214, 0.2591047292610481, 0.1893249517495828, 0.18017553169633485, -0.058381193849377185, 0.018898981104249295, -0.024769562740793817, -0.048294269572349696, 0.058704083549299596, -0.08352333393117865, -0.01336691466583929, -0.09757612532907411, -0.061776151852619726, 0.07764576196370722, -0.28063023494289163, 0.16355383514470984, -0.16723541315230706, -0.06599302469259963, 0.0499109791701653, -0.155159866265219, 0.05515920179023891, -0.15871347052293394, -0.05945170708931426, -0.030007143983388756, -0.2322722420360987, -0.0867902260859735, -0.05100624115410333, -0.22216546933964285, 0.020542956263815654, 0.1521152051951968, -0.04596530997448518, -0.00816934744023244, -0.11217827378309463, 0.17503395524079418, 0.026042946527445564, -0.13054698487506777, 0.10059203864728655, -0.02208053770202542, -0.09256504824945394, 0.11369309197814739, -0.182668798656841, -0.05139130341521803, 0.010549419723877507, 0.0780339104784357, 0.05550054143878107, -0.07912665500444055, 0.052753153233277346, -0.25670963564670635, 0.03770390052558694, 0.005965413044735956, -0.12567229095757487, -0.11942401932311676], [0.08706233613925257, 0.24750252127008132, -0.0269214937085883, 0.047946428549104955, 0.08746383970215854, 0.08163430000853138, -0.014111242649307618, -0.04614540524844334, 0.0007523084998901115, 0.050388602215766846, 0.09206070096824055, -0.09698896337041382, -0.03158978900452013, 0.06124112153758324, -0.0243523409928818, -0.037393937156465155, -0.05556970665059536, -0.11638959804347376, -0.06463567444838898, 0.13813844217565502, -0.022618771342843902, 0.07717213889812896, 0.0014874970929199345, 0.10661569261236126, 0.10466750284758967, -0.1476831554642946, 0.07571712350985936, -0.003710963567513057, 0.2439906132883519, -0.04740513524950454, -0.09547113893625143, 0.10273598596729094, 0.18558677914789456, 0.06982774106138201, 0.05622057474859828, 0.0002722533826538128, -0.13629234723635036, -0.06296890630111979, 0.11490529850368106, -0.01924513489765891, -0.08418209586106151, -0.04619283300498909, 0.038075933234149366, -0.13601907118766884, 0.18755256007520799, -0.0572552087230456, 0.03241991062439661, -0.13900224920997786, -0.16789840577105994, -0.17136300145240319, -0.09443950080158799, -0.11598347439211962, -0.012129094083654701, 0.015345954819316054, 0.04421223263122022, 0.006136082706472119, 0.1335837689733901, -0.09506120095788799, -0.027524138561304347, 0.1256643399787806, 0.0025052629412522557, 0.06874448811330375, 0.1323949863275579, 0.08714643084481913], [-0.09587433570533326, 0.08510168485280624, -0.0037061835399255583, -0.05984463771751497, -0.07535437225309868, -0.0078899407454497, -0.15423607037113532, 0.059975574762838, 0.011171838322071402, 0.25162380716423915, 0.23446691964365068, 0.1272115796939098, -0.27165346659802625, 0.23595098383594307, 0.06580807144621127, -0.38415937672274775, 0.058238725026936555, 0.03652403867639802, -0.024836485097544006, 0.18218968977074773, -0.06734314295090174, 0.0843695283346788, 0.14283724091997524, 0.16773174575806749, 0.03571343493476773, 0.03535979133048184, -0.03318912359899259, 0.026381248991807753, 0.05398860513933005, 0.047426153297949566, 0.08444437915039904, 0.11175364238411223, -0.02826448060062262, 0.0035052632669892547, 0.06592137763737736, -0.06522056910789885, -0.04261793019543233, -0.08736870190909639, -0.11043054010445669, -0.1572825238618207, 0.057010866753385486, -0.031790736210227856, 0.12038387532525073, -0.043711676150516354, 0.011833335118861067, -0.05826058120410067, -0.1358691485954637, -0.006612371284497676, -0.16238118735097087, -0.03623034169864968, -0.010005110329599845, 0.0245029525328971, 0.12397738814643099, 0.14717163770130043, -0.0069973504186847555, 0.0968739742812457, -0.06528467428471751, 0.13393049559519046, -0.06564972085533796, 0.007531629443119713, 0.017244773923095653, -0.16550056561672882, -0.012537703423091597, -0.10056452591432098], [0.03808693204825001, 0.2223816413327038, 0.08552535629884155, 0.26583392440018133, -0.07760110321096254, -0.041467833200374546, 0.1458365086721744, 0.06295164154016973, 0.1798641474841524, -0.0813879549084177, -0.1912820171604453, 0.08478780924522071, -0.012157388357551853, -0.08700266855039294, -0.22399736713923665, -0.01269067419514733, -0.0657870858869922, -0.021762067761402184, -0.18297920130285641, -0.019710242052922444, -0.17083575692809658, -0.07463638177798898, -0.09054677864785406, -0.11992300540438128, -0.07767048583290734, 0.010966375610025064, 0.031710306212926455, 0.16579484675140826, 0.15650682274726022, 0.2109745448647636, -0.03731391940022772, -0.027749887604553294, -0.19674787972741253, 0.2289132093288505, -0.024395271059030776, 0.3506691451849972, -0.2630061959097343, -0.04428328932197466, 0.07334802485177827, 0.05477491884395107, -0.005040466095574964, 0.15277326243458336, 0.06136013837187118, 0.2835427298352319, 0.19161267792143333, 0.0497494210617547, 0.12305144497020583, -0.10952809608239544, -0.035583218178649914, -0.07277485983663498, 0.09207707524511864, -0.19374137681702527, 0.01577454776297639, -0.1784885543101713, -0.08825501614178323, -0.025373063219345113, -0.029324095823391867, -0.13464021673249235, 0.04601842269364562, 0.10411210543976977, -0.013706937000789366, -0.056300317083200165, -0.02241474081223597, 0.026162667339704022], [0.1379942609111183, 0.06341954237568208, -0.12772203068729904, 0.10512810677591641, 0.18032699965644913, -0.06949767401331694, 0.3003244024691591, -0.17302396646951354, -0.19493348879315386, 0.16304986389956025, -0.10062956329535173, 0.010234381888808743, 0.04877675686064726, 0.12018412294165001, 0.17026007165324564, 0.05106570619965882, -0.1809731957155099, -0.004631161487229734, 0.06263314287080378, 0.12815490400849638, -0.23034227624164066, -0.04874944671064811, 0.054584607790927095, 0.08743477221529769, -0.010930691818544043, 0.10586532704771216, -0.011353740563550029, -0.04584710981885801, -0.17453920505849388, 0.04386540400415803, -0.07029487915351236, -0.06906774616517827, 0.06115393692142874, 0.03709841313905662, -0.13301029601773198, -0.14597397028652012, 0.019361588531779595, 0.09361420386619958, -0.1590904928598218, -0.23528203427998204, 0.03325727736459635, 0.18954827092503285, -0.14018983208178618, -0.09977546394629927, 0.06664757961086719, -0.10078062359622955, 0.007901996993731397, -0.04817567214713191, 0.3914548495260596, -0.08921844496586652, 0.16328410377468616, 0.030573494829796998, -0.03361238697057898, -0.0188962525850579, -0.021910998793823612, -0.04600649082891497, 0.02925363304424744, -0.145396551515024, -0.1222261485166884, -0.14223667171720716, -0.04497937570528672, -0.20480229909461647, 0.014431522259569212, -0.17169520734117208], [0.1451796452680901, 0.11954488767471125, -0.13617158809895918, -0.09403339621422434, -0.030371687145761328, 0.047459477507505426, -0.06197187389682394, -0.3581110951427982, 0.14107192991832743, -0.0639492964708532, 0.034258080309945246, -0.2699358035649369, 0.011173704368086184, 0.06883641641103334, 0.10400911717434326, 0.08528650059265111, 0.00982262253017231, 0.004530156947246024, -0.05713176105432882, 0.12005258085962386, -0.03748408323597946, 0.1438445181823889, -0.05489821705469181, -0.2984827143552806, 0.1550576946187665, 0.20843423606360867, -0.11345002260575857, -0.27136925105625676, -0.05994560744462774, -0.032912294941381905, -0.03983675342866537, 0.13155745840735433, -0.0795662238370724, -0.07794398635905203, -0.2018171239351692, -0.0959568358900023, -0.025697843655621205, -0.07443972869772199, 0.07212783577698229, -0.04330654919360069, -0.02294283250737061, 0.1689105147684723, -0.042217593168541706, 0.011874691280810756, -0.16914024232882982, 0.045402269622500525, 0.19662383757819568, 0.02671275874544353, -0.1260168313417879, -0.14923212094820784, 0.005650961840406969, -0.07108864247384147, -0.1375319926832314, -0.11669045741865698, 5.050886016286306e-05, -0.14074230061317614, 0.1633420167287178, -0.06488397569722838, 0.054125120351009894, -0.13676986616680034, 0.19489567613909511, 0.09521030869927695, -0.15051644407771986, 0.19360037493146087], [0.10136237619433322, -0.22518583375535303, 0.2731150385219325, 0.08137589306130671, -0.08029582617487414, -0.2849849191208422, 0.013462669694275623, -0.011484844585929122, -0.08988328273592178, -0.19155151452228356, -0.17469580228297094, 0.07271095095881144, 0.05015870595919871, 0.22223767439390518, 0.011755859464543135, 0.04976251322652335, 0.07964150072233317, 0.10122829089155144, -0.013465004014364356, 0.23895355478144728, 0.16649793010368907, 0.1072691063937127, -0.07200546138457302, -0.04134881348951031, 0.005451472296203177, 0.21934640446442566, -0.1230168891087071, -0.16047206335464928, 0.10138247192529641, -0.025782198368678694, 0.0008468449039026117, 0.2613102398440248, -0.003541667979316729, -0.05152055251962108, 0.12492164752350696, 0.11576805939140981, -0.04900835142386263, 0.2019328192266973, -0.15868272716118542, 0.12536789711278123, -0.16402963043921723, 0.018242454597011012, -0.0014458340751330471, 0.07762044648083069, 0.07920512210462838, 0.0532013504065061, 0.06166058574072243, 0.056202721800077064, 0.15345262930554499, 0.17879183607970903, 0.061049832206225556, 0.07955047215642204, -0.08782812457765786, -0.015001811209003945, -0.032154573749778446, 0.029423929476003, 0.12671980976648395, -0.036220445077610595, 0.008769032018295153, -0.1470838595714114, 0.11695667461569755, 0.027144063392444243, -0.03378608931922835, -0.04155794268443778], [0.09007398767239477, -0.303473446262244, -0.07987127420191968, 0.21462656035529995, 0.07525555805711595, 0.009540974891229742, -0.0649208044113188, -0.012329727457160381, 0.25989751790029403, -0.021995227164388672, 0.1356657653998698, 0.04787693684709391, 0.00614311808770741, 0.07137931264189079, 0.18575624426643222, 0.007052421306652266, -0.38377452037997606, -0.14729381512459389, -0.03873500522396962, 0.040761311433597146, 0.1346801006744985, 0.02691634339314612, 0.01162011529243798, 0.12938625115123067, -0.06851864502639737, 0.022184883218201393, 0.059768648326713796, 0.18929298455143692, 0.19850312928550182, 0.05075834990967664, 0.15956090728384634, -0.008671397958149689, -0.021135885750957845, 0.12018668846007907, -0.060227064549472464, -0.06117591580279942, 0.0010064109708273646, -0.13687861253550376, -0.11934652085237656, -0.03478139601355319, -0.03308406740370403, 0.011785585369918883, 0.041373329105894356, 0.13503754975420149, 0.07680233125268503, -0.02390896849457934, 0.04954043285707025, 0.043235071069259154, 0.055450759354161716, -0.08289125989119475, -0.037271243660489076, 0.16840667549488686, -0.07042502696620921, -0.10515969165669002, 0.06587172702596537, -0.08853098988615647, 0.18078444532522803, -0.07575298365778974, -0.08973296179019644, 0.2494544959006845, 0.3270072314753621, 0.012274407857726623, 0.07654686973752706, -0.012125808386872631], [0.06923413047889122, 0.08265396756760132, 0.026817024656335856, 0.0188629836553671, 0.07364753208701286, 0.030865217042592, -0.22858696319103927, 0.009952958930532418, -0.14202356211021983, -0.07602672200223155, -0.024552732914234217, 0.07613514530285838, -0.0769327030211551, 0.004111007595436782, -0.06992329864579185, 0.012655745538261228, 0.17904278673819712, -0.13837948934692557, 0.06295159165455808, 0.050243042812405096, -0.17832164551606325, -0.19454209601156267, -0.23430077850289302, 0.09294503927355666, -0.26515148547106104, -5.553703190930155e-05, 0.08545861988910623, 0.010418430084328516, 0.02469306207006379, 0.15032123815182546, -0.1642194530133967, 0.022599764740296985, 0.21296381370269532, 0.06905668224649354, 0.04920244160400575, 0.04228930691327084, 0.29616452798801524, 0.15832988245223117, -0.16545686356725758, 0.06231587342933168, -0.16791571315611006, -0.016133549319918276, -0.026855945753395737, 0.07505230023353154, -0.06691649369006845, -0.13567950005526772, 0.14982315520498063, -0.04653959643463959, -0.16764795886076608, -0.08759602699930215, 0.16640494768172295, -0.1494930791108978, 0.07432733999391967, -0.006796604609091452, -0.1624943018598068, -0.04480139380118785, -0.22110469750100054, 0.14590785477569607, 0.048773324737871576, 0.06320376692698462, 0.014603100184548778, -0.2471879328644738, -0.006197126320259578, 0.05877095948210205], [0.014243481242052866, -0.0011665307649767712, 0.11846579072062925, -0.0008106249361409446, -0.14125929532073647, 0.037540140353728706, 0.22551731072875247, -0.0008618799781901646, -0.057811277772766914, -0.03719375855955189, -0.01995314678411846, -0.03407941887435155, 0.13131430001571276, -0.11600653548499938, 0.035635972777627936, 0.06132652276770537, -0.0471475132403334, 0.046380163545884014, -0.2950720261396208, -0.00876200631882668, -0.03940082105859232, -0.20821768454246245, -0.2526269741054095, 0.020283173237210537, -0.07597513993258967, 0.026175146421408807, -0.1590255156854526, -0.03296379534020231, 0.06059013781162499, -0.1211358298247185, -0.07196529423845377, 0.151196581378223, 0.049750080502275446, 0.08006444848058512, -0.28549661546756855, 0.21706841696066392, -0.011475611659115297, -0.06064504271451652, 0.05598399311356827, 0.011254641353415832, -0.010023153547119436, -0.023394002448682793, -0.01629984084535542, 0.014157044535526868, -0.14836371669642648, 0.016703605296219858, 0.1285417185442904, 0.20524985602008333, 0.11870254674485245, 0.02190613878513598, -0.07072784834901605, -0.0011569884468950005, -0.026402099338245145, -0.11562014073152485, -0.03789313293087712, 0.249234864850573, -0.0025552147827833894, 0.18500472051075828, -0.031531950015857034, -0.029475642265371017, 0.2151341399030667, -0.03622884138575517, -0.14264654711356323, -0.177549246055117], [0.12389518939869494, -0.00693565868626939, -0.2455373138691743, 0.15517167371364607, -0.02761757242146743, 0.15646162489222387, 0.06656583995078462, -0.12525087565504622, 0.14038897698961925, -0.16295866452249488, -0.15314006074855854, -0.1429909789798953, 0.2006371902471207, 0.06864841139277945, -0.015431904511719316, 0.025435744148101434, -0.004440674075794175, -0.0790202257607065, 0.03699327196579509, 0.13304151721678936, 0.17001675930609295, 0.038379551783720094, -0.047962749377395024, 0.04727228215769831, -0.15471185342991695, 0.0412296993725276, 0.23354667540980353, -0.02460140582975461, 0.16011863497629145, 0.04199790021862968, 0.1257799713812854, -0.06822623804652872, -0.36618148895820113, -0.09370378441540683, 0.014267760547063899, 0.023777597292574112, 0.04037312990047774, 0.1293176560722227, 0.09395045587829508, 0.1353735904393014, -0.023384619946254532, -0.0860090484753352, -0.13798862757946728, -0.10026937355367896, -0.15106520990644162, -0.07871787104968277, 0.08453163458566954, -0.11487925076298458, 0.02799639780887705, -0.14906040656388403, -0.09924536846780808, -0.0010043438479826598, 0.17614562872376593, 0.01009196832353174, -0.04467464796623631, 0.028519402672990756, 0.050966756678080045, 0.046585590779594795, -0.4098069551361074, -0.18581000284945462, 0.016061582324343935, -0.01229123108553785, -0.10521096103574626, 0.07924821607394887], [-0.3348659368723726, 0.20624527482183397, 0.08880668717618281, -0.0022166576313786507, -0.021359319626775893, 0.04226321767877777, 0.10057930381994712, -0.17892442152405863, -0.05203503947015943, -0.04191017125289094, 0.1447011842969142, -0.0830238501330051, 0.1104045729380402, -0.12172674248505606, 0.011741429590835895, -0.13909885236970182, -0.17847430911638024, 0.1877353637387155, -0.0008755205758071249, 0.14459748260290534, -0.10916562065141625, 0.07990460811896899, 0.013556323988956825, -0.030782605006155355, -0.0985558303173317, 0.06719235151671607, -0.039518972378231855, -0.15386125453508548, -0.07483071214136193, -0.0031137379928097768, -0.022347037285301893, -0.1261158303715332, 0.002392830511300403, 0.0766963305632773, -0.08339311332430094, 0.045071745838560405, -0.0776023275795576, -0.027346748116643536, -0.032640502012648336, -0.005906981550083155, 0.020519977192409, 0.1109366030614241, 0.09927146132448286, -0.003064917154866521, -0.06393594745736167, 0.06613377536239869, -0.006729175097573296, -0.04079733097888996, 0.0033221697413270395, -0.10355942523569842, -0.11080573246974598, 0.022788130693786754, -0.0023541602302650654, 0.2383395487070903, -0.2353289759786056, -0.07192520763833679, 0.28328475348468984, 0.054160695389767324, 0.17689859193281912, -0.14151120818241883, 0.11653046889188286, -0.04025596982976153, -0.1651415557270501, -0.09201694501799994], [0.028801145550315214, 0.17822378877932987, -0.0017370764932603455, 0.08445507359403595, 0.0006392119674869976, -0.011091682246782456, 0.11661466751749462, 0.04368278121215911, 0.06190139494554148, 0.1329951365725443, 0.24318065134274156, -0.12376304651580852, 0.06777707120794031, -0.03798164998197962, 0.07389582886430952, 0.006055992115663087, 0.09024231428452324, 0.05844911894251012, -0.04362690539814053, 0.15550561786951808, 0.13273799064781938, -0.1495318621157611, 0.14440441179881985, -0.19118821335984904, 0.027483475741454533, -0.07128923631988833, -0.05173070054444225, -0.12594582200108076, -0.013936689493337621, -0.05876712940929016, -0.17385294689777023, -0.025649373497090563, 0.18142773979644894, 0.0078047382425430545, 0.18372660542145428, -0.04379906968904996, 0.060107060194831224, -0.05350579414596281, 0.018206504731580885, -0.03390510774475504, -0.16618174250207657, -0.14922594506366077, -0.14686886525247392, 0.009076596520972034, 0.027030025580673998, -0.16424184466854758, 0.22388338950935685, 0.14234580203770528, -0.04332219995647771, -0.09510154929049403, -0.06382090414258279, 0.09625604009652151, -0.09153498722848702, -0.14685655380933382, -0.061886615797486104, 0.003066973445898304, -0.0737685824809136, 0.07284806023624282, -0.026110564334047348, 0.1088624023687079, -0.02450554433222172, 0.1100354900151801, 0.0006344523480413632, 0.29062825739954734], [0.059441120155719125, -0.0932307223219535, -0.18926622680545824, -0.15513867141303608, -0.16656192926102786, 0.14645772769490603, 0.06491440690562575, 0.06581023793036542, 0.08735553631680767, 0.19969016435452897, 0.14945406295471828, -0.10052176073780471, 0.16953681957470135, -0.10525568578448109, 0.10738273337424689, -0.20832055605063898, -0.1556363724997997, -0.019500790868326474, 0.033904304670482936, 0.14925183166215286, -0.0018002436433213812, -0.07608802486028701, 0.08988289088282414, 0.20001798026149642, -0.012721123171559127, -0.021349709382401303, -0.25017872885863257, 0.09177035437563671, 0.07751246142907348, 0.09596373251646098, -0.10291370979219991, 0.1275551895825741, 0.07542661689250221, -0.05044025410524508, 0.02188953251703593, 0.024443411232738268, -0.27782056781595643, 0.17765756716116501, -0.16832671775889943, 0.03978479957660663, -0.03003200033275644, -0.0450872745834547, -0.12023532278918315, -0.10359862838249632, 0.10677555582827873, 0.03537021736255103, -0.4012122390166665, 0.24917356841627356, 0.18736379477574056, 0.13991758494961606, 0.24655471243423824, 0.14555184278584407, -0.00545035780527968, 0.12798582559974914, 0.04595268586933085, 0.074940583810454, -0.10261609318588424, -0.04046191420402031, 0.1588230850952171, 0.018081991950089676, 0.030580101961444325, -0.05668324027443828, 0.18129019229483817, -0.2718996787970994], [0.031176353484256295, -0.04775817458655681, 0.018584976750276653, 0.13927507884815077, 0.08036965766408859, 0.07793306042121204, -0.07070353411790152, 0.1428970196390186, -0.23112211035769342, 0.17978310885238608, 0.17521431806925625, -0.0730534028864568, 0.048482319403902636, -0.09278806775792908, -0.0597414355761879, 0.10186162377169165, -0.25044405368878275, 0.0076934463704223756, 0.01461216918611612, -0.20603287276973778, -0.06860874234949702, -0.14274120570533985, 0.09839956254437268, 0.07993851270491202, -0.008424331437778243, -0.07189933229344844, -0.1651877924297844, -0.02744811952689641, 0.16913385582684518, -0.028409109308983146, -0.0027913300074412007, -0.013946391109949966, 0.03555501106249781, 0.06589266283289665, -0.11818532935505781, -0.14262498870855156, -0.006680117495968851, 0.31743564584933703, -0.022709050846831367, 0.11760196649503889, 0.017194968943022686, -0.2090100504330829, 0.19599879630875333, 0.24516245062303432, -0.05546425125477927, 0.27210010129876755, 0.014930431195529798, 0.07290206635584041, -0.03405125119406618, 0.0017035179864669258, -0.14513674088469938, 0.14030182293429233, -0.10009382141181447, -0.0283265375858451, 0.16596868262980172, 0.1862374523130392, 0.16844647474738617, 0.19754470009999217, 0.16893961864310816, 0.09372968770699457, -0.0858629616592935, 0.1414221429976258, -0.032001935998162916, -0.014274490285841332], [0.10150119350095747, -0.1494122221425337, -0.14192736916282472, -0.13207324663613143, 0.06836883716448684, -0.017257149205176747, 0.11625317129377599, 0.22334748847121194, 0.21639104729247602, -0.22246464028770965, -0.0224281480340808, 0.14526713587687698, 0.15197481431070844, 0.01695185462426994, -0.27170120511320034, -0.0700678651498828, -0.28567971619438554, 0.08315440356312061, -0.17601957515166994, 0.10055841475810595, 0.0988594848547031, 0.10015377253721394, -0.21522802783992398, -0.10490225022365965, -0.14976355641806213, -0.18356697680687464, 0.08738806056621629, -0.3684223082629747, 0.014533199855634666, -0.01240288967965359, 0.08722798737172593, 0.16752002949860823, 0.03333216978575919, 0.10897299427814801, 0.18261008723449718, -0.13291426599287648, -0.014763427745860168, -0.05762726984233017, 0.09625053442007449, 0.05849388453108618, -0.024100731657506688, 0.23282255118258943, 0.11894401300603975, 0.13130155383375022, -0.06469639189599118, 0.06930048527163055, -0.023174052988166126, 0.0001765597390455151, 0.2948311063853251, 0.02460862147582742, 0.10528004282990187, 0.037569702269956054, -0.2185580512540409, 0.07222199370602597, 0.03343439605125385, -0.12140934506726636, -0.1372086110671367, -0.015031590832896763, -0.08084392006417218, 0.007420202299011782, 0.03379691194481397, -0.09170705567029247, 0.0971603154009437, -0.3566594585269201], [-0.009463096518455325, -0.12285230201263023, 0.07427761002038305, 0.11304818138344544, 0.03126633424616888, -0.09720622034453173, 0.20541783354620607, -0.007680037199150492, 0.03690721426558924, -0.09901120378861476, -0.021123777780900875, -0.005681252842993833, -0.027378834296367532, -0.006163840786660709, -0.00029000816819561056, -0.054047822625966226, 0.23281227906613394, -0.08299692720929386, 0.03569598927858755, -0.2052867447323636, -0.15537454093032563, 0.094724519195276, -0.10806049502445363, -0.00474557596856367, -0.07403205322801204, -0.024361362572835766, -0.07473583072949554, -0.22948140559600408, 0.07042067742315818, -0.11568811748337804, -0.0730206869685047, -0.03597007697505333, 0.33288166789040713, -0.0648501584958615, -0.13649302008186037, 0.16666861433998492, 0.29760556640393776, 0.1080422363613089, 0.06195951963222658, -0.04967552642960268, -0.012883490184805129, -0.16259827608728408, 0.016160721366561184, 0.12760418139775065, 0.11637531726534223, -0.1827578394185037, 0.01372712754960041, -0.02114575257671154, 0.013593957513601238, 0.26557726192495074, -0.06380751036130976, -0.02186223713960955, -0.10456276187453652, -0.04698042106894786, 0.17567975610558556, 0.19601079721822068, -0.11882675148616184, 0.00029363608610915307, 0.07397944257969259, -0.3566583676901096, -0.02755794725285928, -0.0950519964562931, -0.004118232046796545, -0.08353853340991865], [-0.1713810363119276, -0.33761135931048386, -0.09886212965655755, -0.09501380857693416, -0.0709339530365043, 0.049090042602751856, -0.11355427992477987, 0.13384442209828146, -0.09517267889746368, 0.11266288971417898, -0.022858898529223317, -0.2090617431724802, 0.18225225839307116, -0.37926820564615055, 0.05340535685262555, 0.22206949122326625, 0.10828754760024237, 0.17779313071552055, -0.13138224354920638, -0.07660924683908266, 0.07513763207916585, 0.0957384766132134, -0.08371454867594776, 0.17076538616960105, 0.18659926162056667, 0.02944679002123759, -0.14558164033802484, -0.06452009457879902, -0.22413575071336544, 0.07639156665303397, 0.2611853545800594, 0.02857021364423829, 0.18794087858353958, 0.297330726957999, -0.19033439955057177, -0.26224653721477603, 0.0046780494205044, -0.17905286238261525, -0.0753049432459386, -0.3074416043437407, 0.06339719756765126, -0.08984946224082023, -0.04190383599330427, 0.1444534597616445, 0.0807867731660036, 0.03811325554647204, 0.16446487432891568, -0.0707122333798086, -0.232627615519021, -0.025867271236802682, 0.0037292666338465978, -0.005674526337178208, 0.013182385604615278, -0.10786892406895343, 0.0020265722405981945, -0.2444884029765083, -0.057410335740443186, 0.22136090062896865, -0.04439707182617208, 0.12905979501114878, -0.1164292548165432, -0.2646844672231358, -0.1228718439115168, -0.10878473184687414], [-0.050607867515858426, 0.05436234599210189, -0.049863068551349865, -0.1628404694959218, -0.056486965379786216, 0.07013078851643834, -0.16836735379247425, 0.11129308651438148, -0.22687919472266752, -0.05946717302378796, 0.15074469690352116, 0.06667667551627467, -0.17518209193570758, -0.15276969927882578, 0.06389955690706178, -0.12604770114947933, -0.04174420251999979, 0.1325780458338559, -0.0780201521836872, 0.1697233152335425, 0.17098439950672298, -0.07135684291631109, 0.013730130287832678, -0.17064479726265602, -0.013408279013966316, 0.019466313620130554, -0.039798840824470355, 0.160435933033423, -0.3456822968204631, -0.09145959311002932, -0.09507149257660312, -0.02036705948154373, -0.2348920603278151, 0.00833665794618224, 0.006996748043443527, 0.11923788357310645, 0.15962293500906732, 0.09284152957408152, 0.1911550500110996, -0.013065931190878158, -0.0829597706113403, -0.00924393863360155, -0.2644143325157496, 0.07479245805003815, 0.03814584642512164, -0.06791713850760309, -0.06108598248422794, -0.0030007703670083936, 0.21543741347264064, -0.12046343951662314, -0.07258036437378335, -0.049880497217157975, -0.08826538082079421, -0.16556681218322716, -0.191476364180233, -0.01583606438708592, 0.2136116775506939, -0.04715475741256014, 0.022986554786458734, 0.15864399694909173, -0.03216890097291771, 0.16627879989951383, 0.0745263631912682, -0.14217738970325583], [-0.11886498641046178, -0.13028405361275466, 0.11657221371003547, 0.040589023624827456, 0.18796113591284824, -0.26534941130824335, -0.011701304264376586, -0.1707391687712591, -0.11875492993725034, 0.07292857500111201, -0.04100000547812791, -0.2370033461514786, 0.19194810564361958, 0.01099606332037823, 0.25553826826002496, -0.110249461043041, -0.01434914340981123, 0.030152232712256345, -0.12543467227407054, -0.030451611372513558, 0.0038974313924840394, -0.09381086133557395, 0.17260266505974073, 0.04570560186728018, -0.04116071979805977, -0.18752391654310616, -0.06827644092831307, 0.017409597993953873, -0.174775120918933, 0.0698087867268474, -0.1341865434657576, 0.02663855661596746, 0.03691393136819881, -0.0011193123101723166, 0.030385520864004593, 0.08268180084399433, -0.1823929931076576, 0.06464009456782796, -0.053804421802399305, 0.01238438457130112, -0.11875300222711296, -0.051103314647148214, -0.022362163737247663, -0.12955407522256177, 0.1108358102494992, -0.09522849546556479, 0.09898076247903799, -0.00017654960622761777, -0.060027694431188675, 0.08932305051348466, 0.028184542131317655, -0.021705633846772855, -0.11149332986679493, -0.10778794779029234, -0.06171014127885135, 0.019565770274718293, -0.1982484831534043, -0.07479833571578552, -0.015418702669868379, 0.01718541557583181, -0.0944413488322599, -0.01259125745573959, 0.1158948659307798, -0.010027081212075798], [0.09365966389446498, 0.1102266515016041, 0.08212691946533619, -0.13036031189823524, 0.1414450117967881, -0.1912909835577299, -0.08192368957779253, 0.06100708019398081, 0.0770550741004778, -0.13459653656573503, 0.05051755869086363, -0.12670320600491097, 0.010188677025000313, 0.1576540393185012, -0.0701844602662268, 0.11125934223147689, -0.18082021325661635, -0.038036531753687174, 0.0033562723160871933, 0.02043691157330295, 0.16200667137105992, -0.13297995367397725, 0.10624604411330399, 0.09811349444592038, -0.07601407955034711, -0.015088309470177277, -0.2768272689349887, 0.1091340620751588, 0.09413401032841122, -0.048289654820091496, -0.0827146416258484, 0.10239595844648129, 0.2067192738345774, 0.13809624898827172, 0.015229559046063443, -0.029258021083949395, -0.05187964867412772, 0.009292743878549763, 0.1765074069916033, -0.11946866257183615, 0.14497965101748564, -0.06537583383983295, 0.01517425663179066, -0.02304403525237402, -0.08179078678997162, -0.008715660767832343, 0.034175781811953375, 0.001681837642290154, 0.06870643900596266, 0.19101998590632516, 0.2378806320449408, -0.0008969180769500661, -0.040733707619736215, 0.13057103286415014, -0.08635322133189474, -0.12796626389157895, -0.037551322278796526, -0.22301884335391298, 0.12596095673491808, 0.003458212615770357, 0.06787969583763015, 0.013693030147334364, -0.05680308691387639, 0.1998329140992582], [0.03169245488923269, -0.030466644283086906, 0.14196630047632344, -0.05712000413866632, -0.14167858537959468, -0.055011289517996324, -0.024829938410000783, -0.06404885207546983, -0.11141515913435132, 0.06519813163405443, -0.27245644210543785, -0.15155620021837157, 0.10767294354976199, 0.05601032135569398, 0.10110827776691414, 0.10190428000613191, 0.04500001676550286, 0.0210671734201338, -0.12683496170098346, 0.03576536385246657, -0.0598547694352315, 0.04741350646148965, -0.11772028971962895, -0.05226633591508897, 0.03853253861303487, 0.04460185158459589, -0.12312665611789943, -0.14388217142096174, -0.2583517051688493, 0.127260492995887, -0.21247460907608243, 0.2392617629952151, -0.024320109831787923, 0.1900619421749449, 0.03553312589838207, 0.0048364914802399295, 0.14450274945937888, -0.022677736690382866, 0.0656968825993542, 0.08663314133735525, 0.23681227892704126, 0.01992598762080951, 0.2800618310160953, 0.10221822423436534, -0.13918556291945622, 0.086858583858266, -0.03254857373665001, -0.2192939447070282, 0.04873791750889493, -0.050848557598472746, 0.1400887928184242, -0.17913465711743565, -0.03885389315681687, -0.22018707880991675, -0.05486765983474137, -0.04904691254935634, -0.03654375393432815, -0.05491195785293533, 0.06986949683932979, 0.2230906886688346, -0.1112036927475911, 0.08350840042782093, -0.048493429145316465, 0.22667446488106666], [-0.12127439806494887, -0.07441171374544031, 0.007075878971127075, 0.08916002572712593, 0.12367710442762515, 0.06534400542191532, 0.23476009513410517, 0.2217844126664356, -0.21646056504042935, 0.11175604721556961, 0.047967350590954944, 0.07372188379113268, -0.08444887557347758, 0.04591660766849602, -0.036156875899456216, 0.049022100469140115, -0.07354407095018833, -0.0656595150419369, -0.04431610144476386, 0.16345979070737432, -0.05688945553960091, -0.01790042022169302, 0.08351433627551538, -0.13115188529213123, -0.019463340622529298, -0.1231600206202786, 0.025888363713883245, -0.008062338602953963, -0.20590159293572058, -0.18026630913963584, 0.06795400789626153, -0.1761989741492993, 0.08583440381419319, -0.112577187634514, -0.1001164654433828, -0.18023822762739605, -0.12477715367716166, -0.16682308991552527, -0.0013970978265398018, -0.004323723812972938, 0.1933844255480987, -0.12181208901501472, 0.06340962975332542, -0.09384329480074757, -0.10177464767595142, 0.030449745390912525, 0.04181144236294103, 0.1534695263505383, 0.04908840197828269, -0.10349598458123889, 0.0954563843006831, -0.030519824603610926, 0.13790921523688532, -0.2720200978420748, 0.044786159083484475, -0.3363007023727189, 0.14011787948416926, 0.038610914574881514, -0.08367666401405732, -0.2862328648708944, 0.026572101036716693, 0.0639765293512237, 0.1610855520785593, 0.14124586883550616], [0.07565421132829257, 0.05294841342024013, 0.07821931432515715, 0.03396247860572217, -0.025045267173562227, -0.023437167352519918, -0.03374937735578197, 0.027034776526526222, 0.11820479521487938, -0.09694646568419638, -0.05186465481706416, 0.34076145617770676, -0.10145538716306496, -0.11229050557619835, -0.031183507282997958, -0.2860073322502724, 0.14189612300356455, -0.29048554019764034, 0.1012525971577512, -0.13857826992045527, -0.08582040146389797, 0.147814199631975, -0.22204791417914507, 0.1414576673406788, -0.1489918511943717, -0.027097753794719837, 0.035824031244923484, -0.1237297661352253, 0.022431248048051022, -0.09133332837400537, 0.048787504177226236, -0.1582869548711778, -0.21576502224361094, -0.056362553703206975, -0.0027451472112768245, -0.07932641779722414, -0.143172717220817, -0.06366128640595614, -0.10321197911230738, 0.3126885535496133, 0.09824433904218238, 0.0443312508175652, 0.07965310111755666, 0.056718882410492326, -0.08849766665251314, 0.01457553348982132, -0.16661226298574947, 0.12732096865868772, 0.053592996478167246, -0.08324496450500872, -0.027737997693408553, 0.02323873865878942, -0.013873268358627077, -0.10017370299331604, -0.05605531917732341, 0.11694900213438245, 0.007315285578097898, -0.06923312049181922, 0.005942495075586939, -0.17164730094451872, -0.18502179839879906, -0.07675829149140428, -0.008000788523537453, -0.027343293074275563], [-0.23369634131708017, -0.08241067314986295, 0.18355937583665405, -0.048238018808755105, 0.002755128842750871, -0.22107936481424084, 0.08960527610948243, -0.024386953423634037, 0.1424216576636485, 0.08634850671099224, -0.06657472951319215, 0.20984497648129904, -0.08918559669944187, 0.05139961233963459, -0.20184257693270435, 0.17489506619870884, -0.0124717106912124, -0.10191598648959228, 0.09671459618503335, 0.07992116664699749, -0.024666978590389476, 0.15345840384776477, 0.12795247506345586, -0.02519691721595127, -0.021499102494123574, -0.048971581365830616, 0.37353480170470543, 0.024611041583045366, -0.10800204552185096, 0.10737560492008123, 0.1698593633876395, 0.07956514798362956, 0.0366177699683959, 0.13266691024568386, -0.15921803903073256, -0.17438511557665023, 0.0869438824272738, -0.0533696129835422, -0.01720938137456615, 0.022674396813589154, -0.11918707310433818, -0.13571046753002483, 0.011171340096271269, 0.24787711496194054, 0.03303071325259836, -0.02200901604681708, -0.06026488447806519, -0.004179677118619212, 0.1820654197803324, -0.17471685682417484, -0.02673124559809815, -0.0643242077963001, -0.004085739096740171, -0.3664132007798126, -0.023116266139814514, 0.059272014824496365, -0.021949731563508046, -0.09428095842510333, 0.004658468244761728, 0.1358653172316462, -0.02529426827536449, -0.09643895498147544, 0.04732348124224574, -0.06566062823759027], [0.07426437602805756, 0.1715879794722519, -0.15470328266821948, -0.16543180922080727, -0.00616931408562458, 0.044360774154246434, 0.050837635567821095, -0.17734969110604717, 0.07046196514792227, -0.05194317959703395, -0.05929807709464988, 0.14398731510901178, 0.014178273373764337, -0.17107251886375732, -0.032641563789648366, 0.12428411077323223, -0.12297361792269902, -0.051558130240922366, -0.04645407040057007, 0.1272913900315223, -0.020565083317816035, -0.19725329124592675, -0.10558404989498506, 0.4345749943953154, -0.1301667313658584, 0.015903302941609805, -0.012866356305252593, 0.1579690060075624, -0.32341710923383626, -0.07055539607879303, -0.2762526807360658, 0.19299625655843924, -0.005096457049799685, -0.03120441130931638, -0.047782903339513044, -0.38374662323566205, 0.21857384462997134, 0.04106410773329797, 0.02972711343330807, 0.1699645027242046, 0.17607329915948158, 0.0243403186171067, 0.0357343348180523, 0.13709976462986273, -0.11734140498895149, -0.16686782437996867, 0.00023780532242797232, 0.07852424522932373, 0.24776251829718507, -0.07980614201499237, -0.06605811173625759, 0.0001486623286768625, -0.23046039169143526, -0.05891769278223834, -0.44573049234226586, -0.12559502707554895, 0.0007609168693930465, -0.008607463825604806, -0.07222640398461849, -0.09989003040187314, -0.11553762541552842, 0.024955820096792022, -0.009270135852157045, 0.12828012667635585], [-0.029678156596392342, 0.1110383843931608, 0.11643246257683465, 0.04889865027259687, -0.12323237954691804, 0.0016282647162195432, -0.09065115142443664, 0.08375163743790391, -0.05550059754465795, 0.19511408342858763, 0.04458512726934602, 0.0159711871936921, -0.052381475692305085, -0.1643296780701905, -0.08573027922329235, -0.04245073873622711, -0.011724134326552465, -0.05067219845629048, 0.1223627355268855, 0.16191573216962946, -0.12163059406911121, 0.03115613963015547, 0.07359627222150644, 0.22222405689672214, -0.15534975238326232, 0.024740028982131318, 0.15546627056320636, -0.00675641709300218, 0.21643697219361777, 0.15656252147920274, 0.003322548343151049, -0.0011413167405641576, -0.13817246273947328, 0.042726540932012204, 0.06530523233446443, 0.03872643060205391, 0.16942905130676592, -0.08221232926289784, 0.28616490822456225, 0.0968080456543298, -0.09693561291348153, -0.0695976688906706, 0.0019218209334803309, -0.16827413287646478, -0.2710518730308285, 0.12013858050669766, -0.15907274863790266, -0.27649558847529127, -0.09812366773960104, 0.03022825516149438, 0.004152702220496742, 0.11907802138650196, -0.1558837823430281, -0.24149602954630423, -0.15156924475176978, 0.03703434793332789, -0.02034292220490804, -0.032090383377771786, -0.151690359196226, -0.03775953634834978, 0.08313261333679241, 0.028450286623435916, 0.08707704199911313, 0.20948224298752632], [-0.019709391094969924, -0.38835651631936025, -0.002508003930215054, 0.13613744664311422, -0.1680436099601539, -0.0781915432627977, -0.13791861898444693, 0.03134290814919993, 0.1735283845876661, -0.1051548856016226, 0.04071494383724121, -0.07867683550038322, 0.17538102339155465, 0.12500552395521836, -0.2119520081777122, -0.07223915088701664, 0.10225862628095513, 0.16931429668714632, 0.12464471535844783, 0.189353002807643, 0.1246329358378831, -0.17329909212266462, 0.07432417932170901, -0.021864724421114742, -0.015242385520214658, -0.06280900068861461, 0.08949936138486649, 0.07680736962505444, -0.08049203681869449, -0.050166138287070686, 0.22432486326679416, -0.12697647108433516, -0.13199404708231186, -0.04507307269553072, -0.15375453638258033, -0.06808180766218164, 0.09917455488612505, 0.0793873154143336, -0.21619092360964723, -0.08562899796515419, -0.0010244781789023167, -0.08669485263166408, 0.06644733934809707, 0.06736911573007073, -0.0950894583613468, 0.18263474906041274, 0.06826322622088264, -0.07613773242809137, -0.10326751891263994, -0.08580141404145551, 0.048566134935541044, 0.07299340038000798, -0.07345687347181078, -0.04344761611218959, -0.0343221655696668, -0.08141994949081345, 0.132991262028254, 0.06773858049734593, -0.20944926957928733, -0.08052387418885863, -0.03146299016015997, -0.02343363111155008, 0.1542164663846266, 0.06977866159009082], [-0.11080019463193076, 0.06178409463944048, -0.0022424916621038475, 0.04740710466497565, -0.05509619766323251, 0.14049782011585188, -0.020226162615783427, -0.04270030162996922, 0.09294208493057166, 0.09675889082752744, -0.1387892071622276, -0.30046242190910133, 0.334906855740675, 0.14727220655954074, 0.15865312291063233, -0.16648453406690628, -0.04751740702219324, -0.1131815230274044, 0.010928994556012497, 0.06225826842809425, 0.09226415249857722, 0.18508257255186555, 0.1360566463957791, -0.07466959415074184, -0.11529619157596147, 0.12463266641999186, 0.24349759298670087, -0.0027580396489213007, -0.105577424994768, 0.058786532379420935, -0.08041328051917249, 0.006236415613343848, 0.0727682009020206, -0.10156711446451483, 0.2484265674829352, -0.05139142197748193, 0.1335369063301385, -0.08043278807518237, 0.011949365921163663, 0.05229680711331231, -0.0008395698448266632, -0.21876354364555628, -0.11406722366122544, -0.035348621998458195, 0.06501886010802702, 0.12919250136709157, -0.11187155725052021, -0.0309327783838124, 0.059290849378244255, 0.16841204347647845, -0.009059927753072461, 0.09311475879812331, 0.08777698823346214, -0.11108826562117714, 0.018669542553665243, -0.06724274387375374, 0.0687620009117709, -0.024747734527476105, 0.03302243731829149, -0.06911991802843294, -0.0824874250994508, 0.1846177888818599, -0.1742468738038303, -0.00989785412603035], [-0.16493261403498805, -0.07068305363196695, -0.07340200271339628, 0.19431777363600317, 0.01145705627259074, 0.06467505812772566, 0.28991563540383264, 0.11272303589554196, -0.13421286226700632, -0.24534601861506197, 0.21755036423427, 0.24022164185316733, -0.14814409527077718, -0.04385376273325055, -0.022236942514005136, 0.26057342327872607, 0.09010061054934317, -0.02559730753076188, -0.026986416702942054, 0.07400954560905625, 0.2720181192225442, 0.0411454756832306, -0.15912552534236146, 0.09067471974868965, 0.03375589014298605, -0.15517015221258018, 0.04540431757819923, -0.1415367531303795, 0.06996854955227412, 0.15345813696868602, -0.0368824140084059, 0.17136152796722684, 0.03060412806980319, 0.04419325497433216, -0.13547220604270432, 0.016997680989267374, -0.10555135617189423, 0.07227106839435535, 0.004783452839096018, -0.16534102715983637, -0.1273174941097149, 0.16932913358756654, 0.01914478353172405, -0.2636549424304162, -0.0011614408011567264, 0.03262725259042227, -0.1462261476975601, 0.02890566399871213, 0.11888935881239505, 0.1717255663993346, -0.19950875630926568, -0.018639074595748303, -0.03974725598392777, -0.13136941072011146, 0.07120476351867941, 0.10883961775395344, -0.19396782777339838, 0.33668881521764116, -0.0815352419968151, 0.08447560472984028, 0.008141647478948699, 0.0823534729976945, -0.01603659933310086, 0.14517264154748247], [-0.05441301675991113, -0.0711433105461671, -0.030490036570340388, 0.13142236265403529, 0.12531227303338086, -0.09550891605309439, 0.029721893080258292, -0.02630656604130105, 0.11789716745122909, 0.06540697078622483, 0.037213923515874534, -0.07072301332508182, 0.2097498197271385, 0.057956917959335254, 0.12853902404747589, 0.05547601835209335, 0.13486705014711975, -0.12117771294700985, -0.1930726459598495, -0.1666202029966806, 0.04923941515430492, -0.08600419423284945, 0.05070563575613273, 0.021139951015387095, -0.07859559358943148, 0.14257743562872494, -0.1235891572231197, 0.09196334932794707, 0.038051831125673785, -0.15439719016808004, -0.15764312066364417, 0.03732705183354297, -0.007672303784154139, 0.13660213136948404, 0.011904598100864512, 0.034328021478984, -0.18158466859659916, -0.060544076848791296, -0.07198860119399074, 0.0960667203314435, -0.07601586369431852, -0.0786485065886283, -0.06928882687464703, -0.06805570552430454, 0.1930405961781791, -0.054818491326552886, -0.020199836765666706, -0.0006651329117838722, -0.14531034180721558, 0.09875979197042797, -0.01381330839016289, 0.048005159195111786, 0.03557246195661711, 0.14195807465444873, 0.06172939347323868, 0.05779979655881007, 0.03314238747926047, -0.22895931656495483, 0.1075898496316044, 0.009771221321426894, 0.0985660212462338, 0.07074379663586443, 0.012737933711727613, -0.0388536988110073], [-0.21621437308876504, 0.10397989387420756, 0.3531253808764051, 0.07525399114048471, -0.005904016084683189, 0.1363468468385017, -0.043172631014707905, 0.06038876030104949, 0.17439400018053564, 0.07341335144748058, 0.25452522404594174, -0.1957554053773493, 0.2873451203677555, -0.13974253508378665, -0.027828876171529612, 0.09925155070240639, 0.150299422691829, 0.06510254923429595, 0.019265146893105087, -0.16810048048550869, -0.011006586450285934, -0.2375126836916567, -0.16044752242512192, -0.1841058134293368, -0.08181224548785598, -0.14265898901420757, 0.2519998459235134, 0.013617136812165384, 0.13132801193667648, -0.057339524875456585, -0.06603991106060662, 0.05406728355784928, 0.08853744803599492, -0.13387903663553022, 0.3019978893621265, -0.09780437591550463, -0.16415938687959333, -0.06655338576874786, 0.12503304742602359, -0.19000753300445453, 0.1306160712215845, 0.0361172522349476, -0.018395169807255647, -0.20572162742740707, 0.2085968119017098, -0.030944154186131726, -0.09532447938985798, 0.07213451602046693, 0.0689660272970598, 0.10730939529598321, 0.040504388583855355, -0.0929581389290822, 0.05620933914981041, -0.048391918532287914, -0.023185171238286666, -0.07511612151951869, -0.11027393546225275, -0.11760670615332608, -0.01568701187453797, -0.18347955068685792, 0.00952161932408416, -0.1962943630016823, -0.036589794428889606, 0.043344323485671736], [0.12719511096362893, -0.30141711792651016, 0.07591248540954382, 0.010485931021517448, -0.04568255000660359, -0.08286225803294475, -0.08799999251103904, -0.081294301024079, -0.06195418272521941, -0.02465000894349843, -0.12853549360305228, -0.032896118390508856, 0.13729190475988998, 0.0044509188755708215, -0.16013101402493818, 0.09835141070499938, 0.10240340938310433, 0.024858631550318974, 0.1236563616690707, 0.039632905576023024, 0.05001833165106988, -0.0513600850186591, -0.05199875519121643, 0.12828604400763408, 0.015865964924286907, 0.14693523818976686, -0.0914482144471434, 0.016811404910540444, -0.10147322490290606, 0.1452744317104944, -0.1760061041407597, -0.1194279891770161, -0.015403758535265866, 0.09401804616817427, 0.08064840257253984, 0.12460745345100398, 0.033660000776809994, 0.10638087085959635, -0.054708311992685, 0.008656787477629015, -0.003344498118218509, 0.05805465825796355, -0.0746772140915294, 0.0991649866995009, 0.25597178474282745, 0.033759021146861315, 0.1741780376362763, -0.03696782780352592, 0.10504234958965392, 0.08890808712806741, 0.13086524456314508, -0.09137810006670535, -0.13677160836276808, 0.00621448802560123, 0.0008701966450597101, 0.09382153023607274, -0.027542761346255325, 0.11674794085410631, 0.2798971767242713, 0.013445578034776275, 0.12972815180964126, -0.052304543658703365, -0.12281467639810607, -0.06300629531962336], [0.010782475850804834, 0.0901445410118733, -0.06752131152925854, -0.03684661370340139, -0.1733503627468723, -0.10390224883707182, 0.3382778486970605, 0.11164075376148458, 0.1382612424913556, 0.04204388132437666, 0.1925441605941195, 0.02096053314669744, 0.02122679886717631, -0.03438221098869245, -0.1955662567171349, 0.11375562604180758, 0.09857998246120327, 0.00803465193061804, -0.10164765889099374, 0.03341172489308983, 0.00428149788759515, -0.017911778697341667, -0.028016094867658554, 0.2230201311654019, -0.18338042906244792, -0.022798336187384062, 0.0031461305966713296, 0.14325160929451194, 0.14242670951998082, 0.15716190987505685, 0.21776442863208278, 0.057234843136947246, -0.004913416418366213, 0.012674520301054098, -0.01682872964210705, -0.005154416906904726, -0.12654486128707165, 0.026299736272531328, 0.08037139561166648, 0.17599496963951292, 0.06739728909065602, -0.07280692134421167, -0.2697817146968722, 0.19233302272388433, -0.14516752232620522, 0.2056774939210314, 0.09939209650610492, -0.11031535144271726, 0.09510405109111007, 0.13508174917974203, -0.013685623300427944, 0.22517498890876836, -0.06925333313862674, -0.12944691270150366, 0.047797745567761056, 0.06364624079315416, -0.24366659387560838, 0.4094054905992868, 0.08880593477882102, 0.10171847767507436, 0.2182830289112626, 0.0024257087556776185, 0.010181263774858807, -0.2184279720102083], [-0.013122068587790948, -0.06677902925906153, -0.0588124098354053, 0.0034667775395983962, -0.04389720349226364, -0.07509973886533194, -0.0063655849525115485, -0.14539972574913382, -0.08719691843263529, -0.022479668679386194, 0.19104709432119035, 0.07382110122673566, 0.22046543225855753, -0.2860986944320162, 0.040973915604136685, -0.12211668240338788, 0.014977206912075129, 0.092649102129488, 0.04440974174704374, -0.005090237929582046, 0.00028687542475423094, -0.10425596056009019, -0.13137531111062628, -0.036271472570499536, -0.05965132148587485, -0.08374211843231036, 0.1870189632947995, -0.019029165311265916, -0.1466062196516059, -0.11715816900878816, 0.1100294683694936, 0.010116172872078619, -0.0018852359410739543, -0.19855079286049881, -0.090253313109875, 0.018581776951692074, 0.2651401363250835, -0.1045839900834902, 0.12580967095586765, 0.08631223319255406, 0.08352245216080867, 0.04323143186556827, 0.09994438766026374, -0.19624131604231038, 0.05191803053562089, -0.11351494171197958, -0.16280925366433824, -0.1719925659214716, -0.13720951665172545, 0.2630195647453762, 0.03413913928061109, 0.02121728105999837, 0.05367311205160424, -0.06344251959040995, -0.11316771930883726, 0.22552796490266785, 0.15740289408819194, -0.13741749704642134, -0.057827726471113026, 0.028507435559345127, 0.010458560976804858, 0.16970075818101926, -0.07757190639642417, 0.071729325834677], [0.13773204740922185, 0.24795236331887383, -0.03941178482465092, -0.023962164906851123, 0.08091441966772799, 0.15265461715490733, 0.20671972026428856, 0.03207615407547825, -0.15332961693749741, 0.049020422963365506, -0.07033882528968291, -0.00798134585803323, 0.11228974518199833, -0.15441557230967778, 0.017917206067609114, 0.18164212332770197, 0.10179448723729234, 0.05276161731866758, -0.030005936242458536, -0.2927890308756048, -0.07110036854241579, 0.18377801908922442, -0.04472634878126726, -0.06724093359370095, -0.16342439572803427, -0.005501038325245537, -0.16655741063306684, -0.08218887950063443, -0.04893907172180403, 0.14959392135076413, -0.01654633140442022, -0.168696254620135, 0.06555868073559272, 0.07813702407181884, -0.1213476605692189, -0.009388558104194826, 0.007181992228683517, -0.012197999728813294, -0.2242205848773345, -0.00913409358078007, 0.10178810765544594, -0.09564281733299007, -0.3704384454171951, 0.21020406848778167, -0.19040842683659756, 0.06485957475965477, -0.017329618508204934, 0.09750965171998674, -0.10891671018208894, -0.04767261537068713, -0.04691405222927813, -0.020794825687535486, -0.22736994851028336, -0.09666966202994459, 0.07497523035811775, -0.02668043831881503, 0.3107659901408346, -0.031083139681503117, -0.09682952361032537, -0.23403848072704636, -0.17556015661007837, -0.06439286015558174, -0.07785935508614565, -0.10388810958857818], [-0.1931426347691403, 0.15275600002967443, 0.18043757128172158, -0.05754132069577271, 0.0033228146435527917, 0.0540987176787893, -0.12137567035873077, -0.007892926605549364, 0.16872829592244912, -0.2605390245093249, -0.1014993111466168, 0.2501876919310081, -0.2725764154428909, 0.08035498047436673, 0.040404098298703325, -0.012723186291842471, 0.1461972981764419, -0.011210176388274607, 0.14317377405502107, 0.048845841873593324, 0.02185982356533512, 0.0016299640535411247, -0.13523182355164912, 0.13742255800568928, -0.17693520383545167, 0.06057466444251045, 0.0014842190020773708, 0.056982907882171266, -0.002577297110724415, -0.05606432727386206, 0.02379753811050451, -0.12060394978238938, -0.057284862187763075, -0.018611375070844982, -0.060057546871807796, 0.09814624952695553, -0.055071812543116674, 0.13627013142023894, -0.14169929419755434, 0.14179863750495683, -0.12561647961993264, -0.14154078851833415, 0.10290153249852144, 0.06362122830191387, 0.07179725619118865, 0.04210539948431787, -0.037331854332154295, -0.14146099536326487, 0.16696869485185598, -0.021541116582253227, 0.14900982258990297, -0.09282714703678954, -0.349391662740276, -0.07143724240062392, 0.008740976877285596, 0.14824941955265605, 0.15270300114690977, 0.06392480312391007, -0.08737004754987561, 0.10097862903906597, 0.00991212844931498, -0.13110284022444946, 0.1430635469086262, -0.008839032883397567], [0.09702674516358455, 0.0225983740644986, -0.0411176339292814, -0.10163755841977956, -0.0932484163856261, -0.05028490984791103, 0.07689386819175772, -0.12978431882005623, -0.15944990320329433, -0.01010490651391168, 0.027215145820266125, -0.03774606223370026, -0.05046959436176339, -0.033656957834577735, -0.028647238284225815, -0.01737331528139728, 0.07452082307740024, 0.06374351789542751, 0.26303454132190734, 0.11376429771186547, -0.05647368538020888, -0.014412776302692911, -0.14119591190130046, -0.004185005428003826, 0.03800074769208036, 0.14954122315126642, 0.10307852203193109, -0.15623340524040047, 0.07355762386167519, -0.12844222683705414, 0.07412385337358192, 0.1048972941866125, -0.099191476389225, -0.1629397378495418, 0.2246681764325873, -0.10072687089727807, -0.059591410549044946, -0.05712466401616817, 0.020044142335062742, 0.0803447704553846, 0.11100561589873646, -0.06354273908362694, 0.17450553072356828, -0.12784036180786854, 0.06149986625924261, -0.03762935533178449, -0.018693473335716276, 0.06674472152140191, 0.17093372835332654, 0.08909257396416236, 0.10631628605182844, -0.12465701005728867, 0.0915536919467263, 0.015586963690084023, -0.02613442585481495, 0.18234784486706782, -0.02294214044179587, -0.016392217795142616, -0.16469457661090245, -0.07998607433159877, -0.07366245276057115, 0.13949527231327033, 0.023845248896599128, 0.07109506451722217], [-0.10270448600014093, -0.09977875168769286, 0.01741279075372043, -0.15802682835397072, -0.08982072258309941, 0.15144365249570943, -0.2524605060534356, 0.12227340767101084, 0.12982333419125722, -0.16490628771340557, -0.17031879686025753, 0.09296624265414095, -0.09557515736339675, 0.0664120075486342, 0.08493411517303796, 0.06585755452994085, 0.005828825533439091, 0.03663919549272909, -0.0050665998223799295, 0.08575439834988881, 0.1459549064425898, -0.15640294297018573, 0.07782927086610031, -0.1653394735295094, -0.07420742575343314, 0.07420114512794182, 0.11627965014834336, 0.03138546529032195, 0.03378727123207194, 0.14360762406323307, -0.16636938570801946, -0.08051472968642387, 0.11169779167798756, 0.01392651405683563, 0.0280068823178013, 0.28476131984525227, 0.030136678246695768, 0.061823274154370444, 0.0004162400359564264, 0.12868511117751869, -0.04480435498534052, -0.12826942634352712, -0.08172319068079617, -0.1059942423832778, -0.043127931796227904, -0.007973307296622477, -0.16451208261091918, 0.13167027677983403, -0.14980051782663725, 0.2075415467075811, 0.05950309413872834, -0.0922895718775067, 0.046395388826823855, -0.15353179603100492, 0.16032824517091687, 0.02986730024606158, -0.21043277775783661, -0.008590064068477486, 0.0030238368822110007, -0.03143625509718097, 0.0015366847863361812, 0.08163360184933346, -0.009780549078216952, 0.050663114219431836], [-0.1496925503757081, 0.02442956603792947, 0.029090184740515848, -0.05970130434846644, -0.04403497875112853, -0.02630918291289965, 0.027844495086304585, 0.06677860320481496, -0.11870402233609922, 0.0761916693810823, 0.09588285354663997, -0.04919811337308482, 0.06506887402405154, 0.18820406994163227, 0.20718469417976754, 0.23202976537777165, -0.27765537291936343, -0.11659821335638844, 0.15778308376773167, -0.1534674688382364, -0.18922120362999173, -0.203023970819859, 0.3584198140412927, 0.1233982414351576, 0.028888163437625205, -0.2631111391712697, 0.020212773496921615, -0.06266159581516205, 0.027924914931068853, -0.019974765556631236, -0.07860875184872952, -0.21205550829493258, -0.23167674178241204, -0.11493047353495688, 0.11102557724610618, 0.174230921529482, 0.10694899430927302, 0.04399098811801701, -0.1540280833430864, 0.12940083951197623, -0.0655695695672824, 0.19420666107281115, -0.128310345123557, 0.0066692960035020605, 0.21217012737711205, 0.08076748503207262, -0.003712772206885409, -0.049486927064581146, 0.08881469851886062, -0.10786751481230948, 0.113229924786072, 0.07122605875298182, 0.016530908514906403, -0.011026225400075444, 0.20535847589236933, 0.14528303079409619, -0.03636181904739663, 0.05961742755065158, 0.029839637376051054, 0.17485074880859622, 0.030866037940081557, -0.01218990763954385, -0.17644396185996766, 0.005323523968274166], [-0.055748798028062964, -0.01414654010545497, -0.041779842572667, -0.2162781666693574, -0.1067489220089134, -0.1389468990726986, 0.10466995376826038, -0.34432565537255627, -0.007875210548582428, 0.020687097908854632, -0.09224669337979972, -0.17371397017384668, -0.10509104597041458, -0.18521017526578157, 0.026287019282141295, -0.06977710631102442, 0.08863471084461688, 0.02066957599517566, -0.02503734974830177, -0.10522644599639108, 0.11074568295156927, 0.13514459455526473, 0.08667439410733926, -0.008417630216012637, -0.09207848383850688, 0.05438940579089015, -0.07727864001008056, -0.2435219324512043, 0.15960273085180376, -0.0853489672639108, 0.14604378934343257, -0.055172758837108954, -0.023131491253795017, 0.09544947559461921, -0.1610628085568159, 0.01841423535077527, -0.05928431524896057, 0.042085043604702284, 0.08461204096831795, 0.041706455322196065, -0.02241107052947595, 0.03446503471929344, -0.10487076366120415, 0.07892193051919812, 0.21595704094554047, 0.05274729981638546, -0.1159955592295148, -0.0859541791967658, 0.06465641202792584, 0.06038725970024364, -0.14115806014973556, -0.07039136959854843, -0.0750663317660149, -0.058978236532219605, 0.13526685466742647, -0.08607306282515947, 0.14303972064043535, -0.14741847791587728, 0.05270303485022081, -0.0840291425861389, 0.13812319099686285, -0.164891514084321, -0.048666089325425085, 0.25477286397946813], [-0.02893073528737753, -0.04902705823603502, -0.0767132061881955, 0.042632110687626124, -0.08275882607460698, -0.12956246842739824, 6.823300694952876e-05, 0.12655104080611534, -0.013675411669473371, 0.10246828927093754, -0.08925555671157087, 0.009142296974970737, 0.06565692636432587, 0.14938673237657657, 0.23089819625124966, 0.1252493788092459, -0.1340043772838808, 0.017177681009664544, 0.13681368106747918, 0.08759467218283161, -0.10488949168039172, 0.04770177788828076, -0.010679243291798637, -0.12512481951137597, 0.019504703270149776, 0.20204596127017424, -0.08344782087408731, -0.16993843482157922, -0.008695341476096444, -0.05132602125132466, 0.10375595688702992, 0.007106830379951073, 0.007870877752657879, -0.03573499237767037, 0.052258293458069136, -0.12165760400504795, -0.24341101480348235, 0.030011829844944524, -0.059006227718116804, -0.06457762990932515, -0.05546380087154253, -0.011495396754015879, 0.15745284594684972, 0.09514409464573616, -0.0613902555854206, 0.05360706686471658, 0.018708115826994567, 0.12399552505456603, 0.09450564627270654, 0.08056371314946588, -0.16073158873115503, -0.040953723347702926, -0.20575961716717167, -0.06264947674339197, -0.05159697701188521, 0.026777558444865977, 0.11696019626387505, 0.1866308969081713, -0.29627533971651016, 0.14767538932654015, 0.03784478572991027, -0.0181321508404074, -0.16467890724381798, -0.06431941462856458], [0.053740601916288544, 0.14898162110590601, 0.0635754618107097, 0.044454463570423174, 0.07606576166581012, 0.10639499023965601, 0.1434244454922287, -0.03420947118034906, 0.14880248484523464, -0.015145222734977879, 0.02537281403704882, -0.34727698125078865, 0.09142474641232247, 0.012892292100772673, 0.032498134641700045, -0.12071931333482885, 0.1516797518362175, 0.005093555497440929, -0.12371014344680431, 0.12200556429436452, -0.04799093165997334, -0.04269798760283278, 0.115384428097719, -0.19346074347281975, -0.007914874594574803, 0.015146181256953191, -0.1518829596144816, -0.11185117930498736, 0.04103021202559677, -0.08959576873327586, -0.1683098098592988, 0.2507544757391457, -0.019515554240956, 0.10135462694449383, -0.09138380119782068, -0.24988532894965085, 0.18389706955511473, -0.07179507193741516, -0.3052145728566062, -0.3193356496627835, 0.0018988022651997359, 0.0192603772146051, -0.20696933486407687, 0.04350307088011545, -0.11409872282424405, -0.06813738155364658, 0.024739708833286776, 0.1838177827482005, 0.09154512067162934, -0.08545629266035272, 0.12122155282624848, 0.3248145851137935, -0.20751637041961707, 0.09010093977522, -0.00886599526349533, 0.051844720587757125, -0.09807635850098156, 0.0027341958519491514, -0.23598555511506128, -0.04220331095651358, 0.08732473275754458, 0.2268424995389423, 0.025822797115934416, 0.34011714964351475], [-0.09241266367097127, -0.018228843036008573, 0.044961355863219095, -0.1065646148835448, 0.021927402053377187, -0.26403017319735134, 0.21554757941297417, 0.05326947063411436, -0.1077504203059358, 0.21567206413946136, 0.034681195444715866, 0.17639839100100757, -0.08188806029788555, 0.008762459262691003, 0.12912031241261168, -0.07703285564418039, 0.13985032338598138, 0.13094844039207154, 0.02425368999999527, -0.04761594164958277, 0.052196660880263306, 0.0023435650205456573, -0.03703744560100312, -0.10669878660006142, -0.04744188368754494, 0.09388011094526555, -0.2347038458559945, 0.023701369578426605, 0.03643247907164396, -0.08985797972206813, -0.11433799787934451, -0.06909183498750475, -0.22155246474185133, -0.052367541306397446, 0.15213520386208262, 0.17974494402104363, 0.09527854698018694, -0.37842168533673043, 0.03275512783977509, -0.20892291688513565, 0.11245232549748832, -0.17389402719449562, 0.017715192059787985, -0.054281624491408956, -0.07529390250862016, -0.012130793226389255, -0.07235895433750628, 0.0757227700116272, -0.11797796327556745, -0.06124918947668346, 0.16000312310566864, 0.18073492027708676, -0.18319086879278132, 0.13072146874145996, 0.19300584990587077, 0.16688640225645793, 0.0973643486730085, -0.04384804696807584, -0.07000064911477276, 0.09087095329231927, -0.12577211487155066, -0.026920797516536723, 0.3984753694439443, 0.06848603886596595], [0.051209109166257885, 0.006045721212027144, -0.02330434848767883, -0.052317907922053396, 0.26487157836092207, 0.0918616915586323, 0.096036610833177, 0.14681144143363126, 0.09976766302496616, 0.05815986757097616, -0.08901962106291578, 0.21538660952213082, -0.03513767919519381, 0.01549451263729641, -0.002813054074082147, -0.036390454479873616, -0.021655648591311683, 0.11550835276561813, -0.11259173456092804, 0.09286465659433109, 0.20801007971959656, 0.10632148634829908, -0.1370314413055527, -0.043379883320480685, -0.1704434599414475, -0.08602867532910004, -0.08461767396871918, 0.06035590361286691, 0.031016516087855654, 0.11235298995520637, -0.03631312386004255, -0.07189951463639127, 0.010897746732393151, -0.030982268410219213, 0.021072567264411663, -0.19429799639951698, 0.12426002424961498, 0.23500759568601184, 0.06517273859941439, -0.03859248377278178, -0.031231959375323706, 0.18216710220188095, -0.07714494234399634, 0.14429464120479524, 0.17313668033870566, -0.16988558684418917, -0.0313481792652421, -0.13985489830907524, 0.10655198492802444, -0.1117864775026387, -0.09677567337739733, -0.08767265249059782, 0.15836929799734062, 0.15599088936172398, -0.11359378115224378, -0.10857004936560341, 0.1482658804444211, 0.114736627956238, 0.07033052275720153, 0.10952006384265063, 0.1738586805598921, 0.23938417858746402, -0.07725767890733286, 0.020931302322314202], [0.03039108655903631, 0.0710124534967793, -0.021652941392697272, 0.1381012733302074, -0.1251870310228903, -0.28598928283153124, 0.07114668531793121, 0.028599816053627238, -0.15045904607042615, 0.1074447268177137, 0.02433502163495727, 0.015601776765597838, 0.25366739394572213, -0.1623171040814767, 0.2783587441074324, 0.2756518287654289, -0.06490247271743974, 0.04776671733700734, 0.0839668604435692, 0.16470118805161446, 0.014506659331911117, 0.0741047280548259, -0.05118066310273074, 0.0356700327593949, -0.27830661756256975, 0.2437775915785898, -0.007233433170749655, -0.12296456810879189, -0.17743408458290247, 0.15787034143562498, -0.11968204008941982, -0.055705186254519375, -0.1378228640220994, -0.09857993534941271, 0.003987569201882484, -0.023101446914539726, -0.12727511387621296, 0.05134203890685326, -0.22687910686566753, 0.1234838175828646, 0.1677284985686433, 0.07370256236660835, -0.019846189556499628, -0.11012300405481622, -0.19517664971305995, -0.2765729519790445, -0.22142422923093402, -0.08281804214540824, -0.05623189288684552, -0.12474324641536418, 0.10732555616553566, -0.17228869946546904, 0.10367528368502063, 0.06795552475991305, -0.09282538867539242, -0.18460705049758286, -0.09857952927138934, 0.13048962349281562, 0.09219670120941137, 0.05761972981041096, 0.3372589452617589, -0.1796761899811297, 0.009411782628331092, 0.0065986733430293395], [-0.13993331609566415, 0.1013576094645684, -0.10925621651182091, -0.0053903197096760455, -0.03412372778866312, -0.03408668101476547, -0.14570093771405646, -0.10270335257687148, 0.11942720381412239, -0.10943503972272874, -0.07329536285902452, 0.057530812618742155, 0.0006560426029917449, 0.044773251197519445, 0.1465718327867112, 0.12204873089941842, 0.024079947158538957, 0.05159977745987561, 0.01286870374385103, -0.06392951637045523, -0.14721694855211906, 0.021976701944240725, -0.2570931047049984, -0.30694806194534097, -0.16693888930846149, 0.21885162844282025, -0.12266084330019021, 0.01428336885295524, -0.04043795811213464, -0.17249577446456077, -0.019994185057218193, -0.031061084724402322, -0.028411266845611263, -0.03557757828411757, 0.012331648748745394, -0.14020799090027924, 0.06423438523181767, -0.1492073687253503, 0.12690703158132793, 0.18543180325096792, -0.06309625958741358, 0.08168346646444637, -0.12349679115314395, 0.034411138536656026, -0.009663789063071313, 0.09063149404739834, -0.06816541482305366, 0.15569488863691336, -0.29569409785735884, -0.19289805251697403, -0.3137360333919538, 0.0725061064152748, 0.12611284851932839, -0.1022927709713553, 0.033175465446689714, -0.1967512991495853, 0.23531003291275987, -0.05241551268186248, -0.006314685901459459, 0.11431779459834583, -0.07145707384521442, -0.22005334961898387, -0.17838007972073952, -0.12254817918369314], [0.1829371032933998, 0.13329373843115327, 0.06953339071553284, 0.13865905481427013, -0.06642682206104486, -0.00029526602882923043, 0.10217541783915954, -0.07815235068904085, 0.05494514121068132, 0.06113327911420462, 0.04326183476417914, -0.16938986806087988, -0.00910834758423324, 0.023903325533268724, -0.257451979826568, 0.13696561126410578, -0.08193201503102443, 0.16579510961279603, -0.1552883975153633, 0.01012092061493575, 0.016587520601267648, 0.19205209225741468, 0.10489144924234327, -0.1781532224612683, 0.12688316936784003, -0.1221831242687681, -0.126614422244077, -0.1677935070046702, 0.059569662296960035, -0.11631690635521583, 0.08595222084554852, 0.1079777158255995, 0.016345552250991532, 0.3213701719733275, -0.0016736678780613031, 0.07151954328786016, 0.14160156593132878, 0.1994127243164988, 0.058049160784749775, -0.0783264738951671, 0.0022262915350052307, -0.21041851002384387, 0.04525627865852934, -0.13742088285166826, -0.03023673394544091, 0.013322679517633688, -0.007557647986820631, -0.08616745166869884, 0.2844339913467691, 0.251459259612446, 0.10366525835703036, -0.0547176799308902, 0.07671200125767749, 0.1399561972234453, -0.2596245330553559, -0.17253548304979252, 0.227045872049638, 0.08463000616989234, -0.20028559548631908, -0.10207888462843073, 0.04654155438207855, -0.03661356313378363, 0.2523658878263012, 0.011995747927891116], [0.045506321746684834, 0.013085932490930865, -0.02592189967278185, -0.31704504288709145, 0.10860997460008208, -0.230535759806277, -0.006725095166695234, 0.004523770792070801, 0.028572703276501566, -0.22252052965291064, 0.11375749182320762, 0.04846159555153801, -0.023926195664798613, -0.07232636446638674, 0.03126871056169725, -0.09941738517199002, 0.08398779542934107, 0.06974364308305873, -0.02468098058191806, 0.13450963199569188, -0.010171254286638608, -0.06267924442675432, 0.03597514622901534, 0.0574439674068551, 0.17098819229091752, 0.024225358374194497, 0.046760869337371856, -0.25735226165871405, 0.015286649043473516, 0.06725494306841445, -0.05293050108539554, 0.09972847812346541, -0.3147198388984291, 0.06061605595792578, 0.1706219314337659, 0.17019668995813778, 0.18890069415125715, -0.061391029216982564, 0.22455248123255142, 0.31563391516828376, -0.11927040321341699, 0.010693784864655748, 0.021737492717115416, 0.024975063105231267, -0.09385244379536159, -0.019459940565426846, -0.05052837071915262, 0.014480467635733262, -0.12879674964847468, -0.016573764060494288, -0.013723576584327261, 0.0739525548422803, -0.05183254029445736, 0.02804434291384938, 0.2207707949902598, 0.06549009855331688, 0.17950163020303098, -0.06042243038326846, -0.11886802524420544, -0.06285118519070193, -0.19164499821156725, -0.07642696014243915, 0.04225666293083584, 0.06530262070969503], [0.0438825060288671, 0.12609256982034903, 0.022687037962824588, -0.03202037455298006, 0.1947444537316112, -0.06159183654559372, 0.025775445133420276, 0.3055225563684749, 0.32047190902385697, 0.1575811869315963, 0.04738616752507872, 0.03494913110762121, -0.10416424342801366, -0.004559542588075572, 0.04521775076747175, -0.15605989886581595, 0.102597433233387, -0.0008451300450179509, -0.1131498185037288, 0.21844245807302184, -0.22524179600294708, 0.17045983561124886, -0.026139397970403946, 0.12725300328506586, -0.16928799608443856, 0.07993801600548223, 0.09325937274267034, -0.07706491624061414, -0.13372843521971675, -0.03389807087365399, -0.09409899892283964, 0.21213633497643275, -0.055904649297144955, -0.22220099085203557, -0.15445772219962847, -0.05477115434869578, 0.19469560370507014, 0.2330636416556935, -0.054706875314809326, 0.2676120540344861, -0.1403676700165838, -0.09194038727187481, -0.13991483030170232, 0.09188977102810657, -0.05937488319311587, -0.17549502005545053, 0.06983488342766578, 0.07120192116672758, 0.02201327066264146, 0.05104146930211002, 0.2600351034512133, -0.06381974025784697, -0.20416409868551239, 0.08217694234481243, -0.008110877003485433, -0.31242501409631807, -0.03217034595291834, 0.012680862381488123, 0.01811472720792282, -0.06492825853441732, 0.01440972779528672, 0.07711544184992136, -0.26031598928539046, -0.09259172939774628], [0.07566678922457705, -0.07108069987858753, 0.21345753456708133, 0.17914321903521457, -0.02418713718920139, -0.09947826390987295, 0.04114519683509205, 0.010617485864026693, 0.03094545703932521, -0.13855639958720398, 0.16069524739734245, 0.06485468847792747, 0.09572565555672977, 0.39250266966779496, 0.04393151462509993, 0.12349416597548954, -0.04960534112235921, 0.0519603478762184, 0.08224647638252698, 0.15349636221478477, 0.06412523071884223, -0.028967910271402785, -0.05125763335963316, -0.09727853258485594, -0.09993430990402515, 0.11186306470419079, 0.1421415556695345, -0.04131738198965599, -0.023838358290018256, 0.026284219106867904, 0.1918239805457644, -0.11388141127983925, 0.22059604200816427, -0.14201343129147545, 0.0016950141384824604, 0.0411109327873329, 0.12066322552568211, -0.018717080587716553, -0.19904185007692807, 0.19723041167466532, 0.024844664422546115, 0.10085984178716058, 0.02436910665380258, 0.13326477103004453, 0.0794572868239917, 0.27837549561725944, -0.12273718908279861, 0.09447872256558436, -0.11630500216174597, 0.11435274988754639, 0.004524267592412401, 0.02860190502314417, -0.074169914615519, 0.08229535283388666, -0.04547067090112188, -0.05957032143895456, 0.06878180705751487, -0.23516596466222014, 0.1876992849435214, 0.0518587195427421, 0.07091457423059969, -0.02995642796948663, -0.11323358769471875, 0.05698252068583935], [0.19380859743794518, -0.02723810057183115, -0.3127033018937932, 0.0939148245054366, -0.3100910811345431, 0.026557781171000987, 0.13801301316166334, 0.21292631173408852, 0.01719214900409662, 0.06053211299204263, 0.07285673373990056, -0.18693046548233958, -0.07145591607431247, 0.0430792228705895, 0.04636143285153483, -0.24949800896293836, -0.0750489513919278, -0.10292964593220107, 0.1317989165478148, -0.03557589720501067, 0.12735274262734358, -0.12577013487544977, -0.028282598310886264, 0.06359113436809195, 0.15190833507082294, -0.08564170465511686, 0.019104366546534364, 0.17563535071049685, -0.13274766959793163, -0.17879436849756472, 0.06415269760434668, 0.08490123611066064, -0.14763688881315867, 0.024643622173097308, -0.08005727061208964, -0.12746215396876773, -0.05735385860891668, -0.019575776590052173, 0.356347321355219, 0.053588097405258106, -0.2860138080505215, -0.31144437950269477, 0.1897052741690105, 0.041568300150099914, 0.09871053404822831, 0.1753442978739164, -0.05650977768735715, 0.17152540883763606, 0.10695386573548026, 0.1301644545922837, 0.21078917942857905, 0.37321392722551006, 0.08738331093380193, -0.19053929595142502, 0.08451572913524492, 0.05258469092245224, -0.02417100028740025, 0.05995811090372161, -0.004955624712102194, 0.13438070368444624, -0.2216380796971245, -0.15290831158670937, 0.11542836725469525, 0.09305295970529273], [-0.0634568231869445, 0.10932701899227622, -0.16860393761888218, 0.032403137717353224, 0.031654022620836775, 0.10227616474514738, 0.04928221857143324, -0.1116821867914331, 0.22920871420355637, 0.044526135715537256, -0.09204620328965674, 0.11912711082846539, -0.07333437925326536, 0.07442107382145251, -0.13259572351258717, 0.03451960084762091, -0.03585854978870518, 0.14338824882464093, 0.14748875172764705, 0.0016436769867817212, 0.11521822804151646, -0.10226956797639378, 0.044694343939590674, -0.05770225099980721, -0.0233267456413916, 0.0628331790794289, -0.03605707525052134, 0.0012802792664893257, 0.17106023520972272, 0.0022653430981716656, -0.08950013670884888, -0.13557397576505473, -0.030965194793571106, 0.02318740865664925, -0.030530608536830206, -0.024176561578391757, -0.05448943704335761, 0.2950636703262074, 0.047585438868543974, -0.04205414042199051, 0.243318383261474, -0.11837519568800561, 0.06588240961960469, 0.09582118237300352, -0.015829213717892834, -0.06817006602281213, -0.1574035453562887, 0.011412560892855642, -0.14902398513199472, 0.013024907207484808, 0.009857929863758188, -0.022407695092945937, -0.0217349720627143, -0.12903996252053554, 0.08003333835832355, -0.013256969892144447, -0.1460701973837583, 0.02013142111074887, 0.09411412307469025, 0.02122809400439035, 0.07416210683625137, 0.031977598141430245, 0.21538150354537092, -0.13283195126728578], [-0.031289789530862665, -0.3294155554250185, 0.09249979642270063, -0.07542141333381339, 0.1097329225158338, 0.013521616513219483, 0.08626964569858682, -0.10432712785264554, -0.05727549568302284, 0.23522821091769444, 0.28338239495565204, -0.24418676290814373, -0.07313696745199005, 0.2247928227903689, -0.20790028442209668, 0.024217304004190032, 0.0361753785067436, 0.2095238902970769, -0.055224559246236184, -0.09301044467916308, 0.025857469997706734, -0.075404019154601, 0.04407628437615536, -0.10997470693165014, -0.12326560034685757, -0.00795231053069281, 0.1877815931673759, 0.1170178164496314, 0.003745644506826174, 0.15284771228416746, 0.05361759107288252, 0.008283002191676624, 0.05604388100421094, 0.01300792726174653, -0.25693348601289706, -0.11912642264147369, -0.07334404415827658, 0.08491533145483234, 0.1714088109996701, -0.06899846231140519, -0.11264510209974195, -0.10527832126207247, 0.17045926079091664, -0.20532903582376918, -0.09972813002691386, 0.02169814424687873, -0.17226920734031742, -0.06780793780686539, 0.04574276872659514, -0.021160680471946507, 0.09977902207018735, -0.09983774708256664, 0.07544928826537418, 0.14406656828324893, -0.1291577719756996, 0.04735747728895555, -0.0371164436280489, -0.12028123808625868, 0.005733335564310493, -0.16834167735807135, -0.07558272749700175, 0.027480016554050347, -0.035515171538372, -0.06399143237509754], [0.14952293419863458, 0.05009019822075449, 0.15779671545046767, 0.0953041318303303, -0.042658705049671126, -0.33005857349533807, 0.010470896018103354, -0.0983168708506512, -0.1932120708478194, 0.08808669236523123, 0.30683398638439374, -0.15466573782215698, 0.15782636120750176, 0.13889891379053804, 0.12095008635963748, 0.08142221600079536, 0.009913526179217473, 0.0848916099079347, -0.10300276917656676, -0.0075666824388358235, 0.033449499635771845, 0.025768394365796355, 0.19200449403887798, 0.10938989598002209, -0.07589936896285744, 0.07331459210401275, 0.0331963940004038, 0.18248848352698585, 0.12789661190582777, -0.01674107298304114, -0.024961246605473823, -0.0010981440686881271, 0.10031145632003055, 0.14271559290639646, 0.11251781509060917, -0.2970151843990312, -0.13652258286142144, 0.06385348407161316, 0.15012912838246822, -0.06823453833593697, -0.07726355472446804, 0.10343292483047412, 0.11834125673343955, -0.07317127117683422, -0.02904874887287639, -0.12539155553928286, -0.1132412883188754, 0.11684108153636927, 0.1366872841405034, -0.10902005320452725, 0.30611480126881496, -0.15402201016408348, -0.21584546999854676, 0.08221033754508235, 0.09736968362575178, -0.06387488573996108, 0.10287560319284682, 0.05026808940398872, -0.1158665888634094, 0.15277552253349344, -0.16277997651969978, 0.16837459639190355, 0.07893375182850121, -0.3108654057516543], [-0.05209470715973019, 0.2763650287018986, -0.06018118639323577, -0.033924327491174654, -0.056807800112950675, 0.16445395877391547, -0.023681742808447887, -0.13581393302013972, 0.09504924703796992, -0.2341938042289855, -0.02340774096872715, 0.15835659961603965, -0.12577858831825917, -0.2889898574316271, -0.07889567366394626, -0.019233649949445722, 0.2976594916248306, 0.09157912296221829, 0.2072393580752066, -0.027764465905200843, -0.03990997811953, 0.012831544847786244, -0.09086875291755216, 0.01567983006340777, 0.010244849338430463, 0.04559259117876818, 0.3109924625722393, 0.07480293123835641, 0.014635370061729427, 0.12526765381230376, -0.30521107318573387, 0.3045675873966474, 0.03540580930201196, 0.10129180528167821, 0.0979630595173312, -0.21442224510258895, -0.1194861428427555, 0.05163129833707874, 0.041406482777498574, -0.05724858121534819, -0.22064847722313816, -0.32015853864434535, -0.15860863633290015, -0.06996816797412875, 0.1229993374268075, 0.1422584806053921, -0.21522350247764752, 0.07057198779326697, 0.11653054768684272, 0.11875149538940491, -0.21590980063590118, 0.030088610000565306, 0.02106470332803311, -0.21701146829373938, 0.04573240938113603, 0.20015747230123984, 0.17514068520868245, 0.1066002053473665, 0.15837024959461077, -0.0018546024984568263, 0.19673629470825638, 0.0748799321596322, 0.19495746517090806, -0.08257983397698239], [0.1297371212235864, 0.11240381232626875, -0.009991750729100784, 0.3090687916790232, -0.0602481337352072, -0.07281359862479002, -0.034729818314546086, -0.026553914916880816, -0.24061359822364053, -0.14184763113745166, 0.023797129943267954, 0.08674363205683948, 0.17573337299181419, -0.13597657175689887, 0.25888692983580885, 0.09774472694149267, -0.012398135060643047, 0.2780304869763907, -0.10401872205278344, 0.09952720885636233, 0.024583517514605965, -0.10704081316959262, 0.14190137421445684, 0.0428323157530233, -0.1136204627285939, -0.24231539408593122, 0.010853288175725997, 0.047232269675862894, 0.20730816940871674, 0.14199925625308407, -0.07521853820634938, 0.14047426431639104, 0.16848512209562574, 0.09851253223126531, 0.0025405031242338723, -0.05679356802501216, 0.11233581280540833, 0.14182009526749811, 0.20103360994358097, 0.11579045539887804, -0.12876397206809467, -0.2764226076364685, 0.07914933646452273, -0.11138464282138029, 0.1068958515697363, -0.07336964235634792, -0.0013704277388089403, -0.12533355209340807, 0.04134546266443729, 0.046984091961648836, -0.035643356933150905, -0.09098331225138227, 0.1541101264804089, 0.1425065537191676, -0.09253239554235147, 0.07525676894736381, -0.05812725463999612, 0.13063167938187115, 0.10842958803723579, -0.16544681226936966, 0.16883813191249766, 0.12187025240720109, -0.05256484917978313, 0.1573410694161484], [-0.04271594972822765, -0.06554433920683961, 0.054459540541471264, -0.004206606058271126, 0.2985714105879374, -0.030877258105869814, 0.13295990722507361, -0.039479562262631114, -0.022896414336784854, 0.23579961068425337, 0.011873053212724935, -0.04787131529623212, 0.08685378469046237, -0.0011449726676510496, -0.08596079966869748, -0.22519117502215025, -0.20529214786368974, -0.2082970504293833, 0.06691125056138275, 0.17878831853585708, -0.0029839209678087036, 0.04757689890622303, -0.09242626469325174, -0.012411027742353767, 0.040701655060935454, 0.23411111368883414, 0.13387137533393376, -0.11019864855430865, 0.1183062988168447, -0.13468090591287082, 0.16732690844419715, 0.12411982297481783, -0.10709829469530596, -0.0227328798196872, 0.09705242141675643, -0.22354808341178606, -0.0011520448975272353, 0.11359186090997819, 0.06888787243742693, 0.020197438814391153, -0.07809477392912126, -0.10384719424406029, 0.401840943435306, -0.13280292941549118, -0.06485049706148559, -0.1069413844969971, 0.034630136480040305, -0.026523860054981595, 0.07889367264429793, -0.08482426336476892, -0.0580674048479614, -0.1594754499380673, -0.06829305243159335, -0.009724225410147287, -0.05615697942153, -0.07109093419763218, -0.09622870762885014, 0.055249209768467665, 0.026583293305884024, 0.0072547766685092455, -0.10489117362992967, -0.052984485686011315, 0.06976028277807181, -0.06760713867499857], [0.10563397685165557, 0.21502847536069142, 0.26825402841017304, 0.047407555192829756, -0.05711201851880288, 0.15653585320283483, 0.19913582996897647, 0.023639647168575598, -0.03276968873483581, 0.07313974084883999, -0.023566533600164107, -0.004790440530792177, -0.10186118045289969, -0.13466046472500248, 0.04142357992288906, 0.009903629635863817, 0.16165318148300598, 0.07941790378829329, 0.31072002864232035, -0.05016140522672962, 0.055314345735504714, -0.0112396392022086, 0.0671429684348315, 0.11414976535139544, -0.01974846389086483, 0.040979618290305345, 0.010805782628538959, 0.05442176053957493, 0.20248739714034547, -0.04257143973258489, 0.05338777019323169, -0.18429472564518162, 0.013403383164308943, -0.17526624351366857, -0.0736545919731638, 0.010778664241488678, 0.05114272989727887, 0.0303048012898053, -0.027240607116691205, -0.08253770592904482, 0.10754149241931772, 0.13835837848700328, -0.09911580269330919, -0.0011518097153787282, 0.09117561803488802, -0.037488758812573894, -0.02016290853012043, -0.04445201871043838, 0.05700992063609961, -0.046971929695230306, -0.08092716781803924, -0.03248253895448317, -0.1683050919515754, -0.002809921847036374, 0.12570530712265643, 0.09216520264550633, -0.03758263454572506, 0.18905637802285818, 0.09921420411423765, -0.03653576022724173, -0.08388649390066803, 0.19538982547841188, 0.04683922293913115, 0.018677196542016668], [0.09218139179107933, 0.16805110413948304, 0.2711617376670145, 0.004766216736299713, 0.026621919420793918, -0.013615340829667373, 0.08776295690369217, 0.026067676169566383, 0.10270735465261747, -0.08909181257420598, -0.09526437675307052, 0.008449929083953558, -0.22108310161496775, -0.09722987349147688, -0.15530042360826504, -0.059568452252754436, -0.018381463885876775, 0.013888341183706984, 0.04288703309484423, -0.07705185905137235, -0.2616959684405872, 0.05242319850763797, 0.24792937660387165, 0.11326056067974061, 0.13119377187943612, -0.1739416855990844, -0.19416815661274653, -0.07090182336923, 0.1874650622301427, 0.24221685563641607, 0.06722860546011408, -0.13359867195176633, -0.00607437636090407, 0.14151444649495368, -0.09431598794852035, 0.08780973115831318, -0.012205933599297386, 0.2316311966565239, -0.29458834821554164, -0.10072076119139711, -0.14224143035588604, -0.12669155682951347, -0.09674469250570461, -0.11141812837180236, 0.005634697527232193, 0.0336169441196077, 0.054774770534786014, 0.0451117240011387, -0.037638155101737014, 0.09421858177354572, 0.01326750372042546, -0.01977875510521797, 0.03649570568437675, 0.06787463028098369, 0.010918825108802113, -0.38700363393704346, 0.015051045416037152, -0.020395062797181417, -0.2247534351068403, -0.059551864727714274, 0.08684681306982002, -0.0368609252011654, 0.012144823097713874, -0.14269177230471913]], "value_layer_1_biases": [0.0, 0.0, 0.0, 0.0, 0.0, 0.0, 0.0, 0.0, 0.0, 0.0, 0.0, 0.0, 0.0, 0.0, 0.0, 0.0, 0.0, 0.0, 0.0, 0.0, 0.0, 0.0, 0.0, 0.0, 0.0, 0.0, 0.0, 0.0, 0.0, 0.0, 0.0, 0.0, 0.0, 0.0, 0.0, 0.0, 0.0, 0.0, 0.0, 0.0, 0.0, 0.0, 0.0, 0.0, 0.0, 0.0, 0.0, 0.0, 0.0, 0.0, 0.0, 0.0, 0.0, 0.0, 0.0, 0.0, 0.0, 0.0, 0.0, 0.0, 0.0, 0.0, 0.0, 0.0], "value_layer_2_weights": [[-0.04487020930184164], [0.2592013487936275], [-0.3261907528353012], [-0.10741765812804872], [0.11438482430859222], [0.19043359281029335], [-0.09276840287902564], [0.1473139289861069], [0.005146143875851019], [0.06735964653291984], [0.06971863292857741], [0.005498989365290505], [0.019088081771754663], [0.09159403895232274], [0.15048784403961424], [0.6129982194347592], [0.20237986289094848], [-0.263339251469006], [0.11812397816945765], [0.27651569819957444], [0.14319727231991053], [0.21861833796869368], [-0.08426014058759466], [0.10173493699817396], [-0.18156342645123763], [-0.17026015122033916], [0.0027731678660555007], [-0.18021887608530596], [0.07065725179474104], [0.17337637802946526], [-0.06325056633645622], [0.27047184976014593], [0.12681752497656715], [-0.0989118567268416], [-0.091882242509065], [-0.03687164942072965], [-0.009801352672343187], [-0.06981816415900415], [0.21331519205442404], [0.2992107327733446], [-0.10834486109013655], [-0.06587076738088042], [0.11396436597168652], [-0.2691261411258551], [-0.10148143230993772], [0.05631626421594686], [-0.07002864626289017], [0.10074797653519818], [0.012456704565081456], [0.3244107258302169], [0.197704535588694], [-0.03594651323676041], [-0.08381675578216484], [-0.09532188752560582], [-0.16590959128434163], [-0.05507110397977012], [0.09624389289882472], [-0.08377205930107104], [0.006637640431220823], [-0.1543354982218001], [-0.10091462693282097], [0.05668081077877675], [0.04510943700548004], [0.0022057602868679215]], "value_layer_2_biases": [0.0]}