{"policy_layer_0_weights": [[0.13191558509357035, -0.10062403287142208, 0.10921612860605613, -0.08584084886477504, -0.14669723583175565, -0.05085285970737364, 0.13917171958012067, 0.3360776133380928, 0.15800785108826818, 0.1977680933808801, -0.20288643677980503, -0.1370662661561899, 0.2090713422986593, -0.24772854951394088, 0.18615568250838516, -0.28905023824186166, -0.20459685503401384, 0.2367791146929102, 0.02097538583345082, 0.06838951400874314, -0.13313892583862152, 0.07775137406305006, -0.069142397782967, 0.1581172941064049, -0.02489372913198213, -0.15123109181889363, -0.5072637942592246, 0.1578808187967929, 0.12917593561806773, -0.1448454565411981, -0.14191759764334816, -0.04581320285817142, 0.029497674666645386, -0.2063773595905006, -0.07345495133851741, 0.1232750717278869, -0.01318392931402893, 0.03448444905179706, 0.35309188942184744, 0.4291736837152101, -0.09732614158744841, 0.21876401007742444, 0.12371963555429795, -0.0997354705705923, 0.2844116654520947, 0.24737349222697813, -0.2940744623829872, -0.14512244941676278, 0.17492370938482538, -0.44893606196936964, 0.015171271948667672, 0.19864369681330893, -0.4642520706870148, -0.24210174722097855, -0.2598170452773721, -0.07546032439480925, 0.08935316673576288, -0.01767665063509188, -0.008471777109532433, -0.10551443115416008, -0.2606072214300465, -0.10845826146651459, 0.032057651181736146, -0.02515458015388892], [0.12704396640451274, 0.08468689105865133, 0.09516403624339402, 0.2189161925989329, -0.09776777948699421, -0.14458709409319184, 0.0630165267875417, 0.10126781678934713, 0.14129847799674997, -0.3384637850265274, -0.2298864296632278, -0.06410469977794149, 0.24558837752032592, 0.18828094823777886, -0.24999006704432458, 0.18049800025755436, -0.14580111875257587, -0.10774345421553405, 0.1655709854049007, 0.07794155618894587, 0.18208335026819836, 0.3454306652804439, 0.0862891232123915, -0.1427053567824304, -0.1388089943181868, -0.09781711102009633, 0.007423201539297712, -0.18521193546964002, -0.23459019879833476, -0.03599896565331657, -0.10671400360394809, 0.3092078511439222, -0.00466624671344855, -0.057637479381832536, -0.14561847743086237, 0.019962047460070725, -0.004863961134210729, -0.07230395505683317, -0.029925049304990174, -0.04251367101131283, -0.00569574383184537, 0.1494563184086138, 0.03614240969610097, 0.25213617806313543, -0.048570563836293025, -0.030431502774962833, -0.041571447629864894, 0.022793080214270074, 0.3748935359537011, 0.137974247831118, 0.010371762659612711, 0.03974157341560087, 0.1678712182305309, -0.10957552276345414, 0.2337658363735787, -0.3333885865507039, -0.05068583892414916, -0.01597884869715377, -0.34233826490123626, 0.203543326504913, 0.098112263088695, 0.07166524413373834, -0.010152554942724965, 0.09250774733714322], [-0.053545461122267955, 0.04574071879464322, -0.0841488186738687, -0.012041670360204973, 0.09028139881308893, 0.32164218309201115, -0.011661813181712426, -0.05157021816371103, 0.17188882547533305, 0.025052207402564457, 0.08720015137583077, 0.058320969415700814, 0.06832388945516331, 0.0895003150514754, -0.16718365575184643, -0.13721380416747753, 0.35270268959926937, -0.20780577527733254, -0.11456339126445536, -0.32992612079846956, 0.22399772681383384, 0.073502938962729, 0.04053177502386617, 0.06759504614823807, -0.233246415189393, 0.08307769361679877, 0.11724144573714924, 0.3315996420385982, 0.1682886793742034, -0.07673023865160157, -0.12125364168350408, -0.06552175907254153, -0.09764088421963653, 0.27015250686677206, -0.3163079212990307, -0.12803983301730143, 0.03480725722218786, 0.2665093333889201, 0.042498789031614775, -0.03939086624286922, -0.20041878337557514, -0.06550743811895694, -0.15605704189259662, -0.20674997974047993, 0.12075590018144458, -0.09189950991548121, 0.12981212231503444, 0.011384538277710363, 0.04368531595892799, -0.17868394142417932, -0.027815308774948266, 0.005949513605124058, 0.10478608072569683, -0.09862395711515856, -0.07530623029907735, -0.08064159811598545, -0.2340151259645591, -0.02398760162742691, -0.13916054916961676, 0.12462312897762251, -0.2716729648836793, 0.3683186368008343, -0.220678639956911, -0.0065709130296307], [0.22905617639800221, 0.2640736973159131, 0.2231492968126152, -0.10136108602427592, 0.252500786875776, -0.16376332896028417, -0.09887835759097453, 0.12715284169417004, -0.10958917442614785, 0.028274544896080205, -0.12460956098829978, 0.03517106718612597, 0.1744561747489418, 0.06491178956442052, 0.012819154921311356, 0.15110365038116583, 0.02990678826924772, -0.14054983649306893, -0.05013062509573416, -0.155655511643236, -0.16355348600812536, 0.016568637021154995, -0.3769862256904621, 0.2713684141848181, 0.19360686238574187, -0.1537422487102163, -0.0072074125766561315, -0.057396251636162667, -0.20308742066255003, 0.05758944617502099, -0.18443589499732926, 0.011050804052752898, -0.11935439778531123, 0.1968622818590735, -0.1795163892168059, -0.10523058753469947, -0.008517272534714597, 0.03435546641243872, -0.14507849324808256, 0.13002245866246673, -0.04495552752144892, -0.06999995328979351, 0.0960351418768321, -0.10342538224056455, -0.2073214673591085, -0.10160015797587146, 0.028092537784331604, 0.16385736937467996, 0.08204854994237293, 0.10099398028401023, 0.29681921811910017, 0.15837828834139117, 0.08106218909129324, 0.22029955242120106, -0.012906750336748157, -0.21051210063407402, -0.06445966521900572, 0.3052703104861616, 0.2632369497755144, 0.12019241663005735, -0.06580028277040206, 0.1647022137903737, 0.09797156206031442, 0.1847316343578223], [-0.04358735669693678, 0.34043554638745394, 0.0721832556534148, 0.07769505789838912, -0.1102405252955393, -0.2889739427949399, -0.3350677526196631, 0.10995395087306373, -0.2983772760636245, 0.0023467764738692026, 0.0551745592885457, -0.004442147861610126, 0.025186561916739396, -0.18493676604026268, -0.011547836492064504, -0.4780079874949408, 0.10910208005628605, 0.033401698177733724, -0.1268151849982892, 0.15926823731514378, -0.04169410282787276, -0.04862436436039909, -0.0265559296357884, -0.0886184777645013, -0.18894517062474395, -0.13169510744448, -0.20842406174472342, 0.19326625507739953, 0.2508348144457099, 0.20755465022574726, 0.19555898319584206, 0.20846365414279808, -0.006343373398655328, 0.002498876437829299, 0.06387013497717946, 0.07273987897980966, -0.02779788745386551, -0.1264957553788605, 0.2988246927958123, 0.1826741607394038, -0.16179240567356334, 0.05703437699314255, -0.10590890049980108, -0.028701083033650977, 0.3894671430660366, -0.19801559597911292, -0.03633171013227101, 0.1307547633332356, 0.10206141022403904, 0.12432862231932229, -0.3130431526602019, 0.4093450875439364, -0.168978196733364, 0.001398173439031213, 0.24484871153415977, 0.16074967815782715, 0.12811031705922327, 0.15273663965974146, -0.07634475831032136, -0.08194409926273784, 0.1469072029269983, 0.034718452263104105, -0.2853978540139963, 0.29067185154611125], [-0.05495787816646063, -0.011751797027968997, -0.1748765404563305, -0.12195559766590931, 0.011287873484109938, -0.03779003684021052, 0.12789312671162126, 0.02975057250433351, 0.03902919409209741, -0.04379998585319507, 0.19984754372890848, -0.1952066593756753, -0.13009252084369388, 0.16199744556338289, -0.14867655706218208, 0.01960430372899416, -0.0793279487033184, 0.16449717241443856, -0.5015595361118291, 0.28997002495988927, -0.15193740268033287, 0.15816671844434554, 0.10264064148370129, -0.08739690698073646, 0.27773256625706716, 0.20656346746333237, 0.04457617402907744, 0.2512514142203115, -0.140570599374413, -0.062480464567326234, 0.44357605376220405, -0.26902045971548594, 0.10737347926788934, -0.11147650803381566, -0.15269857880518883, 0.1754012813106551, 0.24926688212136833, -0.029185918026104422, -0.036198269136141825, -0.09329259950465037, 0.03301152159863419, 0.020311040769925907, -0.2075993179980137, -0.010041145431880866, 0.15997703205135022, 0.3634598227712858, 0.08762059436746159, 0.006589806287415308, 0.1332867819809024, -0.4725994334122241, 0.06461451937580723, -0.18355818060655532, -0.14949764952391967, 0.10743372659200283, 0.0821882754751557, 0.18495375901731193, -0.1851851685678207, 0.24838030805521955, 0.07215320321852868, 0.07024169273854279, 0.1056880771890613, -0.25771084900584545, -0.16417268879146732, 0.026832924159649017]], "policy_layer_0_biases": [0.0, 0.0, 0.0, 0.0, 0.0, 0.0, 0.0, 0.0, 0.0, 0.0, 0.0, 0.0, 0.0, 0.0, 0.0, 0.0, 0.0, 0.0, 0.0, 0.0, 0.0, 0.0, 0.0, 0.0, 0.0, 0.0, 0.0, 0.0, 0.0, 0.0, 0.0, 0.0, 0.0, 0.0, 0.0, 0.0, 0.0, 0.0, 0.0, 0.0, 0.0, 0.0, 0.0, 0.0, 0.0, 0.0, 0.0, 0.0, 0.0, 0.0, 0.0, 0.0, 0.0, 0.0, 0.0, 0.0, 0.0, 0.0, 0.0, 0.0, 0.0, 0.0, 0.0, 0.0], "policy_layer_1_weights": [[-0.03827441822225997, -0.0757230732346923, 0.020745522284107542, 0.09171801662589628, -0.21422063422185553, 0.0021788919117321334, 0.05379816876534945, -0.015213627997589114, 0.03594732694840573, 0.11853203853946391, 0.060638497701999194, 0.02436289945627257, 0.050403905036230476, -0.30359696843184775, -0.01901636709352148, -0.06418388097850514, -0.11242264850307669, 0.048548574204917594, 0.11050909677490685, 0.12776060196428646, -0.032531437463740855, 0.10351736229939726, -0.1311395306633202, -0.20295151273810727, -0.012516260026340396, -0.09066382541635619, 0.22408829681673736, 0.19157295343646624, -0.04025641008002419, 0.014553481240106875, -0.12013408754983271, -0.06698529511616938, 0.012742137186958437, 0.05836517226133768, 0.004170484081827707, -0.10056065830707873, 0.1900272038963006, -0.03679557165885902, 0.005589596615742645, 0.01674695350173274, -0.012034626725509305, 0.12649468299570246, -0.022127360466184038, -0.07550766638664261, 0.08491336982671821, -0.18764764015340746, 0.015965824152114144, 0.261086618173013, -0.1664999393734693, -0.03702870033035282, 0.07705686389631249, 0.0008580120241240437, -0.0002543137827978393, -0.08613101371972211, 0.05299789251257086, -0.14157736126957954, 0.325703367930686, -0.0057248243160880384, -0.05615547062695841, -0.022312064102083303, -0.025847339107923726, 0.09487985848525578, 0.09748919905096713, -0.011835991357748755], [-0.11109368999587753, 0.23630428520427296, -0.2045167380788083, -0.059221127176218503, -0.11768464716405491, 0.024343620430807667, 0.22584775689014508, 0.1115431986015188, -0.0038022951313741817, -0.3021502437452963, -0.1521104426134666, 0.055682683794263305, 0.1538994978317374, 0.026861236383260916, 0.014899102345061114, 0.09251407103780641, 0.13449776823153253, 0.0012286509494677164, -0.11751500613197753, 0.022421327351363547, -0.18136524474191584, 0.012401725531059735, 0.2573979660723795, 0.0380335763079201, 0.1640579864148563, 0.08434732067660365, -0.005459508578984712, 0.1136363736102783, 0.12812047215954173, -0.19438494401420472, 0.1395992766449392, -0.0574697981133188, -0.2683283311172532, -0.10214085571339447, -0.30702581781751714, 0.07612008928081537, -0.17244201659755223, 0.15729071980740875, 0.12395186172597825, -0.12878384867097448, -0.07319721847544917, -0.11627527475750765, 0.18932925946374057, 0.2772177927963717, 0.07771235098469349, 0.16576663922664203, 0.0724371612853229, 0.09695082380205204, 0.10552599622874825, -0.15238465130569864, -0.020278903230818417, -0.10889625210880298, 0.031917246947486384, -0.017783671742479468, 0.05848060154470536, -0.004483959953254243, -0.0003945585675807182, 0.07902622315052005, -0.22806208082986157, -0.11756255836377105, 0.027626797877894745, 0.19972324177628714, 0.08896045325632893, -0.24083632770250038], [0.006879885051199681, -0.02977728079614616, 0.05774716357071658, -0.28675049502733013, -0.1358139003966394, -0.05735878120136916, -0.10227507508688428, -0.01449377768275346, -0.054151909540930736, 0.15476036414703645, -0.019890082544115388, -0.231123845891463, -0.0878657255531588, 0.08684836921744991, 0.1952559298331838, -0.17756213189803602, 0.09626045334208315, 0.010124612704494718, -0.13705012426430951, 0.0030256487177939503, -0.012763906017271055, -0.2369538967674937, -0.07236336211850944, 0.10445234415884382, 0.0003407756390225893, 0.09283605438968365, 0.20927023412080106, 0.27540532481949764, 0.06190417447362425, -0.1555595838602948, -0.08770925148225668, 0.12596257991311027, -0.12037879508604293, 0.16456932548531666, 0.03510692338976866, 0.0937513758648043, 0.04612342319499467, -0.1701863087189616, -0.0840430608605881, -0.05500255965472645, -0.07118743049293702, -0.13357959988133772, -0.2039658832513597, -0.06166184187831642, 0.1500726699469569, 0.06275576340286144, -0.06226856794240062, 0.016076131062914466, 0.05826570826112351, 0.09429116185843169, -0.13940531159187786, -0.04056674696559661, -0.07043077498058378, -0.014070881788500035, -0.12440502205192076, 0.0772408954282681, -0.13770494527916544, -0.11951364687844182, 0.11550340372609148, -0.30958351022469954, 0.21702724920847788, 0.013325621742176202, 0.16357164533697882, -0.060039219581375806], [0.17882038273455372, 0.04621566560416183, -0.03803129803863651, -0.07402385948273375, -0.01503911494116663, 0.246852781657827, 0.06897545793193198, 0.08398872628693531, 0.0784453433279339, -0.2167124090018624, 0.016761123341731906, 0.006178933521884144, 0.08326367135545729, 0.08249556631950268, -0.11418341477078908, -0.1046826474456009, -0.15233444583700131, -0.08132908736221062, -0.04418851262893165, 0.03302759834411567, -0.059528325503421776, 0.13535273303609532, -0.08191155963017321, -0.04970710355309088, 0.13991896408903962, -0.11695503777685644, -0.07455435813238458, -0.14776532572726486, -0.12832979371218348, -0.008526643812208622, 0.0340491298508576, 0.024938814884496015, -0.0008552159334880403, 0.046673068514239927, -0.05401048793818688, 0.045337910333160716, -0.010740929797406023, 0.1210917138676686, -0.159367956581121, 0.058681034274392745, 0.04937997277607832, -0.00795812502502647, 0.11399881541581619, 0.0897301527078105, -0.059217114209736195, 0.15729487415475304, -0.12776515228684907, -0.15633528835263433, 0.042188737131466175, 0.14219114750504713, -0.15162697383568666, 0.05189084583012651, -0.19598237553608266, 0.15463790658803378, 0.0862091621647763, 0.14798623778822287, 0.013703947601920206, 0.09080167443705106, 0.10030061423439274, 0.050803159795643704, -0.11235429676503253, 0.022028635098662628, 0.08331193707820117, -0.006465743992085673], [-0.07342241646834728, -0.07051775147755357, 0.059689436050175286, -0.24874469880418193, 0.07892760968551114, -0.1588927153130521, -0.050364525331486026, 0.07129685937461369, 0.09077667085745451, -0.2387074273831809, -0.02743275201958976, -0.1391679932206858, -0.052962420424281884, 0.13104998617956912, 0.0437226759896948, -0.059483404412962786, -0.10718513560407085, 0.14203715042035514, 0.010316759082100389, 0.01276472605716953, -0.02095652560600353, 0.01081506719647962, -0.1408871302064288, -0.11755891218378535, 0.15355221330509355, 0.11391523961949356, -0.09565356407054201, -0.048449464735242455, -0.059847217819847996, -0.03937923371639457, -0.03706929776503888, 0.03705127432406157, 0.09032043363155995, -0.29556910429808847, -0.16088763430656028, 0.018799148017884654, 0.20808647741509248, -0.11803846081242676, -0.2038754851865818, -0.06121880200875642, -0.13454465948300687, 0.14137214623474692, 0.2798441534056201, -0.061083234220859844, -0.02664932861313555, 0.1884059691998693, 0.16056339232863143, 0.018883293917826408, 0.2608671416469442, 0.028872775263151015, 0.03500647523506716, 0.04108378021151184, -0.0047964276205445765, -0.1507783527100576, 0.12994985451644753, -0.0398512949050354, -0.2957061460696695, -0.04373421831717046, 0.24311318975905902, 0.2507729102524206, -0.025611485170528435, 0.09847548968729916, -0.09355390834174379, -0.03811322316844975], [0.08629925219780561, -0.08020733030200329, 0.09491704192137762, -0.05720390366807461, 0.03073643973056896, 0.1323631783867995, 0.11495290764509976, 0.019988693928296993, -0.08732723919666549, -0.19681401341528174, 0.06077680673934045, 0.07018057943061443, 0.00652429576935367, -0.12183321754052827, -0.024829090040273318, 0.07146597473700746, 0.05824909536799153, -0.12478702780362026, 0.12713211004869435, -0.1132437594703368, -0.07516084147816525, -0.21196705100465357, 0.03575530962194881, 0.06270249738508175, 0.06572994565937335, 0.08766719648934267, -0.016282428750604424, 0.08058435721176647, -0.3909108753849747, -0.0680515997949106, 0.03470132943438059, 0.12256380062839212, -0.13312007933509826, 0.12645333573889378, -0.025513982756203285, -0.05230893234618146, 0.0037052486268367183, 0.21391548663649657, 0.11820765247350479, -0.049245615245359455, -0.12713033554513223, -0.05192898210532687, -0.11406799988569402, -0.23199615723200173, 0.10287842061164511, 0.029053213861032965, 0.1253103557762335, 0.24960377387849783, 0.0551991358240247, -0.16046982525327735, -0.05854238544758773, -0.08950620062552267, 0.08205624597304323, 0.06978926516816616, 0.07737689846658213, 0.26321896120376653, -0.13633350228554889, -0.021717807141747016, -0.1272432353514024, -0.027508433629058023, -0.13615535397332418, -0.010001001108466715, -0.05991622634784413, 0.036373468947357906], [-0.15351796000356718, -0.033470467078417464, 0.022157454062277867, -0.017373971319349923, -0.05884619639130455, -0.04546373279511844, -0.04839558333359886, -0.024554983647906477, 0.09678037841681267, 0.2607041735687381, -0.09724790746473227, -0.09686354421173077, -0.013224541491549118, -0.1553349900891648, -0.07604255076776685, -0.1976552377823748, 0.09740456184189555, 0.08934902203507694, -0.13232652714924792, -0.2352225691686259, -0.07270992390221662, 0.3623281284853343, 0.11540655310213246, 0.23488632832216103, -0.002221412695345302, -0.10129350205059924, 0.08830695065223615, -0.03099244198353133, 0.014070748071827226, 0.01593380699501536, 0.1298777117015394, 0.21277198732371705, -0.20761864481736847, -0.406698209989902, 0.21242713837095267, -0.10969104133523952, 0.12925608703419003, -0.18955978303637464, -0.015721200563811693, -0.09284186597372976, -0.019203068108885394, -0.031157437359782502, -0.13138132982652528, 0.27568903132674527, -0.06602009511940667, -0.012690687087593995, 0.12741447040002837, 0.1441283830711647, 0.04220711908983309, 0.1882264717388248, -0.06881291813992824, 0.09659093371677913, 0.1465237419643179, 0.05565465633839699, 0.1714252820340499, -0.05119587636470717, -0.08691032415887504, -0.08502113923936548, -0.26842577982603116, -0.10487815782465228, 0.0041349649630069325, 0.0809232993363891, -0.14910355654124036, -0.03296760013836636], [-0.21055773125452099, 0.01968621514790924, -0.07130220576987309, -0.08732527208281243, 0.12803961490852922, 0.037218673094193556, 0.019426829925617218, -0.09787797038340679, 0.07226179729832473, -0.017260228266937194, 0.1194763134232931, 0.1776289339134759, 0.1941516626315069, 0.15963682435234552, -0.2701012221433153, 0.06557149101831046, -0.0674234323023997, -0.1012892634771841, 0.017632202847935482, -0.0859993508350859, 0.09958997187006836, 0.0181901876067285, 0.09109390098872464, -0.018722908868180222, -0.00543300371444924, -0.10888921724252873, -0.04343887015723229, -0.019954958105426013, -0.0016139781165888287, 0.13991860290646632, 0.21683199393987537, 0.07068944727279149, 0.1543702053062988, 0.043888858449383714, 0.02054976791352548, 0.15299562727200308, 0.10986279786292374, -0.07450515140258304, 0.02980285470365282, 0.08736283447035911, -0.2481281838032342, 0.05128546810230425, -0.002446848604923474, 0.10458075075650206, 0.12859596888870775, -0.22523599705721437, 0.004866527058085989, -0.03892372478499501, -0.08794727426058228, -0.1811445496052916, -0.022434586496997356, 0.1451273497396659, -0.0324728748675599, 0.08622483979843953, 0.008354270536016688, -0.029850741925806674, 0.15692339503399017, 0.04453511764134856, 0.27531275878002903, 0.13586448338406232, 0.09479556350248462, 0.0679782894900863, 0.29287095537777535, -0.07550611512740002], [0.177644082905609, -0.004847076892765516, -0.02402983656045927, 0.08218756292161436, -0.035181421927113446, 0.019733235362442727, -0.10065359265759992, -0.07255983283153145, 0.12087863354323511, 0.10840097453999811, 0.05210057377581849, 0.014492203421098653, 0.11879833757070117, -0.06672974520344577, 0.20952349035764903, 0.045435060896618994, 0.0710863222864085, 0.1611495110546914, -0.01060091991393123, 0.15967545619685608, -0.017115274761968138, -0.08296042367788424, 0.08248958273764456, 0.17583597497052433, 0.14080299678171138, -0.1676551835363525, -0.014705829159662365, 0.020072342731764222, 0.08317120654403817, 0.07354920492308002, 0.2177556824617723, 0.1043036689486188, 0.024347235749476587, 0.042386027768168216, 0.11183207767531204, -0.01834141768024078, -0.2927653487254725, 0.04065122709004073, -0.032241272355885496, -0.013972247043443105, -0.03240960761115651, -0.08349634572027702, 0.03275999252471924, 0.039402522809435965, 0.007350248982621984, 0.06984948993524083, -0.1677496470310453, 0.1256845831429891, 0.090343949391459, 0.15791232675753472, 0.12204074097634036, 0.2189690170457752, -0.16821546431639664, -0.014784495628232995, 0.18356975316481464, -0.01885936614027046, -0.05207735379782996, -0.1257972922233405, -0.02927450157204797, -0.16434687169258574, -0.0763347668080763, 0.012822864832763856, -0.08468588553407654, 0.049047287942980355], [0.029242584485171464, 0.112710641173417, 0.17011333835241085, 0.24391214656524599, -0.07397971725333088, 0.07059854324863139, 0.06743607674541129, -0.19081268116745978, -0.00876866284503861, 0.09971183548677463, -0.10675419087766863, -0.09131818991505705, -0.13331457875362498, -0.09514208658232375, 0.036541737385706784, -0.3168203991453904, -0.1503619353154237, 0.15380701698338514, -0.05283450606183892, 0.17389285159945628, 0.17511160128397713, 0.1596170702841096, 0.03610498323906156, -0.09705260806669905, -0.01505873166624868, 0.07450016956316571, 0.16961157945842997, -0.18531559316751073, 0.04588278732192269, -0.0772037304368623, 0.120365351861042, 0.06391170047458579, -0.08902726205684627, -0.12356779341478212, 0.1434762892925683, -0.024546604518209253, -0.23065840370641738, 0.18173576404333652, -0.13260522082003093, -0.04122626372859253, -0.24079509246684624, -0.022265849531710825, 0.22614531400376506, 0.266066875247699, 0.1781607802719884, -0.0010367499087194812, -0.1687977916961509, -0.11672964246365036, 0.015810136010357998, -0.04336625395010697, 0.09395275416730507, 0.02509065623415614, -0.1321583766170519, -0.17105976589311436, -0.062262299165101086, -0.24463251123790614, 0.07547047184001413, -0.030670364695752173, -0.01024836053907085, -0.05999990118240986, -0.046955439561861316, -0.024349812859706572, 0.08973512787425789, 0.035458437475776663], [-0.03863451618326741, -0.0771352558994012, 0.024123271450051685, 0.11021512063209643, -0.04894884598950192, -0.047006037589112884, 0.1601014399745789, 0.1384213906403312, -0.005448562927402817, 0.005623245186120112, -0.006190918016005639, -0.14610976494173522, -0.08393626621510149, -0.05114576227554923, -0.05849844568881457, 0.1116974681045477, -0.06991773809404768, 0.07642037458546407, 0.0063148002994919735, 0.17126410635789488, 0.1658058052877268, 0.17425055825888291, 0.03792560614981234, -0.15205969279910644, -0.15141767971141928, 0.09867921780160778, 0.02699549380695719, 0.10704272942543819, -0.05622988240168311, 0.016888989638235766, 0.07172312107730915, -0.16291777295631146, 0.06106193631458192, 0.1934813059786818, 0.33740196147255447, -0.04357580537191253, 0.11696332885394557, -0.03266490915785618, 0.10763201365123826, -0.284486174356112, 0.17198750029480211, -0.007927945364192328, 0.008828669868192413, 0.08863705742223787, 0.2310143905494871, 0.11762891800407371, 0.0674343835323575, -0.10672726454813544, 0.19784947309960732, 0.019669008722045633, -0.2632505638835376, -0.15661480322908383, -0.08022935970556995, -0.00045811105067291425, 0.11077396695997653, 0.16387078811547343, -0.16207958430045155, 0.08426506216987527, 0.03928035101018292, -0.018249833986238546, -0.0741330283462826, -0.03924353505702828, -0.09571157607024929, -0.0023880991787613003], [0.2506149365224834, -0.05708826126488448, -0.04197543246188236, -0.08111974817760775, -0.14402058708323798, 0.0329983284313933, -0.024285912686507573, -0.18282212045759297, -0.02746057019393568, 0.0318703932958236, -0.18738134468103135, 0.02198570419219116, -0.028120306460205278, -0.08646577878829449, -0.019722863489257614, -0.02352783776449987, 0.20301395186758184, 0.0508118144758769, -0.07491502346665399, 0.0793721320250707, 0.1515746431954066, -0.10886220552673302, -0.14153796452099568, -0.015398487822854289, 0.1896522074537525, 0.03708614724488622, -0.25394390948783174, 0.13651171971943935, -0.0641078338768003, -0.0011908416095682676, -0.23954946070716274, 0.17222096672357984, 0.10994996638683167, -0.023648450100472646, 0.3192752018209033, 0.26692124869571565, -0.013908269847038733, 0.019175730239733048, -0.05764530913549628, 0.04955842578972299, 0.1325913542328388, -0.04319057459963542, -0.24987498502967306, 0.21655801340243533, 0.11328725680649514, -0.291450722641496, -0.0788777737213247, -0.08376991385375365, -0.11046913286291773, 0.22412540378176532, 0.001633309470354715, -0.22795706942648994, -0.19253279932116105, 0.03613281634262273, 0.06584613751007919, -0.01760526847606334, -0.0030088406016952306, -0.09208408095650383, 0.0063749589423702496, -0.12473003498498979, -0.06869898797739458, 0.21034760967991137, 0.13667934408316143, 0.04341208093449068], [-0.07705008270831158, 0.07043048582986874, -0.019728577003666727, 0.06980186140461649, 0.15637445643621092, 0.06656973561390503, 0.12964331787246094, 0.0592442160895377, 0.06289455319348208, -0.15786755902429764, 0.17177741620937284, -0.13730599577081903, 0.05128237931570481, -0.0448348648428434, 0.11309308318029869, 0.009847497294414842, -0.06698780559028007, -0.020127189224745604, -0.22703678998103752, 0.02785234168373166, 0.029162225436342788, 0.17589995603178094, -0.13158645097353908, 0.0862674239475433, -0.08005911823724741, 0.16584579454960893, -0.1105281838101807, 0.012294686669954036, 0.15867428399500239, 0.05912303483642005, 0.05685720133770229, 0.03508080369001656, -0.02678927280030822, 0.07094014666494801, -0.05256825917507714, -0.20294574196812323, 0.12807706170398667, -0.21026223308212494, -0.10323701105737731, -0.1765929228275897, 0.05445057885500526, -0.06131859665391615, 0.012420903898175203, -0.10501275019813085, 0.04995594958913249, -0.04536707208296008, 0.06560404410860812, 0.061381763475846625, 0.030491030749942753, 0.04763755972242198, -0.12993169546105426, 0.019769310913252684, -0.07697774625499301, 0.11407925644147843, 0.15525118598315799, -0.010197608377464749, 0.11153734161584945, 0.08631937196700737, 0.23389020647304823, 0.04257319692670987, 0.13191060736403173, 0.05997090675094993, -0.1293608928233376, 0.008297944229763682], [0.10466503894776294, 0.07482088911426349, -0.20623919560933554, 0.16982961635486335, -0.20440152957561863, 0.023021027247474367, -0.05024903827798905, 0.00027545198641590324, -0.07617162781315458, 0.08079726215986008, -0.0540847912969864, 0.3329431523101341, -0.08189115364771524, 0.13190249231513626, -0.12187857145842004, -0.14174935029392804, 0.03788638359864599, -0.06144453605526146, -0.126656662940549, 0.046830693955782, -0.1387459504014617, 0.07960177903680052, 0.12575366879026537, 0.05891468997547519, -0.1128571248978213, -0.013891928906102314, -0.0300679787016849, 0.2380897498338611, -0.006304710058454581, 0.0629199593591748, 0.16660329701186113, 0.030566319836850014, 0.0019550797533508723, -0.12086659679130908, 0.006498002884397751, -0.2520219253054475, 0.04789901854891274, 0.00579279672343651, 0.027797790163146735, 0.18137326511933058, -0.3174011722730907, 0.01356750116645055, -0.07207697335619703, -0.06736851793421395, -0.3131646045970133, 0.16386447001482587, -0.1932037630494122, -0.004879107306787055, -0.03015650746348315, 0.19559334797268219, 0.019710201270216412, 0.0863056381597685, -0.28732839125041243, -0.0637052939344047, 0.19104861592050812, -0.13566390656864927, -0.0005041314689149266, 0.02042990397857085, 0.011462283278569898, 0.0531178079284646, 0.0481318378141587, -0.22019264222152674, 0.03566138212910473, 0.04614951121886877], [0.09289541327410503, 0.1346022349726141, 0.10159903344711455, -0.0619444037149734, 0.043876030138693775, 0.05471294547784139, 0.1934324220306461, -0.04910488178985749, 0.15548088612960986, -0.11478247771934286, 0.18351781399105355, -0.2279418084908216, -0.03502550251149152, 0.12210190796756645, 0.024155960032132124, -0.027925144744839633, 0.12621850072705196, -0.25951130074411083, -0.17702497264663053, -0.0359304472156028, -0.0801235699911489, -0.11529423025981282, 0.17673927208723048, -0.017960540155421284, 0.04320050610404273, 0.020755397651036747, -0.19752458391246908, -0.23652702054366967, 0.03424176330191267, 0.16371885911508763, 0.12682666807920462, 0.09829232422369982, -0.19764141816904957, 0.15095699649824837, -0.03123921340669785, 0.10180518342259166, 0.03153619096526997, 0.03261452735346958, -0.14668108484093842, -0.03699149591246649, -0.13799408694487234, -0.056092244902882206, -0.001067439511337899, -0.14516194788629755, 0.2604243241560232, 0.18745217575164816, -0.06428797935014842, 0.010895006095989078, 0.07916858552079271, 0.18132350443110412, -0.0732556719426274, -0.04908574473615428, -0.08832295717751212, -0.09144182102288329, -0.08751496196232549, -0.1644350924327118, -0.17638811893214154, 0.0025838065627563013, 0.024265574461474187, -0.023943363983440942, 0.15048336544749613, -0.04725128243376293, -0.021044593594421106, -0.011677078763327254], [-0.10604786141718349, -0.00036209566179323723, 0.1865510009952206, 0.16005910374837995, -0.10931217498665395, 0.16264692209216158, 0.12590730025892927, 0.14975313690485853, -0.16675195894532485, -0.09026907778662867, 0.04767256589985922, -0.16612970514771241, 0.016740872246201976, -0.08046203910453283, -0.27207714904176306, 0.14420527024875948, 0.022870049662817703, 0.026380324583624166, 0.1651794175707464, 0.03335508123232269, 0.10767400381384941, 0.0823260432963609, 0.19104691356961914, 0.13659461134138293, -0.014537619402379172, 0.04440736277284414, -0.038151868324243776, -0.12484336704482568, 0.07848551472464968, 0.10062286648201509, 0.06268145160204584, -0.031003648540348535, -0.006262803450706232, -0.20838851927174634, 0.14369319336278058, -0.01782612163920364, -0.04699934825573062, 0.008156002190670673, 0.16617113764446118, -0.22250194216552796, 0.21712781156062266, 0.004537840006726598, -0.10865337295255378, 0.25079616761773976, 0.04673874477320886, 0.15667569519781938, 0.01417528346875643, -0.10762184544334052, 0.2278356327561656, -0.12427216214280175, 0.25970407008068297, -0.010881286316906701, -0.03366214221308616, 0.034456692704306735, -0.022910545340241065, 0.13663431420592118, -0.030757985335087414, -0.03494055691660622, 0.0820010223154064, -0.019290148201373845, 0.05295265745988129, 0.031957725676453136, -0.013432375164057125, 0.07296402010808253], [0.18600248982116954, 0.3250985697080515, -0.01573062460658066, 0.058186736224772447, -0.1131741256689848, 0.2591003813943031, 0.03840895973666129, -0.1992592339748018, -0.1378933289345271, 0.1801473227062895, -0.23070353873872898, 0.12199273833769882, 0.09248567563132667, 0.17474959986136449, -0.11842216227177348, -0.0456247911994747, 0.04357873524331288, 0.014249484297141863, 0.06386038699197824, -0.11035463869856385, 0.025377396214777508, 0.018809061189921435, -0.008684202752608547, -0.0926814286237972, 0.053813846638248425, -0.10078061111777184, -0.0691914925598052, 0.05024266377221177, -0.06423668172247192, 0.15862892567450793, 0.09705522373217079, 0.04304753897849129, 0.04421692664925605, -0.13690302684194483, 0.08968161694584698, -0.1696890515287318, -0.02061655261006479, 0.05320733565372049, 0.11466793088972516, 0.0041076569338267714, 0.12397925598331248, -0.1562643884511826, -0.20705369070473284, -0.10975672889127698, 0.09589177313544942, -0.18806690146331423, 0.09502505531321362, -0.20435643587065003, 0.12931805740552135, 0.103508474000888, -0.066155288818091, 0.17763284913476096, 0.01465517647171324, 0.0016702490657217023, -0.0969850708517341, -0.12943110207176833, 0.10192442048759713, -0.030716179483360116, 0.1630494097082265, -0.28186115191417455, 0.03748391397566254, 0.15129944018595978, -0.016499313169460957, -0.18710076354856606], [-0.07612516565527723, 0.06875953907067764, -0.020268631919326416, -0.16986451379340214, 0.022592068262208775, -0.14316522454107256, -0.20970336282122823, -0.19803512567128675, 0.06842134987588191, -0.16102166879420862, 0.1007144280620804, -0.12723780448893166, 0.03297567518088316, 0.19965723320095508, -0.0342288605691817, -0.07010674682437906, -0.1447776395782721, 0.003989104038889778, 0.018454661932426737, -0.27405031992735224, -0.12452168922528942, 0.06954049914055573, -0.1563829483089689, 0.024472699207927325, 0.1284364009060893, -0.09991282135346091, -0.052552246726663844, -0.350363207081675, 0.19048689672937602, 0.07275036113731058, -0.13890419856451214, 0.1509374572714377, 0.032174999355230806, -0.06877046906394241, -0.0442624796873003, 0.04944314377904739, 0.16250544099673775, 0.13192702996378775, 0.060352082192261604, -0.09054800359360123, 0.12192837474034786, 0.12079124063761564, 0.17902243113590446, -0.1812149102602641, 0.17173844686435893, -0.19479252880176523, -0.09560359481195992, 0.044884165085371894, -0.039615314363021265, -0.04234328824834652, 0.03591614950315095, -0.1752817912363017, -0.010772100898746206, 0.042999014168982226, -0.13658725964978494, 0.1587395892519957, 0.1559566809358615, -0.028564415319332525, -0.03657593945810702, 0.16820300013560807, -0.19882191394131105, -0.042591378115248595, 0.004339648243672617, 0.20788938648469388], [0.017856393322038915, 0.056839612651360366, -0.15088861998833458, 0.04903060179321973, -0.12879879510901127, -0.1455535556189213, 0.3203784274999215, 0.06406017485261647, -0.03544263644101852, 0.06657010312393162, -0.20087926146402957, 0.1558921476178462, 0.1972016248230796, -0.16993418988784845, 0.21617423822363235, 0.078553460655143, 0.14990993370308314, -0.11851418339895133, -0.1902586932024848, -0.21097145926034216, -0.029132846403924873, 0.08869745120373337, 0.10170166959410804, 0.1201468891748817, 0.046135335109295086, -0.08622280627493493, -0.20296566234921926, -0.08027160318501254, 0.03785092016856388, -0.2252214407376796, 0.056908802822818, -0.00592453526404733, 0.06921738247527254, 0.16192036659223688, -0.11367897046941895, 0.09729657706342278, 0.05284437123079421, -0.04816406435587888, -0.007684671622231548, -0.09266885765985196, 0.1805147031858477, 0.03839370134123862, -0.02389108213593818, -0.2031448428359488, 0.0790006046747274, -0.14603106916881176, 0.06577045077003518, -0.028860767378008786, 0.12700585317402555, -0.07554427004783137, 0.23023000485256798, 0.05956605546573989, 0.026734185615922175, -0.07992878265739194, 0.08480918776249882, -0.19160882642080496, 0.10285954432025772, -0.10876779572513105, 0.01819936611423458, -0.18669651244604507, -0.0154416031868142, 0.035522846175536506, -0.03464883167787714, -0.2236704958126445], [0.15862087746019088, -0.0006250872843531438, -0.018345666120197675, -0.12319231337674058, -0.3122379011102866, -0.19552816981936672, 0.049034093173633206, 0.04989369154245567, -0.07726564625143373, 0.08719262818770511, 0.043856684846175865, 0.30424475430697023, 0.27480977977812576, -0.22066307484852393, -0.05971903612780002, -0.17560904130799135, -0.0781132782973331, 0.22785057586903024, -0.06201899901523414, -0.15243861494820335, -0.22501899435696926, -0.07986069846392985, 0.07467719240413496, -0.14428528377935565, -0.15064195356881896, 0.016897875417533858, 0.16097276917178666, 0.00804434074874819, 0.16136427972564507, 0.17033793391045202, 0.028959429011911026, -0.04567535321340578, -0.02647369372208765, -0.023289635292993924, -0.08122966938072869, 0.052392880388486024, -0.026880253727751626, 0.24502448285906858, 0.025449853596483902, 0.137096505900389, 0.01567624821105571, 0.15227039614907048, -0.046962221305447215, 0.09183230198228516, -0.0044015698630668855, 0.028128035084142026, 0.010113809191279383, 0.1266272714137226, 0.00698248869638189, 0.045329008565383674, -0.22864307969244355, -0.23600475291989828, 0.06836986523217096, -0.10764158097910302, 0.05602214488360534, 0.05854840088469324, 0.02268095738508074, 0.14596504560722134, -0.06202720569133658, -0.11261156111740465, -0.07243296589301902, 0.19938293860481576, -0.24608448148483447, 0.08214678646826362], [0.02901400924593902, 0.03362494150408396, 0.16369679428449452, 0.14174600573281068, -0.045806125077449224, -0.08050994959470804, 0.01936778398059643, 0.02617662094262806, 0.04637186900213933, 0.017680885637467603, 0.049872135646115055, -0.09417553595938184, 0.013595372609546415, -0.08937468509746282, 0.08594553360773427, -0.0906356011822013, -0.12112614506484079, 0.12403810577585264, 0.18462723321475466, -0.0022792691848088726, 0.03216477286437302, 0.1535732637135259, -0.03597071857630617, 0.025819116641418567, 0.1243788561996217, -0.16094052707745815, -0.02030591156818246, -0.24928567466304496, -0.04675961412087592, -0.09767392889065758, -0.008885357920926172, 0.025656170233676726, -0.03936542940175383, 0.03210537367342293, -0.029518334771377802, -0.1936347718400993, 0.15760644039069086, -0.11339217070464598, 0.23000406115978483, 0.24724554841054278, 0.06743888227551949, 0.21824830633698533, 0.029356717867651563, -0.054105875001585195, 0.010347636438073196, 0.19581598149795468, 0.1399254208648969, -0.10370784367120023, -0.0873975640704931, -0.08019077370597753, -0.09292678007384339, -0.00832618178139141, -0.2409659516739901, -0.1669980725227947, 0.08627125311468646, -0.04367084794611932, 0.12726834852919494, -0.02340948377871705, -0.018247225172179558, 0.008650860174313973, 0.12692604540930605, 0.025449025269664485, 0.11849020258178973, 0.1749168840265573], [-0.053632847880382896, -0.06086431109243723, -0.06499261717109282, -0.11994657024011547, 0.16372559898719433, -0.14949544160616385, -0.08494767495890586, 0.031367562193902694, -0.029111046490091753, 0.02984935974390642, 0.11836659426417195, -0.1061077474669521, -0.08415206277119773, 0.3659060439879828, 0.012963327031136338, 0.20870531568088785, 0.021901547157123044, -0.07206406316674051, 0.0648325195125146, -0.06277934167827877, 0.0020977083515621216, 0.1868695020602294, -0.12215645307374166, -0.14048459597355628, 0.1222398294221313, -0.03698991847745017, 0.12068679764502666, 0.26243758365100717, 0.04987571933317296, -0.038046534899178065, 0.02296734660358955, 0.15351715939747113, -0.04400814690444285, 0.1753098177854877, -0.0029356870959460837, -0.027366297482702855, 0.1946086994744474, -0.13297063536878156, 0.08247284482326742, -0.08454273523870041, 0.023406398639586174, 0.0745807216666209, 0.07455498567729883, -0.1577532378269814, -0.034398596564654486, 0.048961752969444085, 0.0015772330364146542, 0.175341294342769, -0.028236965919137866, 0.181283951721342, -0.03315060319766255, 0.19670830894631872, 0.06856817019905047, -0.11649071901718104, 0.12418003995193862, -0.10946744509533368, -0.10688507988408691, 0.31926496455439124, 0.010550414464073413, -0.0033017683124481304, -0.04687353985027278, -0.30288079073675006, -0.2649950290360432, -0.029119962108560042], [0.09461846290277916, 0.024632990199946542, -0.11656099038604527, 0.01312787043100754, 0.059035220965684455, -0.2363506585886212, -0.03349051665358696, 0.17872906936959487, 0.14821147234922352, -0.02225658998264024, 0.024901208052775754, -0.16758106927745703, 0.1051700354150835, -0.06274631717234137, 0.029813422092539593, 0.08485247334959671, -0.1239034755284043, -0.02425608342203381, -0.019366971996316727, -0.07103704788989762, -0.0683987048027217, -0.12133585706111517, 0.06902640971111451, -0.06990173767261693, -0.10891333720412698, -0.019141064100253763, -0.09141377696960974, 0.10177553220874887, 0.15971143776493343, -0.044383487146012604, -0.07630897806640588, -0.019148969695881136, 0.019739946519130715, 0.16984847920835844, 0.020031392847385247, 0.13089455065119987, 0.023373984735749035, 0.3181777075398505, -0.07912163419706494, -0.08234657323843675, -0.3562097337205511, 0.0739066820096703, -0.08645412109599579, -0.04053627712070198, -0.09129423660998802, -0.04023064279674357, -0.0746971091843277, 0.1607921107631906, -0.12611191945566574, -0.0071026053225706634, -0.012302303905199069, -0.06775603347428454, 0.04368935857214534, 0.22025878838542226, -0.06296738386022369, 0.022679705393339265, -0.05583623854139178, 0.1568467833676708, 0.035780965755535715, 0.07955905393563606, 0.15028143493119525, 0.20479602889605436, 0.1250220563882226, 0.03601790860839521], [-0.14794599750611664, 0.013526201710510954, 0.08501409318857554, 0.073755709982312, 0.10208220809090511, 0.0016490600965826704, 0.10849128831773257, 0.11356105447332723, 0.1876482873686561, 0.02165802407824529, 0.3040376814092085, 0.0019246760670338099, -0.2752747415338486, 0.15473935693294413, 0.22562751814208024, 0.05175791419696127, -0.029147413237944758, -0.2676864032338571, -0.10086131468759618, 0.06745695293242386, -0.17549159615875345, 0.11646154385780043, 0.11992045973559172, 0.05325450480529962, 0.19625135173459182, 0.19490752215054807, -0.24266769672432806, 0.12717407109677392, 0.04676885168293578, 0.07917092942090301, -0.2014146389943405, -0.08888462899665951, 0.13013376179975022, -0.01593031546183597, 0.008369936803154234, -0.08576736363405146, -0.07669548661895291, -0.1091093572497977, -0.16082975127794505, -0.056836636793028056, 0.044449772639368446, -0.01938569274705848, 0.06051136607668048, -0.00924812652506644, -0.1402113541627206, -0.04022052109670068, -0.17482675898565442, 0.12753901581697558, 0.10568613683866514, -0.012716060899608063, 0.09622410390805679, 0.01039207289894796, -0.005332675387245867, -0.08766130727403328, -0.005094007197664051, 0.09284013109140124, -0.06671001278290159, -0.09708305511494958, 0.0452937801278899, -0.08652260500674179, 0.03925565063359454, -0.0664309487620537, -0.01825514377871284, -0.06983557873804595], [-0.2719805925828326, 0.009996229284449695, 0.12978612301140263, -0.17485011887471558, 0.06273622580117874, 0.031084576754124797, 0.023073543811689336, -0.15630711332093017, 0.056335433011205555, 0.00741585898560963, 0.013902582249701357, 0.09375250447219052, -0.06417292481956535, 0.09971535977570153, 0.14304433910663045, -0.016800384127901493, -0.0407918362064722, -0.00941515097481307, 0.054398590407020296, 0.10530889055563335, -0.0783736585469713, 0.03603622502445796, -0.019945530955572985, -0.06647900535959064, 0.1217728051085926, -0.01410768090440042, 0.2245990089898274, -0.014459532555288711, -0.12349059793233655, 0.019591854128147384, -0.0986544857015503, 0.15283162013318, -0.003782026182265616, -0.17213543077003618, 0.09808515329549494, 0.16117662627444396, 0.21751183085713693, -0.12383827537782417, -0.16851271062255657, -0.12002407177171238, -0.03676250791243801, -0.0883846475966505, 0.053667442732795376, 0.09197911214120792, 0.017025521146398333, 0.004162530561815148, 0.1482322001724026, 0.07616100910051832, 0.23957540060572552, -0.12704946386280896, 0.00418786128625288, 0.0955062609000311, 0.07503398119051484, 0.040084422275053926, -0.010910481504910356, -0.0958859244471409, 0.08841890359457104, -0.14147084116894754, -0.13221742163051703, 0.03464409482563454, 0.2824314167808225, 0.13178821948217653, 0.024265997084261356, -0.11483731617444687], [-0.1393798804135527, -0.01496415015385879, -0.03491439319602475, -0.12819078391195937, -0.14167389626364155, 0.008688236299983486, -0.10684938962152538, -0.05188391292484857, 0.05196129206862433, 0.07823398840067071, -0.12950658154649483, 0.1479855132484608, -0.17021790574801815, 0.12115936490520607, -0.09858263307034415, -0.15145586685298232, 0.13752720477071131, 0.05952700372289418, -0.032593405458880766, -0.04182973331601896, 0.08805699247990267, -0.09814528603689486, 0.07554718525919696, -0.0588879870984235, 0.01808840854247742, -0.07723033034166156, 0.0672438461186055, 0.010441300408310868, -0.007288441996111793, -0.07146712911755956, -0.0301050390628653, -0.02082287245037978, 0.044403362450852975, 0.2270457481038772, 0.02527045211958277, -0.06204695930922029, 0.0815035682070081, 0.20615894219312958, -0.12948548577972316, 0.2737034853065998, -0.0492288053863579, 0.03545155956766817, -0.036453869174611096, 0.01739005521015505, -0.1576928540897825, -0.12122918647277273, -0.17334778770728265, -0.10667581223263696, 0.008101661671348317, 0.006340185576860812, -0.09075984328432674, -0.18558036836182704, -0.008631470101318357, -0.1109020318206515, 0.03978678267870039, -0.038998559539083245, -0.0808039984658416, -0.09429282520501733, 0.09111230999007154, 0.05220142609471619, 0.09930111927089097, 0.03125255803489018, 0.025650545458976857, -0.005098529464634432], [0.060963891925469145, -0.049870561509589316, 0.0684980618533157, -0.12126875190747889, 0.18597796539387282, 0.010570729259245367, -0.04486384487611743, 0.2093370530456967, 0.12982155385520605, 0.11658691895643869, 0.001423309845950485, -0.1008524061155335, 0.11878420332389834, -0.0028226221942780623, 0.011601114038545166, 0.08362095642435322, 0.19348750045176946, 0.01003068315721891, 0.019411287715481843, -0.12966226379820753, -0.1324243280098524, 0.11288141642600065, 0.0808793459271561, 0.09029537322127654, -0.019555245777095314, 0.02112003240431782, 0.08175966291359194, 0.0754830444429972, 0.055569793151498494, -0.3562291279691921, 0.006900340742364447, -0.13900664160273912, -0.01276948642537917, 0.28520749895833264, 0.1913089797662217, 0.09576970049886058, -0.01576132308494815, 0.1975800983154383, -0.1186599491404172, 0.10182509154147301, -0.013050247200980502, 0.016330187829736033, -0.04808018451148325, -0.17450113699231984, -0.058618972267251455, 0.14691077334381275, 0.00970940235654581, 0.0007635087969791414, 0.0472888614706082, 0.09281449628891932, -0.14153674314598, -0.13857126492870192, -0.06313973426201826, -0.045860482260633856, -0.053744082994540386, 0.19410157778497394, 0.19114180331536934, -0.10239871565075256, 0.017257127078552457, 0.22006223940487252, -0.18699507098032453, 0.08630493874769508, 0.11539346005981024, 0.11124356352554277], [0.17217846074747056, -0.2878045286966085, 0.0022582782636758024, 0.053662582539574885, -0.04569343920091315, 0.06428382410890887, -0.125409141856728, -0.06792567998163782, -0.03180409703870803, 0.0068650307614991635, 0.007580712724934936, 0.11326616809206111, -0.19991904063967048, -0.02837091840676813, -0.08055648940116811, -0.12863087985167698, 0.018388136280457032, -0.0788961838529562, -0.10446481219540006, 0.12534600024548667, 0.2618841420075358, 0.15248660017707824, 0.03572799462826584, -0.23207177136002907, -0.08731199955894596, 0.22157017549509211, 0.20034202350956892, 0.02121251534046288, -0.10969769403083061, -0.11177315699067343, -0.1366195835565323, 0.009334644875565895, 0.03983967560663312, 0.22316797155118778, -0.18266672720997298, 0.058746958280392544, -0.16091207735230928, -0.028793076871708505, -0.1221467845290984, -0.029906056732046844, 0.010281505414985926, -0.19572103648546083, 0.013454235738932995, -0.017461189918552947, -0.08449588772785196, -0.2275604648060544, 0.10630639753457691, -0.29084498114552415, 0.33324580236075485, -0.18456160231898067, -0.14058602974190731, -0.1702259997117223, 0.04122163671490574, 0.052139608459219916, 0.25201949311650246, 0.007915125946767626, -0.18294509885468682, -0.056276665549555356, -0.036809370439202155, 0.06611211536240778, 0.10107328121549765, 0.16761525104736574, -0.23561191700370593, 0.28146650208674706], [0.025063431305453104, -0.18110425695418744, -0.19262089359291606, 0.05085285867213478, -0.20561258113379544, -0.13901561625939554, 0.03409972787693069, -0.03300271217778138, 0.17715136668193232, -0.025964399816032754, -0.04053780767064299, 0.053773264491274224, -0.11600017831491152, -0.2171505765347974, 0.004137442273109035, 0.027299029719206867, -0.1048669404387358, 0.14515989037110494, -0.010861207855553733, -0.04983626044400194, 0.17822664741452202, 0.039865040548517534, -0.07383584471368439, 0.10823873674132323, 0.040040117552306395, 0.0012083589551030436, 0.06673570493956651, 0.26515559555965446, -0.23152609183253786, -0.05421659230116607, -0.0976322797585822, -0.11280193000712974, 0.07936133164950007, 0.052140002260640694, 0.121600808663863, -0.03095404547576722, 0.09244925671796778, -0.006471461937781923, 0.14576461585006634, -0.04957605003773396, 0.13832921385646912, 0.09963058174286098, -0.09403614943699327, 0.2019903426300716, -0.33340721044867916, -0.15080607260579637, 0.02341305003690135, 0.047987596996055884, -0.037906561317325435, -0.007023011258099875, 0.21225565407563826, 0.11037433583773809, 0.053924545488669505, 0.053174607419983526, -0.10375925682575483, -0.03094332579694121, -0.10893977454980679, -0.11954552822117455, -0.17882672186660203, 0.06003894635207834, -0.18836311753142662, 0.15876786804212, 0.017590312201007423, 0.07875519646685125], [-0.09924844551420119, 0.07864372475571188, -0.03102167043698551, -0.2861824424731568, -0.0881277128653391, 0.24572021455413773, -0.004663178214879894, 0.12396417139812532, -0.2659731339804901, 0.10537566689908734, 0.039018935537521476, 0.003934221504722836, 0.02495354710435064, 0.0071547862038824385, 0.03934022972647325, 0.19599414754458222, 0.10783529550496213, -0.06756156866585332, -0.07995448560693888, -0.042020318692978564, 0.10608855918632114, 0.19895651633164818, 0.17070581697810716, -0.16163578821714497, 0.1457116613368775, 0.047489692890922995, -0.14794563020715337, 0.06463543033056701, 0.11299469067518765, 0.12230752066597395, -0.02234994802997717, 0.12429666813525848, 0.14705812421349246, 0.11783888489733271, -0.15063420970063218, 0.2547850876211057, -0.14184233515072012, 0.028542549987717304, 0.16102816173716333, 0.2007629571761234, 0.07879280028449394, -0.029227088927439245, -0.10244268171568555, 0.16421586784868086, -0.05472111229315156, -0.25899402294628876, -0.022528259540515485, 0.09179418055954765, 0.06632989299153881, -0.03864559232812807, -0.09645164118472817, -0.05046773535009451, -0.14781321409307882, 0.040759148893501004, -0.028105604016965734, -0.07245915171935256, 0.20322881464410908, 0.021570951539801615, 0.04018419454145558, 0.14857015995074196, -0.06086011285658951, -0.08274011985878088, 0.1398975524420883, 0.05348484228023722], [-0.043012011471594044, -0.23539148509063623, 0.06518690875085574, 0.15661047367403985, 0.0871997641365372, -0.2951662509082998, 0.006240451158284457, 0.0002969998634172301, 0.09525444491920054, 0.16121471393358053, 0.11121657380984856, -0.000562401983269642, 0.19453828123346148, -0.1187293240843218, 0.053621192109111204, 0.13207542914948525, -0.09667293957132464, 0.1903723110677902, -0.06926288671940915, -0.15701802727981626, -0.18092381319346523, 0.08732572079053576, -0.0967850106343267, 0.19965048767576005, -0.023317287626546664, -0.04518857739878846, -0.11145537425534423, 0.014294648963374035, -0.09671189165413532, 0.09722591859150675, -0.32055425400776355, -0.14847630530538275, 0.04352464735926942, 0.05690691469692135, 0.1744625874379495, -0.2746500170638676, 0.08984957918015386, -0.22104562577528408, -0.0477842345772653, -0.233381207425687, -0.06912895238193666, -0.10159252906106526, 0.06248674971577716, -0.03842632596190576, -0.06149929164749828, 0.03946031505450285, 0.006119888296726592, 0.1770073443140096, -0.006873230753774195, 0.3098546559856389, -0.14382635589842802, 0.17663102443078618, 0.112215106459649, 0.018451521234986935, 0.023067555374159228, 0.09838089756475683, -0.05429324538416378, 0.2376795405776059, 0.017355186465403044, 0.11993458094276013, -0.07521183723641171, 0.04424074545241264, -0.05943890810977842, -0.04302079897744883], [0.1011990144076473, -0.06325162080915815, -0.1515984697481617, 0.11042813397983355, -0.08670656489357739, -0.27315910311392744, 0.03855831399553766, -0.015117268795485207, 0.04200498449168531, 0.07327335795751953, 0.013657678714823299, -0.18826290828255954, -0.11621659817380081, -0.0559992544532656, -0.049623233444658486, -0.02338315892980335, 0.1337077363684161, -0.19862945560977757, 0.08184905919216796, 0.11926460188773172, -0.14575194912281791, 0.12542445124003965, -0.00708566564844882, -0.04704204331883899, -0.18212191706884354, 0.1424073342983304, -0.1733533169040434, 0.18061773562864586, 0.11388369700493757, 0.13520860920654962, 0.09175879560373128, -0.15731897567721972, -0.02860223793505936, -0.13046961690209646, -0.13196409382694743, -0.049711879873766004, 0.025309265748891325, -0.2413766254445589, 0.09957133440123862, -0.04818015884106655, 0.26759432883067363, -0.13263505430994457, -0.060161404727579096, 0.09869367826577885, 0.031488307827635835, 0.43984721065757515, 0.10813142217106914, -0.103255866370406, 0.014608774127221724, 0.170029260040268, -0.07092691165380906, -0.06616172416938462, 0.13458852337469854, -0.2036855524152687, 0.010227826033417773, 0.048833621308349465, 0.09810738888172367, 0.011808993641254992, -0.03281370299804371, 0.10970135792193143, -0.01602162562325719, -0.14583756417879074, 0.11353999571459347, -0.08008521260865856], [0.012493843929099916, 0.03468459312829664, 0.033751715850238166, -0.07308568694093677, -0.10000150549107069, -0.17731992393743995, 0.10898831122716852, -0.1178516145690685, 0.23735314925687878, -0.014539600563498241, 0.05063955363884498, -0.24444886804023688, 0.20893969358525394, -0.22332760617169306, -0.21450142653376345, 0.004881472606195833, 0.2091235716476355, 0.1472489988660311, -0.13373733032076354, -0.18541687237295987, 0.06337331924702669, -0.18229468528135764, 0.13887842085618463, -0.07394596636148566, -0.06382831748401546, 0.18920151452166328, 0.026931144987161943, -0.06047510930248735, 0.11357436747217574, 0.09121361296401825, -0.034802332298865334, 0.03244991479390375, 0.06616434819667065, 0.09369516469194725, 0.10265207111864944, -0.1400679633890855, 0.024748336243740746, -0.039344459646466705, 0.029515514293762347, -0.0937713927836852, -0.034377114109104726, 0.17797712585769618, -0.06751813125215526, -0.1386235460407952, -0.007544677361061144, 0.036347753469804345, -0.049467438961788, -0.08740242895158479, -0.05843124867696009, -0.01607413477049072, 0.07818309675692905, -0.10601749977863155, -0.24064002806781523, -0.01534329504501438, -0.07528695033326863, 0.08201599723077146, -0.23207328057637852, 0.10698337495836749, -0.08770791498082968, 0.2832366019021919, -0.1395615420146929, 0.09822165155173375, -0.03630886061336561, -0.05283408328323956], [-0.22543364455326134, 0.06502193594358877, -0.05639422900348525, 0.10240897316916509, -0.16932620149095678, 0.16730011647352538, -0.012390544511309252, 0.3264330215909565, 0.06528492137355515, -0.16303676046235108, 0.18258813106407076, 0.12176822691317798, 0.09232061794433928, -0.0025740027677264308, -0.1762725509505862, -0.13574609205698662, -0.009334326418728485, -0.05412897976723191, -0.1711513602328364, 0.026297797210397957, -0.10341479068997846, 0.07429741124464902, 0.11165522567710376, -0.04314442853735931, -0.2524303094336949, 0.037005955747294594, -0.007377524328651496, -0.0057869913985133265, 0.05377689561855829, -0.13449814768195195, -0.12480709945002313, -0.009489782063429042, -0.0927123522086233, -0.16366803516303238, -0.024218145382645127, 0.2268616438955443, 0.04116069046757692, -0.07462491027254818, 0.07989981910587743, 0.10363744264552115, 0.11739512031371298, 0.07301566213468548, -0.013184681209753227, -0.050993188982226906, 0.046478153384829586, -0.26770481021175196, 0.040137785128534186, -0.020066808820610182, -0.01845096034026579, -0.10167001994098707, 0.0819825791041224, -0.24255843251932843, -0.12960225240179796, -0.08750381763857479, -0.15335715334150785, 0.09487858975189811, -0.007412983842947224, 0.0583881435101771, 0.022289288633446046, -0.23219886448712837, -0.1365801323818518, 0.0886671490999916, 0.22549483550535251, 0.05184346279085637], [0.09065759132195218, -0.020461895405548085, -0.21031849683629975, -0.019670356476027943, 0.1434359910173242, -0.11095772310362066, 0.26981836534871523, -0.37133644207125394, 0.04421053193823556, 0.06713681104569892, 0.1007390062056375, -0.03177388865960451, -0.13649568354358899, 0.10159231447122, -0.007915924855477065, -0.07660044282481199, 0.007629401162771426, -0.13331539398642858, 0.06713081757324539, -0.10345760008977012, -0.045824981416855946, -0.08505958475680828, 0.020860559301669995, -0.09601710970311193, -0.12126906268224649, 0.02714203268244122, -0.14790300835734072, 0.09385494061082642, 0.20957559161929737, -0.004805231915129161, 0.13960082186009407, 0.015156653183832355, -0.03215054405272866, 0.04546149025403656, -0.1327967206214064, 0.15494246590723917, 0.03967071430948963, -0.10560464276062102, 0.02432742100517762, 0.008274915727877944, 0.09320907705255851, -0.06679278761206184, 0.016349246086205787, 0.08455252362629846, 0.05199867867966207, -0.03419754468397158, 0.05564811680847355, -0.05635163663942052, 0.08792257234742415, 0.02412369571516043, 0.04842343690826222, -0.0320268912102485, -0.08169498519497971, -0.15944372189291853, 0.2035551944620979, -0.041879786993790635, -0.04731260380644788, 0.005513840676401562, -0.00440687889678771, -0.15716920186356387, 0.09320429015290795, 0.10697521759526679, -0.2701933113196766, -0.019880354727776762], [0.06822438584290262, 0.10752130182308223, 0.03345435560542575, -0.02400168794804036, -0.0349033341800973, 0.11510891283405021, -0.11605448540261855, 0.1964547101840045, 0.0992830176995046, -0.055642117464379075, -0.04556775632164162, 0.06807181108487541, 0.06510589120125956, -0.013142536753495939, 0.02476092771250429, -0.06775039953960933, 0.09752336237039332, -0.0811022740705732, -0.14622487561101657, -0.02144587729838278, -0.1072502057469972, 0.08512018809036344, -0.11136212060864636, 0.13153518537723285, 0.04479797542059873, 0.1823255105291367, 0.0023798542924787784, -7.70880418827745e-05, 0.04288363621075044, -0.1292612933183635, 0.09631009655585603, 0.1776397320008608, 0.07313257738083638, 0.29898889027819264, -0.17108807296601214, -0.1770453368904091, 0.000278680524190601, 0.06935178000744667, 0.1301008223318626, 0.012864888495873875, 0.023307628308259755, 0.12959354050523658, 0.033546607027924356, 0.2772577356101156, -0.05290055102065179, 0.15136058885125647, 0.1976927694219417, 0.11712786799078828, 0.008978932416118574, 0.04984273233308937, 0.1412112481319995, 0.1520217623921249, 0.0911909399923466, -0.0355463518733569, -0.23321513729028998, 0.07484593570948293, -0.17423783038780621, 0.049581143665330375, 0.016037959171679692, -0.021284681386825523, 0.04117701643134895, -0.005202103655640129, -0.1655317365235567, 0.006953180406115308], [0.1402438236101023, 0.10642717786086729, -0.1252077032638659, -0.26698117264656185, 0.002559529492385752, -0.06578883233340795, -0.05976601416486564, -0.15704526220959245, 0.06391523996257734, -0.18560101323655726, 0.08702115275195652, -0.11692308388811984, -0.12646295901821744, 0.05278827731445618, 0.13551639678639646, -0.13713701267945977, -0.05147811334909077, 0.025856779611947087, -0.02681458133158981, 0.16348812196025608, 0.129907529529848, 0.2858618984381418, 0.20549125636986343, 0.17203873110423287, -0.07674891956775386, -0.027123982127590183, 0.04557008299762743, -0.01712543644097854, 0.10449079310166771, -0.0671263172311651, -0.017190432656651697, 0.24590388070211933, -0.1893772728075661, 0.06285574056839106, -0.14509969239945963, 0.1250259619092752, 0.1132441605166665, -0.17091713478995682, -0.13420331740410185, 0.16537115138932035, 0.02215097395677003, -0.02338770806408743, 0.027407545038957728, 0.0686768662878554, 0.03095488950733505, 0.032643680521353455, -0.03415651478098115, 0.2650352247489106, -0.09537493896500743, -0.012810729471969658, -0.1577602719431004, 0.18727334725727462, -0.3097886943619575, 0.09229556320062605, 0.03879608940560625, -0.4040075281376114, 0.01080586574415792, 0.047173380288454074, 0.13461338389273297, 0.021116650975991386, -0.1873076835010552, -0.1604046057908861, -0.02119839177150044, 0.004435915740105935], [-0.13548120688426815, 0.061288187571193906, 0.04531781415699086, -0.3045494821866886, -0.07556017920940981, 0.09643631948275849, -0.15458340249668256, -0.18820462239578634, -0.07840031274173825, 0.02727961441093408, 0.14495511012696002, 0.10737725980048654, 0.16263202017609182, 0.10422631709760666, -0.12763665030921964, 0.1475442987968778, -0.1173375744797339, 0.1560031998923621, -0.14665227574011985, -0.05135611866207936, -0.11445468407479543, -0.06060237047609269, -0.028599233135272146, -0.06202749588089175, -0.06379589838830561, 0.031767194605600874, -0.0013843111958393081, -0.03959491585117139, 0.07394453957908906, 0.018756666805538596, 0.05789794969321726, 0.003835853609211251, -0.13613069306351175, -0.0565678692212782, 0.006129658818043633, -0.024149164728632558, -0.025550745020986813, 0.10340265092688558, -0.056758484924671046, -0.07219453499677876, -0.29838317315625934, 0.10576901138989488, 0.20826871322586912, -0.024163212558617204, -0.07663585421333023, 0.002781057773145052, -0.05475609273016342, 0.04172198157380175, -0.14444510630792465, 0.09211155781687987, -0.21905358857839782, -0.038684112851111334, 0.19797559611068374, 0.008343902100979914, 0.15400990425904287, 0.03656328623309756, -0.09717873792667843, -0.2436051351975493, -0.09347936007691837, 0.007557621397946815, -0.03893660272247922, 0.07149814094382098, 0.20328332681001396, 0.2626764795744538], [0.16072251821073394, -0.023576620644227067, -0.00815218697226756, 0.1548217071549927, -0.0378938185321203, -0.0326049591075223, -0.16147006830944372, -0.17491403177937723, 0.13508773073753597, -0.10599814056913176, 0.07238377733463128, 0.10742227431444545, 0.05200833067517417, 0.32326383124829905, 0.08263755300763419, -0.055111563599498765, -0.11885693669738494, -0.11330211997888956, 0.038847960702918134, 0.08078919036354888, -0.05416300039825198, -0.07172563118074463, -0.18499950796310866, 0.11421373444047182, 0.14066609459296564, -0.17587526419384875, 0.11065377824675025, 0.03576055140700397, 0.019340024627512456, 0.2290667484382912, 0.18080873483288784, -0.018907321139655348, -0.07299196084394009, 0.1244435094456515, 0.0029785265311630675, -0.12756035433633262, 0.1970074237647451, -0.06568030704733058, 0.0026987502172654957, -0.257545484339036, -0.13314866518982363, 0.07983606601442891, -0.007338974918811995, -0.17018092101042046, -0.06677543566231924, -0.05421281199928956, 0.015515371374054255, 0.1398170668945944, 0.005817627148523869, -0.013626468970719735, -0.0022550470075313267, 0.1179239878135516, 0.15657325514639825, 0.016302277729290982, 0.029198263901891428, 0.1560310664859659, -0.0038347533939020687, 0.03405388297570169, -0.05158713803105957, 0.08857818112149685, -0.13865138629260465, 0.09217199576065435, 0.1390692084684923, 0.16728971621564612], [0.021576647962786317, 0.1262123071365414, -0.033220747773901424, 0.08076390898154434, -0.13415557140596898, 0.04403164596200194, 0.10140834565798022, 0.17179997442700495, 0.28386640787431644, -0.0081562195696868, 0.12575519104821142, 0.030669043944787495, -0.19756567683160486, 0.04977864561108542, 0.12896049406899388, -0.00014091653499947318, 0.20059535266291972, -0.21968968405483527, -0.08000352234227207, -0.1461213925143037, -0.1001670510829081, -0.1257090497713997, -0.09879997535480542, -0.08067559582899002, -0.002577436715841875, 0.043971189091482, 0.05573227425605694, -0.09499163575533225, -0.15057739084747246, 0.10491093107700454, 0.0027603844130094546, 0.0553672010551915, 0.1437541599036773, -0.16450832637992796, -0.01604624221188067, -0.015675934422393813, -0.034555383319194125, 0.03801244662471265, 0.1230494000009715, -0.1649093302603823, 0.12267612619468057, 0.1577171081687958, -0.11672438121695919, -0.1300954940366078, -0.3712169170174528, 0.08413334423396458, 0.02997324715947474, 0.0866585555451356, -0.09172318468785844, 0.08233111555847829, -0.05070539158605558, 0.2008907919250983, -0.04001621066300488, 0.10605695887120294, -0.015043444754107318, 0.12181220685535026, -0.14104674005105017, -0.12714699936779728, -0.041948972864394016, 0.21610289899265317, 0.07269569192415315, -0.03666848752542848, 0.06019281864901408, 0.04658305423391306], [0.08956654682232096, 0.2940504661495538, -0.041064689814084024, -0.2298340687112468, -0.05698398554126884, 0.17030527986291585, -0.06498556864504743, 0.01761265226106831, -0.009128114671894073, 0.1878981524298024, 0.06402306248442192, -0.13294003071529772, -0.044255577693742, 0.055143896617544284, -0.04004521064640951, 0.08982749015420302, -0.03108212429128113, -0.06968777829769426, -0.11821111109406607, 0.08826472121430691, -0.07357571366609632, -0.256830778552957, 0.0907394160046623, -0.08226798840986195, -0.12080143498994962, -0.10784705020701932, 0.08003362501865932, -0.08295725179102566, -0.06901303674124767, 0.10348247116140662, -0.1728376618240673, -0.062234619793108875, 0.03005958452108887, 0.17411224451029386, 0.08958959591346477, 0.02644658848895133, -0.15159116782645715, 0.11173800122604537, -0.03324941695877558, -0.12365380752611597, 0.10618096028997602, 0.035313081681379775, 5.121157438385616e-05, -0.09081977351280737, -0.11082765841011528, 0.008031828586204232, 0.012084077282822622, -0.04735436365207826, 0.31412427499166495, -0.1284180239221512, 0.05623880992753027, -0.08364074537060973, 0.06865234809720178, 0.06664865153224678, -0.10600215847820368, -0.18092328247545492, -0.04251457362554331, 0.035356980418412155, -0.051314935987306964, -0.016515254228211394, 0.10242635261091484, -0.12406350817773922, 0.014856189342379072, 0.01841227513309831], [0.14471576452137494, 0.30267391369882063, 0.11372187920230664, 0.002094739991946131, 0.1365704247325808, 0.19458894061879325, -0.1540970128998388, 0.007991143044932765, 0.05508782316704058, 0.11840357144040889, -0.18895152200653278, 0.07339212454471676, -0.28180990911064935, 0.019459414603096713, 0.03725071855302059, -0.15614449081295376, -0.07673460941315477, -0.03570185432846048, 0.07678234181195728, 0.056890729547859745, -0.016091640483302, 0.05813156401982504, 0.07649380958384774, -0.18988411573084216, -0.27121955682274923, 0.04579607703400806, -0.02020616831337693, 0.013948288161985702, -0.1791628284891055, -0.049590818373975366, -0.16653861820430255, -0.06971843116238365, 0.08862588475246423, 0.09002320550807204, 0.038422078666126305, 0.10278277323574733, -0.014980402336558405, 0.023877008457576687, 0.0581144761035467, -0.11573826754588175, -0.07714254718399266, -0.05749060295094502, -0.024686626947730456, 0.041281543495175675, 0.02479203258055958, -0.07678901191434079, 0.17273836165024503, 0.007886983973636418, -0.07469815649058384, 0.3727008978752694, -0.0910942651943529, -0.05687031817479806, -0.0817944780507791, 0.00951782849894552, 0.12975895981666313, 0.1526002158757012, -0.19262819354431496, 0.13918780218134796, -0.1151406068438401, -0.07536331706075518, 0.2021415076273627, -0.015971506416763915, -0.004563370173623389, -2.0107909718271375e-05], [0.012159332543914823, 0.016190072659094622, -0.25864822037709934, 0.05503297923693213, -0.19185349587350287, 0.240345674824571, -0.010229170533011162, -0.1665739470776233, 0.08367754797194739, 0.12490598802181388, -0.05462790706435094, -0.01920895841677383, 0.07749944118425603, -0.11835435678424701, 0.06680756416718997, 0.17533028723236352, -0.09617833893096683, -0.05667399987191268, 0.3489935298716414, -0.003940415260301145, -0.10971365131724455, -0.22321652003208375, 0.04387478723910912, 0.15947477661443815, 0.02501932620969926, -0.14904545446339057, -0.06661058141786474, -0.05596538572431087, 0.15807545311716245, 0.12302562924231199, -0.12480518668638936, -0.028059399519581876, 0.08101811846756722, -0.02511777604600245, -0.12464100739483742, 0.10344301148671874, 0.09864816335838891, -0.1255589539897739, -0.10434685755081688, 0.09583910551143322, -0.11365145467235638, 0.13407646878363705, -0.008239601999049348, -0.1455517766246081, 0.24694890787935883, -0.07916081453238283, -0.20256990496584895, -0.1044676546447692, -0.1745233474688726, -0.11030127950498908, 0.2267621590472661, -0.07347109095225876, -0.06351127288302313, 0.015364814686013337, -0.09016732818695558, -0.12469995281722648, 0.04466895409241134, -0.014991959590557736, 0.11237253834911931, -0.05137606964606519, 0.1620231572347615, -0.015446672848947886, -0.22473598862840205, 0.12821382417475521], [-0.07038540873652285, -0.18318483503450494, -0.0052779992189534225, 0.0988241889637419, -0.012476892225665476, 0.15226368772344376, -0.049045444796444626, 0.11430745176324132, 0.032158396122374144, -0.07277910681655024, 0.06727476636739826, -0.13496253376957065, -0.007796618227003804, 0.04735105241188468, -0.013124533727610735, -0.03964116450871089, -0.014540283044974091, -0.1803759330571599, 0.08255022238334807, 0.01019385750077855, 0.06175576588478784, 0.1386574457075609, 0.0440131583340815, 0.13141002554379067, 0.0544423040497759, -0.1935797119990262, -0.02309804593962486, 0.06656264606705778, -0.055432045896998274, 0.07981678910479291, 0.1451915427062889, 0.08573066601559076, 0.006401850074906158, -0.006602348935784748, 0.04358437255473879, -0.06198807865599773, 0.08395825325930212, -0.090306480368028, 0.16314329371494316, -0.02869605656758478, 0.07380398487392147, 0.05946617471597445, -0.22734286414922916, 0.009709739748172155, -0.19404992247602587, 0.012273021070951616, -0.026620746761033365, -0.05316522102555181, 0.024654236669262718, 0.067064563174605, -0.06564922367514275, -0.022331773043203704, 0.1001964820155626, 0.09039690613663318, -0.1283958243384076, 0.09209706272709348, -0.025429117054842857, 0.13172820087282444, 0.019049446046485594, -0.13341587866501053, 0.053132406451071756, -0.019503066833092608, 0.009412907668890401, -0.02963626533170262], [-0.07164263622197502, 0.0261582666824647, 0.3384273765663505, -0.26660998458863316, -0.020769002479589068, -0.09716857201016438, 0.2755355257553336, -0.029540295277362204, 0.10660920032059176, -0.1875103414679605, 0.07339259207138106, 0.1143603357982157, 0.11143910239535859, 0.04501127645307448, 0.14467806363893362, 0.02722648587610332, 0.09593820449758188, 0.18230210090640342, -0.03586387168713765, -0.056542074680237406, -0.10627994919251837, 0.23218727453342577, -0.04057466067201768, -0.16611774726294407, -0.08983839184322609, -0.10983599541050633, -0.07799567911536066, -0.040251729623130006, 0.06245938421231922, -0.07155242625961025, -0.041311675603037994, 0.1744267554382951, 0.06694020861474624, 0.09671580737619205, 0.00829793977891245, 0.03546775616237823, 0.05438386621966865, -0.11762141042493594, -0.15709269979409884, -0.055914362801761416, -0.14972031074343248, 0.006916009786485996, -0.02348873329313484, 0.0844882016356862, -0.21210209941848485, -0.006012972485261378, 0.0649139218606432, -0.11895706048563096, -0.05926421129824611, 0.0482383622988553, 0.12263661804496763, -0.035157963926285694, -0.13710771646665335, 0.19653630471988626, 0.20149861519974951, 0.12056730421940019, 0.07083181634561808, -0.13465181265725404, -0.1415658345959212, -0.0885509886451389, 0.009076969492337706, 0.06854386164461722, 0.05310743608297197, -0.032785105503711484], [0.017155509040173336, 0.08826291282004332, -0.022322632923776495, -0.11832731718789005, -0.07518114576157617, -0.016660910713213534, -0.01816242961339199, 0.016247869628645946, -0.16080560230849367, -0.01446022145159288, -0.01989396777640394, 0.1151752235089024, -0.20622270304037313, -0.08025941487106852, 0.07911212447814812, -0.20590437333515174, 0.012260981339137559, -0.002026256991891153, -0.21229568355626852, -0.07558568626662938, 0.1392845377978966, -0.0661850376977112, -0.18271064593794936, -0.025810996534694035, -0.3153796525367704, 0.01760432197299922, -0.09955330209604242, -0.1354967014133115, -0.03256935407038743, -0.03955305478121459, -0.01792032527972194, -0.05087955837040687, 0.07407751232507677, -0.020476605540351054, 0.01894367086984694, -0.18375319693754222, -0.030290930008139354, -0.09094505780587805, 0.19270117429651484, -0.007692991490079698, -0.011779650743882649, 0.04563427787413303, 0.08044837583374574, -0.10378566052765718, 0.16681104585148587, -0.005738499487264299, -0.0064002353375587915, -0.2196660489584176, -0.09675856912450173, 0.340271277495818, 0.06749608737629322, 0.00427853515629131, 0.25185044978360094, -0.07647363927206159, 0.12028661680576057, -0.1206777733202301, -0.11764822241052479, 0.09591550375518791, -0.16894384840208723, -0.1555542212599605, 0.27288358270615937, -0.058387462802565154, 0.1634928772584119, -0.06999224750414827], [0.1355910489728157, -0.1338779993937001, 0.009372360052983326, 0.07164795348067896, -0.007880540152301989, -0.05734946472940668, 0.029575545728295547, 0.0338225930491533, -0.020193822220862263, -0.17492603938992918, 0.22659847951770737, 0.20060664140237647, 0.19555285790528099, -0.13606571638696477, -0.20552169915575405, -0.13421865571687633, -0.04645678952229263, 0.012432648224284549, -0.06119669489850031, 0.007910100834321187, 9.400657168935157e-07, 0.01371823406716248, 0.19816614513346187, -0.10604841833726246, -0.17427553573560234, 0.001258941175641449, 0.011959058610304255, -0.01737478219573027, -0.03385630097531951, -0.18405197783873425, 0.08708059394180748, -0.19921866376719888, 0.04568463824727231, 0.05799149014988421, 0.044928451072130476, 0.19540104762897, 0.014676692320176762, -0.07953171109866577, -0.07993585064092558, 0.06166492920656679, -0.0031952648410382943, 0.1788317468749365, 0.02923988268428248, -0.155787936233247, 0.009664816291051023, 0.1590236650640623, -0.023317574926741847, 0.16253504667780297, 0.09727001310567106, 0.016812578859883163, 0.12860261615963817, 0.09517683761066528, 0.06110252947272967, -0.07367689699638642, -0.023333955647076514, 0.22392698757228857, 0.00718725877222868, -0.011461128731681876, 0.17359121051127413, -0.16210449621663564, -0.2228509011230195, -0.0394230918871665, 0.02586312170129188, 0.02400443034192511], [-0.16523663904499591, -0.008512805378111962, -0.14471845071108738, 0.11030816207237604, -0.11844369337777531, -0.08801120274694925, -0.042530885233372936, 0.1892348570211626, -0.019536078490527353, 0.10224093111305066, -0.04784466286095365, 0.06451420048724493, -0.12186991379399083, 0.19927215031418263, -0.06318737953439867, 0.17993253556864375, -0.09260032541663238, 0.02511756809017782, 0.14167886276871305, -0.18240132201466855, 0.23927426430593796, -0.023347356903952607, 0.09901918446571138, -0.15887714653323196, -0.03852169912952146, 0.0998382331957961, -0.047201369669522965, -0.046903339139838615, 0.12999160850875466, 0.13646572231124252, -0.3376818264788092, -0.04520389801118887, -0.01981230423519566, -0.007826224288699137, -0.27593821278587205, -0.017930622908707446, -0.15244890820902277, 0.06087354704628831, -0.16956933554065823, -0.2161590756958914, -0.18673433463445377, -0.15978384428499182, -0.06705775032095976, 0.013648200656140464, 0.04308044837286043, 0.14656494459371586, 0.05205551727516746, -0.008455163222049035, -0.25342947560323487, -0.006505704452823189, -0.04510302989232894, -0.0038245256825529036, -0.1654484097782321, -0.05429334472684185, -0.08838009986890176, -0.1529972606320793, -0.09009975992930508, 0.21489733329931707, -0.1651953300083692, 0.06583259482002625, 0.054191738985483066, 0.02816517504794545, 0.017133078094305147, 0.003775768461153851], [-0.1142744478233019, -0.27012066995620365, 0.02728354385591531, -0.04161238840519924, 0.14405715309697456, 0.13308112414256684, -0.17775067868557742, 0.15965886151258765, 0.012105192956380705, -0.011655406722563258, -0.136689853056542, -0.12431611184378703, -0.06125513798271946, -0.012201055434314935, 0.02243641088683471, -0.26069428901776326, 0.08570732374949296, 0.11742653464441165, 0.0609452928219241, -0.17410393837420549, -0.015184708748921786, 0.037829092750612074, 0.09149675239561321, -0.12148805751088813, -0.09690508608000628, 0.2240176720918052, -0.2596796611593732, -0.12310089821854729, -0.12222729737324046, -0.10423327931756109, 0.004632622551050731, 0.06050566167649446, -0.06470979800070384, -0.1585900941164771, 0.1690968469662915, 0.08557854968493273, 0.13927813609999543, 0.07806983081317587, 0.13665050063875628, -0.009768883039818748, -0.11897033662995678, -0.060246219338099816, -0.1124754910931068, 0.06838797260779762, -0.16563930762398923, 0.05850861078466932, 0.3180754888499838, 0.007126516519045339, -0.06355247092899013, 0.4286962247228596, -0.07730912098196116, 0.05901255160807355, -0.1424431358818637, 0.14900641588213492, 0.2785757308660348, 0.09042407231080396, -0.06597860051881042, 0.2312403477935448, -0.08624284021541961, 0.058398907038888406, -0.17014895249014855, 0.05506370265290899, 0.07949942054528907, -0.0891881220696277], [0.06553975097333453, -0.1632348635831402, -0.029390957418318972, -0.09792923222490897, -0.03036872555807768, 0.11125490052933582, 0.13000146015241165, 0.03810055035800041, 0.045686262167861875, -0.1247607567254111, 0.013500433781902436, 0.0965561687605723, 0.017903903279848424, 0.05373760759686617, 0.1414519833255454, 0.012078478241654042, 0.09804669242785444, -0.06125814726005934, -0.09915740689416687, -0.03823371723179381, 0.040864767242551954, -0.17577459016834437, 0.2474669500314449, 0.09380292742304899, -0.02853671984782607, -0.003755516113301411, -0.30550887135553273, 0.1280517021075964, 0.013324511331104143, -0.06356136901204827, 0.015246706802877805, 0.2047222785697851, 0.07285284779828588, -0.3080420474355016, 0.0693471340747557, 0.03204557031497371, -0.19763359921698015, 0.14739115595027896, 0.017899471289209965, 0.008445308398043272, 0.15746082563107192, 0.04501431996765406, 0.0630526037197942, -0.22690714391985398, 0.14049101692487762, 0.26828124472938447, -0.0800095427752861, -0.050440946141474714, 0.014474028882193927, -0.059030511145634006, 0.02167779365825029, -0.16598359996707235, 0.04482038372923404, -0.010356355097477475, 0.02099240398904539, -0.047050324776124725, 0.22415258481358585, 0.12830983013972594, -0.2061865689778586, 0.034765049755071546, 0.15939450078692932, -0.051415367572861984, 0.2340806542462486, -0.04046042030547632], [0.1309231050992487, 0.13004484448694703, -0.13319961575949796, 0.19484363441120123, 0.08098680166923841, 0.04377094248078673, 0.10331493423129134, -0.14164152305704425, 0.029265668365174143, 0.14044894806423983, 0.15033113745145374, -0.03956533586686227, 0.09904780138135115, 0.016819180805981746, 0.021585457066592567, -0.01685449460163275, 0.06812597644865431, -0.01091154885540664, 0.03837536118047879, 0.16340195074127722, 0.00504349253377229, 0.07503751251594183, -0.030987716870744142, -0.012488457657351305, -0.10008375501705649, -0.17705715498402874, -0.06009869487207945, -0.06430864184758547, 0.11935904573516762, 0.012071377168173612, -0.12765313206568057, -0.018558134765945967, -0.11312501056766706, -0.06395646885445895, -0.08966782151519498, 0.01603646860148812, 0.22099496957104706, 0.025423451538662843, -0.12322380147441502, 0.09183296068770852, 0.09710770342867425, -0.09050373094798482, 0.05812793510532651, 0.23681735527222483, -0.013505687860939463, 0.2016782426588342, 0.2629400561698562, -0.01848951499088067, -0.1414126719202901, 0.29812361298524004, 0.02711982095837839, -0.0019123384711347727, -0.2353979163259503, 0.1140569239318646, -0.22502237899143396, -0.04799952042631797, -0.24534187897621737, -0.09832778695468702, -0.08139615055560241, 0.04189736953283314, 0.06185116016374011, 0.134317358180106, -0.153687796928212, 0.05517908286147719], [-0.03186905152438551, -0.006694455558653403, -0.08897080928581622, -0.05755856157747329, -0.02497435915286417, -0.18642190775912554, -0.2325312441026169, 0.18756829008240075, -0.016507088979582668, 0.1160018757953259, 0.0028323743648839194, -0.12548535541458197, 0.18137237877388068, 0.02026090182143953, -0.1416960353304275, 0.13896460032100333, 0.0044644638412409355, -0.10451475642188642, 0.048786254458996814, 0.27867755923834525, 0.19553627864690037, -0.0790762507159756, -0.268347060066483, 0.019616726535948745, 0.09127025149671543, 0.020754911009153464, -0.29064634841174264, -0.09012924764872346, -0.10183333198758339, 0.06291240766441371, 0.012482225743605725, 0.031276585580594374, -0.062121366664706044, -0.17443079909827236, -0.025586299295121764, -0.1979213909016361, 0.1329347282319476, 0.17050109157141796, -0.1867483619783163, 0.14558018036898887, 0.12808434837464996, 0.08821987976934173, -0.12454175282282354, -0.022075496813750838, -0.03628221999202794, -0.26314173592749257, 0.0900594938391829, -0.07198509466431725, -0.05323550103617877, 0.28231311517495955, 0.03539067661945465, 0.11657316109816036, -0.12577206875699193, 0.030885657813304063, 0.08528577900496123, 0.046424716563532975, 0.23839081847128185, -0.15427907515894176, 0.06972878385421376, 0.03956856460682058, 0.015088791261063671, 0.21795401699458083, 0.0070601335809476655, -0.10860896914733875], [0.007281957981993386, 0.20845401425212987, 0.014304705480354453, -0.025469795597322945, -0.10937827469788368, 0.30665325078464595, 0.1844040266749113, 0.07081624274813235, -0.09296629952470008, -0.14616891033871, 0.05727577016766557, 0.09059989656428687, 0.03428151926018089, 0.2058258033933867, 0.18965751268285322, -0.011569641716825506, -0.01621016612147983, 0.14143194505119905, -0.16413377622020037, 0.14378228556461065, 0.01063968925931359, -0.17494222805051976, 0.06907958879202318, -0.030273199675532807, 0.0294063593935284, 0.39401061529429304, 0.10228464630612509, 0.1701769025063641, 0.19505356120455372, 0.09090346355814409, -0.012103580085965529, -0.1610351949113098, 0.11147549351784812, -0.23901682186254325, -0.05846920678430361, 0.18315717281586238, 0.18239268129778335, 0.1333572797936282, -0.06164646561878714, -0.02000222385263276, 0.211703216336998, 0.015485709217464744, -0.0074913377434946415, 0.1501764645234664, 0.2777100909640488, -0.06368296800059697, -0.1929175725390168, 0.001295944626210714, -0.017022593171612328, -0.04572754853169387, -0.14790181330272523, 0.17238757042060115, -0.04037879598993775, -0.019540708185123573, -0.16616836440937102, 0.01869885096836232, -0.22579416168414682, 0.21163104050365592, -0.13277059860515486, -0.0700184004578368, 0.18912891231190068, 0.18868138638692594, 0.07126919795938293, 0.15317788451134545], [-0.07505720772665818, -0.06694101603231378, 0.007000206258296041, 0.36765874179713, 0.18610409371207542, 0.028176559829717597, -0.10478149421203752, -0.06266197271398564, -0.08375775642144202, -0.026205848266593463, -0.11848748394897304, 0.14841327624340028, 0.049659859975423506, -0.26499244281459694, 0.0908611818970989, -0.07511488904208163, 0.20478517859078435, 0.010000709959618248, -0.1929593994935215, -0.061056674730742146, 0.06776639578820104, 0.028781516059809976, -0.09917980607390721, -0.07469315377614508, -0.12420954817955805, -0.09138571047080678, -0.022756079853956005, -0.17530126757026124, -0.14482122513490317, 0.22966240356255369, 0.006690523148502638, -0.06894392373270651, -0.0437515432927937, 0.19546575161879975, -0.024813865459972606, 0.12432856455714963, 0.019459996386133684, -0.049533862140148446, 0.054849946016432394, 0.16208626019128894, 0.0916865165925296, -0.003913182285651522, -0.07047146830216637, -0.33372021166352145, -0.10875726463294741, -0.22462617044808242, -0.2936017778605147, -0.028714346037948337, 0.17560290896495087, 0.22028778932584722, -0.08031384718477433, -0.028727011080342903, -0.15021551862071533, 0.029241109994672203, -0.009229595697448391, 0.02385464805538666, 0.14330256809828962, 0.01381851920946976, -0.2695889213819935, -0.04183283501196878, -0.18796705597227956, 0.002111543523070492, 0.10128201417980157, -0.14701420242476199], [-0.07336868598928144, 0.0023708879484342837, 0.18076244492477858, -0.18943677664054998, 0.2303173241988211, 0.09405650956015013, -0.039715296000227274, 0.02482979768907787, -0.028874205846573475, 0.031122088542173514, -0.07534195611882061, 0.0841026920528518, -0.1897789472103366, 0.11133847241920021, -0.009380401675034317, -0.008557462233814948, 0.11549222555297763, 0.1077766836454416, -0.03902190642957152, -0.07933705263869195, 0.11587461439196794, 0.10739212999425789, 0.012902266835984276, 0.23519305264656562, -0.2358229609928942, 0.029618265088123548, 0.1388033847260368, -0.0069731795573915135, -0.015607679895074358, 0.009364351482704716, -0.24794775083357046, 0.051366502366662584, -0.16963443321415125, 0.2341222278332953, -0.15927557462381808, -0.02776992036185445, 0.01191568754046421, -0.18248026445161114, 0.24396639333125342, -0.0632664608359162, -0.126174530340039, -0.16386212119917437, 0.04976119338957126, 0.16604686255738813, -0.19134327667956466, 0.03139556547168776, 0.06963052207421673, 0.09760037174864093, 0.07324528237524189, -0.10014529519257215, -0.2680680603016549, 0.1331259517184053, 0.06804080249967703, -0.0394372566436673, 0.12098522914711261, 0.13941282952616757, 0.061611649894117035, -0.08087678568316464, -0.056274438768787315, -0.11370097443753406, -0.13057391338133534, 0.005254809171599258, -0.14189836489483082, 0.06718882972059743], [-0.0964916086984807, 0.016463792285016966, -0.1295607261946547, 0.22560369518450862, 0.06918761305371625, 0.046065493903590916, -0.17169964142364103, -0.23058517696956463, 0.109631310952129, -0.11013731675765276, 0.23489611456017992, -0.10795094844199991, 0.16635124792566655, -0.2742229694286032, -0.09561031371219883, 0.0008889769034110859, 0.10827872337091614, -0.09080322255696655, 0.1449780531274796, 0.16913664773619816, 0.0780033613896214, 0.004898803718293033, -0.02016001637489071, -0.04002617267692855, -0.1192414156812712, -0.026843511429830824, 0.059582748372039064, -0.1606129353969868, 0.0022467433957428762, 0.0992977543395203, -0.13147700320148636, -0.028732803465368405, -0.05857594916192863, -0.13272912344147428, 0.16213362285333655, 0.005990953720877369, -0.3022424973417809, -0.07821204815426237, 0.1045852356986671, 0.02645932896360741, -0.014166900740006535, 0.09535464879620568, -0.06900606563365431, 0.026525771929260252, -0.14228068346036274, -0.1346285152040591, -0.054495694578864086, 0.008023359140129084, -0.09224902803882665, -0.1078232243588545, -0.021873397301654267, 0.14068977671505206, -0.07620107919801875, 0.15343397936356754, -0.14989269112649836, 0.11217023950391364, -0.10832615378525236, 0.0229318583465417, 0.010007409440123334, -0.29329430362085046, 0.11565522669223176, 0.0756782816576375, 0.09570817686706333, 0.006988886530291099], [-0.16625831186028603, -0.09003438248735016, 0.044189022783303486, -0.06461505297319024, -0.2101066849266717, -0.0972317692284044, 0.2757700397973764, 0.05123528474139311, -0.07453365736096569, -0.21242688894071635, 0.07128689379697718, 0.21541229690613567, -0.01615786349141423, 0.07942602784382001, -0.06724031951520651, -0.014488687077869829, 0.06448486799789158, 0.2848465682370547, -0.03551796641011431, -0.049376955732038805, 0.1617243309084707, -0.13908816555174192, -0.10506385568780015, -0.09540911934457878, 0.32411257813360544, 0.07820793507215322, -0.03498424061541381, 0.07584958608239054, 0.13509879260885624, 0.13301609845274437, 0.1978684445053557, -0.04358370831732279, 0.1864455006696371, 0.08640788834826205, -0.03880781596153046, 0.1270206038673724, -0.32096991592169755, 0.1145960356113507, -0.01763657785029205, 0.03417710622697548, -0.067316244694345, -0.002068507819366464, 0.12149445252824334, -0.09661249479514254, -0.008021014547691135, 0.13609854081791775, 0.11887127045797143, 0.08618718518863056, -0.09601388044108924, 0.34670839574159407, -0.08651227000253443, -0.015761231986658575, 0.18312195347585128, -0.13925165942430573, 0.07102829957098214, 0.18560996252206655, 0.03693163662009457, -0.09821964450846174, -0.03433898183766518, 0.1220521764393487, -0.1375728318243105, 0.03541577037041205, 0.08910957020306237, -0.23958414321676422], [-0.06842481828893428, -0.09675323171313552, 0.0704499860318987, -0.1415471379018653, -0.04527056323098667, 0.16421805204386655, 0.05529857193181477, -0.04705715925902295, -0.115199620176379, -0.09962015740051657, -0.08875337816566253, 0.03492727590536483, 0.005246510771940106, 0.18021137192658848, -0.06222839442483011, -0.17149297495413116, -0.05612763473929054, 0.05216407918317136, 0.11438539631855746, -0.05637233933894374, 0.02322344099327075, 0.36991203481502916, 0.26149629420990816, -0.11180762029422878, 0.1838807735417056, 0.02084876498090496, 0.11912932805230653, 0.09627795613614058, 0.05006369462972078, 0.023302920490176172, 0.10910331570548701, 0.12173489242332224, 0.03426842719497242, -0.12920086351770993, -0.060249202188969134, -0.048726035901640846, -0.09589766712243208, 0.29874106925173954, -0.0035625555280615335, 0.16492759837639726, -0.031244684084455476, 0.03920814948496761, -0.1400269936240086, 0.07637115057934452, -0.1464260578062188, -0.34524256486282434, 0.1018068969118087, 0.069628144427284, 0.06584982820249624, 0.258753487357058, -0.22169400471275783, -0.2026979798299307, 0.06786833548406555, -0.09146949914641554, 0.2889859559739966, 0.012714982960778339, -0.011307428852947892, 0.09894040705873759, 0.053459707437717954, 0.05215818687279073, -0.055093813033317174, 0.21522399977454876, 0.0544094345347264, -0.07704020181799298], [-0.05961698345031937, -0.013451370045658618, -0.16824276371176108, -0.0032324461855023734, -0.12727100869060856, -0.08296576033689707, 0.1069088610997024, -0.1437541373460714, -0.05821342012187047, 0.06831158118146384, 0.25970982159144984, 0.06755389266801691, 0.08840011214070445, -0.14603705932079583, -0.06174907653842671, 0.0714196585354618, 0.1615588115151163, 0.06480006565454462, -0.06263854470391714, -0.09379582869800243, 0.08760772404535547, -0.17238490436800166, 0.03456399394002774, 0.02644388864565891, -0.14649209451545941, 0.3847822329963837, 0.13557988310061772, -0.2010754807398915, 0.13238404419372976, 0.00040401126892414355, 0.06290172109582727, -0.12184476539873774, 0.10404084755420212, -0.04436603550184593, -0.16985272126393966, 0.19487887711145627, 0.08516156877658759, -0.02659269410667078, 0.20366849185952485, -0.06422406588984822, -0.12410249897353035, -0.04471489450292498, 0.018908319417267925, 0.1656311475475425, -0.113370722165398, -0.07717716647729665, 0.026618214195372445, -0.1415918516505979, 0.21509692868393002, 0.024645150387790263, -0.0629745483396458, 0.0319170598327451, -0.023094478731763346, 0.34472257842424353, -0.028268343373859882, 0.035233915823587675, -0.1395382404872112, 0.0014002881303634032, 0.11611403419273701, -0.07193511173976712, -0.15815307731924338, -0.12033971075799302, 0.07057222693317126, 0.23058771345776038], [0.1966274048754976, 0.08298895963215988, 0.14118246625000838, 0.1849502530653963, 0.006419385266749401, -0.0485840430017016, -0.007562996075944527, -0.08537371411765167, -0.09550158317385694, 0.07185445407628999, 0.07298464423817554, -0.009648165792639881, -0.016024027089906325, 0.008696084975393823, -0.05913663992297265, 0.08180065174436472, 0.08935525078394707, -0.09882362172873628, -0.10985152679953655, -0.09605219015822919, 0.19812790892670454, -0.13581093929336244, 0.1319394293319157, -0.09492153161563144, 0.16093083905946146, -0.046701573448512175, -0.15861569504962034, -0.046845273209207616, -0.10095694972820189, 0.015949397257274327, -0.0408083400516605, -0.0024392734813133013, 0.08218990987313976, 0.1383392114120333, -0.0021292173000704356, -0.13798047246300654, -0.031983793158459645, -0.11068906467399456, 0.09462019997822098, -0.032451119846606986, 0.087281171953195, 0.08799839193070147, 0.12201805120065481, 0.13668469333339445, 0.056024717480562224, -0.09136871255731861, -0.33417331021969787, 0.08830080082065754, 0.18513724559633743, -0.08709862795930212, -0.029229446425545497, -0.1809374085030778, -0.15553714731374976, 0.09388953370886961, 0.09643767156368652, -0.01474905867079545, 0.04012717915194561, 0.036854862620717355, -0.1053982856351598, -0.04991482563099937, 0.012465096567269232, -0.15256549824739776, -0.03907498924342457, 0.15070204017030228], [-0.14128809547994567, 0.008325560146044091, 0.2191610996130886, -0.10061641146483186, 0.03240861414581291, -0.010671779742412124, -0.055219395288098265, -0.017244474742987275, 0.0681250243707104, 0.007360746991791303, -0.17039329554809582, -0.06049199836563975, -0.044785375923270476, -0.14452637336490592, 0.09741026939838009, -0.08364499381965376, -0.22602304938187082, -0.0037831849827447465, -0.07073563819668909, 0.02216970313802454, 0.015797603112064986, 0.02063768428127032, 0.003391590357874509, -0.09195413469235843, -0.1234994305008894, 0.13750275962042893, -0.06792485292159428, 0.13468084349290385, -0.22245089126129108, 0.16741003805982033, 0.07524690786231598, -0.06485462016990846, 0.1020128311540638, -0.14406058700098823, 0.15619528076748107, 0.0644371815615773, 0.1739398310591821, -0.07573490343715474, -0.08491383759635077, -0.08316670970088434, -0.22554105585021125, 0.1344355654243252, -0.04908287380569525, -0.016604436469329097, 0.15162262382475516, -0.1414406634666769, 0.06695252111628013, 0.03964898733957564, 0.09941735577078852, -0.0698248879223183, 0.11970408829837026, -0.049722225725217124, 0.24245446430328857, 0.09681332726901931, -0.08705879763186565, -0.017344862381809205, -0.03719092864223067, 0.08684113582581444, -0.10127572410131443, -0.008395915710185572, 0.014176035751079648, 0.04468017237623316, -0.11529687684387599, 0.12561546922818143], [0.03715739894474153, -0.08026230065304633, -0.04089581584820971, 0.013082768919970005, -0.034156550434642795, 0.009560319306686446, 0.17782199153223524, -0.009883382358727693, -0.09743543408513268, 0.13359456646479015, 0.05061763666895054, -0.03493328717172848, 0.005163636320247742, -0.1792519158033303, 0.09475779293025623, -0.09035511695372313, 0.05302744163497376, -0.1112434728473022, -0.03659574875489132, -0.1424582518620276, -0.025509367746356683, -0.016993464411158683, 0.4200347518333701, -0.016768700922616522, -0.1733950833182177, 0.03861796315796344, -0.0037770209656260672, 0.013126438163227134, 0.08121095251886103, -0.012660520613828906, -0.07440627227086902, 0.12105479844346544, 0.10170225599747416, 0.07858109754374538, -0.0419220930018122, 0.23953224709796553, -0.18166061415594487, -0.1802946117319834, 0.1984764006236392, 0.016955963384332133, -0.02558858870684338, -0.08497063364755988, 0.09529207325955329, -0.03139723693067776, -0.08221252343533128, -0.13588670175372278, 0.15657432820594494, -0.03982977258310411, -0.21048970752492766, -0.09347663820883875, -0.12073807477163927, -0.23695780089713087, 0.0481767665794789, 0.09079473701446131, 0.060148648616179586, 0.11731701340172491, -0.07652058331826768, -0.10484656884182547, -0.07751131973975917, 0.4165321901030301, 0.18339896761084884, 0.2599899850367583, 0.013392184610386859, 0.05568236902897054], [0.03615545626316735, -0.3578978648506599, 0.08956014591219463, -0.07717335873737853, 0.129866424711522, -0.06393515622669768, 0.2131325017292623, 0.00967570121216705, 0.06922371249804132, -0.051467191329842274, 0.04938309259497658, 0.1313969819827663, 0.10797602210697174, 0.13750165201690584, 0.0553178849524413, 0.17666557111795775, 0.0025878221146578765, -0.0787524562197234, 0.1786299207431888, -0.2326734465251819, 0.010458172075339023, 0.026668493974412025, 0.03032481133835135, 0.11947880178136992, -0.19899749275778142, 0.1899144219749619, 0.03511970402460475, -0.03917693507710953, -0.10495758015803214, -0.08566289928107691, -0.021208243485378583, -0.18802487647253205, 0.08682845980990188, 0.16571332549104079, -0.058304194259091356, 0.029305007598511984, -0.06271697622260476, 0.05341908157784662, 0.2571705583005991, -0.14820908510407782, 0.07890981262491487, 0.043312435885456996, -0.15043028687601523, -0.2985406042391769, -0.11469837141671568, 0.06871425320636179, 0.0487180991237283, 0.048222447728442225, -0.17802784897023352, -0.0640327982836949, -0.1452555695601184, 0.03905185741703854, -0.2130943537884438, -0.013118925209161832, 0.007542268120742837, -0.02399180434504404, 0.14225792530925163, 0.07040968588547544, 0.2536824285058792, -0.09397142029411171, -0.08622087532147028, -0.07909038186988039, 0.09083171094428232, -0.07140544449728164], [-0.0971874423814324, 0.03673351296830276, -0.06625294613732224, -0.036166831559604116, -0.08715068205498745, -0.025403739247877515, 0.08199073359151045, 0.16882605041569196, -0.012966397980245828, -0.12448243098488304, -0.0027965297883155962, 0.015095849034522192, -0.0554152385257846, 0.12972855931605462, -0.16309942714898681, 0.0643547228342991, 0.040007549353017494, -0.09971821885679473, -0.13878359204593504, 0.14434375851381817, -0.010182440747130766, 0.036363600137802925, 0.0810587642145564, 0.09369347662232604, -0.1514226227306063, 0.09204679048820473, -0.048007035809510934, 0.32846905178076985, -0.13074095226235502, 0.21078731995171182, 0.01205278793557714, 0.14355817938224777, -0.12222454297057685, 0.10539474688174715, 0.1867866844978774, 0.005175809328702593, 0.15372778315125601, 0.039884072833017606, -0.07433161276881867, -0.09205793277136244, 0.19104819353814104, -0.04459474588719544, -0.11614506566924057, -0.007005503708661477, -0.12758651471328986, 0.18251147222810377, 0.036630704270535455, -0.010282958162831778, -0.08993617083326541, -0.028623317255145258, 0.08408084420366914, -0.05935660494531799, 0.08069444542761894, 0.1578375386304228, -0.09134491681546568, 0.06663219599725967, -0.06263575494341245, 0.10826657863945519, 0.10183500927401908, 0.1227941941202506, -0.003747591294105862, -0.06258280036164546, 0.1384009936207688, -0.33319120298844135]], "policy_layer_1_biases": [0.0, 0.0, 0.0, 0.0, 0.0, 0.0, 0.0, 0.0, 0.0, 0.0, 0.0, 0.0, 0.0, 0.0, 0.0, 0.0, 0.0, 0.0, 0.0, 0.0, 0.0, 0.0, 0.0, 0.0, 0.0, 0.0, 0.0, 0.0, 0.0, 0.0, 0.0, 0.0, 0.0, 0.0, 0.0, 0.0, 0.0, 0.0, 0.0, 0.0, 0.0, 0.0, 0.0, 0.0, 0.0, 0.0, 0.0, 0.0, 0.0, 0.0, 0.0, 0.0, 0.0, 0.0, 0.0, 0.0, 0.0, 0.0, 0.0, 0.0, 0.0, 0.0, 0.0, 0.0], "policy_layer_2_weights": [[0.22782965999200305, 0.010559700581648067], [-0.07089677078104385, 0.09855205311053286], [-0.014547555021592561, 0.014283588093310658], [-0.06423333831454255, 0.03513661519673384], [-0.009541562211539798, 0.1666921099150825], [0.43025016283436573, -0.06099946712653711], [0.0885508398203467, 0.1521254541588275], [0.13194471320249979, -0.000452623532161566], [0.18840772225168068, -0.36485314528849677], [-0.3407921171488906, 0.0725152202972779], [0.23576704597545475, -0.14889838562198743], [-0.2844747713231183, 0.2331045734064875], [-0.1631728000942949, 0.08616782026158941], [0.03193547719795528, 0.020820652579909893], [-0.07667327497443145, 0.3250931488019451], [0.21860206386098754, 0.19849670118385193], [-0.20846686917995844, 0.1254984764007122], [0.10371732829801636, 0.09008938550261691], [-0.345171686750588, 0.019745258598268013], [-0.004314108058415685, -0.20514208928947392], [0.02401378066063188, -0.26107976671957317], [-0.23599573099414178, -0.14427573730950277], [-0.013834719008982775, -0.18882147740358507], [0.14053986029271234, 0.12474245926829446], [-0.26325142792417305, -0.20434563618800988], [-0.1992067358958432, 0.1194243690355628], [0.1532431694932575, -0.37668436253590876], [0.0949051466355358, 0.1437548192703048], [-0.05298075875698348, -0.019712997370249605], [-0.039888672330572736, 0.036150313288605775], [0.12464056040310827, -0.11426462185688122], [-0.2469115340700437, 0.05130464694051603], [-0.09502702475317644, -0.21630454089495998], [0.19866896251831687, 0.16801798017219333], [0.1581282813450881, 0.24069209259075292], [0.2543699217277677, -0.16738100478669168], [-0.08511153648696904, 0.13610300635423264], [0.22471233466215454, 0.011489047726384706], [-0.000551797873444957, 0.11243028807074806], [-0.08384519067116855, 0.13793468395490754], [0.20719874708018765, -0.12771129022548117], [-0.1916736612483537, -0.0493456929343298], [-0.05167276028593699, -0.1681246823494134], [-0.025368423884660297, -0.07121393401391016], [0.10369663443408135, -0.2585090739562807], [0.013620200042067892, -0.1996152324162061], [0.0008846186641416218, 0.05869165735317305], [0.2772099613137134, -0.08309385497402695], [-0.15430540610952342, -0.020654037802416977], [0.18569782673998336, -0.05913361274255024], [-0.07230085935437051, -0.2348223886498178], [0.25292734586924065, -0.03930140519482095], [-0.32830073789807596, -0.2382270240333543], [0.14253652964761165, 0.08881346321039692], [0.06293948132689917, 0.022262359231206612], [0.0783841783595414, 0.428529874407515], [-0.2839908198935381, -0.04850520020419693], [0.3174023388360422, -0.21617575337132247], [-0.12080359886486343, -0.3415199435741862], [0.052718757885784714, 