{"value_layer_0_weights": [[-0.11715197796054352, 0.14199819548434287, -0.13814866078653576, 0.04426874281511759, -0.05597988345077825, -0.11605396097804538, 0.11095524341708515, -0.15742279989112018, 0.024158645879467606, 0.11291516605615787, 0.188656822033369, -0.10795778319881064, -0.020900528482922478, 0.17607358924095784, -0.06071344736069528, 0.03219155252044882, -0.27505147025752774, -0.17909820488299324, -0.07327481979834927, 0.04970047000666929, -0.05124173625410881, -0.039996059769278364, -0.05915391335059352, -0.2259299013073306, -0.19468130217784757, -0.2413490496418046, 0.0898804125303742, 0.026766240090817163, 0.24271259744730336, -0.011157957713363557, 0.03298811460142445, -0.12178172170812625, 0.3010019796441193, 0.006380469275915801, -0.3331080705883781, 0.05796234500929596, 0.05383329234539055, -0.12699521236842196, 0.20647631114399134, -0.06411714402276869, -0.16355398551755432, -0.032591979806259004, -0.5087088429649829, -0.18619992031386245, -0.04038120465659685, 0.2228120309344721, -0.14788716706542576, 0.13702181337279845, -0.2222859343289028, 0.08602907583207813, 0.07468437769155255, 0.10105966670879986, -0.3136666212069719, -0.19411033623529866, 0.15164769181265852, 0.01151323236267234, -0.15843461334301465, -0.07962228541768002, -0.157734875108442, 0.06232369252536103, 0.07102174578688274, 0.1422489608233314, -0.01913904921788096, 0.07437640504205614], [-0.12663624337610294, 0.25153026776815146, -0.1473695264527315, 0.098385995933632, 0.3047939774668811, -0.02071454034853307, -0.08430436082585996, 0.004354039656799151, -0.14648351785665034, 0.04405284421567039, 0.19440368439403202, 0.11351824324779435, 0.06261030831860676, -0.04818500617760185, 0.06179760626287512, -0.08077425203846414, 0.15075613887877024, 0.06669200948762513, 0.07373173116205778, -0.32658135366929464, 0.05509263082792747, 0.026923360610583574, -0.001125546378513028, 0.17784571178334416, -0.016122755985649093, -0.17647917176896152, -0.07900912287195011, -0.22319812473260603, -0.15846813218455094, 0.09518298853142122, -0.003252692126224397, -0.01793286074928499, 0.13376895088704618, 0.046416405494694904, -0.18410426393705465, -0.08621941141144086, -0.08472554004156592, -0.34056305494070443, 0.030535875124114632, 0.12362546502966283, -0.04728911168352803, 0.024240466852892894, 0.10110956586940952, -0.045428832908298064, -0.07997195838293794, -0.1825536486486544, 0.1837710120938262, -0.3432146080465802, 0.23468798172047162, -0.06691135852086517, -0.02928387063185184, 0.2792970208233773, 0.11659736609811118, -0.13896375132853692, -0.014341842271791787, -0.0012706297574690232, 0.1786592507742155, -0.1434964340187993, 0.23752524845873513, -0.10754946831075093, -0.3918189672486389, -0.10373518128661402, 0.2755928165183332, -0.13634781161177978], [0.13730475873965028, -0.030949320466839497, -0.2543754398755978, -0.08031597061073366, 0.3097356983051511, 0.027672604928295867, -0.21096644302743117, 0.05052914690364535, 0.12424300156245018, -0.22360789970703127, -0.11110094436315435, 0.039978076586707274, -0.06165571088638076, 0.07899516771683329, -0.035513139630973516, 0.31316225256728675, -0.2922608770698097, 0.12089149689129075, 0.1416396176377027, -0.08418549487683637, 0.1889003664044606, -0.1565069850790566, -0.045337491534855924, 0.11869230453934121, 0.03665753409388775, -0.29046525239651994, 0.2389976894449246, -0.047885748507410356, -0.045865137358331136, 0.12352464629331451, -0.06223864595233992, -0.18728050696078646, 0.0805798683350336, 0.08526167078057986, 0.18866640479082034, 0.09359402721517897, -0.04251400448748233, -0.0579420261931552, 0.03424150351587501, -0.08919145981441247, -0.1306406935762642, -0.00031872104455878006, 0.06509937499144226, -0.08254409846608644, 0.2700544467562664, -0.34809380928021655, 0.10035177036016299, 0.05826709935876801, 0.12768934270422172, 0.22298633078318805, -0.02331033251373025, 0.049471052853286436, -0.242306710956678, -0.18073650651785944, 0.05759030852681542, 0.07618127526901187, -0.23580981780833682, 0.11563438539797459, -0.02812235258664556, -0.08697793097274004, 0.2716630424356281, -0.005282697328006506, -0.15288406918279943, -0.051191458728391454], [-0.06702909940692896, 0.378260182832146, -0.13951180664045518, -0.09045061989493446, -0.12473684779356245, -0.09179541867620113, -0.08503799914574046, 0.1613251525117771, -0.2475407459345428, 0.21646976103294394, -0.37003771090153786, 0.49585719864106453, -0.24997371193010967, -0.20595904860241832, -0.05042476780051119, -0.1852981865487618, 0.34255766785506353, -0.08215878842256556, 0.13486673899509416, 0.3403405145042538, -0.0964760416629691, -0.005717979533242284, 0.20460665818015533, -0.22902273169658702, -0.23618403299034743, 0.040011840469143335, 0.02648775320039008, -0.307596060002766, 0.13383286508904862, -0.04854104342426993, 0.05149238929505848, 0.040293761370379655, -0.12047035531359718, 0.07785172614025052, -0.33849338500201964, 0.2310554711424755, 0.3109246436885598, -0.13968662142487595, -0.18970956740462974, -0.2335894872634205, -0.37297154997722126, 0.016948026803942813, 0.2666767863616159, 0.004005408660051063, -0.23089639947382637, -0.044976120865619376, -0.010216977338932145, 0.23749458554691452, 0.04805799880732881, -0.1501244772244893, -0.17691521552091838, 0.09351669184893763, -0.0672532872095405, -0.24106906433746184, 0.12384097712353803, 0.03727664252986027, 0.06342049369624062, -0.10200621356728556, 0.03603822188995241, 0.20005481032657457, 0.11552904462201441, 0.16933335899102642, 0.26296571710050143, 0.04355946348260522], [0.028440107063385678, 0.18385263520343892, -0.0486886707064253, -0.054030366923376344, -0.1386383598940469, -0.27770994519101894, 0.14872645814683366, -0.09458522110551944, 0.20484149607859764, -0.13685559995511218, 0.066448326616032, -0.2070766978031245, -0.24430794237697495, -0.08605026269901687, 0.12054842032133002, -0.13811496385160552, 0.13596659638429945, 0.007248884889157181, -0.10031463561664515, 0.08210622217004049, 0.23000563638712299, 0.15610078703061783, 0.06517842031796131, -0.08543033083027102, -0.17577544543787663, -0.03853291333609547, -0.13731433161039308, -0.009901956600481439, -0.11044252029444836, -0.1756179586403464, 0.044300156420501745, 0.16121744641842622, 0.007375189523327384, -0.12189738255656123, 0.03191698157531198, -0.17915988783583683, -0.04635618520686888, -0.14473579523817767, 0.22300308521404447, -0.2822534877955483, 0.1225304202817569, 0.17846661564007002, 0.16090453172702737, -0.05080388167693417, -0.010223559252942783, 0.07042551194994115, -0.2141507061392135, 0.04592786770125289, -0.17579584793064593, -0.012499969526707193, 0.3011075117985588, 0.22958211841110543, 0.16367936947658396, -0.04670427520168153, -0.023696473193800707, 0.04683489222751579, 0.12849879049928145, -0.008763333073483185, -0.06283516019206449, -0.19779535123282516, -0.2359635775078698, 0.3910567216122882, -0.13326046676563, -0.01352748471682997], [-0.11188887791975995, -0.24646643035512125, 0.13699384855980692, -0.44403788811993206, -0.19211485466401323, -0.1778163120765686, 0.2398954693359706, 0.1197882305563129, -0.2503464335845566, 0.20462623058798415, 0.08301567663369243, 0.5089394537438306, 0.09007111647062847, 0.22566941739067098, 0.16135815329110853, -0.2953677691881085, 0.01587145934346107, 0.07591519918523294, 0.08698941223271799, -0.00526727020497846, -0.29807795357663286, -0.08958901529914765, -0.1342901348622348, 0.20386844397195325, 0.03909891202430517, -0.009019837740729068, -0.21935540289682393, 0.12359839492067337, -0.17441350422440885, -0.07149191675100464, -0.02037748321778051, -0.14134816780040715, 0.015796035910845694, -0.11518201506307171, 0.11523277523579221, 0.07166966860786082, 0.1391650974861435, -0.017057140635859128, -0.08926892282622861, 0.2033522777348015, 0.08991436694697943, -0.10958171292783511, -0.12191238878117604, 0.08000603443592297, 0.24270217092057403, -0.05246420376857278, 0.13404829177674005, 0.1981333388128795, 0.00027626251677401544, 9.824988275601351e-05, 0.3944855651270988, 0.22284786427512124, -0.09728973879865546, -0.016679095269728855, 0.0026243108250847496, -0.10639448679575234, 0.10945465683618426, 0.003853016256458067, 0.10661419403360776, -0.14849169611241317, -0.04096571874387631, 0.17453061730263472, -0.020804128337504946, 0.3497371823084193]], "value_layer_0_biases": [0.0, 0.0, 0.0, 0.0, 0.0, 0.0, 0.0, 0.0, 0.0, 0.0, 0.0, 0.0, 0.0, 0.0, 0.0, 0.0, 0.0, 0.0, 0.0, 0.0, 0.0, 0.0, 0.0, 0.0, 0.0, 0.0, 0.0, 0.0, 0.0, 0.0, 0.0, 0.0, 0.0, 0.0, 0.0, 0.0, 0.0, 0.0, 0.0, 0.0, 0.0, 0.0, 0.0, 0.0, 0.0, 0.0, 0.0, 0.0, 0.0, 0.0, 0.0, 0.0, 0.0, 0.0, 0.0, 0.0, 0.0, 0.0, 0.0, 0.0, 0.0, 0.0, 0.0, 0.0], "value_layer_1_weights": [[0.06483550224887635, -0.01086795342473855, -0.005321468609789213, -0.061777996674141765, -0.13456914749664475, -0.01755297808430632, 0.1822671994045403, 0.08224440868571595, 0.013155069241202768, 0.18484187168115246, -0.03439473786744798, -0.007151388799620631, 0.17034674792061763, -0.11542339238501899, -0.14160153402801495, -0.17350008893278646, 0.16418334363937645, -0.1315118673271191, -0.08863052234729546, 0.08776057628913748, -0.0008622348059597739, 0.12811816274752938, -0.2892760290566776, -0.16029290022136464, 0.04251709298670408, -0.03613126418954646, 0.20871094418576636, -0.060287152979240706, -0.20559795089365784, 0.14503912026330434, 0.05417910971778209, 0.08675244234067858, 0.06069951691061483, 0.0433067310002337, 0.1750013239146699, 0.09464215193764582, 0.19626011872039562, -0.09094278900621114, -0.10492762588586149, -0.060305804535450154, 0.17710118773308903, -0.04030804711529392, 0.03265308787802598, -0.22250002736654048, 0.0826613054770142, 0.09114745825910782, -0.054481500974801686, -0.01227437968742353, 0.039405849274873485, 0.06771718018144608, -0.05831953000408886, 0.059223016848930964, 0.10346709443755946, 0.03498247815866622, -0.10640195529646425, -0.23240353878748676, 0.08465038445179503, 0.0027543788350051592, -0.23080365119970345, -0.03853797887203932, -0.08130564911761039, -0.018399954193254808, -0.08178510905165559, -0.04850539451232121], [0.13880628003686604, -0.042980661048689715, 0.01478582136559512, -0.027554361635263664, -0.07253316124969104, -0.09343244860815761, 0.2632395086787087, -0.24186079040244246, 0.11928564998276121, -0.10310258586883383, 0.1102301929328161, -0.19952007397631608, -0.020707953139442827, 0.0023226189960495903, -0.05181548603182048, -0.0629395867629481, 0.07670411210506439, -0.019953323842623497, 0.05933766790154405, -0.0025059882854702514, 0.0068153534989926975, 0.19651278518405602, 0.0033414973299580736, -0.04989664088586568, -0.15344762228314596, 0.014461965253676283, 0.12693659896904286, -0.08940941760623015, 0.06077457034998697, 0.0017424410371408982, 0.03452856019176349, 0.04574889806944805, -0.005320736642800202, 0.0852864874721233, 0.07335232646787329, -0.052540108211329026, 0.08286840601335478, -0.10408899433305771, 0.10471070166513922, 0.014780983603783684, 0.1972451887526995, -0.07227503169764374, 0.08474755446188825, -0.047243326228588144, -0.10920032064741092, -0.041247226279764126, -0.1770402655010277, -0.010444752127953493, -0.10349862132517422, -0.05086636898448083, 0.044590019586273906, 0.1366633236302744, -0.026441633183895925, -0.041822452714664275, -0.027500525297527816, 0.21978032459846591, 0.1424750888004395, 0.14632758006235233, 0.1251563761398572, 0.06201614993050363, 0.01149635700043617, 0.03809943952844861, -0.16307196444726801, 0.1221595299852166], [-0.02354557256366621, -0.1240633064970768, 0.09704713607536877, 0.05422750469203203, -0.06214682096187965, -0.16491766355023765, 0.03525123786616881, -0.14401477048361444, -0.015019903679181119, -0.023710668171820506, -0.13425814366835065, -0.09118355432128546, 0.11511144359154127, 0.08357150062067753, 0.22996784068771797, 0.2963844603615811, 0.17505880920090425, 0.07087631619980594, 0.07246768197200744, 0.011319751031165467, 0.10031345629811585, -0.016111716379210595, -0.10772618291212846, -0.05485272076161466, -0.06359091942935255, 0.06457978755316668, -0.006099033613488903, -0.1727019803982457, -0.009605642767359318, 0.16729851793967965, -0.039791307277549814, -0.04682564201929799, 0.29865225342002216, 0.10433144600774431, -0.03342025999723636, 0.10751322894635124, 0.004715919728072859, -0.0658618436064832, -0.018042942111031822, 0.14960881888579133, -0.021966769839900414, -0.17611580794832804, 0.13498808971784557, -0.21065444669253405, -0.21735323054660133, 0.07591065310994034, 0.029464630823830357, 0.2844964019541466, 0.011336386462214779, 0.05090864399901742, 0.0829277224364036, -0.11920926914259383, -0.07680605159963054, -0.015452289735593422, 0.032173529538320395, -0.25582226332098135, -0.13664022805783085, -0.09899578239580996, -0.17971450689449106, 0.15270068506557044, 0.040555169818840754, 0.08362463712136535, -0.13791902678662757, -0.21678448601445896], [-0.23048859369339736, 0.17415554121081037, -0.21526565389154945, -0.24263573225344842, 0.2660140636644621, 0.09450035513054887, -0.007441357521795126, 0.07119776464213813, -0.03330976245196992, 0.030570424591544396, 0.0023638642835988057, 0.12972268386004915, 0.23022871030922798, -0.07165774928739849, 0.16947682697099106, 0.028562225696496905, -0.1279705889826381, 0.09400739123177348, 0.03753857219239326, 0.03392753478382479, 0.040493650859800286, -0.04304248117711588, 0.005844564323092629, 0.010391913420549929, -0.1650396687632212, 0.0636013418008488, -0.10933872397652522, -0.08661372985738865, -0.24556839789227083, -0.2615279853485775, -0.015249710028074159, -0.18587328854904525, -0.13400247788093236, -0.07110558078216404, 0.1708701842651952, 0.07915691683067175, 0.2843875967642369, -0.1137253183454757, -0.1006935160307722, 0.0819447366923384, 0.09436551273228136, 0.17104648830807434, 0.07697070867951322, 0.06299231494344927, 0.12125714348865697, 0.0866247017545334, -0.03952141782854018, 0.04043293724063373, 0.058986556072742766, -0.26282219210463875, -0.09148924639140578, -0.16562583802652162, 0.04782078504633402, -0.14250814518576047, -0.016216226103404497, 0.07602815190820748, -0.07704030216296961, -0.07896786695788743, 0.11973157076113285, -0.18401200637681153, -0.20569228465161243, 0.2637251231546914, -0.04129418699521612, -0.06398469547785815], [0.12894797004314207, 0.011219006599326455, -0.06137710105232868, -0.17234883317871183, 0.01279427173397783, -0.02362655517957849, 0.08692325409120095, -0.02805538523516389, -0.05356019338289471, 0.016718925050891672, -0.011762765123875613, -0.3483630374703756, 0.01687997797366041, 0.1661339274518915, -0.1418139398298923, 0.03965454640844111, -0.027175652422370997, -0.03466110246713427, 0.20622469658785936, 0.05276343296601967, -0.10440777171029544, 0.20622334611128534, -0.05517229779097239, -0.07150753374172024, -0.09934107414158996, -0.16349525599963272, 0.08735394495730454, 0.02119742849344025, 0.19354898247017077, -0.05751885151474192, -0.08544228164003626, 0.05224309848666859, -0.027135519025931136, -0.12329270476088322, -0.029498798758650264, 0.007343576117664749, -0.02383417017768897, 0.1287309152170156, 0.05685438738903951, -0.22563225029539982, -0.13501815390572566, 0.039439293117657766, -0.05723869664089765, 0.07626759560984571, -0.004839928402382131, -0.2077739666488654, 0.059408071814033334, -0.09647884307014902, -0.15386305450203877, 0.29915746563659623, -0.13231505144239225, -0.13719017649144935, -0.13284609304001643, -0.05074365052076785, 0.023374619135703743, -0.13572397019345742, 0.059321687114442044, 0.029807468110654777, 0.09241686754144793, 0.10084787420649136, 0.1754582311027035, 0.06340555316640042, -0.3205697855595835, 0.10626339543759004], [0.05798986004080993, -0.019205544993977034, -0.10330467245328209, -0.17740739900432137, 0.041023719332031555, 0.009393363833838857, 0.04690467457847029, -0.014028434143307093, -0.10530333766660142, 0.06812225352742388, -0.07882861783948758, 0.1766003893183336, -0.00028829449587774645, -0.16577072027065493, -0.07393548118746449, -0.0029685747749443997, 0.04174199935902966, 0.06664947317856668, 0.036185528518810565, 0.09973403417067471, -0.08210191115003522, -0.05733669097099668, 0.0647833550563842, 0.09713722560943994, 0.08761449261099039, -0.12149401356134251, -0.3237876535863771, -0.21661233592481777, 0.09745097220508425, -0.16152147113834722, 0.19206652379256614, 0.12182633477744988, 0.09939807771720188, 0.0978449706785347, -0.04379265150517164, 0.022980299944264537, -0.06936186758620128, 0.17112948718771775, 0.06480580972424653, 0.06113060550703729, -0.1329711210405777, -0.0069955138247697075, -0.12927433111826575, 0.10606061918085567, 0.1109809701673267, -0.06549021356074346, 0.11585741956775178, 0.09225810789244292, 0.20326247910151682, 0.07502551344852991, 0.06914115956747713, 0.027123288255066363, -0.058203969671923955, -0.0043147596165735115, -0.07870153074514831, -0.025941482270700478, -0.017136859612985403, 0.051329647011369654, 0.40835649812523617, -0.18644337215049764, 0.08295011015451802, 0.1946643600834601, -0.0039565944501674865, 0.025484171513123554], [-0.02777494491885804, -0.09082763914107354, -0.11708707530310815, 0.14808451300347705, -0.10641017332934732, -0.08078887731313407, -0.11308040964206047, -0.016948260920227096, -0.03256362210582936, 0.17964681615553055, -0.08296711410914036, -0.010183628691869864, -0.07391550879288529, -0.13505873039751234, -0.023974040528835408, 0.032344582715477424, -0.11114119469903537, -0.1281867527587141, 0.043856888862176834, 0.03903427053086263, 0.06418987498782043, 0.24891988451259095, -0.1412489170614163, -0.09100887856130573, 0.03516592848425748, -0.025803421372133446, 0.21101075618531315, -0.1630124045157233, 0.1897400136144167, -0.01884180490325585, 0.15808274876009443, -0.16216170137553126, -0.21827153554988218, -0.07996367954887967, 0.1448243849226442, 0.06491059462214002, -0.023273579831137297, -0.18022069789852316, -0.013430775124991062, -0.1231481885312376, 0.0034236303970694337, 0.19172305460589495, -0.0846186937142908, -0.1838713905877547, 0.0485010410591142, 0.11864868178081447, 0.14335777502563862, 0.021048451263497293, -0.10153697093484944, 0.11991169875359575, 0.1560637462168455, 0.003542920392512846, 0.012769534222128719, 0.17116657009755978, -0.057174738232192705, -0.012251290709300849, -0.031431779943773316, 0.14944883302480955, -0.022478704399309265, -0.31526068134302354, -0.10769784558559033, 0.0053322543238232475, 0.01503792403822381, -0.03173536576933706], [-0.07789464784274944, -0.10076898100315371, -0.09366771398510922, -0.08745603536768436, 0.16253309190544044, 0.23570717021243437, 0.18400132833470076, -0.046384898266656684, -0.01094148202138975, -0.14359259203491004, -0.01498942782880443, 0.07069571800399031, 0.0853565251600499, -0.07431718180577546, -0.19701965868754376, 0.18065074674874143, -0.1860169403724147, 0.1640150764785345, -0.04278631616516721, -0.030104704919467953, -0.15205351503858278, 0.18709000487099073, 0.030972427318844784, -0.11409402505854752, 0.04927257638584931, -0.06532243563363495, 0.1184142696070973, 0.04252379136385107, 0.1353833524819723, 0.22037766116454593, 0.09919507441948949, -0.12049719006812229, 0.12945269585848312, -0.1264169965982403, -0.08814628058609944, -0.3122839195941101, 0.0696530186871887, 0.049981425458366355, -0.05042655739260812, -0.04400317525257902, -0.26496754270343964, -0.004535831931267919, -0.05631218367210502, 0.005663461273149045, -0.1632581034482156, 0.07570821201919545, -0.15541848697974772, 0.21098418781134592, 0.038005063168351914, 0.004681466844298497, -0.20853833850826875, 0.0844218903306115, -0.041498700584670055, -0.08312145149837818, -0.014591970453980974, -0.23973834867648225, 0.0038356848544993105, 0.036880729937648245, -0.04064714484626811, -0.2855301828398754, -0.22366926713685809, -0.17583923358067405, -0.024325926499936278, 0.022958459339906784], [-0.14535713914847118, 0.12943417023553286, -0.09827984757401563, -0.16933155916363485, 0.1337625375434915, 0.025057605167485564, 0.03943978310784431, -0.03874999308691019, -0.0076690527616983546, 0.15815583369114913, 0.10082575617029493, -0.12896518850528813, -0.002819547485889897, -0.22501020992991402, 0.07966437952317991, -0.05258451666083794, 0.14788513362054984, 0.1102758687415877, 0.09207946221197869, -0.03967315494569807, 0.19950544136132758, -0.09096764826524033, -0.04645668200069596, -0.005125976148447813, 0.1697655696528491, 0.0130740687978366, -0.13446459771195934, -0.08766459935439071, 0.027200026747072087, 0.0008586037578909836, 0.16672606946215018, 0.07507131562137767, -0.0244850825431721, 0.01142604008205757, -0.08648532864974062, 0.01880360267736218, 0.11038860177323624, -0.096786851336923, 0.010103541478823646, 0.06422368124868715, -0.00767213729168237, 0.15865352920150308, -0.03592367619113913, 0.14484887820698486, -0.3318492547163722, 0.09924213120928424, -0.013030841136066108, 0.06962525952125789, -0.11540342942641559, 0.06151100312847481, -0.0047250852165819975, 0.12199681698631404, 0.07633504788782669, 0.054532765972611384, -0.1340163429117767, -0.10361814131489058, 0.022744447267465922, -0.006795682206443986, -0.009527401831381796, 0.07605817780166065, -0.010279423546702745, 0.13327382995178708, -0.03113096824938303, 0.021491314090422844], [0.12761308901582868, 0.006552582232307289, 0.18750215034802525, 0.18352214468807923, -0.14410914102278682, 0.022650348281384538, -0.03360829847124542, -0.0025548134554182283, -0.12966185629037993, 0.0779101147500095, -0.020624651435970774, 0.15392072133177737, -0.1436230656378251, -0.14720604403542598, 0.004739440936286655, -0.03305224567967718, -0.03490044876191433, -0.03943200821432204, 0.3002502569368963, -0.17015040536798465, 0.07878918491623761, -0.016313975949597204, 0.2185423953325495, -0.035646521746544764, -0.008353553975146168, 0.1653735836586778, -0.1717473910619421, 0.1191918654417635, 0.021320108795047737, -0.030270164240928397, 0.07400436863863588, -0.2949991506390653, 0.1172048145886891, -0.005137663404600559, 0.36623452703732295, 0.2341458638189357, -0.11863172359418246, 0.13149850069588034, -0.08347679904784677, -0.0038876138038939252, -0.2721110469938222, -0.09978209169152724, -0.059395959002708755, 0.18287096872327305, 0.08002715895238988, 0.04384369665530943, -0.16589166137370975, 0.15150549917956838, -0.10002280050101414, -0.07805277323430786, -0.10654894832611794, -0.03283672947146911, 0.11792524449740406, -0.11433360140189222, 0.17261787732804673, -0.07757631992819217, 0.2637269436268904, -0.06311759239770756, 0.06053331581950373, 0.02545544030792902, 0.025991778372497828, -0.049408581781183535, -0.08659719156037139, 0.35270919317968386], [-0.0021437118476113582, -0.06412337964265667, -0.02664650262454138, 0.1717932382789545, -0.051533141937962185, -0.04654433280546867, 0.01022804754104373, -0.1252728113032927, 0.08713778603792069, 0.048940414179453766, -0.055542078303604664, -0.15513087551103394, 0.21188861594532243, -0.17553771970672535, -0.013815871851153409, -0.13221156364553938, -0.049495997813788974, 0.05055047440465953, 0.06952954170074147, 0.0801646823656606, 0.05899705339239206, 0.06150043810202226, -0.06091206363568051, 0.16077439819957365, -0.0513154407016302, -0.10494134269574244, 0.18919519595259607, -0.001873815454304627, 0.16408647769181317, 0.15680386736584695, 0.033432030035402606, 0.007548104709024311, -0.10980857706703963, 0.15071933575077237, 0.0586532296384773, 0.07737754236850904, 0.03931132263100867, -0.03960192097182148, 0.03389552674503557, -0.01458969189926485, 0.008559148859759187, 0.01914805379761541, 0.04450732541872183, 0.19595148363883783, 0.011544042522268537, 0.15174944434561413, -0.04126045481381994, 0.2336846154012662, -0.17070617321381124, -0.22306287630253893, -0.042284716762098086, -0.133384760154598, 0.12320251349229246, 0.15707286770844614, -0.1490920219212305, 0.10613926892330391, 0.10741800087060994, 0.13876256491807384, 0.01407637592244787, 0.15197127654178563, 0.018476492032553447, -0.018917057030309197, -0.08499763009108906, 0.10314700263601044], [-0.05921808000927789, 0.2943935125591697, 0.27706588868454207, -0.0866742111237314, -0.19058933250215962, 0.17666133687582658, 0.1475921344059416, -0.1035878740322206, 0.08835173789904677, -0.00844458165825628, 0.17917919283922648, 0.007868959354268859, 0.09103981969717823, -0.08835480847279754, 0.14935417253396563, -0.07521653844548809, 0.17505791468700127, -0.07367317421301235, -0.1128279476940111, -0.06163514247368579, 0.08660715821009468, 0.1722839846080659, -0.13094487887117495, 0.10386329001720324, -0.17859929425017998, 0.001363379116950291, 0.3021264892464217, 0.01883634079932587, 0.20424802167751985, -0.07093527545348209, -0.12452509301623631, 0.1930141674160973, 0.0599833360810924, 0.14092830517205376, 0.05557563882436438, -0.0470065139206325, -0.06091050021130036, 0.1064153958843811, 0.07961295803541114, -0.0890077084577988, 0.17652337926659792, -0.12534558975310386, 0.12179477938749093, -0.0441063522332097, -0.005210211038900705, -0.0731038095472158, 0.07720578255798129, 0.08003251085847142, 0.061212235011415955, -0.016234095488088292, 0.006665189537106466, -0.1189132789091432, -0.06466569641002924, -0.11422871762080071, -0.008852319099700934, 0.03883888908017906, -0.02898559447138458, 0.15502894513619978, 0.005435734482545622, -0.10569094071094763, 0.19126104842446737, 0.19876941453924943, -0.09626961507909071, 0.2063862381360205], [-0.24993436591147933, -0.03461129487897493, 0.030855771730940125, -0.06227315204981169, -0.058356626694577265, 0.12557061593657337, 0.07118617991581075, 0.004113161835648767, -0.03308649005887429, 0.11625237060360258, 0.13883205836845486, -0.06658908069745426, 0.2979717895786617, 0.021257961064801167, 0.0015725464244423907, 0.05720267566481042, -0.07262689031029058, 0.1602136177400611, -0.06530366103609347, 0.04580492021100788, 0.1375044067899717, 0.08826627792518776, 0.03804958120330897, -0.16611317247670446, 0.07692317076331442, -0.2874459862847625, 0.0488054870624298, -0.04013777479250079, 0.1923452525655483, -0.01311006171044494, -0.22344039748020184, 0.16231352484319558, 0.1556071638283142, -0.03406842467866078, -0.16158934059710864, 0.04350035753652327, 0.03690835551134993, -0.15244954650139766, -0.06846396289126105, -0.17082680811004458, -0.0473132162147472, 0.04979173950837404, -0.09150739229449055, -0.23200329215727794, -0.22370041189817474, 0.05655983136088523, 0.012010786099456203, -0.17835683261045393, -0.030870018778560722, 0.19626514000446918, 0.25123852520148343, -0.012516489432834708, -0.20464212741051574, 0.20104685040565595, 0.16652135489757514, -0.10730356025219032, 0.25762609761070143, -0.032806687259007324, 0.008619519433956946, -0.08015082127223008, 0.08731923903872585, -0.08341184886721248, -0.07148019651291501, 0.06452485647754369], [-0.2045269349410373, 0.11396644560310341, -0.06002842334348488, 0.03883348179450888, 0.030922680391839097, 0.03461187077307138, -0.03308194650175932, -0.016138067019538623, 0.006136554953077803, 0.2303089371924621, 0.006893909697188129, 0.1994902371904989, 0.1358065053590521, -0.007878857704131858, 0.008843228779514049, 0.03977923597018104, 0.037355140235371787, 0.12675031922710597, -0.002474089607150623, -0.18054402448221513, 0.10351275869659296, -0.07989404925356137, 0.10639133027660784, -0.09170815116985617, 0.03433426212045051, -0.08487215215511112, -0.07083382120154516, -0.20995634082028733, -0.08496743383033889, 0.11724816909454736, 0.0065767040441354375, -0.0391248974721651, 0.022677289481004927, 0.0023942260028433178, 0.0024771266623227176, 0.17843983879543435, 0.2664537732211169, 0.14289873086131247, -0.04271107252758885, 0.17170504972817968, -0.08525051281034653, -0.2659137216530189, 0.14041105277532612, 0.18446531852440676, -0.028754793484316553, -0.05030832917961094, 0.12953869715087926, 0.00848751165573611, 0.041536445980995755, 0.18412995576173014, 0.1989969941578578, 0.023066418442278896, -0.1560969701736042, 0.02966221217809101, 0.01929428527487379, -0.12377522310968267, -0.008316860818305042, -0.09141636554936991, -0.008492349566795905, 0.09058261441586989, -0.12680142739111597, -0.05677058474399056, 0.015276025662923624, 0.2527944359975841], [0.008013730251333175, 0.0009756775646459433, 0.06780961007264191, 0.1982087660726418, -0.2213905733239125, -0.06326357552817016, 0.11961547470829412, -0.05634160035189239, -0.08752521516213652, 0.1391445526160186, 0.016377974206523285, 0.034390234009137495, -0.26907353082032326, 0.09346384542624171, 0.07839456507298118, 0.03303958602398187, -0.002121934650474835, -0.13348128763718853, 0.021299209967286112, 0.2996323397507828, 0.18554340130929148, 0.009491292373490166, -0.02103708074699873, -0.014976149508373525, 0.0036903155608760366, 0.11264485592761167, 0.11877827319248234, -0.2961034504155486, 0.12478074324451982, 0.14187106428630925, -0.055140138487635174, 0.2964749832662332, 0.05041748265565632, -0.13143820344713633, 0.007016148541658496, -0.011160281770357461, 0.230069432115431, 0.0838200042013836, 0.17837002361206317, 0.06095986252346828, -0.23054539812356079, -0.050385516296083205, -0.05191856343451231, -0.2696134539198345, 0.12117942734668824, 0.02681178431551748, 0.03365815494611536, -0.14511868963322294, -0.01996496857953416, 0.04921300445636858, -0.19797632170557652, -0.04755089279412537, 0.1754689022922395, 0.13637017701065282, -0.19010478323383098, -0.12638373740519665, -0.07073598031562767, -0.056277729790351005, -0.02473863737809795, 0.042621227534482345, 0.24160458211497643, 0.07022735429944699, -0.06690235331223456, 0.08693298063167082], [-0.11560387545085647, -0.038094406259084834, -0.2720702603690494, -0.0012130142995068589, 0.014587168391254698, 0.06057515471710931, -0.04320165558986083, 0.08878965304595235, 0.0451067137047818, 0.18039944006152314, -0.07951935251313642, -0.08335491648440385, 0.10872134910207114, -0.07392500935910343, 0.13502351304641397, 0.2387329687480305, 0.10195638570541092, -0.07170017895873655, 0.06952931345158264, -0.0240341498656217, -0.1875884000897953, -0.1888483995307124, 0.002930887516932815, -0.07096858791695655, -0.0568330663508441, -0.053529242913001616, 0.16324359154411833, -0.15142767893397546, -0.13056709857757973, -0.07893968052998236, -0.027185394869785336, 0.1508151702117205, -0.014202756085394628, -0.0261615644916665, 0.11603281150157571, 0.13218483847904586, -0.08614743568421818, -0.12287892616416024, -0.13156038552706376, 0.06790715115317328, -0.0006365102625173933, -0.032259634470045005, -0.07704405009756486, 0.02030506136139739, -0.1866421318873771, 0.029654098559681725, -0.032063072772094345, -0.18388903286624084, -0.10664548084710439, -0.0008978475937765037, 0.00022881886949264842, 0.018972138106341983, 0.04754717732924448, 0.009960452251704994, 0.008830105327328253, -0.005916078521441808, -0.06102227172691647, -0.06825272459206178, -0.08775011693132238, -0.05365069620531041, -0.026912779024436884, 0.0812410100334726, 0.11919988558497632, 0.11187882035563392], [0.02999649072364748, 0.016197434503078447, -0.1383469400872095, -0.10947201335819547, -0.22626046134450056, -0.1407424581926142, -0.14789733343127062, -0.060230454907954166, 0.036961478460389996, 0.03031195468204858, 0.12248740571366536, 0.11574282105423157, 0.14512665686360482, -0.00999659899883586, -0.05482227077072075, -0.06578568099579647, -0.09175671592761417, -0.08333638330355203, -0.01782740063611347, -0.005874029352297661, 0.07396126382721636, -0.09130869382967836, 0.045264429804172286, 0.26623789425683453, 0.3641487902626432, -0.11591297872120407, 0.03474052051694522, -0.05267192555086298, -0.07656659397663472, 0.03440984701600662, 0.0584656279431468, 0.16665747698946845, -0.1330410789614325, -0.09985658787180465, 0.09850093864577836, 0.07979951488609772, -0.07713037690297572, -0.022488769963683115, -0.1320516315493043, -0.13568431937035624, -0.15364751581632122, 0.23424018828569956, 0.07074553808073424, -0.02447070848541271, 0.006511435502011062, -0.06973381956502286, 0.2881173689328115, -0.03897780634723261, 0.18302203147946078, -0.12336887981046886, 0.03812989665957845, -0.10692296601845039, 0.1175357101788663, 0.007960860766069085, 0.1578179591356365, 0.13310414573931625, -0.04264501006949785, 0.03318570136917127, 0.17110409818067565, -0.03280144712988805, 0.09804214415808168, -0.058879954454055604, 0.046158915860083034, -0.3511601941198996], [-0.015453890022741834, 0.0012121312446794954, -0.1027815382086042, 0.07973676254928355, 0.16852693612784153, 0.12006074955874135, -0.026221849552029806, 0.10859365349239136, 0.0816551868890944, -0.11482299754193281, -0.23589809913742318, 0.07148524110959964, 0.15630778957057243, -0.03591008429047686, 0.07816379994361926, 0.1914631839705372, 0.20630832297937346, -0.022123709422958864, -0.15892038954401141, -0.00183643164630542, -0.024313006836571345, -0.08927098974625318, -0.07173155685559457, 0.07414808414154465, -0.08149487965852664, 0.009498659041813027, 0.23624532522104882, -0.01501379999623575, -0.060941325625030095, 0.11038929552837892, 0.0006966035697781767, 0.19700753396720952, 0.01822616709757336, -0.07903906680386905, 0.019881332453533924, -0.20257232482306903, 0.07110660868768362, 0.1435297051357825, -0.06856315415987654, -0.08676033540130867, -0.005865207618392748, 0.013060165986781438, -0.08941991733255443, -0.10880220904108137, -0.025268513866371113, -0.005722390548322776, 0.09857015833420871, 0.027034519902689975, -0.08975965476471434, 0.28531575353030364, -0.07983430673795591, 0.06182467151895015, -0.02421218240502416, -0.1471687989552958, 0.075580687921865, -0.22893620330317282, -0.2978682517592327, -0.2141031715817669, 0.0066593023057808405, -0.022345243850215597, -0.026984522176297446, -0.1591248939386803, 0.30944081784679667, 0.009517754198474665], [-0.017424305177335994, -0.11663015689913828, -0.030097549366697115, -0.08858444755274877, -0.15644047983272585, -0.01707224814715936, 0.33700203195370504, -0.030890417138071787, -0.10325091648602738, -0.06727853496417016, -0.0004814875546124337, 0.3078006576622706, 0.006830600991231096, -0.025108389481543685, 0.14223008724543065, 0.051274344904472004, -0.20138397173920494, 0.12192835126932211, 0.30905501403643304, 0.004356058118714495, 0.12270363647190234, 0.31633476160105656, 0.051968853501560205, 0.15949656585629934, -0.10134617122235859, -0.0396384171438969, -0.14465260719203218, -0.023271853170726286, 0.15077479926790166, 0.1889072353179749, 0.027105772983064866, 0.08376368972565701, -0.10126116955149593, 0.1071216336482888, -0.013260290411980503, 0.005842885653226528, -0.12700069413323686, -0.09892754535856563, 0.1386919052565418, -0.04012795676762252, 0.08067588066191403, 0.1913461160451134, 0.15754416774911298, -0.07511274939264388, 0.07777397738725927, 0.10557209799466692, 0.0026929126146688644, 0.005013380719611033, -0.42677250422870827, 0.14919821586601562, -0.002920462211719992, 0.05440488448369871, -0.1315595220767506, 0.00820455106570119, -0.13838604840688135, 0.08524005780707818, -0.10463903731990729, 0.13270229944838127, 0.1512297464266054, 0.03025608740775529, 0.07572422425279732, 0.007227954745309578, -0.2067453090018462, 0.18936427619091997], [-0.048177820039284426, -0.00832951456960518, -0.14459789998299716, 0.06259751634705144, -0.29383171289986953, 0.048296258939744534, 0.12934433770361878, 0.06551977561660162, 0.0008750552834407892, 0.03996152834906109, -0.05186201166518045, -0.13172358309769233, 0.07193215969776272, -0.05611234864137387, -0.11075438955696917, -0.10489581675607526, 0.035510748068449484, 0.05245435581210301, 0.13669130169651877, -0.15983623662202645, 0.04207513469278235, 0.11633000163310779, 0.1517111055353853, 0.0698386918170792, 0.09318497202518417, -0.1361595293439505, -0.1960222498588416, 0.036500214181795325, -0.11722811198608764, 0.008067150969214672, -0.07919571094313001, 0.04625306042523854, 0.11251412601114792, 0.14491599616325057, -0.178353782079247, 0.012226113449392432, 0.025726784510125313, -0.05231225287854894, 0.022684633447776173, 0.0060901552556046476, 0.001376830318618533, -0.10364826425740283, 0.10848238885104734, -0.09798428117149151, 0.0652615915526484, 0.09961757105293682, -0.014891826126009554, 0.044787023425559375, -0.021335070794992052, 0.11659034695929713, 0.05144194124948729, -0.23644600104879304, -0.1728315696452971, -0.1579227562225015, -0.179852943964903, -0.008880616574061011, -0.20098171005291027, -0.16238951376394944, -0.04803878392874746, 0.062274888551030486, 0.23938915565666855, 0.22189066140675387, -0.14339355843165244, -0.1808505810108884], [0.09291676858490942, -0.07240979386458328, -0.15948621931459064, 0.0247055026754414, 0.09350922038977497, 0.07202694596100029, 0.1374876774246212, 0.0030772652173531754, -0.1894030530674358, 0.019713923921787134, 0.16861582935535138, -0.007663224251645776, 0.12569214264003775, 0.30357358042196564, 0.19970731144717588, 0.10784974581224098, -0.06600338136779527, -0.017817742178198686, 0.12008408361602912, 0.020138249290275745, -0.14593788706056385, 0.12494163501723152, -0.03784422055061989, -0.01893239106987116, 0.01992336460846405, 0.11822192556611763, 0.15652211898864607, -0.16541485425424324, -0.16259280642634538, 0.06874734959574204, 0.245172542254507, 0.054330393327632676, 0.2705569524623353, 0.06576541530401493, 0.03248152791056683, -0.044854273354105266, 0.10994511467876711, -0.14522440969573744, 0.16861601417895813, 0.06178812140705104, -0.09186040669893217, -0.032004422124670556, 0.08869125224699374, 0.10215283857777598, 0.017041239353057017, 0.09288131383104337, -0.035407070479909784, -0.06915880234541452, 0.04954337131925602, 0.05270867653330757, -0.000807784844076261, 0.024367338561784142, 0.0097315437638495, 0.13781798918427876, 0.03326901562057362, 0.046550095382779086, -0.019556391254564643, 0.20367315297371344, 0.3231239056963705, -0.0931448798426756, 0.11000529048953715, -0.21882454154430683, -0.27827539202321705, 0.07795554377699102], [-0.2980149436498762, 0.026831077209057384, 0.025052821922469253, -0.15849326832461888, -0.034518678522461724, -0.12155335578264609, 0.13539284802469512, -0.08710637758423936, -0.21259808259925625, 0.07267732259606459, -0.043673302584525994, -0.02445150820832623, 0.12639471148564443, 0.06280486003750303, -0.007491924374545747, 0.1364182958578173, 0.07881928275239451, -0.041519414241018814, -0.006933169344304896, -0.08752968179559109, 0.2388078113023015, 0.09972792679143087, 0.021093596096481784, 0.02543881253810666, -0.015694169661338676, 0.0030316412231392123, -0.0376518775692319, 0.14081686434824617, -0.1680234166344053, -0.04726007925508041, 0.2484307480814532, -0.018203218467033197, -0.1592882220662167, -0.00856480111451206, -0.10117857307063928, -0.15074973026174485, 0.12684368010714553, 0.04277370714725915, 0.18781906210705657, 0.03990200209638524, -0.25329284168199145, -0.16456396621220118, 0.06425003307383098, 0.17712545177196018, -0.007697660446780722, -0.04954080719549836, 0.16226365507598572, -0.08229501068679909, -0.035931197570020654, -0.23373100367394764, -0.02611908608658302, 0.23810150074999983, 0.10258147464733224, 0.21554156946409983, -0.211065438082304, -0.10614375724706404, -0.10918750783967285, 0.12142048465631666, -0.010106030527361181, 0.18848757175480527, 0.06577425344479246, -0.08577728814884132, -0.05357786494793215, 0.046968751596127255], [-0.11215033004321727, -0.036533585961023095, 0.0068667097465628145, -0.12090961754324656, 0.02982949038803488, 0.04270818013758513, -0.05798053186657838, -0.07838831015876051, 0.0915616213368307, -0.09406828274226668, 0.09272682943103784, 0.12147007374617942, 0.02085940224989582, -0.3145707188117271, 0.14836804652263014, -0.00905650521024476, 0.1336947865636531, -0.09136001218570851, 0.10426174963244908, 0.11039378967896525, -0.06356602025299019, -0.13299465829852483, -0.23797789731773436, 0.15566611613206835, 0.1819575362413309, -0.015027499610899756, -0.1025382973403784, 0.0632963709785624, -0.016840960509091524, 0.024448986055706324, -0.06341367163238587, -0.07905759906439695, -0.009681589325429682, -0.213065977913445, -0.01824897782517984, 0.03551218569128895, 0.15384425146407257, -0.12428056516672716, -0.0030725624068877974, -0.004979288660752417, 0.10019521834568898, -0.1106922804332531, 0.13033563679612228, 0.1402506357256203, 0.17735387661470195, 0.05931178665285066, 0.19966667904626875, -0.19887090592865836, -0.19659838993533352, 0.22088107868291865, -0.14612583838932008, 0.10441878664502426, -0.03739575415884844, -0.06172801602827099, -0.06519608970492581, 0.1544700478696701, -0.29245216202618757, -0.0742401881099167, 0.0202338586458371, 0.18626523470907136, -0.11166187526458707, -0.08908676499164296, -0.037449346241278644, -0.04049824311846578], [0.1913691952792614, -0.0346523934871795, -0.07781564512189831, 0.09854305868365798, 0.1426239303214703, -0.05880955720975241, -0.02564532216997885, 0.13930926282569533, -0.10402735857889091, -0.014398758917761502, 0.020598900279056403, -0.10925575422052336, -0.038373311980419524, -0.20176377822406064, -0.25105017932832, -0.0029790404478383784, 0.04124818412122513, -0.007010131173809357, 0.07523960003694578, 0.011313125707093344, 0.03584891775873814, 0.0463543115653042, 0.01092665779599058, 0.0347600232520855, 0.09293708924749224, 0.05608248614437503, -0.25943350481639027, 0.017686404851668572, 0.022562485983917514, -0.13504265920770905, 0.1362985943024747, -0.2037730008044794, -0.13720047220534645, 0.007594304738582125, 0.04795365982572821, 0.0521310745871364, -0.1720018760397401, 0.05548811355006503, -0.17308459176515156, 0.2644092368057014, -0.03407508458939443, 0.03681873007228056, -0.004044448041712452, 0.18270470189135954, 0.07036644542768512, -0.10574611705035017, 0.06136144520111055, 0.24283587170555443, -0.14020668971981032, -0.05514892886146341, -0.10816790686227669, 0.15882451798142735, -0.005593771218643025, 0.20026660171297958, -0.08934364692754002, 0.04196836736905621, -0.24276277526068582, 0.004834258032663436, -0.05752485571686129, -0.23688416209686725, 0.12558347478436727, -0.04242627144078156, -0.1104329739136694, 0.09482243575992545], [-0.0017677870117161724, -0.14334720267711631, -0.022955956690933796, -0.01771341099448954, -0.2153937290920129, 0.10646174452205234, 0.13228396183048038, 0.03324696640493858, 0.1410584210020894, -0.05827651965172502, -0.0710530643067615, 0.054933238955964955, 0.01908906637799556, 0.03167895508405402, 0.03663754142117964, 0.049009230145082947, -0.09668617172650044, 0.220050160971549, 0.04511092345721538, -0.010673751521484203, 0.011388547611374646, 0.10310544115120561, -0.09460567152344401, -0.15631328847186457, -0.0134998869163738, -0.18518622098016818, 0.04218177186646587, 0.04898467703157709, 0.012001624059108342, -0.17101167456317948, -0.06474138930919583, -0.05962665166778863, 0.12857201862909706, -0.03485838214731818, 0.1753136776362108, -0.027523375305452322, 0.028970024957100722, -0.07383598388334107, 0.38788529670512856, -0.017799996713513885, 0.11275190819242163, 0.12845973444018532, 0.13248841654960777, -0.06493971717028559, 0.2489411039669531, -0.01579425042147867, -0.07468396027340726, 0.10850774358118992, 0.03854186782664127, -0.06780578986157222, 0.07844224084402993, -0.15736120847933222, -0.128151545299515, -0.1691891470428553, -0.1081647819719272, -0.2930049434075796, 0.006287448205771479, -0.10979108644306267, 0.03613151223709931, -0.09054936528326042, 0.23101916520148713, 0.030029135161788675, -0.013743171342826974, -0.0021113473345593836], [-0.297633371368752, 0.13257486480374436, 0.16425659430937425, -0.14960768934772511, 0.18250676728801657, 0.10524969615392739, 0.06863923134029469, 0.04798768234195863, -0.0027320486062987386, -0.08909035260212594, 0.2033264048799635, 0.05546492854263882, 0.028712234697547894, -0.06697505859977539, 0.10002741810863101, 9.234381536845355e-05, -0.17292725174077805, 0.10594182479537324, 0.04140527792393138, 0.20481644089603515, -0.1725037269122823, 0.09693719502868633, 0.09843932451933793, -0.22736803189396326, -0.16787624417711758, 0.007367025853403107, -0.13701727985019957, -0.13020056603662092, 0.21622068970488276, 0.064791083099794, 0.33786834185382275, 0.09628246898510655, 0.14766560751134616, 0.076916512447478, -0.011905326491919716, -0.17701018366234283, 0.06367886184849947, 0.3218449810899722, 0.05183310413319936, 0.17253409262808111, 0.04580308187289414, 0.05637306935486936, -0.0177492751880547, -0.1645946775702011, -0.06258973930985247, -0.08969801976247097, 0.13952813411813764, -0.011684211166848552, -0.0866593455959284, 0.11828969008641287, 0.00524120034445088, -0.266024508714205, -0.11972453165239749, -0.1953620630533254, -0.2788926695117414, -0.08436288027615257, -0.13775288183041398, -0.2778679445600057, 0.17691329622019863, -0.1968283851053974, -0.17650624577506266, 0.4321304847451659, 0.15387347097656462, 0.21443548087074013], [0.08573743030160497, 0.13972667823125823, 0.08018039434173184, -0.04609496133783789, 0.06181945747335981, -0.20334959083833695, -0.01148842381698338, 0.0554521727230385, -0.008781819943796502, 0.1244074321976387, 0.1446625528216871, -0.06302761081733467, -0.13164948616773844, -0.016732043315432744, 0.09244061791332618, -0.1117538396079972, -0.005873773445451028, -0.03700762547376145, 0.15381512089838753, -0.07770310156467457, -0.11580424282884756, 0.06992541645844534, -0.14165837619160093, -0.077412138456022, -0.14180668684779188, 0.0813156345448431, 0.12459534006313605, 0.1683750404174951, 0.13318061066429476, 0.14217087714798876, 0.2569233150428862, -0.10584315680285221, -0.013189265298772481, -0.08787292511995787, -0.09518095770529575, -0.23790465534820435, -0.1868386585755512, 0.03623177394819637, 0.027671697795729113, 0.06407248594626691, 0.01944382535550946, -0.07932957991090041, 0.3445419511504579, 0.12264434821664377, -0.13873694107615026, -0.07187292244065202, -0.09296599905374597, -0.024017220611296318, -0.11873065313633312, -0.06327508287111949, -0.10039961627246373, 0.18755214466818448, -0.01900152966367009, -0.02224862397625033, -0.006343009918378519, -0.23410917329640435, -0.015347588757389822, -0.14671330463291074, 0.16863452968830905, -0.06331445819470177, 0.024651318510243197, 0.1910194671938007, 0.03623963595494996, -0.16592949997826328], [-0.19051073178262146, -0.05442846453859072, 0.1964710622779815, 0.08900292016860348, 0.09611321402895018, 0.23876044844553657, -0.1015389960191059, -0.010950761330299402, -0.154593795421886, 0.28925225226014706, 0.11031925574790698, 0.014107797230042901, -0.26063525036300716, -0.19567585221215014, -0.01301734085536168, 0.12388861757517006, 0.1582406137670999, -0.08677921084856872, 0.2360467222341395, 0.15163371503295037, -0.017323973760742732, 0.16698067860440896, -0.11775814995343487, 0.11785781576631144, -0.14551499035201038, -0.007570374982829857, 0.03990059334522403, -0.03435114057029856, 0.04063150952192102, -0.05410933525258177, 0.08194187735377514, 0.06748154007925782, 0.0819437592270339, 0.19746609911556987, -0.07799537906692028, -0.047645889567609435, -0.11668678992171803, -0.11547945217936081, -0.12984851619445886, -0.13109604818276097, 0.03257472015250878, -0.16075485096962264, 0.1800651896335867, 0.22334241505817118, -0.07015692974159503, 0.07321093388460768, 0.10644485531286042, 0.2084685587411565, -0.012395921437747108, 0.023911369277501985, -0.08774330175794347, -0.04123350430136944, -0.06833910806107897, -0.00586591076153451, -0.18992164570330908, -0.09960092088043992, -0.026171919913939738, 0.0033415062677136214, -0.2469943362436766, 0.015861630105774956, -0.038634789781575626, 0.04988401701413018, 0.06308720562098749, -0.05977546294428004], [-0.25666638681926285, -0.25098181776947587, -0.07453339912161769, -0.15703673110386576, 0.07440254154705774, -0.061854948424989335, -0.1830104102264793, -0.1841544882786958, 0.22865959145851797, -0.09627439217036997, 0.032819220209227326, -0.00037062830214745616, 0.20416269654439576, -0.10620389427060792, 0.00023125338356539356, 0.06423341952980142, 0.04662226547882595, 0.004776651764695237, 0.09028144701483663, -0.09301774890359962, -0.13889156892639903, -0.002991727853673767, -0.060054540323887566, -0.059927954002342305, 0.006823266724738847, 0.17945937937971318, 0.1825163407956767, -0.18755683013781987, 0.0657184024771696, -0.03589964680259219, -0.05481760246028746, -0.10995235954821626, -0.12226851418393375, -0.014133046577692427, 0.1585911955235026, 0.010611690271512706, 0.10355068830915833, -0.15331551475508254, -0.03556336684894598, -0.06545549125083423, -0.05579036296902105, -0.06409833742010394, 0.06385295644094686, 0.017804911341905847, 0.11891413071978668, 0.10499286075567005, -0.05484228087810768, -0.1436858065632193, 0.1547471824355879, 0.05908429616287624, 0.051120430039801816, 0.05898867021943154, 0.12505406127392912, 0.0992137162606876, -0.09987054194097195, -0.12699685719406215, -0.024665482120971943, -0.07844092709722529, -0.14629838142408483, -0.09226901441962185, -0.06101230130154767, -0.00254792511233407, 0.013401124082515785, 0.13011674492991646], [-0.12408458661549031, 0.20682537258650557, -0.018787670191724965, 0.05895239128217919, 0.14679042069189613, -0.020120845697084132, -0.14346210791267838, 0.10148337844586092, -0.25434411220767766, -0.0158325563529955, -0.07337990574756134, -0.14809496270880754, 0.1046476005535503, 0.21060312617220012, 0.022070599002753225, -0.01636504096669604, 0.046783549503766314, -0.09184189299209272, -0.1435343909462815, -0.14658439422017092, 0.22228457118763803, -0.05515376823217616, -0.11387370271954209, 0.08076793155460417, -0.12493650556790574, -0.131144287505387, 0.00030786704255057626, -0.1893694851642089, -0.07370320092719299, -0.27151929368246885, -0.11782747498945242, -0.07066772190357226, 0.03034458718795792, -0.08247214804868262, -0.09175692264519494, -0.016347509156815525, -0.07129505999600484, -0.012446581254329932, -0.07560632445454754, -0.17220085964785953, -0.060775517311302596, 0.03772845064302608, -0.005823094649993342, 0.1556528550779266, 0.13742940694055386, 0.2329267769185436, 0.08923976204973925, -0.05551789097018938, -0.022121105805613776, 0.04281940832528626, 0.12739202966908497, -0.18341016945536773, -0.23429701200870995, -0.021863561884668068, -0.08628486012438365, 0.01074579053148324, -0.020778538532188976, -0.05147681720972612, -0.06959987175897457, 0.17279798758020093, -0.0011788039142280682, 0.16805081137186836, -0.04758745219289125, -0.04833975307767853], [0.10207311280762787, 0.058745622057521076, -0.11138979441207107, 0.19612311765122556, 0.15083164812895267, 0.055471864135592054, 0.04344146741184621, 0.1338137224489604, -0.08271809571935416, 0.06595924573243242, -0.10916203447031075, -0.1376140044913631, 0.08673777644009498, -0.15634390675056986, -0.19609479226748297, -0.2011980129574095, -0.00716642823465272, 0.046207496520579344, 0.16274573890660993, -0.046994918552727444, -0.0438651118603729, -0.06459942658043077, 0.10296178986371067, 0.1521865498285511, 0.05604342359720327, -0.07816904206219275, -0.16943527044663007, -0.032848446191094734, 0.2715860611047363, -0.05855212259217371, -0.10856309309858463, -0.012313717187504188, -0.19460423834835858, 0.02410079540791387, 0.3351663773709216, 0.0987839585909523, -0.038605829795733806, 0.0026567678091002334, -0.3032367675714295, -0.1814444570293248, -0.06931565317688752, -0.014460258311650594, 0.008385859186113022, 0.044101501673562984, 0.24113775907543702, 0.16280548436307904, 0.013590339645880042, 0.10532668537223801, -0.033508036193261766, 0.15950541602784915, 0.020252398092801587, -0.09611014590738474, -0.047232006933120935, -0.07852022238268963, 0.024566042266464194, 0.005954100238841759, -0.01605834010363629, 0.025380383506809462, 0.01971798081921361, 0.20671582445224504, 0.2451609183663517, 0.11997264203584686, -0.29936702589462394, -0.061553633433492315], [0.08013943551941027, -0.21598985083289476, -0.00998390574092143, 0.06770940999246942, -0.07178630860369072, -0.14331283931765895, 0.07975506688727774, -0.10271141838815974, -0.17101747578514287, -0.031674890881569044, -0.01866862549358102, 0.21642172567693058, -0.09439094340556627, 0.016892186228318035, -0.10415753499295412, -0.15029951648983164, 0.07554165562190618, -0.01453035197398066, -0.14376219481974636, -0.056696789481020186, -0.111651558133966, -0.1439783037483501, -0.060736664667378454, 0.1500757369507161, 0.11280496922663798, -0.20308808351115715, -0.0899637253696518, -0.023683256292010513, -0.0738982596502913, -0.020440011237197082, -0.015483989704612207, -0.1521629766574934, -0.10219248729036924, -0.04846069443208024, 0.17566433365498677, -0.23780727804527343, 0.09062233346286598, 0.06866910952351465, -0.4882240303019173, -0.05047425976397269, -0.1368548818664515, -0.0715941516477318, 0.03000380257541642, 0.11411602244151915, -0.11436000142478468, -0.0912703361830262, 0.03899567240357129, -0.0852564386947907, 0.3355146566434644, -0.07188913991042196, 0.044233865362299035, 0.04636395917838744, 0.08268348168042904, 0.052062406181028614, 0.20384136818049559, -0.0016981709761478088, -0.1557077865476356, 0.08096744036186578, -0.12325707445190962, 0.03400781933410882, -0.020074341310591718, 0.1506461581494261, -0.021740835123522165, -0.04926064446873437], [-0.13485802455476548, -0.002743009945452681, 0.19231010431417453, 0.06189142143116535, -0.13680564124150224, -0.02723292802948341, 0.04229872776578144, 0.0010579401906080405, 0.20266631360122273, -0.03476881582706926, 0.14780545087312255, 0.17751794730098786, 0.21670030121791087, -0.08217099897024906, -0.021390863108865982, -0.10336598479722882, 0.032594863829167736, 0.0769159899310572, 0.049753118310689404, -0.02372048913805926, -0.15566862774884507, -0.03190992264935568, 0.1226317757272837, 0.057173667320452114, 0.2092390237316014, 0.010987261250485231, -0.13952236953496663, -0.06079158693213663, -0.060377126304217967, -0.030401991476657154, 0.05683480927682793, 0.06141390622728345, 0.18072302134916737, -0.12098766263030641, 0.013468244255032808, 0.024008186848347816, 0.08040817568375859, -0.1388100098700324, 0.07353658442514018, 0.0934641096283401, -0.05108363873806038, -0.10048167724427347, -0.20891998580457619, 0.04596686870598524, 0.04153467101554537, 0.03003527641223583, -0.12111678395609575, -0.12643763542046763, -0.07298663348198445, 0.16864303871388275, -0.060500542620121, -0.2136436902383842, -0.08293067416795151, -0.055389882014374316, -0.06497547600435469, -0.026377522408552248, 0.18113062360787, 0.025076317283363788, 0.09271474115246887, 0.050776750449835345, 0.017460118109181036, -0.032926117058802044, -0.2069913431540382, -0.07535982208332306], [-0.07773661168010616, 0.3303117481567368, -0.16610042194864622, 0.16825567083624005, -0.08901075820117718, 0.12580049381827046, -0.007547064639159798, -0.03228701043517592, -0.010025195775457553, 0.1590151800395365, -0.02377485098405414, -0.083454477301826, -0.04398997126732825, -0.19385833702164743, -0.02513551833724263, 0.14245577563647666, 0.07634195206836135, -0.1551791184378632, -0.11093305361928517, -0.14784157292064645, 0.045064348673865544, -0.05306070715784691, -0.12164441359785079, 0.062028303315820515, 0.07732847298168004, 0.11634582638124445, -0.012633507484681655, 0.2181899812555946, -0.058526977139506116, -0.07386902866189753, 0.012948623002716797, -0.037150900810170404, 0.1906626256019214, 0.14989375007664496, 0.11019670024075927, 0.0968249222012258, -0.045145433587930384, 0.12355503609794824, 0.09016572955640431, 0.023068462357130438, 0.04197424520677684, 0.02422344595927032, 0.12529983645958548, -0.2635182520227228, 0.039032576537648064, -0.14024523949569187, -0.018710163243148954, -0.0359318174556198, -0.11313262955099623, -0.0818479559746576, -0.0220762321055397, -0.10270745798816958, -0.0704293638112376, -0.085971437906422, -0.15719879396093595, -0.06847086208413826, -0.13323064984715238, 0.020560706797949014, 0.14169704964579288, -0.05860837355590282, 0.09520111423389353, -0.00867914492265935, -0.014094889360763299, -0.05795656754532338], [-0.16531885094766977, -0.04387424646401038, 0.03215566998597808, 0.16464031266799334, -0.04067490433127437, 0.08592430989476167, -0.09073973552774407, 0.21504896465446727, -0.030890383986424883, 0.11559822896010599, -0.10980488701137701, 0.1251808045415253, 0.1338875379725594, -0.1740177556768285, 0.028961072049110543, -0.2375221408996801, 0.16559592241523535, -0.05247322896748699, 0.017540129641150412, -0.030537493083929466, 0.08665808217146921, 0.2082698156505937, -0.187595742802101, 0.0003015721299943579, 0.09009936361447762, 0.07615021698805297, -0.04608714887824676, 0.16142255191065125, 0.15728599799066068, 0.3635059037719501, -0.1457211514097604, -0.031054004762791198, -0.11863131110243974, 0.022012573961194663, 0.17188857743441005, 0.16298811722345374, -0.04939802838075796, -0.17957824795875071, 0.09650962615902653, -0.08680328832577838, 0.15987062209477443, 0.22493135014872756, -0.17695160498819026, 0.33400664500063887, 0.16553171760980953, -0.12882660247722985, 0.09146979950169226, -0.2130033113017347, -0.04025293754729849, 0.048595653980071846, -0.03975165095417384, 0.049114720105186783, 0.06960038908202805, 0.05014840751515748, -0.0601245838369832, 0.25879216886162515, -0.09378238859925724, -0.22704076274036492, -0.0924026704476548, -0.027386966499893865, 0.26012749323450907, 0.33957145786997417, 0.0630966732307402, 0.05291617193898685], [0.1753846828112157, -0.08591871784868152, 0.15298730104077343, -0.014950084608501411, -0.0935990793566511, -0.008274370440677881, -0.1671617728170218, -0.04775922944138771, 0.08210336942818497, 0.0769105101995461, 0.03249859776072525, 0.005157314754872582, 0.21084575901010733, 0.012129444036006133, 0.04303239931758774, 0.15171916033995406, -0.10051638185541265, 0.08820861475541632, 0.06728022180200158, -0.03758400872345586, -0.17273279764871907, 0.0824636997735195, 0.14381187515182361, 0.05166886090438834, 0.15470412781320728, 0.03737578944282438, -0.23087270837024318, -0.05371072344652493, -0.12154151698708858, 0.0052991919750386965, -0.04822895105204855, 0.19836731809172156, -0.015085640422065122, -0.08618364076281032, -0.31447654136046455, 0.15621493292038974, 0.03302103513876476, 0.16204278401738897, 0.08827421662670444, -0.151706485526659, 0.10125526091944775, 0.14457716910901716, -0.10897757814051535, 0.012227921300174112, -0.2284424022742765, -0.007466665311525557, -0.054126608720955, 0.029546742168997303, -0.05717241503943582, 0.10515452229484604, 0.23696545856108203, -0.06253534557573012, -0.15577412507280178, -0.10017431044087169, -0.054140938360061786, -0.2013495864216789, -0.174110388480663, -0.12156577628952868, 0.03880734841131106, -0.10505509445293923, -0.19433205982882248, 0.2110571472711428, -0.15077249303912463, 0.016086217268697262], [-0.07885049903536086, 0.009275002874222973, 0.4106224260735387, 0.057738461094094196, -0.03429351310277436, -0.11911656571995846, -0.07134607182259436, -0.028288294190765437, 0.039563081940547654, 0.009659558156628688, -0.011767647324970943, 0.12210575011893439, -0.10992654230890772, -0.045787862115521015, -0.005686448369905038, 0.20750738479186498, -0.20586349586109454, -0.09239782234658968, -0.060614853667452576, -0.18101121289136307, -0.16856660797541118, -0.0555160638107215, 0.16144249899307364, -0.012730770892982884, 0.09712367446395268, 0.061109375295352694, 0.025382315103327956, 0.06919433704444204, 0.01965266418554641, 0.19448202860487504, 0.14469861570295942, 0.07617136087153059, -0.028867898987816807, 0.09960874137613317, 0.13056050796693866, -0.19447312754826412, 0.03450054701202469, -0.16699032260157556, 0.10803885241413304, 0.020959499022405677, 0.1358911148724528, -0.005105606903442335, 0.1031792771188304, -0.02002267659198316, -0.03288789334026207, 0.10838248064904381, 0.10944968463677489, 0.1740741002315032, 0.018897759624177564, 0.10068390279878892, -0.006187180847257312, 0.04065231857820231, -0.15391159835438892, 0.24345717072781498, 0.10678286162441654, 0.0839100950549176, -0.11159511859372309, 0.08790748600890126, 0.1511389829767959, -0.2106993701350562, 0.13978693086446503, -0.05842262171525923, 0.17266102158192578, -0.21526115167405954], [-0.2946675896010199, 0.028660150146258, -0.08144508670280941, -0.10365514845412727, 0.008324087479459822, -0.0125104012436829, 0.0946157737948872, 0.1552650253298865, -0.046409338017795475, 0.21998540316608156, -0.18702226025708646, 0.08275086034636543, 0.013394411940796193, 0.06960227698277636, 0.056115117900398824, -0.1200386466818701, 0.04776040203102046, -0.0011865737285580602, 0.02483702022364391, -0.12547409126568893, 0.0863863020763187, -0.005694276462819789, -0.18314105364885366, 0.00874284152286531, 0.07886241415095993, -0.12257584512039414, -0.15475469487650342, -0.18250425723374544, -0.08652352678296306, 0.023286030933941743, 0.041845351396791075, -0.17789764343398737, -0.023005492134445547, 0.06833062865788408, 0.006686250373293909, 0.08200393169273253, 0.048929227401342396, -0.11802740144658014, 0.1823858464576424, -0.03762092750093753, -0.00022177967302082472, -0.03580876430032165, 0.06468427162636245, 0.09788517593284761, 0.021803001044569177, 0.10917943947408464, -0.014136544656781977, -0.29596575114394497, -0.1606979126585464, -0.3346787221281498, -0.011408025023794248, -0.06374496470885138, 0.016848536491978337, 0.005607292055001557, 0.10004027903528845, 0.09218838491122415, 0.13361034790451637, 0.15209061262562348, -0.29233193463625595, -0.011549738517078047, 0.07061730799652116, -0.04952966662308191, 0.11400491866496258, -0.24500104521520708], [-0.09679015676095983, 0.14975202470401666, 0.3025306515228467, -0.10058725403211591, -0.1391562525592963, -0.060755877035777915, -0.03022005500207423, -0.17766374759993095, 0.13394248732889186, -0.034656005550417444, -0.04918018681771073, 0.033893728825825656, -0.07666146866621688, -0.0010945102786070744, -0.06716978773851703, 0.04256871132031499, -0.10749391702255694, 0.16657944521127513, 0.07474602588203381, -0.030123908609957735, -0.02344568270710026, 0.189930104649725, -0.09687671254258197, 0.07736502403554707, 0.16311965522157648, 0.0448851936740364, 0.19788527869365316, -0.07918767784676256, 0.10031857344398239, -0.21797733041154205, 0.039706762800287725, -0.177067703917649, 0.05220223898636706, 0.14137638322607668, -0.16878628788513952, -0.012464034453587526, -0.11373766498977944, 0.0921802673062473, 0.162846397963136, -0.06323373431918171, 0.007883104047286921, 0.12085183215147853, -0.04300974739665447, -0.07237102293616574, -0.16909126659829393, -0.06850774777613397, -0.10406107348358061, -0.27420759870072414, 0.1769580318972577, -0.0578667077600605, 0.00915821965505107, -0.13344436474618737, -0.06116470668131612, -0.005752158679677915, -0.3918675051663337, -0.03650772867669471, 0.1453424373281491, 0.16887010523020377, -0.11316151022589084, 0.017505315924159177, -0.08407054283153527, 0.10316383737055364, -0.024235284440088968, -0.10572719373707803], [-0.06928798674466345, -0.044449671717144104, 0.18758661545788222, 0.07678787689993237, -0.07673288414494761, -0.04080030429003503, -0.11854776008899767, -0.01909662561961787, -0.0968276972282253, 0.0031057206087637696, 0.3068698824788973, 0.0011461421747715357, -0.15120214729330506, 0.07102946358995758, 0.19882869261574262, -0.22034755541023499, 0.14678886876716626, 0.094061835117186, 0.059318902279511795, -0.003464034915429489, -0.04553720077162557, 0.02634276874579998, 0.265089967698001, 0.05593493263711643, -0.03692714356680176, -0.11144680604118141, 0.009679136099597667, 0.2698046221169398, -0.06006983389732094, -0.09732847017891608, -0.022155835919899013, 0.20724563011280134, -0.16083706545380366, 0.03393678447914119, 0.16251266607471374, -0.19707354204513552, -0.03823911804228367, 0.050050382943916026, -0.11530117180127925, -0.20394140971705346, 0.1492328411964062, -0.07315979531123631, -0.13859386995597628, -0.09537340677607001, 0.05104724096171847, 0.02865288785018365, 0.007777497441730182, -0.11642751530687503, -0.10042164143793607, 0.12684231372355814, 0.19820379346481126, -0.2195805410287591, -0.05190619446837443, -0.044117431748967414, 0.16898890288452706, -0.005772253351397147, -0.01654810943920973, 0.04106688081526132, 0.16906133610011476, -0.02629892527762979, 0.26302427610687945, 0.010664433894590448, 0.11479197253614382, 0.22300581664160973], [0.02334460092871001, 0.13956831233062708, 0.05260106028020187, -0.053025190446853485, -0.0005943892306070278, -0.07941206813887897, 0.25761697479246326, 0.030225360868230494, -0.22835734241353883, -0.22138767565512696, 0.003658170467475284, 0.03643990132689404, -0.19846818649586664, 0.007501818335633049, 0.0939111037125408, 0.0657982740709132, 0.18384063745673304, -0.015872023536675356, 0.037072205713426516, -0.0681734707507846, -0.2791108215621478, -0.24766272292448988, -0.019805513660037615, -0.33933293896298533, -0.08934288207232949, 0.1317890632707008, 0.03975150190804648, -0.05946781319723397, 0.013322746088338635, 0.015494074297450056, -0.008025569342448037, -0.004052631718651694, -0.2121253868015071, -0.04455931608148723, -0.0595719276064709, -0.04172449243999083, 0.02215660217013141, 0.13967273034787317, 0.0735305982286461, 0.01333676427606385, -0.056394653555993574, 0.045167709484910994, -0.029156237405073348, 0.26698498252624847, -0.3383019379669917, 0.04963262231291644, 0.19161408298472177, -0.015683702430435667, -0.16722210807243043, -0.042021961872925694, 0.09208091515241097, -0.09172967061025332, 0.012683893054012988, -0.13878573204393582, 0.01424606882563582, 0.08535111732605813, 0.12868063669552623, 0.18714802480627646, -0.10247745364645088, 0.047539614361146024, -0.06016764545699998, 0.009138046918844725, 0.07007625791326544, -0.09453588844231448], [-0.0462392140611358, -0.09178952739308387, -0.04931171674795924, 0.04849682327607415, -0.2162622519856531, 0.14679888657204546, 0.013023555731799153, 0.20770197285161804, -0.045229194123237594, -0.002595866089033702, -0.13983028234107717, 0.18355189507066036, 0.10932711791916846, 0.1433611393568977, 0.11360905037253072, 0.021953158116811325, 0.11698840151297449, 0.06688788907802712, -0.005596206312947889, 0.1007088901477431, -0.1156797424100277, -0.004884573163976915, -0.006186338692731024, 0.05607011938418898, 0.11238878398294178, 0.05310451645414641, -0.013866142806589639, -0.10600558049102748, -0.050575838111921886, -0.04039368274444404, -0.2226051796159312, -0.17680986263914392, -0.296489765760596, -0.19525291838220135, 0.10893162957471468, 0.10021312483411103, 0.17601309865693918, 0.0359464662508922, -0.102295556520322, 0.08814233586904105, 0.16892237205339308, 0.2956899187737747, -0.044701519071052076, 0.015519284197102547, -0.1598358723052162, 0.10386556094978411, -0.1650851272027222, 0.2427717018666712, -0.22058850783403505, 0.22101362568614336, -0.14223851665424594, -0.05219342537137975, -0.149995559267108, 0.10381492097496825, 0.3361716095526608, -0.09017539031144979, 0.16027182851843172, -0.04215954153152145, -0.05795595549028746, 0.11456455816674012, 0.060651525873444495, 0.14621990922848419, -0.12225882421329527, -0.30053401620229137], [0.21022402868271936, -0.007526931490461836, 0.1318758984196665, -0.048944727734269965, 0.006016307814486385, 0.010526490115823916, 0.050654072569623884, 0.1509474723936171, -0.234135649154004, -0.14265869048820282, -0.10366904521495239, 0.1148704446145162, -0.21421657587048612, -0.08912635391004757, 0.04888522251223922, 0.05145683776898176, -0.06337091351210884, -0.14646114505223962, -0.18798367901776283, 0.16556280957776248, -0.04646507349048204, -0.09098864437116501, -0.031189391908693367, -0.09748442610776858, 0.07700217286038993, 0.10665979852660064, -0.29304951346965646, -0.1575877410672279, -0.08314928627903533, 0.08551200522958947, 0.03274331539597401, 0.0066904918297142615, 0.07910644051995117, 0.046470330907760135, -0.059096383340167535, 0.0185238844736774, -0.09840415742546073, 0.06363557713684732, -0.18406377158544562, -0.06266290681107552, -0.21474609065619735, 0.1796461226994961, -0.12422063124964837, 0.12319739623110597, -0.09884617423772996, -0.05578157749069891, -0.12421241602841158, 0.05715732059557274, -0.012385035732455632, -0.18620351683378344, -0.07361212637587722, -0.026853185791771955, -0.017855971446738467, 0.004426745304385725, 0.14141335985708198, 0.3104520158754459, 0.020305560039402617, 0.1566718589942711, -0.04368733685641982, -0.12199069907554314, -0.14261340843883089, 0.1814410056812348, -0.11743815746172984, 0.1598591432537104], [0.03176203344266252, 0.036945820878294885, -0.025457582038677068, -0.13744486776543222, -0.027079967202753904, 0.05729918014251576, -0.0025775883222823124, 0.08348568614230334, -0.046670300124325666, -0.20729323285639184, 0.017599035480564164, -0.05796579279345458, 0.02534380096099651, -0.10020624040814811, 0.01587457992815787, -0.0177929942592428, -0.14366403429586996, -0.15692583950093342, 0.1721290032207551, -0.1674822879081224, 0.20257892056854368, -0.02202993765267799, -0.1064702798488512, 0.09983755600262287, -0.013408005696338345, -0.22579386401577134, -0.020804819300995682, 0.05253529500854726, 0.03437268354421197, -0.03883524394095791, 0.08535612608872924, 0.17427394080869954, 0.17619039412035511, 0.0226600937506266, -0.023388210854756328, 0.07660836566277844, 0.11733631405383328, 0.12134969706355768, 0.008646718104125452, 0.12551356396059835, -0.03293191675984913, 0.02667916580420515, -0.2604602660877739, 0.15530245205226484, 0.25527822157290025, 0.1696327418072889, -0.20230634759717234, -0.09508737398407512, -0.10568126520365258, 0.16402342949164364, 0.0013873858065074057, 0.01028775278226313, -0.2725680378890149, 0.0397416338050503, 0.14006241702423317, -0.011461453482207085, 0.13729693293274733, 0.11117587769997034, 0.00035034502489473564, -0.09701363716777091, -0.1589103173943796, -0.030431084889578786, -0.02247954637733248, -0.10557593614910311], [0.014945330381938562, -0.05145455322007576, 0.1918677402744647, -0.14885704267927638, -0.06699457804055306, -0.14820382464433798, 0.11028072864953847, 0.031065662024730618, 0.04986545108132066, -0.010393014664564848, 0.05676363251229712, -0.24022748721492473, -0.21814349789842072, -0.14514499051911506, 0.01764396190498568, 0.14036664430620052, -0.13602109971645543, -0.029596945050607636, 0.08204212094313457, 0.0835629701611768, 0.12605691757085183, -0.11077263249260696, -0.0786802744030178, -0.04057667664707041, -0.00782301420274999, -0.050399219079086885, -0.028033478733466993, -0.06254173744229988, -0.339234968370656, -0.24340524606476846, -0.15559205986439653, 0.011896850289074494, -0.10946497732378338, 0.17569414568925312, -0.13465075897132292, -0.0997217084007681, -0.16143819718602417, -0.0076217036455665695, -0.24605494520418886, 0.15663218186574435, 0.12214693338797136, 0.24488647210807607, 0.12269696022905581, 0.08578912369518947, 0.0008380561497484814, 0.009716883392560662, 0.011641487408461281, -0.021598001390264042, -0.12976963285596038, 0.0847819702452697, 0.04453705690612302, -0.3237724518973616, 0.04275923242010221, -0.19522026352759067, 0.1631115875359821, 0.16678915207732056, -0.0002000644436609327, -0.004386924053744109, -0.1969429402697536, 0.18972938401492637, -0.08914438423153878, 0.02155826926525065, -0.12605968003166107, 0.20992751686338004], [-0.07186178289685177, 0.03207153817781398, -0.023638780564931638, -0.07274670975405471, 0.004947057113088228, -0.04723555439196755, 0.24460580096894893, -0.05363595619567562, -0.1498683672955478, 0.08141530782436558, 0.07919459766124248, 0.06921246824962167, 0.08594855935626765, 0.07269178716623619, 0.1692728837207112, -0.26097136061868453, -0.17182968017798647, -0.04553882926089398, 0.15320532155372524, -0.018756107448021135, 0.046273065285382144, -0.2017914072254171, 0.12418329975622067, 0.06330391037316037, -0.01899573670383739, -0.03798824116458939, 0.06597785744793341, -0.04632978670341313, -0.08239520437984608, 0.23520896425959112, -0.12989306597327618, -0.11987719557484094, -0.03283190289966375, 0.33556141944755946, 0.013650014292623773, -0.06356479094589514, 0.2620004570146089, -0.1944953154289444, 0.12637084105990623, 0.11266820556910634, -0.07023684649839304, -0.12172235157008401, -0.1485828706086426, 0.25082630020565866, 0.09701908925120528, 0.04321848289899113, -0.03148813674237245, -0.16177966875285957, 0.061709905080573016, 0.01726729310310008, -0.06865350314045648, 0.0008587343140351881, -0.1794561350804716, -0.1057582772206365, 0.12857420787730864, 0.14516284918944605, 0.23939867237391727, -0.10320396391523823, 0.07167393284797294, -0.08384353893194187, 0.3117688421796322, -0.13179309746618398, 0.033603221488677504, 0.10555285412438035], [0.036312607318094416, 0.004992576880036846, 0.1973064036572002, -0.22568755333140844, -0.11837720283092433, -0.06362120803728251, 0.10509439853133021, -0.13124054207797825, -0.15997336894047692, 0.0355377733706879, 0.05827568983481039, -0.010852373429556899, -0.19784645073111237, -0.06471155059701562, 0.10806847070302332, 0.0995718282127154, -0.07729735928221002, 0.10679829478877738, 0.2784618421718498, 0.07067125083571055, 0.15235176263616443, 0.017285667053923984, -0.05938066888140676, -0.10228538951110998, 0.16232597685964578, -0.07070269265570886, 0.19811032271452494, 0.02051898030734373, -0.2593381502087871, -0.10200612770995601, -0.06643296221128869, -0.03700574626723411, 0.0745127026403662, 0.05428153988752388, 0.2597522233568948, -0.20615158177918114, 0.32875989841128067, 0.1286178892453815, 0.0649839158780753, -0.02270442320826916, 0.036340463335555705, 0.20554052469916764, 0.016978301055604317, 0.18928720529581652, 0.10313014686966576, 0.04461479115120142, 0.03587960369019259, 0.07392700437784547, 0.1885248802346952, 0.18242751982294647, 0.22298685841268415, -0.1917225028336592, 0.13380934910208336, -0.3597957941792482, 0.030537039311896975, -0.10751582300917069, -0.04623715289095126, -0.02539711485170981, -0.18591828225214063, -0.08273613081204753, -0.17920045634698223, -0.0806313026428074, 0.2579086891003943, -0.18210746637275124], [0.08935856654047641, 0.17580251152806123, 0.07658407816805086, 0.010235558234435239, 0.24262678655444744, -0.029257172230657255, -0.07194009889393926, -0.09715702281461872, -0.05558452246267513, -0.20748130223892436, -0.13376625859750418, 0.04269927595884954, 0.09258818320751341, 0.21863173152642873, 0.008661365268807508, 0.10448819307865556, -0.06851847267399369, 0.21019464831509338, -0.059099202779780535, 0.0071138146010425694, -0.15326894452703732, -0.08763300289002034, -0.15636841608468435, 0.041609889659108626, -0.12096887094200337, 0.0008002243834986913, 0.08933802774527187, -0.2752263473382499, 0.03564459447119313, 0.011835999000720208, -0.0741453879359285, -0.0624373148342262, 0.08260992121978217, -0.010992859480074463, -0.2034258945122136, -0.07839592483281813, -0.04549769961210374, -0.08817686741619393, -0.041134438641477915, -0.1381837261938848, 0.027932588742264782, -0.23354672114282896, -0.32159210935276916, 0.003363391022186505, -0.24745848502727072, -0.0010030407694828563, 0.07082259549093145, -0.16883007603492017, 0.022529433268989135, 0.08307545575131935, 0.054945587835447715, -0.12317782584638716, -0.011243465055763154, 0.10235730317259856, -0.17257620698554976, -0.005956870286880767, 0.1996452322763562, 0.024685813896021147, -0.00858818388464581, -0.08678683495821111, 0.23306905761054122, 0.08629418268894208, -0.007562778545833589, 0.05612136069255546], [-0.011592494015458399, -0.041403567729889186, -0.10731415485360939, 0.09285823778396274, 0.02292063734219767, -0.009978738469550136, -0.1438415510867107, -0.29223371873135634, -0.09770343213489613, -0.10837439792547865, -0.2591130446276272, 0.01022128948938222, -0.017774500298457917, 0.03236799430900723, 0.29500790615870026, 0.016364363541180236, -0.11196863392711186, 0.13015122197804338, -0.17910287376975773, -0.04634360195227955, -0.05367503354209631, 0.07052413640207049, -0.07744909042222729, 0.21108101292557044, 0.06335913855102523, -0.30229616826442457, -0.05322422101848172, 0.11648744648658317, 0.059097185090504066, -0.17254222506851966, 0.02047207958104018, 0.07035480016405486, 0.1660905604960987, 0.23058588876854544, -0.016751679271493798, 0.007131902805448726, -0.01548849903226915, 0.15427373206302764, 0.044565069782698974, -0.13915515186060146, -0.1357977276271797, -0.09785520391370758, 0.009581019552999089, 0.027891562650558956, -0.07212948690063044, -0.03441204080217963, 0.24629895371765767, 0.1143692863839883, 0.05512570492559598, 0.03363614719501043, -0.02412641361759723, 0.08946837516261838, -0.13495883758383154, -0.1902780866392398, 0.1754886365468392, 0.10357692113104591, 0.015294205920853681, -0.03257660973380695, -0.12452744599051231, 0.013337872399276682, -0.017895691780288266, -0.03890092346942005, 0.31763101117620196, -0.2123879381563633], [0.015340256707300451, 0.024658895325280487, 0.3618246830547045, -0.15287683452415388, -0.07407310449654622, -0.05793021775782686, -0.10715750533517489, 0.12675263311064752, 0.06315160088960435, 0.11652653405660783, 0.2416159473200006, -0.16878272240505188, 0.013067099753305764, -0.09009869084140207, -0.00650966493533838, -0.03823741491478344, 0.19427411557381802, -0.09138540420520896, -0.006106479259666431, 0.03863593080926976, 0.10160318735411131, -0.03313263149747738, -0.1799623429426689, 0.005307488991259496, -0.20254370813106265, 0.15749794069028636, 0.0745640889159131, 0.12782720533870495, 0.055070047490187006, -0.22295146991235737, -0.005052407126789745, 0.01922204927722435, 0.06319563352457876, -0.08484097931311238, -0.25763174949299916, -0.1580119498192017, 0.0766727259029209, -0.04462688832873064, -0.10899081343707809, -0.0063040562517281, 0.13733347650467786, 0.0958784938892307, 0.009886065251349102, 0.11250155082167942, 0.17773180829416313, 0.0007110909936055454, -0.1299462285925832, -0.0620114505706985, 0.0991674788035276, -0.022708897788022164, 0.18005174111090083, -0.05123557104217006, -0.03367781685154532, 0.0738694330751585, 0.04372052394947749, 0.04916626116955893, -0.051915591776930316, -0.18549771939574664, 0.2569852064434066, -0.08958126689647157, 0.04156114968595687, -0.043813574980740996, -0.0652387068970579, 0.008794027306944648], [0.18217736697144415, -0.2544242555077651, 0.22288795527063524, 0.10194778313360355, -0.00491676854701862, -0.16820632963223195, -0.14362433909996553, -0.022633206249848135, -0.0010485049065485617, -0.05672734575624191, -0.07332548318555715, 0.005043070067654165, -0.06817257046176299, 0.11268798788443832, 0.030629388970626392, -0.024737416615156334, -0.06436195007141102, -0.09937211039352661, -0.06684727127576602, -0.2092712410850525, -0.08371880587855696, -0.16999832681671706, -0.03183169533133552, -0.08215246811824573, 0.046019109133442974, -0.047047193343816955, 0.25887121475198427, 0.11562901728499644, -0.050637362421063044, 0.033541849954491006, -0.12150741679977756, 0.051626505512879624, 0.014476984372435522, -0.13615584185894833, 0.04006926374002892, -0.15503428217400053, -0.02030074975653977, 0.09651307838878925, -0.012865360248601455, -0.014052886610667286, -0.15029676468745864, 0.047173252555714404, -0.1409208404150799, 0.16847586885769236, 0.09177066298022481, -0.014938802095386557, 0.06555826163768141, -0.03307370374832109, -0.005527099252762546, 0.020699796652067913, -0.19983757205102104, -0.07538443907709513, -0.16379606997457122, 0.05575581696355802, -0.004437018569316297, 0.13522022543026038, -0.04618495569900917, -0.08158951213357085, 0.10512590573607417, -0.15636368079126922, 0.011743008628589352, 0.2952572922956596, -0.10676486031473957, 0.06567329278516965], [0.13622000289987535, -0.024507655632889466, 0.09196936142265906, -0.032545536559688296, -0.12080781900552032, -0.06492436993392388, -0.02805914200910818, -0.10056515353809206, -0.19781696720403152, 0.16351071159521782, 0.03892810984009121, -0.17653898399512755, -0.01661333833035299, 0.1262667626428389, -0.002053369406989627, -0.07143957534201967, -0.09083919137616127, 0.114126065862004, -0.09049491723536733, -0.09824025284319618, 0.011227945169179592, -0.1405447139758228, -0.007476105126189939, 0.017308973758765056, -0.1798094675044997, 0.034874849618420155, -0.09507931073492919, 0.1384409428362379, 0.0664322703954519, -0.10047792720956478, -0.12303628309883805, -0.04976868786173738, 0.16406977971895684, 0.13871963756724995, -0.06680209301817211, 0.012998509409980475, -0.06428333096898092, -0.06903566153517036, 0.15010055364117478, 0.024142412718630234, -0.14384925368187768, -0.06628048079839995, 0.23500483523507593, 0.15431812785361393, -0.056357506386093124, 0.0926514533899207, 0.279292719681347, -0.04768166736577031, -0.0195674112824141, -0.15684552184577022, 0.01571882097670757, -0.08058680382374928, 0.10682187226233593, -0.07810572489240886, 0.16808099067318236, -0.08322236031310548, -0.028593549190590196, 0.24499812803030185, 0.027857802960674482, 0.01688720324446871, -0.0644843272916956, 0.19049265166006932, -0.08422172508072209, -0.08772219915082205], [-0.04600209514669242, -0.1349840309499658, -0.05850017346013705, 0.2590386475748827, -0.22880404794456297, 0.04410000781306655, 0.1749733331086432, 0.2718886649562734, -0.17000229330342856, -0.241861127188077, 0.08889818772841017, 0.14996480042236027, -0.1151516145933966, -0.00572783626161376, -0.009301727849328825, -0.041345908989217924, -0.1899352120987619, 0.09661791084885307, 0.09935551437791953, 0.017066892433702716, -0.07831726006314034, 0.21676385645057833, 0.06443799674564556, 0.004549441010643701, -0.048888467371777926, -0.20551724149091474, -0.08651355581495809, -0.03707838578861289, -0.0031900976616885015, -0.029183373747732454, -0.03340255665439562, -0.1781960717853375, 0.09047672989160507, 0.1010011244243892, 0.0500018853248975, -0.026478873978824157, -0.07077921016354821, 0.08933010318633906, 0.03909727925505452, -0.22731843646803382, 0.1142706320299427, -0.09642112604601236, 0.2916542240664672, -0.08557438522370589, 0.006352846579086593, -0.12810222894969128, 0.04022363785539581, 0.10977796806630467, 0.09650494008471239, -0.17908653536087746, 0.07486167921288081, -0.03724085752770288, 0.0968079193374272, 0.13124640916172828, -0.09246120818208244, 0.09108919486787806, -0.24565681597313274, -0.008888106451081065, -0.1248746838084811, 0.26449204989153396, -0.11842954755690936, -0.14523030348827454, 0.015937090621915836, -0.2009525752835942], [0.0007502189965136745, -0.15554314838638653, -0.13042767829362026, -0.12469307509228603, 0.07008339480439114, -0.07419104034354596, 0.03194455379622448, 0.11003032617871333, 0.05674973451882898, 0.058145229955668606, 0.07157144950905618, -0.281853865607735, 0.19717082598516508, -0.11810746562245036, 0.15743162095439855, -0.07045041574118384, 0.055220978093217035, -0.02756157239045471, 0.025801528818758895, 0.03265647449624435, -0.0699510135395623, -0.13083924380736509, 0.11682495671670666, 0.06040717527832139, 0.12725427538623588, -0.006193947827491547, -0.04652113767388716, 0.06658905390408, 0.07074265895577755, 0.09989565719806559, 0.06275292978196365, -0.07834819146542735, 0.15260383344689601, 0.0024571660577963972, -0.1635081058901644, 0.1872025074117415, 0.09346555259448248, -0.03803906447274303, 0.08128805309078141, 0.0772469806465122, 0.03846930295916964, 0.03323545292808897, -0.17513899561043034, 0.006350929740784104, 0.024640117404198088, -0.08019287397024238, -0.05147798060931368, -0.11360452965091257, -0.07217843959095661, -0.06706365679562969, -0.08643735203502245, 0.24359815940342383, -0.023700788641869804, -0.14567988818604335, -0.0815379213948217, 0.1237670221336599, -0.17100701664371515, -0.15753925502312074, 0.03411821508350331, -0.11155077521497794, 0.09711257703776645, -0.0954509297918393, 0.0282051874898572, -0.11258232791900448], [0.119317636923978, 0.03899352920719902, -0.11115063791758009, 0.1409120820588209, 0.10628166651260099, 0.01774890768766421, 0.13495623483291058, 0.05299768871614768, -0.07067020554987544, -0.1793194852084805, 0.20015535432577325, 0.019413285763224167, 0.051859863635242934, 0.15962722446254873, 0.08357471617655601, -0.028993844336244617, 0.09682373592303804, -0.11356752564563577, 0.17729745232337507, -0.013810883424881782, -0.055680398559142225, -0.03586634589399939, 0.09909204640357731, 0.16482723571847405, -0.026489386360224566, -0.020487442282860216, 0.009470527507323592, 0.2477114676133994, 0.05325011729717782, -0.2607288910222613, -0.026025956122249002, 0.015706203273442892, -0.029108525493158875, -0.15066577989376187, 0.18438525174997267, 0.021290615562151356, -0.023449675568020644, -0.017636067131339295, -0.08248054196722261, 0.08655203168913783, 0.04143996552932442, 0.13392977151924135, 0.0071235183671424325, 0.09785294888972146, 0.06470132678089978, -0.021792979817420937, 0.1691345629406997, -0.05539879214106733, 0.0047981712045892105, 0.19665405215394197, 0.19212534663420697, 0.10671100560441402, -0.07787960160592468, 0.3041565461173963, 0.1408487752280812, 0.10970064003839691, -0.13385447261355027, 0.08437393341785232, 0.15031442656662017, -0.13061468573864699, 0.08919020021801619, -0.09285915974887524, 0.07200594428250363, -0.0872160734593488], [0.1827191328959072, -0.08040835674300523, -0.09774781232168962, -0.025456391036359213, -0.010858893687575939, 0.1730052546198225, 0.10520658147510262, -0.23357477766510537, -0.18861640206782032, -0.020811005524828768, 0.019290889520673635, 0.037905375016519215, -0.07563150813151417, 0.12588883723951358, 0.12673601765260714, -0.08911997419655965, 0.06615808059435055, 0.10127853011413919, -0.11717244761730518, -0.19612231498849236, -0.046063899266813625, -0.008234089340284518, 0.00028718749924126335, -0.25672064892890456, -0.14889170196752483, -0.04074078146729777, 0.1446092159097027, -0.13927229564110594, -0.03160916819830264, 0.1140429519830401, -0.06695802860213942, 0.05316035058322519, -0.07052218695245441, 0.1390073336623371, -0.09112059396976352, -0.07016715131223825, 0.007487299014563734, -0.1191005648410841, 0.08402129293473744, 0.04197747686607293, 0.1441033018531866, 0.09480725570986982, 0.2089091328196268, -0.14557528656164678, -0.18299404446809306, 0.15583666306559257, -0.0984692161916425, -0.0033306792650163583, -0.039821306092810406, -0.1420064901840326, -0.1615655466562196, 0.2021505738378542, -0.1097579003029708, -0.12932303441828355, 0.23332040485329922, 0.0132105790206358, -0.05011754945992131, 0.2781342939399734, 0.15743247389963425, -0.07996603010227024, 0.06253717506093331, 0.27221813040545545, 0.007666162770145228, 0.25451673104486416], [0.20129712998211355, 0.13516605461074174, 0.10413236122041043, -0.09644454591310754, 0.18035617001220036, -0.07479100187820825, 0.004374683965865011, 0.08361093395118423, -0.018828692635471187, -0.001292605186396422, 0.032407630100532464, 0.0744320204634822, 0.13657563694986688, -0.1262675957907285, -0.09079024284065271, 0.018697250326557547, 0.12000937262437651, -0.023448462320246395, -0.22256866353562582, 0.13727996335667697, 0.07192751557083046, -0.02685660111092399, 0.0693136747543974, 0.09904334144807266, -0.0222969136469853, -0.08743183707598139, 0.1053535776821534, 0.04249376109587078, 0.1461940998531074, 0.09441007696228973, -0.049088803027583616, -0.027989051102889993, -0.02929354025941275, -0.0027317541873451584, 0.050551229232664203, -0.08823619335255192, 0.13463857408780142, 0.03326887995512736, -0.021788142967070462, 0.163118298812106, -0.02739238281483677, 0.1838954895503644, -0.19823693724287156, -0.24579041799607437, -0.11545593889632327, -0.017139644880110386, -0.06307181928572293, -0.13814450529238562, -0.025240756528718454, 0.15036296817952052, 0.008337339255604108, -0.11926905280752433, -0.10536395189209886, -0.3138236161299265, 0.19625133196174496, 0.02397648499545084, 0.0437343263705571, 0.1495711661495645, -0.040831615204735584, 0.12806677491813667, -0.07544665861647203, 0.05375918068960047, -0.06045018833527721, -0.10278263524936011], [-0.28243634395485084, 0.03960671402868345, 0.1321769109843834, 0.0861016920872804, 0.05668365611166464, 0.0922049686675398, -0.02567589253735612, -0.21036732115524237, 0.23250137754375225, 0.12733523766366778, -0.19568972798499154, 0.06200913795905224, 0.009465042901764878, -0.05840618931345027, 0.009362903574307418, -0.019452718850975242, -0.16069240070635374, -0.06807571628259432, 0.17190465651740533, 0.1263108433927446, 0.021165232091535556, 0.09635152357353395, 0.13221618848185487, -0.049783989844604686, -0.10173606770021008, 0.09686032562637709, 0.1557566995886961, -0.04408840441486529, -0.021719743313946337, -0.18517907013009, 0.1652501454455196, -0.04306220113066885, -0.17837194389535055, -0.08529482740886692, -0.11175401541380209, -0.23116781436243106, -0.025380143656803078, 0.07036523391937675, 0.0586877935947788, -0.07397891649457487, 0.012993329935446937, 0.08949912311395428, 0.008714659823942044, 0.08628232879825953, 0.16708697013290527, -0.01330923156431254, 0.0666949705498054, 0.2563063348564188, -0.2798152548396338, 0.07639428035608159, -0.1378935565238217, -0.056513096458344354, -0.02791158566200699, -0.207393043993404, -0.11384824436516701, -0.06891310462899612, -0.13857841754422134, -0.23447925260969693, 0.17005923107255788, -0.18112068763556274, -0.00970557577283428, -0.0018695524616161425, -0.05618159935868651, 0.25372946169144883], [0.2381646692382154, 0.04270110442969662, 0.07102930855519236, -0.1214459089606375, -0.07019969986385004, -0.10782187131110114, 0.11020624861649761, 0.019532326318433324, -0.27732584571815255, -0.052817173404655936, 0.06683318340926392, 0.3521288634858268, -0.11669696292222392, -0.08668187300111824, 0.1536291374004542, -0.14547769829649768, -0.1118943958772602, 0.009642472446091734, 0.20789261040045529, -0.1929963421305373, 0.07440905243884333, 0.05963090343134752, -0.20568566141560987, 0.021814032713211837, -0.07554025308277044, -0.016822597488383897, -0.08993559236939692, 0.13941503037073777, -0.011707451099231632, -0.1937443274249711, -0.21226018307931638, 0.10984671459866555, -0.07238703772241217, 0.02341982840612521, 0.1650142030865649, -0.03315904365745382, 0.08218318435255609, -0.07225972511242067, -0.055199636662910806, 0.18068287429444352, -0.10699938713871321, -0.003661175033523463, -0.09402798342524026, 0.06499020696229979, 0.06637869768891667, -0.18635406401679752, -0.06797238587914624, -0.0941824995800867, 0.10651747670823948, 0.057245240384686084, -0.09505229436183399, -0.07961701176927695, 0.10785742681283954, 0.22520215837137617, 0.21684018671165015, -0.03149733777104869, 0.0472761772383564, 0.029782655907832262, 0.1286758467941157, 0.1103097343596094, 0.2105088394873464, -0.005350094022144179, 0.14672782454726424, 0.09121660253794302], [0.08929172470906187, 0.013832427815991751, -0.14743034394037535, 0.18635047689914327, 0.007137543505088965, 0.26730167157664053, -0.011270892374340757, -0.09094913091142677, 0.044216101886575425, 0.10761234212679534, 0.14408743903660717, 0.05722859312468568, -0.17119388617255518, 0.12539424313108807, -0.02783333221675759, -0.15996999278776522, 0.11602634168944433, -0.061002365201941036, 0.0602926520569993, 0.008621750985067206, -0.04719310085763032, 0.01954403432034885, -0.08377447752241998, -0.02931093257845658, -0.030641775315262215, 0.042276958016114106, -0.09893822492135115, -0.13811035577759626, 0.0014967881843554404, 0.1229898108636602, 0.05586858093623001, 0.05554708760995277, -0.07851462828204005, 0.02430505459013321, 0.009340185360233259, 0.04912653269546248, 0.11734473136661552, 0.027410314559814325, -0.3049134047650749, -0.15532731024986485, 0.15513075575083404, 0.1272894449149241, 0.18201311938622403, -0.15355260555333, -0.045461620522992005, 0.17138057080144162, -0.0841170916108458, 0.06798049496523258, 0.12260703425710139, -0.02588088954025293, 0.21096264851817487, 0.06247906547333518, 0.08149501005639223, 0.2539509409460553, 0.06101510605848216, 0.05442586874541894, -0.007138342099463924, -0.01683767409226707, 0.017867721697050698, -0.19736768987380807, 0.15301534537329675, -0.1118925438651658, -0.020572078563092445, 0.07161425421520617], [0.2269328879828102, -0.08681623636078131, 0.21188316926510165, 0.03360850539896778, -0.05203352845226965, -0.09431839720920367, -0.17995691990266802, 0.073808703151213, -0.12573316702234885, -0.11741215296238325, 0.07448952785144, -0.13564203542833425, 0.11794875767644754, 0.015410857422588844, 0.03484280224598085, 0.1175252904955097, 0.25565653248698683, -0.0850765683900703, -0.022339963872673077, -0.013826606329986202, -0.07649220809117412, -0.01647778157655833, -0.03961940836176568, 0.21278236468016948, 0.2097715334547819, -0.13197165237855946, -0.09665806201330711, -0.07757007175968815, 0.02793045998486447, 0.09581254323509517, 0.18707118438023207, 0.09024301717703716, 0.07578580009658148, 0.045764161184683655, -0.10154102132076864, -0.19474654701970123, 0.13417578473674424, -0.09822001819396327, 0.14934467690934244, 0.07884460138579409, -0.05881841656219572, 0.07675866670921985, 0.044428114931089266, 0.2665974917684217, 0.08317429806375154, 0.19464481684446483, -0.08143500393953426, 0.02060603498232437, 0.08074234140634642, -0.04367780294016344, -0.25563936623570166, -0.15857442513415232, -0.037371340526512434, -0.12262118223568742, 0.0051142762790993, 0.16705893262416668, -0.01184743811491176, -0.06559383643371194, 0.03592769043361643, -0.01268973409931408, -0.10404339798312892, 0.15739093626575973, -0.09581715447454826, -0.01806679437804688], [-0.03012926318368473, -0.17742759265904073, 0.12312279217334451, -0.00201483119105984, 0.12634008507553365, -0.05578535317643353, 0.09771517367771738, -0.13824146367811252, 0.055357506875798906, 0.0689315136428066, -0.13491805196958506, 0.033093780572813127, -0.11608174874370945, -0.043266855187705504, -0.27081716984939463, 0.08234418057016636, 0.13281091799827935, 0.034506252886769444, -0.01942480638936951, -0.02830565988550806, -0.06802901332138213, -0.042251976284594595, 0.015008048121990181, 0.1378451221203892, -0.01256081758470538, -0.0016195869225359323, 0.10616733066284928, 0.009207149362449697, -0.23018884732454975, -0.31780188504696644, -0.12244804532492702, 0.20943572581388809, -0.2674362397505687, -0.011533115736661307, -0.11378274479431885, -0.08131623662244025, -0.07199654087801458, 0.01605292941151268, -0.15288983304065684, 0.00925931123083634, -0.2073956074974222, -0.19673031682523837, 0.030348017669930706, -0.05294866369888747, -0.1606744603934637, 0.013859865420770378, -0.22940394041582532, -0.0839192012266286, -0.0646422522279317, 0.030268480160294035, -0.037488791431658265, -0.08622758020349318, -0.011371435525643365, -0.05433877427983361, 0.06486922608908689, 0.20425652185612586, -0.08806445127909987, 0.0475030068673775, -0.17631388783537477, 0.028012584059772794, -0.0636473006100312, 0.03581106936631989, 0.1309411184381588, -0.056652236493936026], [-0.07409640325540169, -0.25507524666239545, 0.1705514015900459, -0.035634432275397865, -0.009642579873577011, -0.046072147973215044, -0.2693084527249292, 0.24426968248866696, 0.028847701661753683, -0.040178777582454535, -0.07599313661707743, 0.044649372742586305, -0.021056271905220213, -0.0429149170238828, -0.05620422646262768, -0.2031760846547876, -0.11067542963031901, -0.06316395330814689, 0.09523012987135474, 0.11406134415673429, -0.15621490090450774, 0.04459680711321985, 0.06912801028532994, 0.0405704506852756, 0.17203582866677528, 0.22429001906062776, -0.07201181413582228, 0.23353025861849858, 0.02094645486479906, 0.02603066410296082, -0.05438350705438715, -0.05269119627400787, 0.02128872563944895, 0.13506637234525173, -0.17095019416120777, 0.022338163086538163, -0.23941920034925177, -0.02066481398971962, -0.06273233547134167, 0.01235965226279061, -0.009628775316453368, -0.11336799259481829, 0.08305950825865188, 0.06658820877436687, -0.02289813781866718, 0.043738501320342904, -0.028849468329359168, 0.08395237481839299, 0.047777116506907504, -0.016542188669416518, 0.034338380371778644, 0.014775660466155012, -0.044524061563787874, -0.021151261852632462, 0.06727009311796325, 0.10976219408871193, -0.020011304816812264, -0.15811478824398945, -0.018721955685955933, -0.027143721742453778, 0.01766068720588422, -0.07634371942778373, 0.16647944530957332, 0.07688707819737893], [0.11198756642918377, -0.047120184409533694, 0.13566544837997996, 0.2338546809205301, -0.03408930838449634, 0.019187408074342407, -0.09462263425571267, 0.004704107254145359, 0.09794777483121872, -0.22702257389663086, 0.15872470113805373, -0.21609749440334422, 0.03636139667674903, 0.14010069166611197, -0.18236858128853078, 0.124855482683562, -0.05223420181444661, -0.161171080608883, -0.1721052695357342, 0.1503001433113999, 0.12374287313641766, -0.10292105863059617, -0.07907099662353378, -0.050260949286888804, 0.14166719190443045, -0.11308169337378153, 0.200012758934497, 0.026622623734818482, 0.09466278055782523, -0.19012164079031477, -0.09644978951472123, -0.05962847936264383, 0.0130971567519103, -0.06335897191226784, 0.0903363757323654, -0.16289493672254018, -0.22266025720536187, 0.059391003272985105, -0.05184231174285246, -0.04757997894555083, -0.09712360830169749, 0.24505784110223391, -0.1483984855271825, 0.07809074760962108, -0.046294661131349876, 0.1165439043319107, -0.17738768256044887, 0.0003735263865812906, 0.14631856621443226, -0.010743312216219136, -0.14938127814769567, 0.1576976280784543, -0.033246774753436174, -0.1389028765305212, 0.05444225905925112, 0.0022468507390205603, 0.02556462269340922, 0.008014717387238298, -0.07341205845253974, -0.13810920746488903, 0.0627304511300904, -0.189174833183605, 0.2313979625615402, -0.08617004798979676]], "value_layer_1_biases": [0.0, 0.0, 0.0, 0.0, 0.0, 0.0, 0.0, 0.0, 0.0, 0.0, 0.0, 0.0, 0.0, 0.0, 0.0, 0.0, 0.0, 0.0, 0.0, 0.0, 0.0, 0.0, 0.0, 0.0, 0.0, 0.0, 0.0, 0.0, 0.0, 0.0, 0.0, 0.0, 0.0, 0.0, 0.0, 0.0, 0.0, 0.0, 0.0, 0.0, 0.0, 0.0, 0.0, 0.0, 0.0, 0.0, 0.0, 0.0, 0.0, 0.0, 0.0, 0.0, 0.0, 0.0, 0.0, 0.0, 0.0, 0.0, 0.0, 0.0, 0.0, 0.0, 0.0, 0.0], "value_layer_2_weights": [[0.09891779897290698], [0.063188313893324], [0.1754716640569336], [-0.24828291246704975], [-0.12686596154623747], [-0.20318572238850677], [-0.09107204085947748], [-0.30582421768131146], [0.07066266003908032], [0.19714132717430533], [0.0776497071991696], [0.03487419695566998], [-0.08255098143446452], [-0.010459974203954238], [0.17284761337877202], [0.030654207428761484], [-0.014270716896810389], [0.06825575371312917], [-0.17049978324220633], [-0.08280066291259734], [-0.4170809647327871], [0.002540276887180506], [0.10852275229623948], [0.22024191880714075], [0.08455741738026776], [0.005571232933977054], [0.14775574944149963], [-0.2070200932335816], [0.06546984992068698], [0.13460382371674212], [0.06279685839480367], [0.016314344226675503], [-0.1059106910615727], [-0.42524538287389796], [-0.3896283325141504], [0.2548105907979846], [-0.1742641181520696], [0.1187478592070248], [-0.3236208022087831], [-0.09736324544688654], [-0.023664709185993085], [-0.24725268606616777], [0.1414247773581674], [0.15884800691736006], [0.13381174363482964], [-0.20942082453330166], [0.29636802454682015], [0.03058527765455654], [-0.0827698269128666], [0.007994637545850905], [0.26630357126843324], [0.1906491658411466], [-0.00490155601606805], [0.029303251543690664], [0.13230061596674342], [0.24194185048956698], [-0.1907662929353931], [-0.08288877540293439], [0.18360693304067902], [-0.11630780563506349], [0.276289556934391], [-0.10482132875732342], [0.238533340209807], [-0.2030557314557099]], "value_layer_2_biases": [0.0]}