{"policy_layer_0_weights": [[0.38065134461920974, 0.17949945439942305, 0.0793106203742528, -0.10115145665774741, 0.023620701836272632, -0.06241329648296062, -0.22981194109155786, -0.03789382851015383, 0.016153368920643996, 0.08334115590410393, -0.14384790948426038, 0.354486353672567, -0.21588681733521436, 0.021161243848429444, -0.13953866111466004, -0.27058831435628994, 0.28703409356599396, -0.12379463422583083, -0.41287669141059924, 0.10794177850197943, 0.07389802657823803, 0.41396113954814445, 0.06217440535162221, -0.20645558748875323, -0.1312009361373045, -0.20921992379608803, -0.17465994066099633, -0.09502081964651422, 0.08047059757676674, 0.27065139290508067, -0.1802306556613471, 0.03485108020231406, 0.12222986453460002, -0.13992819564507372, 0.08380940069227835, -0.06177512606254346, 0.30696753684013217, -0.1036568271028942, 0.033558402927221925, 0.034058995944188195, 0.06314452527814747, 0.009289144084019195, -0.151682027510819, -0.0023940881418729244, 0.2214440478855641, -0.05847747873632114, 0.11685490299601613, -0.013767839077630888, 0.10327389866451914, -0.22510931987538435, -0.3406737051898534, 0.20083872225042954, 0.02211560743053765, -0.09165270799380199, -0.06752021415863453, -0.05342308341409116, -0.031539101766900626, 0.0827796887402982, -0.2514320158620276, -0.024968796052882918, 0.015170626963620605, -0.2776995766285883, 0.15606935689615697, -0.35300464541506527], [-0.0006594450429024632, 0.026010916558917737, 0.17500522736710902, -0.00367068733823667, 0.05975167178812451, 0.0037637352036003473, -0.08595858982646051, 0.20391519566523314, 0.08120297009625344, -0.1620903437099753, -0.23091321087789987, -0.006059225192033028, -0.008658505039117755, -0.06609486957970227, -0.1940530795724014, 0.07516138035765745, 0.3016224573450795, 0.15327715422697777, 0.03332377120990694, 0.019370332066009317, -0.09850621954318083, 0.30768141161916973, -0.21914508951606054, 0.15625924489895482, -0.10300135352099296, 0.3276702727797421, -0.17314628365691045, 0.2194761997443002, 0.0722591098515142, -0.2743540833264804, -0.24352799729520003, 0.0249043243416735, -0.11726751696740206, 0.06610302805574725, -0.04341134106665813, 0.10349168615415247, -0.32862437341005213, 0.004469504184100183, 0.3313483096807436, 0.06818514100134218, -0.07244262269029253, 0.08947179504633325, 0.2826459940081268, 0.25682844690651513, 0.26369962553364823, 0.22320607534172607, -0.015689052109934185, 0.0368155667259984, 0.20875128423418457, -0.05002976374550691, 0.2614840750716173, -0.1971898926801743, -0.010680445256934254, 0.12486373319428806, 0.16658662395132873, 0.11710416545392822, -0.023412267016523495, -0.013302197071294136, -0.13197431728440337, -0.09753328111408621, -0.013578728596466942, -0.254629305727563, -0.2142651668854348, -0.08654887636380539], [0.20265603476339666, 0.3446575539687615, 0.050133688277154594, -0.07531440184760368, -0.14869093340171183, -0.1831565404905285, -0.1905118852738036, -0.23511922899052431, -0.24495575151677748, 0.0680270045377595, -0.028721004916364964, -0.238161398034599, 0.2239803292364005, -0.12954776935536305, -0.3051356861140102, -0.07018440817467855, -0.09154762425959233, -0.021460975038080286, -0.13889495350617417, -0.1562767162920761, -0.4852632912374975, -0.12294566052001317, 0.42403443179327743, 0.05663321837310907, -0.3634654659049213, 0.09434978915490969, -0.1721233900200135, 0.11777643801420294, 0.06434687525852344, -0.3688211671127249, -0.01586876880038016, -0.20323299231748032, -0.055850864987185195, 0.06059635525328445, 0.040916277695108305, -0.013140453282700318, -0.1207164722198037, 0.1317611887348487, -0.12793473671526606, 0.4542107333397245, 0.3476255320620926, 0.24693906778966784, 0.05939407358294473, -0.1300210233488523, 0.12373179747318785, 0.0020827111143724027, -0.13462205440026756, 0.07194080161349248, 0.2302842175553221, -0.06588578790210092, 0.06434916382369793, -0.055606436386328055, -0.22574363701081665, 0.15110064775733423, -0.037693005992737096, 0.03967892326347505, -0.023616733368847977, 0.04481310215902039, -0.0896049232132796, 0.012969127862010278, 0.282872022575319, -0.10260019956971615, 0.11237736452840544, 0.27758262860180516], [-0.10507095702270826, -0.11779530769023798, -0.3707222908117935, -0.05593222578159052, -0.022691812979515984, -0.04637870478692372, -0.293413955500234, 0.0785358456159869, 0.09652165165569307, -0.02752614909066847, 0.12969099680798568, -0.11778830937289539, -0.15453401490235963, -0.14465633856359766, 0.03350153763083641, -0.03547761732158532, 0.337150415166199, -0.023828029342599054, -0.2725865904424853, -0.1360063698897772, -0.24552223468501533, 0.10534993727468951, -0.0018341466765865266, -0.011377571458465208, 0.08399758305780147, 0.06912216266187471, -0.14317308959350977, -0.05316511081926589, -0.07740669744789992, 0.10193187079942578, -0.13107170449607058, -0.096826728015973, -0.10170073015974343, 0.17844218441914628, 0.09228798429220905, -0.07231470568342568, 0.05501231182669711, -0.4483576861040291, 0.14890231063345746, 0.26104355497927884, -2.6953904985686488e-05, 0.014477430791023852, -0.11360220693024378, -0.06852698335723746, -0.024911417684274774, 0.08271432479343015, 0.0031411374851948613, -0.03191902655652997, 0.2671568752774161, 0.15605277693164263, -0.12459042695738651, 0.08126837166845523, 0.16870277620801769, -0.029385027629609914, 0.23398054767956192, -0.04053437348134911, 0.17500289149087023, 0.1824066040703242, -0.04821176045800598, 0.24175101013173514, -0.08301028802755074, 0.2638704858336554, -0.01646617809951264, -0.04872711259637241], [-0.05564348398901853, 0.09971955346779325, -0.3052606743970509, -0.05238294085982282, 0.06379061478614995, -0.13795647550824852, 0.04441657637535438, -0.013295885761659468, 0.19381777178189552, 0.07958143924738348, -0.09752064993192848, -0.13348742902464783, -0.10565966706421247, 0.03668488931135393, -0.051882232906561035, -0.04999475318314527, -0.14520511791469362, 0.20061443117870473, -0.09843337739097435, -0.1571024248651437, -0.08101667291816782, -0.029332898237571993, 0.008498771804322774, -0.14076945147663847, 0.11177249809094088, 0.12179709134658925, 0.14940748995558975, 0.17917791940847191, 0.018606569573773612, -0.17028298559743718, 0.2930831205972631, -0.08114314751495161, -0.17037260145500535, -0.09293348363888254, -0.022811909901611672, 0.05666867474266476, 0.04202480206396429, -0.09240629294214665, -0.055071188463576205, 0.1082428717840793, 0.1356142963864141, 0.13663096448116124, -0.1635083590197205, -0.13506374119064973, 0.3442910280982182, -0.11608063977397257, 0.04571057857612518, -0.013896580229514741, 0.054747465210865286, 0.1463570425632631, -0.21922383871086942, 0.10967394676116173, -0.007391474291964729, -0.11342800872297402, -0.04238739176631623, -0.2248849654176731, -0.04222215942049554, 0.10201176857623558, -0.13730002019942827, 0.08941581788281856, 0.21841151034260164, -0.3097542773958446, -0.10532955151866834, -0.036253220928543425], [0.06368275719653084, 0.048638072003789334, -0.06268945632041151, 0.06882627507127179, 0.3596603711781383, -0.16783537277907784, -0.17516239607838852, -0.16077015121063187, -0.13959286469898496, 0.1594278121811096, 0.07347977130690898, -0.016028259513234798, -0.05898335977384511, 0.20538815186412446, 0.29878545346587365, 0.09888673864080418, 0.04466013732213619, 0.046041737915257966, -0.09014292353843277, 0.04478507876859025, -0.14275906780319245, 0.2144295850269736, -0.11522221649152228, -0.12451238796737889, 0.06615372649038767, -0.2251431006034581, 0.18881838632957318, -0.020781775805200766, 0.193659690098001, 0.07038158728693036, -0.4871264535042741, 0.35696182841087226, 0.13884791892116952, -0.022544862499017302, -0.20647055483294935, -0.13665108403031878, -0.014203612092842316, -0.053779461696708365, 0.07960974623946135, -0.09940393574881175, 0.2142014815219373, -0.12473441402565606, -0.04522902933578523, 0.2903703365831535, 0.014836606217271526, -0.01908829829775901, 0.2584914937369588, -0.17221036935355052, -0.22979366008769703, -0.3402338385863683, 0.3147977328822344, -0.15361131766337055, -0.04204713579062081, 0.03469048883925434, 0.2964824448085652, 0.022717879038990068, -0.05227526410789703, 0.2640184917773575, -0.16398940029650624, -0.32482828590626617, 0.017337413617407937, -0.05925573450850432, -0.10857763006333261, 0.00884752727267747]], "policy_layer_0_biases": [0.0, 0.0, 0.0, 0.0, 0.0, 0.0, 0.0, 0.0, 0.0, 0.0, 0.0, 0.0, 0.0, 0.0, 0.0, 0.0, 0.0, 0.0, 0.0, 0.0, 0.0, 0.0, 0.0, 0.0, 0.0, 0.0, 0.0, 0.0, 0.0, 0.0, 0.0, 0.0, 0.0, 0.0, 0.0, 0.0, 0.0, 0.0, 0.0, 0.0, 0.0, 0.0, 0.0, 0.0, 0.0, 0.0, 0.0, 0.0, 0.0, 0.0, 0.0, 0.0, 0.0, 0.0, 0.0, 0.0, 0.0, 0.0, 0.0, 0.0, 0.0, 0.0, 0.0, 0.0], "policy_layer_1_weights": [[0.03410425790625523, 0.2920738910631714, -0.055547664041798187, -0.06611173771699116, 0.09861179125069018, 0.19065795123288035, 0.18853805830987824, 0.20532408377682498, -0.0578987793372141, 0.1857861350300359, -0.12110488794933459, 0.08661472156795519, -0.04241772695596805, 0.010688368697868354, -0.011350552426488336, -0.22830110478186577, 0.0006895000551924944, -0.1419459995640852, 0.26087152276433095, -0.1941620175027195, -0.0643297159628686, 0.08265187094628723, -0.19074793413628943, -0.14256532172752706, 0.09027640301571588, 0.06998443473749566, -0.0942150836449315, 0.00721910657743988, -0.11973412881210026, -0.06536709500389097, -0.031194664926617877, -0.04064039605363661, 0.02135639918374097, 0.02685924174356828, 0.03975718177877719, -0.05487915829852521, 0.017203626000558473, -0.06092438464957744, 0.017182501424447903, -0.006545951045612317, 0.023342660645155326, 0.23758966691812983, 0.013116786448209633, 0.015824114703265547, 0.233101814950248, -0.09643762526330142, 0.04997155758158211, 0.12111841834800717, 0.25062882347035575, 0.1138464517322566, 0.014887648239579462, 0.05502279606838671, 0.12804076842348833, 0.2071263237150051, 0.13118930713468813, 0.1103405601073798, -0.20577183196750434, -0.11355240042164101, 0.010300631972630238, -0.12278842919328017, -0.1288806783673149, 0.16662229816860888, -0.10770208428104254, -0.1245609140692821], [0.23157987596785481, 0.1385384942277227, -0.23451303288934097, 0.024425940665823508, -0.013911946898011849, 0.030840611997714717, -0.08926811921416097, -0.05444935570844956, 0.0618823027320063, 0.010488687019022001, 0.08190982688691671, 0.09716922427303137, -0.09000097558731276, 0.004631207663056012, 0.13566682814163333, 0.008803865053285396, 0.023734986425103185, 0.09330912737610524, 0.21234853462242695, -0.13235195027324945, 0.21712811286874026, 0.021906635561585612, -0.042797723515477865, 0.19261385835083594, 0.1972761437175101, 0.1925920932023103, -0.00772525524824039, 0.0031986473859441362, 0.11125660942701762, 0.08981374235252602, -0.10517695837139511, 0.2002281595050609, 0.06982013454774255, -0.16174668662272632, -0.15887241352688522, 0.014747820754795343, -0.05500750689039079, 0.035578497281279556, -0.2712310987270817, -0.08803722378504758, 0.11125114577952917, 0.0684277326540587, -0.24160863324207382, 0.38221957997020856, 0.18827077411848256, -0.05835648387433071, 0.020291002012306797, -0.01834462252418182, -0.05017867646169729, 0.2401949930562042, -0.14283028678003024, 0.22735262824900482, 0.006185053145211788, 0.08123441452253427, 0.06869511362740995, -0.01143200729086601, 0.09418440760576756, 0.1913296383466916, -0.09175253324640391, -0.07720524084418583, -0.02360540051704811, -0.07806665706309901, 0.08958202405529535, 0.10256766258393644], [0.13005172127299167, 0.08017425284915843, -0.032075368233336565, -0.052088578317474384, 0.06368616013740531, -0.1775780730086744, 0.0003612410340060621, -0.0060213647268147754, 0.0215192016458965, -0.012599092900578469, 0.10003774557031514, 0.07579440746805613, 0.05850348404230914, 0.035562344970274266, 0.14317921966052288, -0.18352472561631877, -0.09563389562868087, 0.042742310372685555, 0.0008420770523645957, -0.012927651797263464, 0.10717207631181622, 0.043404614985348144, 0.42290502586213996, 0.07838856710280331, -0.03088311100601276, -0.01213923118096338, -0.3581466654668715, -0.02524720867843265, -0.1045541411357631, 0.10648338257894306, 0.06936597884357128, 0.22055889504287624, 0.11082134808580828, -0.08051261646018973, 0.02908084319095533, 0.13879688339689117, -0.06551232348759045, -0.1594545159243112, -0.01858632546405617, -0.08800142760202426, -0.3095174250949444, 0.19352873726554604, -0.055478713433963614, -0.11382604778948424, -0.22386904468296806, 0.34979465481790767, 0.137068077144377, -0.1391133342635674, 0.08304027145323986, 0.18191627824607215, 0.04039701636319788, -0.06835746669346804, 0.0745883409293417, 0.07890627237615203, -0.18141915040035875, 0.0037245773201408493, 0.3582870684821587, -0.07949320430539243, 0.0013864984466089155, 0.12349386357574504, -0.014294904115177707, 0.2922082665152226, -0.0970717174218083, -0.14644299737988564], [0.1684119418796738, -0.03363534796544388, -0.041527534992497, -0.13236961294437274, -0.10503158334813328, -0.05926986601550717, -0.2790278654155262, 0.15457496667613776, -0.17068389740450882, -0.16617043323649275, -0.22857522301803979, 0.14388478725633475, 0.03000211282299212, 0.036517322231781855, 0.15785530154166846, -0.15977400397427322, -0.2416820781540236, -0.10119162466402068, 0.23112100845066244, -0.030385800483604432, -0.10403564452599622, -0.1529675671567501, 0.0890310723311809, 0.14938248366501894, -0.02609296376849284, 0.08190721568325428, -0.04907594524189777, -0.10115251538221764, -0.027734506543587358, -0.066578861361629, -0.12473773488262223, 0.16351548585228426, 0.24628302648779538, -0.00023701523933696936, 0.09677516677699828, 0.14931491827324758, 0.04962784220436791, 0.005459059416624882, 0.07134402442776921, -0.03595529148567176, 0.03270105689549401, 0.032208409661921615, 0.043418734764552054, 0.13955134761457438, 0.14687440870561866, -0.01975498440546387, 0.18012631069038645, 0.18749858098941533, -0.08539789961794143, -0.1119847657397789, -0.05840421337766076, -0.026014929787592872, 0.12324392492284905, 0.15332667935728916, -0.024843707502000992, -0.13531094561066667, -0.3223397358372089, 0.15624160504985998, -0.21219651035188916, 0.09639749123302663, 0.06352138543665589, -0.14215279231635955, -0.0611048654442987, 0.05748261630978862], [-0.0037493464362366113, 0.00520849005118129, 0.01791746383020789, -0.013159775094521474, -0.06903604449505334, -0.0574016984138336, 0.06633065757151367, -0.0015904672062514304, -0.07781121696910898, 0.08508004311175003, -0.19211242322816735, 0.011644833966495249, 0.22861989373423183, -0.06856402738069975, -0.07752877387479656, 0.09413320539778505, -0.08868156304636071, -0.05788168272217102, -0.03655205972670701, -0.00039945047753673393, -0.10761379019618367, -0.05992098919342504, 0.005790628717842751, -0.09560220209717117, 0.23128009694883417, 0.04907720985988752, 0.22927678200011503, 0.005615972970083282, 0.08966778159614988, -0.20671949203620937, 0.18971843378545125, 0.08841283001162513, 0.16583786613228038, -0.012717509611938068, -0.024218097226304656, 0.040500771336428695, -0.07907608314924269, -0.3514657848170615, -0.16454486434808802, -0.11107044631466789, 0.0896102592909429, -0.10785303439632063, -0.11561010794450173, 0.2723158371165883, 0.10037713236272243, 0.12062218049414485, -0.15736498347102182, 0.11904295867779782, -0.1538968420299641, 0.0990379541215532, 0.11764438169201667, -0.1418181044430737, 0.005410183801475401, 0.1893821713362087, 0.09875485093652722, 0.15994250503162621, -0.28289000399417347, -0.08502190333490788, 0.02651385159716299, 0.029702824936383924, 0.04140426564887773, 0.21367856483220937, -0.07799752836310503, -0.09265410050056253], [0.06447990407044192, -0.04855094067347134, 0.02534613724188544, -0.12752741450894128, -0.05701568373167183, 0.0864595286378052, 0.03539904557818713, 0.011271569504754808, 0.11301703264926882, -0.21857389667132526, 0.11882863536079512, 0.03785270064728229, 0.13936336092625173, 0.05646910072063233, -0.035853858778514235, 0.13050287455652043, 0.0372011108756885, 0.09221361078208885, -0.18726783559463148, -0.10513390684752497, -0.07526062856300994, 0.06240769613245057, 0.16810967607887975, -0.0025182058845951184, -0.09226796806216399, 0.0903945364100324, 0.19660910712549318, 0.0424621359249661, -0.032360664574377376, 0.2800700049145787, -0.1681857825917843, 0.15153784028594097, -0.0035083326369795003, 0.05489602743864707, -0.07220816210787084, 0.011575936656939225, 0.06716751969798496, -0.11429568701539125, -0.10678650663900949, 0.0671690001393957, 0.014851761065564798, 0.17453378334533315, -0.0903542704576134, 0.0011746397206915794, 0.027912648089825614, -0.014482999367313001, 0.25460828667149427, -0.23557800168250426, 0.17202495539471147, -0.04714426599645575, -0.17374167728037085, -0.09805997467619142, 0.21535402858220845, 0.06837139474974752, -0.09368056516009003, -0.11960080661800705, 0.05666982680529866, 0.09014884885127873, 0.10746974349857381, 0.28145629644844816, -0.061944827778488865, 0.1852639543666595, 0.2672037431117838, -0.0043996748193040605], [-0.08805901547741275, -0.006490513847922524, -0.11004256148930389, -0.12992724110038237, 0.10158569736079272, 0.010398987206947482, 0.01783947951907785, -0.10261802116030824, -0.07745468944077305, -0.03626666800495041, -0.03001244369200818, -0.02231199770594927, -0.035192927152905264, -0.06935741256302454, 0.11836440233911663, -0.013844191019684404, 0.012918842907464256, 0.04808642575768556, 4.163859943080759e-05, 0.05253865821696557, -0.1265534953194525, 0.005129852783367405, 0.06613527633196023, 0.0035797206449148487, 0.0875637330148124, -0.0789316716286391, 0.23995006627212798, 0.05917475476261023, -0.1274949446310952, -0.05439858900582066, 0.08744803795911096, 0.18406551248439673, -0.2065348957599054, 0.023525389819442726, 0.1162314958535993, 0.11086198369722468, -0.05760139796305866, 0.08127986818131251, -0.08498000679388301, 0.07970994199907139, 0.22554982841593232, 0.08834294395774031, 0.29121305339197795, -0.07554152563235425, 0.10093001684308096, 0.09281162540005299, 0.10530045939969562, -0.16565851765120396, 0.12656174376806587, 0.1184216032623037, -0.1821784135870232, 0.15343482145119397, -0.1754610621961467, 0.1768238239303209, 0.17168119417733982, 0.14694212111443045, 0.24632540283681112, -0.0990971942539321, -0.04285471015691514, 0.0318838861033492, 0.10262579605557376, 0.0499839976552806, 0.07809105472086675, 0.06772952156578896], [0.34965912338682076, 0.06893617450425221, 0.15121640912631876, -0.08126077902876037, -0.06258728917195706, -0.391962709755639, 0.10399216735023391, -0.03850372668050979, 0.025092788600303177, -0.044271932880597595, -0.130110023034176, -0.11376528191051077, 0.05697363493490389, -0.027213354877057908, 0.029551113484685733, -0.04498717348116528, 0.11308635349552164, -0.11199326242479002, -0.09451647288754719, 0.21834209537466878, -0.19296206684540965, -0.19756899156931662, 0.061446667630780764, -0.09047887216847701, -0.06027338109312085, -0.027732893385903148, 0.027677449510464247, -0.12848323630873967, 0.014701831331927274, -0.10002841202350081, 0.03810189281445694, 0.07241516413803407, -0.08030160532274418, -0.07757845972021428, -0.13949737966420359, 0.16597465491763277, 0.04112879051518576, 0.22111189871805267, 0.09855555940260924, -0.0957306315532229, 0.2676309900081599, -0.04214172944758968, -0.011707645849528329, -0.1150132583480669, -0.02828792904960433, -0.04458207926875617, 0.09715425401589069, 0.03322527522194627, -0.07416864596486929, 0.060735327685505235, -0.028747912604253568, 0.014841555062071165, -0.23674182909024732, -0.1533983956502105, -0.0012302636919491448, 0.14953696856272417, -0.16116823079629916, 0.2385303839679192, -0.0678609632428767, 0.10725650998422194, 0.03878962172240991, 0.005107436852072595, -0.04942372634560126, -0.1909293715438018], [-0.10644353728891878, 0.014155157131451355, 0.12188616139024161, 0.05654125166270765, -0.04997016089889165, -0.07791028810348795, 0.08664476209104932, 0.021953672106005285, 0.12302398665450894, 0.17850898066107804, -0.05311419581729208, -0.102954424079591, 0.005260088061336114, -0.1576549830692178, 0.07148657686863852, -0.07092204165357563, -0.2257099114703366, -0.19477062411024562, -0.05818924162558645, -0.026003468928278293, -0.12133601845530492, -0.015732951842461713, -0.07074301848389708, -0.07902779705825642, 0.22926391704322371, 0.04044285109102174, -0.0806051058675295, 0.09091943340721144, 0.009882839675341383, -0.1153867507987866, -0.0030829889279103393, 0.2548573647781228, -0.03586789607340603, -0.07116747472684562, 0.008931761644964311, -0.01767794140459858, 0.13160109603332978, 0.037013922677569054, -0.14016119972756746, 0.2758706259512407, -0.21760447807455968, 0.17256676156401143, -0.22952680801613362, -0.14513338165171408, 0.04751832785530551, -0.053100197477385355, -0.011544495671985134, -0.006183943525880628, -0.02734800111755752, 0.20900897493202442, 0.05614477822085966, -0.05747263558780766, 0.022970195764229234, 0.15499838029928026, -0.12063268042059413, 0.10612930200493258, -0.13086005769757791, 0.06521046315325021, -0.06405414488159324, 0.06555630019899236, -0.1716718579751489, -0.05519909580344614, 0.16279230457244423, 0.06452770413343904], [0.12610921545601902, -0.051654084391399534, 0.17281921836196062, -0.1419253034621349, 0.07654959827062235, -0.05939394822457121, 0.07253516978983522, -0.06732611559443774, 0.020051001421725743, 0.1285384072529611, 0.06053380766114324, -0.19290825206604093, 0.09258008065005097, 0.05830098786028478, -0.0133670828984059, -0.17330896092770826, 0.03854499356366744, 0.009129272308341829, -0.09630070419288003, 0.08461888729898355, 0.20130815618850323, -0.052417923494824256, -0.0895462954981467, -0.011322983781549101, 0.1750559094181597, -0.07337309974778321, 0.0607917079656667, 0.1691386933187447, 0.08626821117026695, 0.20416513227769006, 0.15639737210629828, 0.09048410928414245, 0.045175572247908795, 0.11341409929878911, 0.002667832202911848, 0.06395980173898053, -0.09773322846061754, -0.1538296107460945, 0.2933609041251075, 0.14201462054646538, -0.0984524029012236, -0.10895511974415911, 0.1692757409146444, 0.06770692456485397, -0.11410573593915199, -0.023641389919698542, -0.08356507344211138, 0.0885967252584246, 0.00543139623130957, 0.03689302235389825, 0.05474919691861889, -0.1962253437649684, -0.24017549370934216, -0.02698979167753213, -0.1803918512477421, -0.048843362321781596, 0.13656611459958884, 0.1956033333531067, -0.037030852836994484, -0.049011858107785876, 0.03193649501885684, -0.020393933048209318, 0.020060891606526233, -0.08742060292527688], [-0.1891043002839548, 0.07408523854652356, 0.10575467613045744, 0.2214141722353204, 0.24001613077969897, -0.06296968136594366, 0.04035984793912268, 0.090572944195272, 0.05881821086648389, 0.20962952283218578, 0.027623389522509846, -0.11804529516897601, -0.017482105197633012, -0.06993827320470034, 0.16547514884327277, 0.0757225390023731, -0.2020882758756979, 0.10922007446912181, -0.20089607928320272, 0.12509520448439956, 0.08045841942654175, 0.09246925893144975, 0.04711963365529536, -0.30497036086233587, 0.0017145910912940649, 0.005180602766125619, 0.11538201420536275, 0.19206163084052932, 0.0496674866122074, 0.17730817487024575, -0.2856318055872808, -0.09026295494704381, 0.16580788802443217, 0.14350504397867886, -0.03340700125934635, -0.10070724114892292, 0.03039668395606302, -0.010573664609762674, 0.035369972273193113, 0.15609468103171548, 0.06561358878680658, 0.030239751632464847, 0.30350990748476586, 0.040115578009926024, 0.3019694711287208, -0.06570651772875344, -0.08175190704327834, -0.08391426013507802, 0.011152874533659604, 0.07893047357938726, -0.08781213121573408, 0.044029102845019506, -0.17176243280327771, 0.11834273718866163, 0.26072382543321676, 0.06930670622819873, 0.17496724760832152, -0.04522634618964211, -0.0012340592875013318, 0.019621312123492357, 0.11928935883387677, -0.23417819988650201, 0.006297469255290782, -0.08559567722235195], [0.24250307543423658, 0.0336283851464735, -0.10475482086290087, -0.06407698333426763, 0.08026440666966522, -0.005882107825939484, 0.014401023068674641, -0.015066982989032324, -0.09571103182850194, -0.09281077402668254, -0.1593072537294609, 0.09884326059915725, 0.1513403768689485, 0.24021300373091795, -0.018185385787173592, 0.06696616096481635, -0.22153295689324826, 0.2558481831898727, -0.03032217383244582, -0.04530434495217659, -0.04372528991772528, -0.13267886929446415, -0.07320233212887892, -0.06741238863476566, 0.034673904699832905, -0.06670764905477972, -0.01883724465986452, 0.11688676444790641, 0.15422522371574646, 0.1676961709596739, 0.05866268784465775, -0.05458270847530709, 0.11651345449752631, -0.05601779881580438, 0.004138663175398898, -0.024828161334577287, 0.08694053970480199, -0.011167304920206393, 0.10046861875966195, -0.10057272286625482, 0.0667851443207741, 0.0024027791491549396, -0.04342777571605666, 0.08917686951707235, 0.22016910436253964, 0.11613266822206007, -0.09467725726010562, -0.06265093806216308, 0.05721999404335753, -0.05284227220711759, 0.0924525387366811, 0.15387858676382732, -0.0854973767928156, -0.12419436707924852, -0.2644380743635332, 0.018387549895881247, 0.1268705664163457, 0.15472904820820346, 0.018571900226471257, 0.24979303217802898, 0.1317914399022964, 0.033098180833651916, -0.007172486127510807, 0.15076747843041444], [0.08324269233341054, -0.11724266529021214, -0.05240688788913592, 0.08103156723264629, 0.0007755830202985911, -0.08915106680094159, 0.33407779702964363, 0.04322760928777561, -0.01113731665192665, -0.2281321807359636, 0.052161082401114375, 0.12541060757551406, 0.12485218527018395, 0.10127197149433925, 0.06191543223052872, -0.11827875841012357, 0.007345560393993884, -0.050566908118738235, -0.2879445674684688, -0.10575906881162597, 0.004368014780352153, -0.1820996299182077, -0.001775295919569358, 0.1956977130993214, 0.012571293486557675, -0.10070531609577539, -0.03373158686556184, 0.12013930714517435, 0.1269817944045813, 0.12288208402485788, -0.11722500975425953, 0.19861793879067657, 0.15526319820514187, 0.13666019008668748, -0.03114447728410126, -0.09947316025661682, 0.06860869185303983, 0.008721808149900792, -0.2103994204172941, -0.15811010151457058, 0.03242987575945393, -0.013168186392136044, 0.11185188039845326, 0.09195737425002991, 0.03885362956646504, -0.009359393947120279, 0.20509854287854465, 0.06554166872127462, -0.01477355187710305, -0.10514754749726651, -0.06064057028389766, 0.08032436150295028, 0.04805979832574127, 0.019044588240980712, -0.08649892167232334, 0.3379303299621365, -0.043465436293849226, -0.21112101939796837, -0.23813986236270673, -0.015000189321641355, 0.12774293963282074, 0.05111783120586684, 0.021952143040226833, 0.042170299212107], [0.037390067298231945, -0.24101432429784844, -0.1252593967603542, -0.11446057847693097, 0.15543797210352167, 0.10848799123538025, 0.11295663578903903, 0.05347167007467742, -0.11577493385863621, -0.060103221036662116, 0.07795842173175772, 0.12039234382855614, 0.08213161157635879, -0.04705414034767402, 0.1026782346126893, 0.08946173960642717, -0.051231020458829525, -0.063127180843308, 0.08713333741650775, 0.33208835139278853, 0.2093062726879901, -0.222930911379847, -0.09604936325772036, 0.20921137794463815, -0.20231256016539578, -0.018305335819316884, -0.1841167502819054, -0.03909276765455208, -0.16257079282682949, 0.14915939935070105, -0.10031589172500467, 0.04952914820755739, 0.0479531991849814, 0.07414794612847898, -0.32190977575579705, -0.05160699072961761, -0.015464368994410574, -0.003239433219894579, -0.02326073360458354, 0.22327220600907588, -0.23423462174855342, 0.17113703277327313, 0.19162597833867434, -0.157685877490107, 0.006104217794515023, -0.09642893541958103, -0.22448906717218545, -0.1478419682067915, 0.039883210017915637, 0.06252420798520492, -0.05648358557430472, 0.15032780952085023, -0.00984124628116475, 0.04372461634435038, -0.04993558226349761, -0.049284331642873457, -0.1802485010478821, -0.09613325217439311, -0.06210644146520976, -0.008924024144901363, -0.11230057743749003, 0.18322474127443447, -0.0429369992503126, 0.08723399860001199], [-0.10664141769345055, -0.03281506541864187, -0.02195735836302959, 0.11504652332321273, 0.09057984506235885, -0.017489580191478515, 0.016888593207479204, -0.07941746979474873, 0.09744316466181807, 0.010318837594762095, -0.035887695541382124, -0.2349751155652704, 0.1460148188986835, -0.021872838419467074, 0.06013339182929282, -0.10079137857139692, 0.1962496547228462, 0.11556736517474894, 0.0467867659961212, -0.0442089466808571, 0.04231409166465196, -0.05582499044672548, -0.022559813066635834, 0.018070513954477046, -0.0082348056851555, -0.1873733381820521, 0.19068486513646096, 0.15619670154212814, -0.08383984628162464, 0.003734186168720562, -0.06404245673204152, -0.006556524626127811, 0.20105610744833255, -0.09372094029915808, -0.02633206943350214, 0.13035623311283367, -0.11952199691741239, -0.13455919508395756, 0.04191451243621063, -0.21369474937275848, 0.009901129111723611, 0.03375118861763888, -0.04673190395840286, -0.10126243753546815, -0.15002463551041118, 0.04533693223064669, -0.1890435197471509, 0.04149127695544034, -0.1381777719970307, -0.23263951506345035, 0.10845330145554431, -0.10404758354265331, 0.0929437519203236, 0.008120786410283201, 0.08809720777662182, -0.035811928981460905, 0.0024496284775633176, -0.04285107824968722, 0.17245885219170265, -0.018882422213689753, -0.1194873498838368, 0.05765914094948752, -0.2091068970388028, -0.10408837445133709], [0.0026633269392732457, 0.01753981417029276, 0.010462248199514999, -0.20868283698917903, -0.2752276379020532, -0.058601346711949734, -0.033720136429731415, 0.12818025446893808, 0.20486509780983808, -0.24412357583697306, 0.021002337754517597, 0.04855586752247422, 0.02745452963830136, -0.12771921878970408, -0.2795263623437041, -0.02103437127177987, 0.15163429829683314, 0.04277272291190757, -0.07892851604882718, 0.26304905061764283, 0.11796182305377222, 0.02303247001254665, 0.015233492258456556, -0.2668054568549197, -0.12580901227048508, 0.11274219529380122, 0.09597551281839677, -0.25040623468231915, -0.0608271314146892, -0.08036771885248754, 0.17384902640871197, -0.15501695859930062, -0.0861204805483646, -0.2088436734647379, 0.1655378772554075, -0.12895777934484765, -0.04995757106959692, -0.134767162353667, -0.11038424855404695, -0.240860934388808, 0.05172563400156885, 0.13978775077968164, -0.18218806531040002, 0.07796494387990356, 0.04353345596946619, 0.03748339981757706, 0.07788919803614597, 0.1839422171303184, -0.02664846217874637, -0.07602496246843221, 0.06499331961478516, -0.1231908032344763, 0.12684318352265767, 0.09177147739897625, -0.01324900282255771, -0.09490229257321567, -0.24361263642827466, 0.10561228256019087, 0.11431921407942229, 0.002951800945900951, 0.23136563043535646, -0.10381282860529092, 0.3505877874216056, 0.017035978014785045], [-0.03962029705162395, -0.09405757756858159, -0.006650994084575938, 0.156424435750244, 0.3132737136680937, -0.10606798060570867, 0.11678798756647, 0.2010154768305362, 0.19255762118458483, -0.09179790986388246, 0.11121240710670798, 0.11239766324312843, -0.02723124593510234, -0.055150846333944015, -0.12357419834299452, 0.05459920139404727, -0.08508444537613921, 0.22985978702299725, 0.09784151740096475, 0.13103726842798807, -0.03933394004165621, -0.07142803312071888, -0.032819070814573616, -0.0682740076491057, -0.12580892100538058, -0.17278658642555492, 0.11929865867664674, 0.1251714248345439, -0.16761566395383984, -0.018819201782450022, -0.26226559682403816, -0.01276663232982395, 0.02765652730160527, 0.016312306599843784, -0.2593167367568114, 0.026466566444103057, 0.060701189663175135, -0.055865482669838915, 0.12348268878024682, -0.2155788222046366, 0.03375555898936233, 0.06460802238267385, 0.13171375578548022, -0.0719966030919899, 0.2742996159996987, 0.15626362643277997, 0.28990515357607954, 0.09155974560786714, -0.15163839770873974, 0.09103124271846828, 0.16452258782136, -0.09778409547608173, -0.10257777970625857, 0.12450055530743875, 0.04456780539686805, -0.07314971157548229, 0.1501645567585651, 0.10870836991216218, 0.03204697263123806, -0.07175977270055742, 0.27857982197974124, -0.08789888409770834, -0.1215533537244801, -0.0947501817452663], [-0.12786814847834704, -0.017983019076555636, 0.047018268221578126, -0.18342492239866945, -0.20471938423149472, -0.15502773076217424, -0.13149866499988336, -0.2509371935372495, -0.21252014008928968, 0.27804112584862006, -0.01712407157970069, -0.04521248595739701, -0.07248894450980699, -0.11581502631479332, -0.15689159926813726, -0.016485121010524385, -0.04694366539900938, -0.15230221675077268, 0.08385655107345527, -0.07863362922180159, -0.01336403367223351, -0.1431817649295669, -0.1350599781123523, 0.11763034330822063, -0.10824536283830018, -0.008128722303532242, -0.03338415483954197, -0.11286116588078762, 0.10739279700315013, -0.1562897816076536, 0.03824137853044936, -0.20143684781689167, 0.19360615422368496, 0.0669154207491199, 0.0614427334710893, 0.03790267527446913, 0.023441696039658576, -0.1647229570073278, 0.11165575954432343, -0.20394996686359215, 0.16843339091384735, 0.11295222385903102, 0.04446801328135396, 0.10888542937336736, 0.013810768400482412, 0.00745482507206901, -0.07291079392911826, -0.012912172133902163, 0.12710350390749656, 0.05861573562089245, 0.023883274832640047, -0.007049469091897724, 0.1700417975954669, 0.34522735656168985, -0.25350046551295896, 0.08193074426037351, -0.01437647697639911, 0.03988666492037476, -0.10477476030619673, -0.32614443304883955, -0.10181630821464789, -0.08456299505358138, 0.014712741755723405, 0.002091067185170487], [0.03911259134724632, -0.08358870906029356, -0.10026809603482453, 0.11762726195052955, -0.07899573819925544, -0.12369734828102767, 0.08664635624043497, -0.023843775525717488, 0.08622456337854464, -0.08147141904673884, 0.04008463881937617, 0.016893117906164486, 0.14465614449628417, 0.09013019962106003, 0.23287803628941162, -0.07976752475797277, -0.04122203173626275, -0.023093113705049552, 0.028443097317231453, -0.04565735578977016, 0.006427782052765113, 0.27856216855905536, -0.08018679212246935, -0.12352962034954608, 0.14058044519309001, -0.04703186336425011, 0.4827020982693116, -0.060031709134522965, -0.0640184748674641, 0.00835142772827116, -0.0181761318373548, -0.1433916253482977, -0.12247616274582473, -0.23334141438869535, -0.07727513908153923, -0.015425463918624984, -0.3254910170019644, -0.314112313323349, 0.14422312189932032, -0.07151237333527487, -0.0701673638302346, -0.16284637551520334, -0.010626949141072975, -0.1647609521086311, 0.07102413611703137, -0.14823329514808134, 0.028105226330177428, -0.12809331872161872, 0.07375419709082233, -0.012893560913279242, 0.049486430328479394, -0.2329068865554297, 0.005941699137029451, 0.23194299957014172, -0.308048012650057, 0.08187474411430687, 0.027666943552401548, -0.09398038940731097, -0.02248203743136394, 0.040154288963621235, 0.005563839102814378, -0.002672740493413546, -0.1350174510745444, 0.18880743915143902], [0.05246311969029199, 0.08241405552831274, 0.10877889352832822, -0.05581273686395752, 0.06000124073979882, 0.04630683432316658, 0.1505070523600044, -0.008888003158379018, -0.20911401023881535, -0.042815262367791464, -0.09924823190032582, 0.10742632931191767, -0.127621914789538, -0.07703843055747099, -0.080755810872836, 0.03546076709826894, -0.03890286425230162, 0.008965752842877121, 0.08996012772178845, -0.14285027679499504, 0.058628795504877776, -0.02865446141787973, -0.12147961743920088, 0.05998759658670898, 0.1144968805358787, 0.066708816236044, 0.053025416410842206, -0.2775533919637654, 0.22052591315823236, 0.04499979113717901, -0.2376831096115723, 0.14215770460435456, -0.09299003880395552, 0.12077065829800473, 0.065617862248661, 0.07648450749917998, -0.07481061730561388, 0.10711321478307989, -0.1343067585471206, -0.2208760443215996, 0.04424591848117385, 0.077034998347681, -0.2019179273304977, 0.07203300924749959, 0.20640327030124803, 0.1510314483179593, 0.15425846819061478, 0.16706600580208755, -0.0969271110525698, 0.006112640598671027, 0.15418136301615268, -0.059504089591925054, -0.024934657345174957, -0.17791777653317783, -0.01904371871601676, 0.09101044847740568, -0.04582332334704098, 0.03802313423563598, -0.01766770542703557, -0.10328597443418203, 0.196980729018897, -0.00941297036112522, 0.1528362340015854, 0.02244143346855511], [0.027660144807186624, 0.09731533447014168, -0.049555614507199246, -0.03424985525346482, -0.16378212977100598, -0.0390934665409904, 0.017321553125028564, 0.16492178401978413, 0.004135771070872334, -0.15623251177242084, -0.09977612109051336, 0.11653432398725204, 0.1552970139654096, -0.02859172209344756, -0.26924365240258763, 0.11677477510217839, 0.07988499327679159, -0.29534965018360015, 0.0836342660457986, -0.17539110915719022, 0.2971557530452919, 0.06664796079420325, 0.1448269369601874, 0.024510501522544272, -0.01936836868117951, -0.13807127750504594, -0.19299219795306613, -0.14672933137262476, 0.14726149739967614, 0.04593390600325301, -0.03857137494626693, 0.06885558679765771, 0.1988659573056707, -0.11307138355757206, 0.05008235053995439, -0.1351685681294129, -0.02425469777913902, 0.06253333934711759, 0.15047639828167375, 0.14279957657974132, -0.23005400756792385, -0.11255741274445942, 0.15948547346103298, 0.09304507504782819, 0.06882330823610552, -0.10276546166688835, -0.03926993038735248, 0.09510774168648543, 0.2026602645911911, 0.017503642433036502, 0.11692098673734329, -0.08040032068697582, -0.03868005263406746, 0.09145956387649731, -0.04472771985441304, 0.23889363111604137, 0.022726848261557298, -0.08309759247278899, -0.10065545772088051, -0.016348048441059127, -0.06268350197412624, -0.12151516282463036, 0.04501135082936389, 0.02353256627363695], [0.04637056305567396, -0.01019021764997304, 0.03357367785774895, -0.1578827052977755, 0.22379197243754212, 0.0221950010091383, 0.0864921470756314, 0.19654484553778137, -0.13472700994199216, 0.15120665327886448, 0.15432746978712003, 0.026446578038341183, 0.06750600389658713, 0.17770945713083408, 0.0610941503768524, 0.13212983425012312, -0.009253848452387553, 0.0733797250908514, -0.125970558529289, 0.06499789579869245, -0.026573199100478288, 0.030896043703799805, 0.02849760311660809, -0.011955097611985733, -0.04946119647962083, 0.04018110251084193, -0.09546641358293752, -0.24711930029817647, 0.029627059887675635, 0.08922766183971219, -0.09817070775230592, -0.08664181387249081, 0.010651581503232853, 0.04675713115384113, 0.032721226235993064, -0.07398305909305976, 0.04928107486195058, -0.42742772150594244, 0.09787340217606523, -0.024216806725473234, 0.13056062977251268, 0.09759905701941443, 0.21850983767062548, -0.04964980376204597, -0.16403293099721813, -0.102369325027656, -0.10052597484384507, -0.09773128632538418, 0.06159445747536692, -0.07392819844590835, 0.1418302050332215, -0.09389767482238452, 0.09461333901598193, 0.023557558882191264, -0.06575218624442732, 0.30098842766459, -0.03528953249360663, 0.0033948452847957712, 0.03229705473841476, -0.0821154714662654, -0.11646080945551993, 0.02008156650098222, -0.1545451298037111, -0.04484717281268001], [-0.018189889221623543, -0.035875739641876105, -0.025538115180035376, -0.1255957702428759, -0.0688826029831407, -0.04705566196508904, 0.18290045958100362, -0.11269152542427784, -0.05573014408764934, 0.12188336871490627, -0.08569001871806951, -0.0681404838357881, 0.2145514298183927, -0.016735624126889392, -0.013788279536520476, 0.09685248779403492, 0.014420024983604082, -0.12134594658935745, -0.14648198229425385, -0.11923193556818738, 0.1325967494730536, 0.004577098604568546, 0.02005500513848177, 0.0016802041397847786, -0.20883750783163374, 0.06161613338616536, 0.15150092501848822, 0.2193349709644559, -0.1072910999136529, 0.02902180328795975, 0.11183560909131907, 0.09585113915944128, -0.1898600149072246, -0.013820178521744528, -0.16586245156958132, 0.14693923731908157, -0.0989945967871148, -0.0879723338051785, -0.11265106049764174, 0.02929553770755156, 0.09830711286486651, -0.0935601387615326, 0.026439373646325946, 0.22112194328705254, 0.12342894500441365, 0.10651915579454359, -0.0981749329713219, -0.1072224377061764, 0.021368824271774865, -0.10538154486615975, -0.1615773728796592, 0.08929593180079068, 0.07291998328757962, 0.0019627068571550998, -0.025976134260787532, -0.2793498671004616, 0.24336447906056913, -0.05439389767179987, -0.09900259811025021, 0.1792748727303655, 0.009152906107120887, -0.1423994914563639, -0.06569041889608292, 0.2506411050524066], [0.1588665873666168, 0.06168031239648688, 0.04585649313640081, -0.18279660394635444, 0.08820844625762367, 0.1629929154524504, -0.03628427630107594, 0.1359290376523453, 0.021889941804802526, -0.16160302220033293, -0.21176533835982406, 0.1598414616027744, -0.12748246628582782, 0.05232120205339766, -0.3609095971735062, 0.0829630524368445, 0.13530156979603553, 0.1558002790680115, 0.08142795567537564, -0.11839775583094403, -0.16135234639323429, 0.14208910634069752, -0.2675849557821222, 0.3269459281609646, 0.12968683016910637, -0.06294267737365855, -0.13312755148219166, 0.08284024432047987, 0.04854215800497285, -0.018453806720983484, 0.01557027604074445, -0.046946574008173966, 0.0782695304927501, -0.0219934527979461, 0.06490215770419486, 0.12612219555338056, -0.006222984942701776, 0.08031799844380143, -0.14028533687800238, 0.01165179262136156, 0.19113755404764282, -0.1571388154996617, -0.036856255631477514, 0.057947690763675785, -0.24456096899033547, -0.19541028598330903, -0.24137950920930554, -0.05865785298195645, 0.11906245678398282, -0.07520095314113306, 0.09337507668616006, 0.06291046523235484, -0.16031800336659108, 0.09356135298660524, 0.07080093214294729, 0.039330464191736296, 0.052708744355089196, 0.03968394627202982, -0.14996998855136698, -0.2551470566285797, -0.03680065131579127, -0.051926286502976336, -0.0682525638916102, 0.16673846234346157], [-0.045002552408588845, -0.1202786804566881, -0.11827151058267167, -0.1723907761517433, 0.025152489863256113, -0.017236110885909255, -0.04860024969098708, -0.011939572131096364, 0.10617402345862083, 0.0025515719533323734, 0.023123493198188003, -0.045310328650088064, -0.22440892439221274, 0.10894145155297605, 0.08191208948588245, -0.04614323374890419, -0.08739660162813581, -0.15699161821314694, 0.03692016198566957, 0.13840203073823013, 0.028552018695400166, 0.18596416004408164, -0.15940469773168095, -0.04010960477042015, 0.0424548084189872, 0.09564172621656122, -0.04978641855710059, -0.010763148738122914, 0.09054044100672079, 0.2289202365052854, -0.38288036463346525, 0.04921601151755995, -0.0028831346513604464, 0.09966127524072668, -0.043385996467669566, -0.052359961206831604, 0.05686594721803435, 0.0288413571546864, -0.04896376564339007, -0.24274221983894045, -0.10991484843088786, -0.08745391518888615, -0.12345855240706433, 0.0697629921845552, -0.09820946743225914, -0.2090659952331717, 0.20643613608197983, 0.03865976813561692, 0.18549591506324292, 0.06630822385943753, 0.011818968848783142, -0.1287216186411701, 0.24367437374372924, -0.18182747435304525, -0.02879655539500052, -0.07112897252945892, 0.026411957199400458, -0.03422027928624556, 0.053039122482503656, -0.12523719698030858, 0.10499278208978802, 0.2739776877299955, -0.05668141796819697, 0.130286325883339], [0.2218428632934314, -0.08239747646641454, 0.2458099446360361, -0.0009750108957589619, -0.049811447435321406, 0.02814608153702764, -0.003966938459078774, 0.006151486782443679, -0.13774510985765992, 0.06777524532512963, -0.0012269346770094806, -0.003402212589477274, 0.14164787971040382, -0.03000876227075683, -0.15447820255013925, -0.1152281238669481, -0.04164467918929448, 0.04846715352603579, 0.2648673852128174, 0.011358086744298158, 0.1600627023208567, -0.05886493793544927, -0.2747568940803134, 0.14325747303367717, -0.057517985844204825, 0.05127851832795852, 0.2048925466055001, -0.18459601288222335, 0.005846235048387379, -0.05396303384178106, -0.049691455789162675, 0.043881806124319946, -0.07830489883057859, -0.25468407022114875, 0.08105189141414398, -0.012908903854481343, 0.06158727717510299, 0.006898650751712889, -0.019071189901106535, 0.23957659190655406, 0.16201286361946746, -0.0251883220529759, -0.04975350223243351, 0.10965676657328696, -0.12481581291907064, 0.1484247432493343, -0.07757647546163186, -0.2026339938872816, 0.0435405432867684, -0.1286130915819908, 0.059423584561729144, 0.1405919107532258, 0.05794723533790293, 0.20369739829192565, -0.08507133485589703, -0.009369371573495254, -0.08108032770284725, 0.09790705008809171, 0.23680104919823036, -0.11293192012343947, 0.08545455897365821, 0.08003112570534968, -0.004216632121685976, -0.22776721489988436], [0.06663578268427661, -0.0021524936738364702, -0.024294586431122117, 0.04735506991834212, -0.12395463751348533, -0.001762897157658107, 0.03633790856648837, 0.12700090916442186, -0.1411485690838854, -0.22548937033177516, -0.24097156658997157, 0.00893232107118589, 0.08231503020668501, -0.0007928875978055086, 0.05778561953046231, 0.22976271220307246, 0.22491011082560983, -0.03285152452103363, 0.06608045960886587, 0.17875192445422144, -0.19268964230154545, 0.06120502455365691, 0.18469675567041813, -0.11242848519678968, 0.12025226016816844, -0.04234262870233851, -0.08320218025265648, 0.08564935474396139, 0.05330096696941332, -0.036411185494092946, -0.03327856839026791, -0.13055299495437825, 0.04255361247064828, 0.09676057595402592, 0.19745072619445672, -0.057983993564010655, -0.09586605650140351, 0.20310472196261736, -0.017041059017385812, 0.011755061678705273, 0.22359363132523366, 0.29303722323879305, -0.006443285210333175, -0.11457647136780054, 0.0784987482439019, 0.15227416680127367, 0.20122068871931975, 0.18584425935953108, -0.11811220891146318, 0.09273780923224112, -0.12415870106911903, -0.12573203143846626, 0.2237332315454543, -0.03192808550076806, 0.18566375222961662, 0.11009017545294486, 0.1286396324273846, -0.035780907768352174, -0.07507842544118479, 0.1190465765362773, 0.059398766926848354, 0.207634932704706, -0.15451861450539064, 0.016684397645567773], [0.14542330733377443, 0.07356901805913907, -0.05622962916954955, 0.1032438223895562, -0.12653584421053385, 0.004677053700587725, -0.21017286738051566, -0.024078859929397473, -0.20564766971934711, -0.03957633777288428, 0.13424764656025512, -0.07592399026869959, -0.18396763893369675, 0.01311573030822069, -0.06731834313869071, 0.009098395333549619, 0.05132749090240444, -0.02921589697002741, 0.09392474939922606, -0.1951168363138728, 0.11998208027889332, 0.10122888094661374, -0.0016677013146289064, -0.008320803630015876, -0.033095185477747716, 0.01612529822789525, 0.029068217764171074, 0.0872125656565931, 0.04922271361999289, 0.020554830197040835, -0.03872861785364889, 0.04033692565183001, 0.13739048648049154, 0.1710150728764731, -0.2863703467927427, 0.03203138344296247, 0.17653210387979215, -0.03351716750663697, -0.15703706646177534, 0.05603000520429453, 0.12467917664161333, 0.06954193339373864, 0.35498784019285423, -0.004413339074215413, -0.1261866183006751, -0.06149694689685348, -0.05399355770024657, 0.007601254326335397, 0.16964307823696265, 0.19792311939097598, -0.0269436391429781, -0.11126805619076553, -0.03848596043381591, -0.06764271893925769, 0.10050084421510536, 0.06264808970784515, -0.004139936566669676, 0.03594117366612648, 0.06733589955470001, 0.09253909686652478, 0.04671751271787631, -0.14094859091022552, -0.1404241300610874, 0.06454886972796968], [0.11037867682043961, -0.07821860129161616, -0.040273544823479265, -0.1951163547209982, -0.015648563369176215, -0.001502647429322524, 0.2694914420718292, 0.06758309162932995, 0.0852072501732025, -0.08683745465677423, 0.09231161229972706, -0.2033811308258424, -0.07665710004061405, 0.036330037098155285, -0.057954049402387, 0.011351472316702822, -0.006353189893501424, -0.06977135693894271, -0.12291606111826359, 0.2306150456671936, 0.13916097919630652, -0.18525253906725914, 0.052573533484631035, 0.09811011799600655, -0.014106421841774002, 0.04861828236451475, -0.08367246053487473, 0.1850215206356297, 0.01662262240065727, -0.04334766498420828, -0.02763415472470098, -0.039332718804035, 0.1892251561445703, 0.07572551178033354, -0.17074586268796876, 0.018857887478038234, -0.033160052710803675, 0.17749489844048535, 0.19330826481373906, 0.043042308981662475, -0.08605730414026054, -0.07566100727650925, -0.10418935204724201, -0.0066998370479020184, 0.005793893492598424, 0.004904726116741479, -0.19205733852761855, 0.15698350414981857, -0.08016551184326119, -0.16187689727829718, -0.09367194044309146, -0.02031709499415692, 0.023319517976892228, -0.07432200014122874, -0.0279096054518137, 0.09561101099758235, -0.22025487931959814, -0.14279984389840478, 0.003454123137657136, -0.027449380414228258, -0.0328861320451402, -0.23115245431942805, 0.128028751852578, -0.06424613134559694], [0.06171667568675044, 0.13870040208068593, -0.12317417745980602, -0.10439457188463326, 0.1712062353599034, 0.17440732275231485, -0.24599527793621842, 0.012452490863705321, 0.21485719505680062, -0.12870749813543467, -0.14752028801638578, 0.08342318906247932, -0.009526037158567695, 0.03219377814026403, 0.01539745672434556, 0.16780182750520253, 0.1620564076218717, 0.1352183356745231, 0.12348660195392232, -0.09804025928452852, -0.014838006689768929, -0.0898795088597549, -0.05256021162421792, 0.02971709964134512, 0.31803504755245965, -0.29808521417223044, 0.11083120415653762, -0.14266621367541726, 0.08156928757360186, -0.1891248022823141, 0.005479832820481768, 0.13941620710449512, -0.06291684113598756, -0.19450645198577152, -0.14004553893039132, -0.15609047077057808, -0.2571063085771828, 0.012244978235425582, 0.09101640967369576, -0.03323489044770118, -0.17616683760267898, -0.09699155995333, 0.024912577517275086, -0.1332509714727975, -0.06774182424624471, -0.0682382937383637, 0.06644122363271236, 0.057891075013956045, -0.27528151690193936, 0.04219511598762574, -0.15667648147779834, -0.04180758591761459, -0.10654760010255067, -0.0041080266680495565, 0.05014313751181371, 0.015006588606038875, 0.19815850871862456, 0.006646504305011998, 0.18082601789741845, 0.06625405565258803, -0.0761933248156923, 0.2369801632736351, -0.08748283816378692, -0.005265506912229084], [-0.05491181267072169, -0.06602597909288362, -0.08283532780329303, -0.2032564774381951, 0.021128910527333303, -0.12945723976704765, 0.14665706595593736, -0.06479375721869943, 0.10187022958010901, -0.032968033580864205, -0.0204766179897528, 0.19934184644684225, -0.1150486322073655, -0.2261971281935084, -0.0587989133012912, 0.11302414288403334, -0.1991475174885236, 0.07511238637458181, -0.07462776599682683, 0.05262614206844971, 0.20569720106878087, 0.24496410776278307, -0.05277518372541861, 0.024896965065265737, 0.23039807076113292, 0.012868784985320719, 0.11801232232518531, 0.057190756858720986, 0.13607344287577142, 0.1606526277875418, 0.04515876136659472, 0.08633907807588631, -0.09378542840254353, -0.03737690150723037, 0.06956074321071026, -0.22216596769524988, -0.11497479706324393, -0.011770274167144172, -0.039686248943509854, -0.07550259500675935, 0.28093786881345983, 0.14050929997124448, 0.07310104223399434, 0.15775042294460978, -0.12597421767302128, 0.2775436689490166, 0.022406473914429542, -0.049694931029409944, 0.1900680134556159, 0.09828639248686642, 0.1208807023720729, 0.11692953779082485, -0.09695253449227388, -0.029490928251287494, 0.08035216003004442, -0.05590913513307126, 0.06005719615121727, 0.11292495492153179, -0.027484461419649324, 0.011660044259371099, 0.07763308621006927, 0.06947332892679843, -0.12122753885382458, 0.19308992578331388], [-0.058926806455771225, -0.009506956448710106, 0.07339269567865087, 0.06043769601485349, -0.021842736701855568, -0.1233983037059986, -0.1715282529316165, 0.055488842872628355, -0.3837586233824641, 0.11916676431444172, 0.03170205529133162, 0.004085229992603543, -0.2233738808489894, -0.3546628279716588, 0.04484360405195205, 0.09206850123224014, -0.01688683755710124, 0.1566609718209367, 0.20389255201870193, -0.2663307378998782, 0.06706086808674858, 0.08369818070654862, -0.2123549139498885, 0.060417309368237415, -0.015111463886335058, 0.08975586390141675, -0.08618651436350712, -0.015016468305822017, -0.1187550873243872, -0.21747733251396026, -0.18816694346341042, 0.2252996095032881, 0.031424566608320534, -0.04837483354309476, 0.008375250704384956, -0.16411057907949833, -0.10567271956664506, 0.035047640322727974, -0.1429642051680493, 0.13638424759477716, 0.2176634613530233, 0.023070883265223698, 0.0029307108082749496, -0.18219897276307218, 0.14592245168594714, 0.22278837219930464, 0.06824599103868594, 0.04492216701503119, 0.12818470535319434, -0.16739520047241233, -0.21795134050199141, 0.23881485879158448, 0.1742736899437835, -0.1955741354369297, -0.12991926678798985, 0.0407341001547365, 0.09798087499829213, -0.14233074252210365, 0.006846051379995993, 0.058376869939845664, 0.0005776832354610076, 0.11303352873529496, 0.006319107296520708, 0.07347173815403282], [0.23907845654229842, 0.010096007619691894, -0.01962563546646363, -0.16397874715357164, -0.05120973384893963, 0.12331153879125882, -0.1545284682021327, 0.03146197905510403, -0.012431322633876543, -0.043985196919360064, 0.15432533240593574, 0.023615739500902927, 0.00676099957251374, 0.05274381589095768, -0.02106409288504177, -0.13670358527071272, -0.037325119839614854, -0.23036511526203743, 0.1269378416903315, -0.06856301092312413, 0.014729822321202513, -0.21379728057337383, -0.17616742140018782, 0.11329776937618717, 0.09532245314418165, -0.06055956186658905, 0.03851808071743281, 0.10519248292792467, -0.11748786605960294, 0.09028687472611371, 0.06136669090732233, -0.22764800124689544, 0.10862188876284135, -0.07518845492519845, -0.10697736987452519, 0.03313678426419889, 0.1944158899640238, -0.24415013321085313, -0.08784854162025496, 0.052444555417134185, 0.0044567046149277196, -0.02049906595108162, -0.21865533072234278, -0.03927558462901771, 0.2042336519995057, -0.1838233600378711, -0.005200167971651151, -0.16857108780717303, -0.09626994985487732, 0.13861311600417145, -0.1857499513390188, -0.18019083621333176, -0.001410123267395042, 0.18406916492338757, -0.07557899619544667, 0.03890384595977836, -0.05976210317017523, -0.2608542333695549, 0.2560357532154999, 0.08547617928663777, -0.25875681437716985, -0.0232591116807092, 0.0495730657383176, 0.10986534250070576], [0.011272775972126474, -0.05050621872876424, 0.20384858930664085, -0.05463605033181757, 0.2037808533971927, 0.011924694058746048, 0.054090668772096374, -0.12347520213972513, 0.044651100316052454, 0.24058686394738493, -0.14179240016988967, -0.12240454027200044, -0.049382033267505426, -0.09491285242124892, -0.2925686892652312, -0.08333250414635847, -0.09417949668847649, -0.01725556148605148, -0.17697620090979188, -0.08813977998901754, 0.026784765996576924, -0.025154831221252158, 0.09990108831325387, -0.07655097797513045, -0.2139984309900609, -0.06027779213274862, -0.005145004350111802, -0.2621127498878782, 0.13064834336324707, 0.16077645432182247, -0.13393249320043482, 0.19246228233390925, 0.24736867962175507, -0.16530088937970203, 0.22924259127650168, -0.2605421839202881, 0.013563242170504851, 0.13850229803599326, 0.039093145441021535, 0.07624731957326017, -0.07460288654685406, -0.015773582294844997, -0.1417908891176755, 0.015743308788702948, -0.003701184792346222, -0.10448275510908656, -0.04763209448376859, 0.03391392399913925, -0.013610263207832509, 0.3019448752443687, -0.02020227438574055, -0.0504187125465947, 0.11521772437041608, -0.056624842031271334, -0.0682841158777448, -0.0308847386253258, -0.24174426914015487, 0.09313258239065106, -0.20190488438899915, -0.06824211093219654, 0.14431746082552507, 0.1549840681643469, 0.12219189221085197, 0.1409718197235061], [0.0409231136610747, 0.06618929737461417, 0.11970797583963902, -0.01910897458545469, -0.1321245905594186, -0.054610577443312464, -0.14153870876542116, -0.04692037493174383, 0.12242069616687734, 0.03907192246607923, -0.000952243750626591, 0.11759729086120464, 0.11479054164377683, -0.028176830315799935, -0.06899401704586536, -0.056501274061815994, 0.12863381271381558, -0.01775169200244072, 0.0326615464798008, -0.07048088823318574, 0.11285647236816708, 0.12033474480682038, -0.12582448318611378, 0.11759608568357394, -0.09267470079518368, -0.041819576823813785, -0.13797499042434705, -0.07057496448655351, 0.19779525586661284, 0.034896850528384704, 0.053111974501994993, -0.02310375218746982, -0.03154592093383149, -0.0016155951210732166, -0.16646119444014507, -0.06239472102818458, -0.1655238609510256, 0.2360850169993858, -0.06380816303954764, -0.28587561166212205, 0.09911340094304395, -0.014567580624732016, -0.04026558909061921, 0.1366320356014376, -0.002581237003416797, -0.009205924220299597, 0.12702665792038642, 0.03975323584161625, 0.16539493920593848, 0.09115002303948644, -0.09851830911906356, 0.001292256352786674, 0.07540213235816856, 0.09974998869597318, 0.029820894310209296, -0.044038679939224216, -0.019520778358834125, 0.05574667416111529, -0.08453560020364836, -0.017085347982771375, 0.057194002956909094, 0.011098115545435815, 0.04925934900358082, 0.06577394390190079], [0.05477042244761018, 0.0010627764616422779, 0.08565954478102192, 0.2977492567537962, 0.13795467787964721, 0.07468158894222822, 0.01858984624379053, 0.12780686401288296, -0.11564260144412399, -0.09105652406566281, 0.16148523096960113, -0.11668480831474469, 0.0038604538814451055, 0.1137896250135728, -0.15017321365024985, 0.025882449138928204, -0.07041671181287065, -0.05656691041099289, -0.13583593624673135, 0.07194882609579391, -0.1119125302156963, -0.06479040562042768, 0.025253332863939368, 0.06115443904705593, -0.1785593505080106, 0.06513750205020834, 7.287759291561977e-05, 0.054505109327153106, 0.15802335840145462, -0.061607993236625296, 0.05003103522151217, 0.07305683409389765, -0.03080770799164261, 0.13878495603384777, 0.07018192243981886, -0.1623032719041796, 0.04985337826570316, -0.2010001226311833, 0.0773801543872599, 0.01885086828611607, 0.11739139826285419, -0.0011845839094518215, 0.08338533297025044, 0.1773316623261013, 0.09086340851940584, -0.03853073306137201, 0.05381091412734833, 0.04879531614990118, 0.2933260851953775, 0.03502189327030179, 0.10029814523187831, 0.09057670875085748, 0.01761130969607519, 0.15542777470398128, -0.08120763956800318, -0.11446203327761899, 0.09030647691779979, -0.08505708531684865, 0.00970196188314865, 0.15169262274956974, 0.007836489318861656, 0.035203594372404313, 0.0562227430280506, 0.10491700938952465], [0.1396025078584435, -0.05965950702857604, -0.041171335960668506, -0.06143078415888781, -0.1876530632896027, -0.011023076699493229, -0.05067148258558466, -0.12856136174679006, -0.026535883543381152, -0.06546539338279017, -0.1768405519522388, -0.07303816840801072, -0.2134100408333688, 0.08518870432509182, -0.2049794251019429, 0.08729861175274192, -0.019811802928429507, 0.06409539402490844, 0.14452205498173945, -0.1550936510072369, -0.2489277133389948, -0.007874901234427268, 0.1014083772225419, 0.11721953325889387, -0.1476460260441124, -0.137356656775437, 0.15113867978032272, 0.06241194177805145, -0.16712952563720243, -0.0014098460028453578, -0.14249402636638878, -0.20492326425648935, 0.03845941497004628, -0.15922069372464093, 0.09899803354435564, -0.02071679811508857, -0.01075622815127083, -0.008447464734942206, -0.0011917811974629761, 0.00427205743310982, -0.025011768740605272, -0.04621182769737669, 0.21582307987006688, -0.0691678032939805, 0.10310997121650793, -0.2292498609714135, -0.012066613302631259, 0.16381688125512575, 0.26007588016900507, -0.0817355285824596, 0.26877546222972015, 0.06174239241206143, -0.08711273032429301, -0.17066597397975725, 0.12460164471929752, 0.02650198166342871, 0.3105404682163293, 0.1188414108694438, 0.11220199705880572, -0.012996444494901041, 0.07104799913836646, -0.06766242269575948, 0.017445008148653473, 0.2958283633492617], [0.07413564829005342, 0.03632203640221592, -0.2834802372309182, 0.11596225118579942, 0.1502217592675108, -0.14178433988896935, -0.20013541000859614, -0.2543634866186968, 0.22638722133324524, -0.2731703940884052, -0.01665209768315452, -0.049518952203248166, -0.11330800233006406, -0.1415121901821193, -0.21934382782972375, 0.03750206610214034, 0.1671424582021808, 0.1222946537499048, 0.130529708815555, 0.1594366665421557, 0.018978971015555842, -0.11423510802254817, -0.11454091547060476, -0.06852707584341512, 0.10038577179528262, 0.21088596958324432, -0.09256672507551286, 0.006787690000813309, 0.05754871149903724, 0.24203064356232368, -0.05339569499173409, 0.09606722184779046, 0.047344673478880384, 0.07055138481859277, 0.1601049099256147, 0.119749919680587, 0.15719724897762674, 0.040704407757282374, 0.05367006905091921, -0.15272729192736537, 0.1168197187160076, -0.05507474923925326, 0.22672230033991303, -0.18021266028007787, -0.09747390401176323, -0.19109032144463473, 0.10577013760053727, 0.020477608266961173, 0.03738220785806946, -0.03333052967267681, -0.23171981137896858, 0.3730897037655596, -0.074293958078291, -0.09635679170556768, -0.004506896021659364, 0.031955939034806216, 0.2781831818877363, 0.08603741540516519, 0.010154127784449558, -0.07175977185665745, 0.12066266454638389, 0.02179143191702858, -0.08345207040651555, -0.030342535528202583], [-0.03484350105984452, 0.07964120285952428, 0.04374253080870183, 0.2878859083953054, 0.19151828994289855, -0.03788367714387023, -0.1978901587277692, 0.06661137368778813, -0.07932104827414171, -0.07607454831428571, 0.2603031211412309, -0.06137198045679068, 0.10101334640403913, 0.11705048669698541, 0.059432498212921306, 0.09325073357389213, 0.05216476854008281, -0.0631705183909875, -0.0585571905712846, 0.033574797607595165, 0.019495427176025804, 0.1062327311105226, -0.06793874057041535, 0.006356346084757043, -0.116970108605934, -0.10311824750080956, 0.09352400523108262, -0.24293892761959363, 0.09855677590822662, -0.07693201534058187, 0.12528400615697086, 0.05088593490735886, 0.04242593505056387, -0.20361897122054348, 0.1882797686890542, 0.09549077791066565, 0.022042808925555293, -0.014163975911595484, -0.16531960266659382, -0.12316049178033396, 0.01182218185277005, -0.2014848892966388, 0.032849242606653006, 0.021374802814976186, -0.011536825959817315, -0.03825567736235478, 0.2517565646464065, 0.06189068511474964, 0.014398526977171838, 0.03254987439545367, 0.2699676640556571, 0.07616415742021143, 0.05790331523206686, 0.0638496614360835, -0.10216215051655059, -0.08459639450630062, -0.12697837001200257, 0.12309544834913086, 0.1372468757733659, 0.08174856773435893, 0.13863809136552632, -0.03287110247403732, -0.031393435020499495, 0.012376099219445401], [0.16557061689724742, 0.09650704260063067, 0.01733009544907209, 0.020084925721438912, -0.2538941451534206, -0.06253406489540354, -0.09837437911090609, -0.010522267867954403, 0.2301590351715166, 0.008708443211938555, -0.02669497598487828, -0.06041312801953075, 0.11381883559245795, -0.12420235412656297, 0.058965379075700285, -0.05557153689811066, 0.054292212800814546, 0.005489983164920305, 0.17886220938288028, -0.036396538555983085, -0.18169868295974775, -0.06942248694855557, -0.03649320436237289, 0.05586542251395048, -0.06841955316295505, -0.045877841896520714, -0.0986839102996107, -0.20666668302295008, 0.10074701598209762, -0.12359147812329542, -0.1539718637537679, 0.049838710838170715, -0.12996702476767252, 0.20678164959035478, 0.28364575899190675, 0.039701227094271055, -0.07127673982575505, -0.08280409695501226, -0.1086615110477572, -0.05394544783332476, 0.1058112873777925, 0.025211443496616012, -0.0979840431315434, -0.0838430738544603, 0.25929512401214627, 0.004057220568084286, -0.2829065593366196, 0.07167215001248743, 0.09132063763693356, -0.10147767342790097, 0.23864855284404227, -0.1537717017391301, 0.13542529394099806, 0.09633832506036659, 0.12933874090370223, -0.09547904634155596, -0.0562472620585253, 0.1336899782123451, -0.125046102164624, 0.0017858372976372044, 0.035697706157078714, -0.14224927494690928, 0.2182737952152458, 0.07840010570426725], [0.05803638013733831, 0.10010083199702856, -0.12111475296952642, 0.056627432367040986, 0.17036740539142764, 0.09831032957667009, 0.19757092511917235, 0.0966432685079474, 0.19864143171306986, -0.04680783614644623, 0.04757168677104423, 0.15634337955489025, -0.14231717565523402, 0.006723529385699189, 0.02617965323566108, 0.032909937099736414, 0.03850754955431169, -0.027058754117571925, -0.23185153243603956, 0.26464447116725703, 0.021896548576027214, -0.08769801917731011, 0.06453974890295626, 0.04815419454812948, 0.29105473068529114, 0.2141813680817968, -0.11629852972133095, -0.0791680209826498, 0.07513587595398401, -0.1234888701139979, 0.07929540413757792, -0.1145549724114365, -0.019965247589799805, 0.09532142878562343, 0.027748413287439294, 0.08467489391934054, 0.10992389581405165, -0.1902378819438076, 0.026968864806868675, 0.16815684400937528, 0.17263685121377606, -0.09767556426800882, 0.0066182448413006035, 0.035825678113953305, -0.09619901081257519, -0.045655214377516774, 3.1517517414377684e-05, 0.12333561389186297, 0.08796265339772284, -0.25416908359508467, -0.10133217639519271, 0.16868373810320272, -0.07153971545153413, -0.12290316939821835, -0.1310236025516121, -0.21389814330781115, 0.16389468738663593, -0.02305696157051879, -0.04180240127586437, 0.03143887075161713, -0.22062894822981233, 0.14979116769526754, 0.07871916878310567, -0.1783678102104862], [-0.339464255876436, 0.045011730074042154, -0.17743436057825357, 0.06776519178978399, 0.007638430489465701, 0.14935588355862642, 0.025491507618684548, 0.08821388531456442, -0.15906996674122592, 0.2838670515844486, 0.13719198388650172, -0.11228055225895216, 0.008861827617049522, -0.16722606188634412, 0.08567965006410136, 0.04268615561799741, 0.1538585043012566, -0.19525771032785974, -0.24438648529396667, -0.04240808803177544, 0.03387689024573907, 0.05119841865881599, 0.08125161390736632, -0.17820445859020823, -0.1668495464288219, -0.06638801660649452, -0.07632030373125928, 0.029326049014916603, -0.03171209663196859, 0.21835436932902053, -0.0349393626336267, -0.007543232165680344, -0.1744391828872393, 0.13524250454413428, -0.00631905605773251, -0.08837082337321632, -0.03953499587052501, -0.11865510133284796, -0.03556971313911664, -0.009509786027710904, 0.18651113044130932, 0.2247341141478856, 0.11190601018028548, 0.03723470849910499, 0.12720522787889277, -0.05591351936455231, 0.24208829684400832, 0.035403097701418286, -0.03260283652000014, 0.09312014239435248, 0.0150167330111865, 0.24652818923192102, 0.04033424261505708, -0.0011765777670567504, -0.011633018523807439, -0.05747493299229298, 0.06969480775196714, 0.1282718870979124, -0.11192085046875178, -0.0929945175242497, 0.08787446863789185, -0.0030227965316502584, 0.07370605643607459, -0.02545847302578252], [-0.11875376516727043, 0.13208773146856762, 0.1164476676436018, 0.06556278550700748, -0.236588205058315, 0.08849296647842839, 0.2804260579688869, -0.06782172533087412, -0.011540300727830872, -0.14734419015303618, 0.011360536698116952, -0.12081036230410835, -0.04842183888277052, -0.20584930400260879, 0.1325234925812778, -0.006469471593923403, -0.23255435125185236, -0.13533194349325917, -0.1945428653314485, -0.0582633962571458, -0.1424231485013135, 0.16147067407213983, -0.08389558564487411, -0.07057414551591877, -0.12708971192091778, -0.04479139638462175, 0.1899798067029292, 0.10439488368564266, 0.10742565395179395, -0.10963027595189262, 0.09504144810430384, -0.08644246497871722, 0.08837293148099955, 0.03141209085166652, 0.17491077084809373, 0.06702141994305462, -0.018776720935702707, 0.17424881580333232, -0.05580289338768966, 0.14987821655870834, 0.23268796237555134, 0.21313287188358793, 0.22146065656003436, -0.1550002459514239, 0.15763628225719853, 0.17158783008273285, 0.07128805106720223, 0.07999554820585449, 0.20780888036815337, -0.0073950536654475135, -0.031085280600310097, -0.1982134704325437, 0.06410608072466784, 0.1704507832736182, 0.009037195985534518, -0.1732708446076073, 0.09357484899252105, 0.06234788454686007, -0.06860776102075998, 0.06630446205358544, 0.0134688258036105, -0.1866201151746503, 0.006023215464967823, -0.009435903266994278], [0.038815788949375436, 0.17347393745313172, -0.28955852256617026, 0.12726636931682125, 0.02695961038228347, 0.14061133049249128, 0.13971642565358788, -0.1874549528323903, -0.07620306877644165, -0.0554911920108322, -0.042396339502409584, 0.03012752768106921, -0.0625071196434363, 0.04500291884450539, -0.07365839902127143, 0.048762077096055394, 0.20298516892188936, -0.02170797828246111, -0.018351471997316866, 0.11175479749318702, -0.04777008853086667, -0.052838528957828694, 0.1527761005767737, 0.06624592627755657, -0.16894985431367956, 0.12388343177898715, 0.2704485938865921, -0.22782456958748745, 0.061615006754906526, -0.0619166972462999, -0.02175546512368324, -0.18616310237770123, 0.08078185130924773, -0.15702788671465007, -0.18203445051204617, -0.07183271646592226, 0.000573721024673012, 0.17843467287283438, 0.1366522161652094, 0.04149421367709344, 0.05876282307505834, -0.10832363952831382, 0.05448382058746731, 0.19658718396970368, -0.07774388351702165, -0.24564071240599814, 0.07077825870830683, 0.0228602026556376, 0.026093099278257786, 0.004262401095660107, -0.09818312485521684, 0.09455335256970827, 0.1352891820898293, -0.12186665778482583, 0.07794372059738251, -0.1552342344248986, 0.08765975844566538, -0.0666498598194294, -0.05907322896589251, 0.014738682522080103, 0.1143828645106062, -0.12001518605741482, -0.07295370114302069, -0.36996072313857853], [0.0063380361410776504, 0.1682710573927457, -0.048226094648204626, 0.16963865340564563, 0.11133271796468154, 0.0006610403650486479, -0.020877321695613148, -0.0849887128888282, -0.02486197464331797, -0.011156200458126162, 0.008405233053784489, -0.0609836754035194, -0.047439000358617166, -0.03703703014506304, -0.13370924005702473, 0.20306725059763153, 0.1598717032425087, 0.2440231894927304, -0.17125255220118274, -0.018996820500238716, -0.07976989079284208, -0.2660132378219904, -0.00743060828276117, -0.10812546688919591, -0.05118094156976024, -0.19552310612618967, -0.052091860923930706, -0.11083736140758065, 0.028921457333246782, 0.09057281154033915, 0.10387171551693218, -0.03415733406222868, 0.005658809621070273, 0.1016384734554584, -0.14175495367630614, 0.12029900302425511, 0.04808369451116716, 0.06888359324018417, 0.1788315131872056, 0.03189976310569443, -0.07039613247066594, -0.0040612254772529445, 0.036851867496691566, 0.10463414198059696, -0.04013146951203996, 0.04328431133098883, -0.027780948787502875, -0.062302781839743956, 0.17125946843460213, 0.1768447357172454, 0.08819540491393396, -0.043325746905884664, 0.031728389190183046, -0.04069580370377433, -0.047161026921052236, 0.2079874519661736, -0.1919249922937647, -0.059468983932539944, 0.1332538179288506, 0.11562420416036054, -0.01961671171966366, 0.11034999017990711, -0.03177634850963762, 0.28316077912918375], [0.07376227467312833, 0.000880517678042919, -0.08433038906412074, 0.05623048863933215, 0.08233696722941519, 0.2140377116805007, 0.19550852493110002, 0.11186165851737204, 0.06347136214711892, 0.14957952760019752, -0.05918223039476178, 0.06799932071779974, 0.06840301623554197, 0.13420244855359803, -0.06783248130538552, 0.04919267864541223, -0.10860062961328443, -0.14019647286494413, 0.03766132220237938, -0.10463779710619112, -0.2190843152627683, -0.09452813749532087, 0.1746167296445477, 0.10963650803617933, -0.04546084606797516, -0.17121311317729285, 0.03990810220390223, 0.2885302246875934, 0.09956862861589719, -0.0008398687877476246, -0.06146686753046342, -0.0657795041088331, 0.06411264087270259, 0.07574181730996536, 0.06975039484326928, 0.004587938321825753, 0.17684432534121902, -0.01778381267716908, -0.04509974605688808, 0.10092732127475029, 0.29401330252006563, 0.10254180451705043, -0.007384545741929549, -0.012414555565794502, 0.07359907807651851, 0.193630401591215, -0.17118817936160924, 0.005262834511688944, 0.12155719500980457, 0.20444487213100634, -0.25807007542543936, -0.12949985601564895, 0.04450352881952689, 0.15162839520264443, -0.1514327836241696, 0.20701295982813678, -0.04911166416826422, -0.037849035755418155, 0.1581912262237456, 0.0074377573762441475, 0.08042734455786045, 0.15637707399853698, -0.27957525662207844, -0.0804663638112248], [0.07426075215502391, 0.11534841962233894, -0.0056670371074802346, -0.15924486027901916, 0.037164650280775285, 0.017280783772334576, -0.10705360649023407, 0.11134332981286749, -0.27461521740851963, 0.07916866600110346, -0.028391938288616293, 0.003570363618518182, -0.027363340790985125, 0.16288482584972658, -0.10300374437358703, 0.05454317856135656, -0.15517921843207305, 0.15779517645844135, -0.006346364871077838, -0.14015106133719635, 0.03839274298045487, 0.09579416909450593, 0.10316391324847525, 0.01632828594671989, -0.1262638026673276, -0.022702540017728683, 0.01923671204459962, 0.14209976709897085, 0.008747522608279391, 0.14097445336031578, 0.0834235692679277, -0.11228439378832866, 0.058743648289637414, -0.04468235638292206, -0.013160335411663351, 0.04635176177811024, 0.008849482079256591, -0.15628388653221006, 0.07693452680572693, 0.19625050761777102, 0.2088852879929468, 0.1746449821658568, -0.1073795340790914, 0.08542748862445064, -0.16308005729760872, -0.09508591083790467, -0.23876526136462528, -0.2560995170144085, 0.06818938732106689, 0.10157868406441938, 0.13304613863941678, 0.06780992722053014, -0.19257865225464188, 0.19068631204154501, 0.1504471813750704, -0.17410392400528663, 0.05190218432274173, 0.23905729328559625, 0.28746869318602625, -0.11989688161350529, -0.09850619146742827, -0.2565535955925382, -0.18704901744153765, -0.08547818286548683], [0.09573686964501972, 0.026102383972946275, 0.0044988810212037225, -0.06566155475191836, -0.060719307321265674, -0.027861594856373597, -0.07332712873174228, -0.11735596368697616, -0.1377640149207609, -0.15500305355100166, 0.06264300412773496, 0.17981648713352627, -0.028018718114836458, -0.06626612151142323, -0.09250211055764573, 0.12511565827614374, -0.12965799392246902, 0.007377125790262096, 0.1496813341915838, 0.2796067676984212, -0.1251967697136285, 0.04868093323115364, -0.004099307137973776, -0.1134749649777561, -0.0012004741949218174, 0.0802542364946328, 0.012567519693666051, 0.11645261885665312, 0.059481808368566855, -0.12363118902799619, -0.05683324324541317, -0.1666470889121569, -0.03231108954744385, -0.06099249246643765, -0.0682295644547915, 0.00317158214374504, 0.04099658972692839, -0.11776436942376926, 0.13875212130110567, -0.2433025105580942, 0.06909723784455048, 0.24667346184195804, 0.0118282866681062, 0.009464065799286322, 0.1488057133828745, -0.11259744673163466, -0.07650660043573408, 0.1542028562694883, 0.22168712605451688, -0.1412129127475306, 0.14156705390956015, -0.03100086899846616, 0.1745602175314345, -0.05137438462337141, 0.014926455944778969, -0.1199871090990129, 0.12300204357728448, 0.06300207110905771, 0.29892999055691444, 0.22231516712988963, -0.0015042683239350724, 0.054290876459808686, -0.19106686394278996, 0.1320161264552957], [-0.0802815928344441, -0.1221856790863935, 0.16897517492698236, -0.06621564965096435, -0.14800741747907897, 0.19662603420067906, -0.09047335585842468, 0.18310213561712554, 0.18357884896286145, -0.18944066561671555, 0.01036131565036898, 0.1071115073068024, -0.12339246468300762, 0.022921227539096155, 0.11696503493553624, -0.06907909705661937, -0.1547422370038947, 0.24537975194623324, 0.16781272558443114, -0.10169266564742603, -0.18070802771884775, 0.09227071652031985, -0.1054887801491911, -0.2323788247986164, -0.034940721503534375, 0.21998577010036907, 0.09105015769843623, -0.07397611710157088, -0.011822793453574914, -0.038373164797737024, 0.14301418870706267, 0.027118046939884257, -0.2275803490801222, 0.030486033808000006, 0.17476451579259766, -0.043555921598058635, -0.15867740035139216, 0.1722072351866939, 0.1211259553985813, -0.02812746892836479, -0.007197456157407678, -0.02825242945540818, -0.02103899103164371, 0.01594025896144224, 0.05118354791739268, 0.08340585938485039, 0.13049524128448337, -0.2388679586281585, -0.26794366492566807, -0.026920457059599917, -0.06563792985296395, 0.08994327647733281, 0.17942585040925155, -0.09665648130805601, 0.0912363664415163, 0.011872235871857054, -0.2055286019477231, 0.22179309142328246, -0.1854415848317783, 0.0827959865499173, -0.08055198525998324, 0.06512572732636678, -0.08414726557836154, -0.009719480560751064], [-0.2822987604028343, -0.023979835984358523, 0.04732809825365049, -0.15555752875604645, -0.11872242069202253, 0.06022465638716673, 0.02410802122422848, 0.143331831196459, -0.01711792826996708, 0.14368461796684262, 0.18856766927178828, -0.16066628666164406, 0.1707458672610179, 0.14664489408354675, -0.10446792631374426, -0.005954662808831185, -0.013983964260111111, 0.25270609092734025, 0.10374348351765891, -0.11939107401034743, -0.139793261331809, 0.12492666151133422, 0.23470083087765048, 0.3147018683200471, 0.09330232977595089, -0.15236054588086084, -0.23145728482926664, 0.032353016997943934, -0.13345587833761371, -0.12343995236135993, -0.08896320114363504, 0.20489044310609786, -0.04546938268785216, 0.038872288763840857, -0.08031124674276566, -0.01576006768186535, -0.03887895507303918, -0.1643903861055993, 0.033238590029376534, -0.015953098729229002, -0.04565635874476183, -0.07551289088618672, -0.07631054270748891, 0.04438674650273862, -0.10569755960024463, 0.06399484012058092, 0.13989396944720378, -0.03201635923383204, -0.20577404029040952, 0.2277490452693273, 0.1778272102980395, -0.02269837090804448, -0.08249357215648793, -0.10913862650491338, -0.20651593643653463, -0.11551173283876172, 0.08454969252605286, -0.29863158186739464, 0.058974806132207354, -0.01947938839745015, 0.0585664426003276, 0.12708670254454557, 0.009529443788698772, 0.029553580642315253], [-0.22484440123457275, -0.15731730409327963, 0.06016534742720741, -0.08314886059566118, 0.04780475478995097, 0.4340936226252756, -0.08302364263734728, -0.17259478991210137, 0.11938740578613918, -0.15014358346420706, -0.05109632190979575, -0.12799096101470628, -0.09528504128981508, 0.005527660323725889, -0.10421747650564533, -0.023842623849014533, 0.10124745888420221, -0.06268170731398673, -0.28186531527198205, -0.18212624953286566, 0.2524073444535418, 0.03730613358843015, 0.137235725629748, -0.012536657228673424, -0.008524345844937813, 0.001827860941648061, -0.04987027030363434, 0.003983850919715116, 0.009883969868952139, -0.2563587914673641, 0.0697827096128486, -0.21661119811977558, 0.08608148598707129, -0.04619841342461705, 0.03213337249993424, -0.007234121769681576, -0.023272744072312133, 0.1943235016020518, -0.1665092624024771, 0.26838666029259756, 0.06968784809333992, 0.2621132983521099, 0.21848820063819202, -0.007154999520846455, 0.012512371005902153, 0.17366937133685384, -0.09666606012198449, 0.02029698947840224, 0.07066173494326843, 0.05665344136990634, -0.12245071481161122, -0.11706490558339475, -0.006080179624081292, -0.08705747903991005, -0.007027062519899784, -0.006874444200455979, 0.11099740654535001, -0.1279608494571382, -0.07965446274192535, -0.08072202299187178, 0.08805988125571529, 0.10460410746341726, -0.1773659273648312, 0.07074074914872487], [0.08441597934858938, 0.019701028020510783, 0.020720676168572667, 0.12568064052344521, -0.0431233851321336, 0.08945101155643333, -0.0813050102342081, 0.13820639503874455, 0.0018644511517527044, -0.22233632702651354, -0.15231287193297582, 0.14612306599858876, 0.16254935510015361, -0.10504715707735368, -0.0455461310006747, 0.007878332846194127, 0.11059705917828098, -0.061975365563000456, 0.034131650087817565, -0.0651664804007668, -0.03787135109779027, 0.14268655845485448, -0.1000616750003803, -0.0017193753030779, 0.09829402740440461, -0.009017010064789019, 0.07688210216591393, -0.14746188559219167, 0.11919828702259273, -0.10217385302019445, -0.17523527859956925, 0.09344890657354706, -0.10039005019669926, -0.22983926361050727, 0.07272442173007103, -0.3004662525666808, -0.17753283495973782, -0.04951544047624718, 0.06298014147313151, 0.1298433791143076, 0.1633439530281906, -0.11502620559421135, 0.026737080206604216, 0.2840431555583763, -0.3396313980722285, -0.028793374465107643, -0.06331425748286285, 0.08043063133975888, 0.07770010520974834, -0.12579534259876007, -0.01604716823039901, -0.0038816163732080583, 0.02948870200662552, -0.30917183353066313, -0.23663827822181227, 0.134541538583005, 0.0472352608684599, 0.03699928439585966, 0.159033897886776, -0.17452305104260982, 0.05558650530385528, 0.2681278293121015, -0.2013222995622524, -0.20730203608456194], [-0.07009805930735435, 0.24246876279294888, -0.09706685834640384, 0.16043214241551484, 0.039435777411336234, 0.01175432976269037, -0.15191350272153056, 0.11080149150514629, -0.042301318392198466, -0.06582259890470184, 0.17368064446013012, 0.12022683578312604, 0.19417445210759537, -0.030092115800279227, -0.0775588942613163, 0.0622675407974105, 0.18646480338586213, 0.052904652931824545, -0.13447722616084523, -0.05737968344680264, 0.10601411358885438, -0.09823931116088087, 0.08925678297442778, -0.016915428333264863, -0.04878245729837304, 0.14727115890106382, -0.09395572929066935, 0.1464716737639158, 0.1515489418923083, 0.15861480052114035, 0.1135547041466995, -0.16247187308523647, -0.028502160812722034, -0.024997383236844035, 0.13192572845799466, 0.05240553835681681, -0.36479690866969383, -0.09976303586916657, 0.12888015513384674, -0.05071091343483022, 0.2378685104837217, 0.07247159795153767, -0.03672988662139693, -0.0670826760013943, -0.26617503987121377, -0.015492744974353876, 0.06661275783191037, 0.17323393631273543, -0.019547386490378207, -0.03940820505501368, 0.10500898250619448, -0.18490037875061663, -0.19657329004260427, -0.1120774451581284, 0.03991116645794017, 0.1026631651300744, -0.18240741345784775, -0.01895176483429246, 0.08356461207794465, -0.057449177006843676, 0.06980273783867151, 0.23682142726781366, -0.1883162276944447, 0.1305371083328061], [-0.058061089780923496, -0.10795705312562248, 0.2800285957844521, -0.026635022747900274, -0.15233530622698935, -0.1951847803178704, 0.058339399608658735, 0.1622147385005632, -0.10863713240984653, 0.122339031665192, -0.020926970321078667, 0.00018744618963380892, 0.054278037790032506, 0.2275329689713552, 0.12189212862294084, 0.21107861878394035, -0.2015532889213578, -0.06011080093731365, -0.01555960736395091, 0.14832541681237643, -0.09980216861935622, -0.05729052510584321, -0.1559164136020768, -0.011684063729949005, 0.017864091288108654, -0.3143109665011375, -0.11382178191393864, 0.05783837746745575, -0.19508484523605413, -0.052142841607109865, -0.12622781765616234, -0.272457472657115, -0.06896597240323386, 0.1143335164823222, -0.05782051991881104, 0.000962653375985433, 0.025338946231821872, 0.12853317400278186, 0.17196012625649523, -0.03787420026038724, 0.08464826036448174, 0.21633835697612913, -0.06835185734530044, -0.010090560462833407, -0.07106238869283367, -0.208238773354853, 0.028547542308221215, -0.17215091873614644, 0.03990412749855657, 0.05546734567476961, 0.21651044028381108, 0.2653057349813031, 0.23018630594307987, 0.012084155061418939, 0.006728676975460433, 0.14642692091703483, 0.21035481926203448, -0.16542459614339303, -0.057563233883904344, -0.13734073190811238, -0.08337341843830799, -0.15803709033977725, -0.0039491275659017545, -0.16547339894028995], [0.04452546038924267, -0.07218631109517692, -0.028500043544636516, 0.09752427173788485, 0.12673729102111453, 0.2644751815757186, -0.08465095516479465, 0.03784123422214277, -0.23363091971809416, 0.08003545580513044, 0.004330157842167016, 0.14060089876707602, 0.08613847552470145, 0.021206532809447932, 0.14188594686592848, 0.17542278119823, 0.10891127666128658, 0.051671233399641726, 0.04389659959038778, 0.09318076796812114, 0.0802205534388342, 0.0504496745635158, 0.04480067916544729, 0.0975112415576747, 0.03228294676477372, -0.11100518475585305, -0.05265474069514226, -0.046359895867045815, -0.2571214442449593, -0.19287460264737696, -0.18474801318837764, 0.14412310845903284, -0.022807544510981232, 0.03297935343776591, 0.17956509315596925, 0.0994232256738038, 0.05196376153968984, 0.0010263383505165642, -0.23389874983790387, -0.08641927916362485, 0.10812776207071705, -0.07209733403185062, 0.12442246589184862, 0.030964115655394465, -0.08430395338413398, 0.08399555155008405, 0.016042157389351473, 0.006333936545610069, 0.03961730564179737, -0.04131283619200831, -0.2803879739049471, -0.04840385668001658, 0.035789814931056284, 0.09281673733472215, -0.006661728369430282, 0.10524516845028184, -0.1424165650437216, -0.11939961440643107, 0.1672697803355531, -0.05780442825604327, 0.04029695621713668, -0.005529587107704856, 0.3926158105108361, -0.022135929598719125], [0.15386173846504975, -0.08405621732326304, 0.1722517171012874, -0.16012003820429124, 0.04514407219604008, 0.13795417975598143, 0.22197757639737176, -0.08986596333016164, 0.24524332437050753, 0.14760867899481883, -0.06945880493268167, -0.10837920420887777, 0.03845861497264013, -0.1509524319579721, 0.01614212038571348, 0.11988125218446627, 0.022789366667932565, 0.1036951271727346, 0.0343994762307739, -0.12019160013777434, 0.1270211370024473, -0.10799438127625886, -0.14050111641837895, 0.10630326255069014, 0.18548198215769826, -0.014793649878234555, 0.1001545837708131, 0.15124096759237454, 0.02060958274772144, 0.04893569663284075, -0.12289918695281303, 0.234211005000209, -0.13003823890754657, 0.10631220081811929, 0.05498020258127756, 0.06377697438500401, -0.1689541933471058, 0.012082401230634053, 0.10266398809495345, 0.17255598681990034, -0.03854732620977755, 0.22579632354524834, 0.04993874544834202, 0.18041421292999252, -0.04806823773629812, 0.028943870214508335, -0.06934631872757219, 0.012455881379286627, 0.11389016445978468, -0.028518949597392155, 0.11377154788188726, -0.018325560056227354, 0.06672646700597248, 0.16344136370145715, -0.10485030270822002, 0.09762034128809817, -0.2556777477940817, -0.16735716661833075, 0.2732243692822223, -0.14504223290357082, 0.1275978507709725, -0.08431766611656302, 0.030749910660407505, 0.15944622186991303], [0.11013930572450092, -0.0932788405707977, -0.04695773948176769, 0.011092513236009835, 0.03190174927607545, 0.23140210927291946, 0.0834076544036813, -0.18474441578386702, 0.205047399028568, 0.009741546052074546, 0.06755030359720765, -0.14347692580677399, -0.043039243674457744, 0.13087233909170654, -0.026579205343139185, -0.11378998448490264, 0.05579501036220241, 0.16809740803387907, 0.01353859406086567, 0.13829386919198497, -0.037788493765993705, -0.04712626746816001, 0.13155675414003726, -0.08354339812189039, 0.011022386310267548, -0.025149995186700313, -0.10815570173578895, 0.03431572853875261, 0.14919728989299996, -0.0625582261320982, -0.041442173944268676, 0.04272421148660221, 0.02173347747465884, -0.0251144804858362, 0.08999875622693489, 0.17959801929135605, 0.00045246854300000025, -0.03357381151414838, -0.0700511263239396, -0.029156151035277158, -0.027094706357846863, 0.16173110721692205, -0.11795286416931626, -0.15538969901594224, -0.10463463183638776, -0.07306533479117995, -0.07443431020514056, -0.3373202212605556, -0.026221739996002552, 0.11060268926619138, -0.15455321622145968, 0.20135143328458602, -0.12251886683246199, 0.032809765344199035, -0.12082905931878175, 0.28022308531389345, 0.19394236957766364, -0.013979250416965083, 0.08133780832800885, -0.25356167918955924, 0.19906993785330607, 0.01762728357860059, 0.05588136492364849, -0.14052768096438104], [0.2796817508493597, 0.02213883079436331, -0.0811157192828878, 0.08645741432774419, -0.06251926688979524, -0.034308880269678134, 0.03385477095215071, 0.12139726572719003, -0.029334037171845063, 0.059401178429658884, -0.0906105484554649, 0.0671415570807583, -0.25189784597805187, 0.11991657742225359, 0.07866484498098597, -0.08458707431447383, 0.19488309243093768, -0.2249587924432186, 0.1349474848832517, -0.0008220585102006666, 0.3360633601505394, -0.14325328006916163, -0.06624892491823789, -0.0046338766546062116, 0.17193297367081525, -0.08467796234657675, 0.14675565795727707, 0.10831190292682215, -0.037541827059580396, 0.01761014468079014, -0.19396438284287756, 0.07983212834181339, 0.01787951116549945, -0.02943408614214049, 0.03403308635846213, -0.06971650417466047, 0.16500945902034164, -0.026694904238599024, 0.0551310681443818, -0.05064065675452265, -0.13104282680817408, -0.31990779731934094, 0.3488218578422725, 0.127725411437493, 0.04705060028409917, 0.03485085900505688, -0.12075115950007871, 0.16017628170880635, 0.1008971253727015, 0.010025788378147566, -0.37020585799192984, 0.14745292241185887, 0.05228923165169601, -0.13889058433728796, 0.09922183528376172, 0.06405041414772016, -0.12033036591081304, -0.13081362021450169, 0.018511704584012814, 0.12180789311832506, -0.03967778549855614, -0.06477680456947325, 0.012753192109787398, 0.04010715061664983], [0.15308063609210437, -0.05912521968323646, -0.027518482705582395, -0.07618930574329592, 0.09594782178607167, -0.11979488143304426, 0.011072291408770276, -0.03443062163529763, 0.13077033788927603, -0.06028960469075415, -0.02746258409296469, 0.0454206448087885, -0.2583350183165632, 0.05963616773094431, -0.04716156285589458, 0.05375260019834685, 0.09034319751136137, -0.05745765493148329, 0.015406317142347489, -0.10827667955288685, 0.07978275228296906, 0.018865625013602377, -0.012538911666378997, 0.01177542144138812, -0.18518762449381582, 0.07852564292183167, -0.17766494087103576, 0.07112485799091382, 0.01518828126471728, -0.1375058910349829, 0.03046983410444207, -0.0029100767499158713, 0.11175018891037314, -0.2549742524937552, -0.05733787081666369, 0.05379184349895984, -0.06973740666021955, 0.0558526303167151, 0.03356963112643467, 0.017434313056365364, -0.04269500128399808, 0.02138629643488164, 0.08350860513615307, 0.03329651646895004, 0.21153524106575095, -0.11890562672396486, 0.0818394785447814, 0.04974583737168966, -0.022817512615640724, 0.05630156777196577, -0.03983145517786725, 0.15408554117483106, -0.16236399566406104, -0.053229568812634576, 0.23221779093474978, -0.017054566329389384, -0.15408089523310997, -0.01749851804974123, 0.12685268795300447, -0.15137113744904027, -0.03909295372577195, -0.24919623064756666, 0.1865292378176234, 0.15221961338045759], [0.29985575791960456, -0.0017070020825897582, 0.018553532332554332, -0.05307480872450157, -0.05322512652025699, 0.0339813319331954, 0.06177634810980202, -0.018379029903252686, -0.05930470967095457, -0.03153873502597715, -0.0786004404736125, 0.024941318756898766, 0.1114630613011309, 0.1133301162785447, -0.053597434608330434, 0.250798903015244, -0.06635458696061287, 0.27264967776191995, 0.10850268819554454, 0.07288149348789777, 0.06003579709409975, 0.06936614318500732, 0.15407807983951924, -0.007949917793870267, 0.12495678643469701, 0.06933946705365147, -0.09728604502146086, 0.04861799064586588, -0.16148809706752595, 0.06518268581207741, -0.019714323007741674, 0.1291199016421224, 0.15087454599693548, -0.08784950080035198, 0.07426551660404052, 0.26861184474290256, 0.02499645802458235, -0.019555169520874254, -0.007064860339371286, -0.06251802674299428, -0.025320244701559955, -0.06702059542806939, -0.07580148813008925, -0.06069273839000896, 0.15700297432240953, -0.142299868038352, -0.0017147805175932859, 0.03522713225934827, -0.0754988900740222, 0.0052220690724263845, -0.14478360956524938, -0.07348691028824925, -0.10818135207074825, -0.1647644629579635, -0.049914351256217036, 0.044285163174227864, -0.13872675264937992, 0.031068099861798877, -0.05353795009734396, -0.11050005529492932, -0.10959978492398495, 0.0654155424360602, 0.047691421137952786, -0.012009283857496484], [0.02105453736170271, -0.030662977814722735, 0.08384163269891311, 0.005688655189140245, 0.17192416783228484, 0.06246691801613767, -0.03513618752101769, -0.012098363220069687, 0.041080641027848856, -0.02197176660226168, 0.09303828338546766, -0.056591751898367265, -0.08092639991240368, -0.07510215406982096, 0.027410335004572357, -0.027580461767724367, 0.10932049694935654, 0.032083906928243866, -0.01552441008740714, 0.07573770827558811, 0.14895268270367104, 0.05265048876473931, 0.16372600315012648, 0.12837270839287565, -0.014038583376142536, 0.028954650770737278, 0.0654498785274761, -0.01096838562056453, -0.11912881038060781, -0.1253693810440912, -0.1796285598404159, -0.19005029276049046, -0.18403220443333376, 0.1666652330620775, -0.0636338178285634, -0.07592694908415053, 0.17333905558471624, -0.07440039901481958, 0.06754767524904003, -0.10456184928861514, 0.0956204330537121, -0.07069601640861821, -0.07491983437080987, -0.03796798100979069, 0.1427403225667409, -0.045266120394288886, 0.1837852671721223, -0.17223453079062523, 0.16262648162977406, 0.06101534668041966, 0.06778185658098877, 0.09393778011147551, 0.24230868305304415, 0.06329504899377542, -0.22419755779786538, -0.2819839638800562, -0.1844235560939591, -0.17697378258846794, 0.04408639098633283, -0.03290320469348345, -0.1182832153763195, -0.1645347829665233, 0.1439420282734337, -0.09450728595007166], [-0.07646969908698364, 0.02981978564502941, -0.030543474161046767, -0.11261605337070044, 0.06318305264680395, -0.2852766130051857, -0.18185816650735695, 0.03731033472485215, -0.028106166836124134, 0.060659604404048585, -0.042187466933117916, 0.13579819859668021, 0.020895436854308252, -0.013518450516896034, 0.07010957731946957, -0.02017920798308218, 0.08858861718576272, -0.07850468223791818, 0.09442004142116388, 0.05473155082647524, -0.04108947591470672, -0.01918374975207667, 0.08903760819386411, -0.04041901712311581, -0.1421653813054645, -0.20762820349262773, 0.1203719911227274, -0.04005775511410299, -0.13402271258435602, 0.04839392491074393, 0.1599730370405765, -0.03598663729943962, -0.16027134493662043, -0.0397969999786442, 0.2915045539024581, 0.08468491040300512, 0.10840043769171104, -0.0339672382608725, -0.24320847881351454, 0.07566710922932021, 0.16840186935844265, 0.09037154228169594, 0.019112834307938222, 0.08189935582249536, -0.05371004868849713, 0.17863995772973304, -0.09359556216177484, 0.10778976947262878, -0.12371452448325973, -0.0036297311849006223, -0.11985131877143587, 0.06758863974170982, 0.15171183495286034, -0.12420297069817952, -0.024770765931915406, 0.0014758213151781173, 0.07893281133583625, 0.07246625618697362, -0.24021817954702643, 0.12136016236765955, 0.040754931461146844, 0.08242797258269213, -0.09424202164135016, 0.14948405818892332], [0.0767454747499147, -0.15337462942844396, 0.16162058233762808, 0.06239303961259858, -0.07695032552327677, 0.22984786011604083, 0.04911484732199335, -0.03388276245369181, -0.06270583320563497, -0.09660470390729514, 0.09731732333529022, 0.1171340946391209, 0.00839799033156289, -0.07863143329034918, 0.025454140205480112, 0.060841017578407326, 0.25125876445298173, 0.19544074165756414, 0.3656605642588058, 0.0688676333697228, 0.05701216777691217, -0.004858769429169278, -0.004108889639935577, 0.07575059131222428, -0.052488682109567864, 0.2295245545474533, 0.033441202774720714, -0.13899303151887618, 0.046657831581053084, -0.16889973981659084, 0.006032700820148707, 0.16547701649434188, -0.008489362841121123, 0.21158505172292705, 0.17089275281959096, -0.061654981806985705, 0.04204268176852101, -0.0619731010405745, 0.04019064297941956, 0.15300685744588613, 0.017790975987652113, -0.010161871188812547, 0.23479095898915794, 0.09791231274845981, -0.09352492467514728, 0.008928511841837041, -0.21054027976035866, -0.03826563035889722, -0.048654872501232765, 0.20687543949145734, 0.19819510317177524, -0.11938510241443809, 0.14358695889626932, -0.0286630058666922, -0.14501689884112443, 0.008551821239860048, 0.03136787980774749, 0.06878040591741343, 0.040180035659495655, -0.13495673989339751, 0.01763190438405541, 0.02379669175364699, -0.3255589724113238, -0.14369802689661926], [-0.33653006719294976, -0.0034699969829139706, 0.025881541291532334, 0.13946195667226333, -0.011214392315509539, -0.08273899284718925, -0.042094085237511285, -0.1386737437855879, -0.16033249885960776, -0.11244896354988387, -0.13990175561313772, -0.009395332202347818, 0.0770513254911342, -0.013485615065813701, 0.0027831903993662034, 0.10960441607724239, 0.09528145980051747, -0.3070332736508643, -0.33725151435961687, 0.0444334358881617, 0.13388366261179674, 0.12864465994704663, -0.14230045781402625, 0.04666493920872226, -0.036530643124258015, -0.09402161464170461, -0.023299054955648886, 0.0481470531791602, 0.1929001089843672, -0.14818972595701116, 0.08447204693305375, -0.07562595571849223, -0.21100882776809227, -0.09274942843373137, -0.11763451115881077, 0.11499081117515983, -0.07896348396803744, -0.2788746786329845, 0.03581210398349269, 0.047065305470303916, -0.1699498355454193, 0.1764097682027629, -0.010103498690937346, -0.25384446269841365, -0.10255947480156341, 0.01370111251960328, -0.013564670332791169, 0.056121279438663005, -0.07397844204701085, -0.14218892470549227, 0.18843102956078797, 0.008626609983682228, 0.036601290369862094, -0.25003156193435055, -0.1126654261792459, 0.09263726301367359, -0.09850360294461466, -0.1194673233558531, -0.05111766102103458, 0.21467057693933736, 0.09739264298606906, 0.1239611888579074, -0.0650938731739638, -0.0940614281640491]], "policy_layer_1_biases": [0.0, 0.0, 0.0, 0.0, 0.0, 0.0, 0.0, 0.0, 0.0, 0.0, 0.0, 0.0, 0.0, 0.0, 0.0, 0.0, 0.0, 0.0, 0.0, 0.0, 0.0, 0.0, 0.0, 0.0, 0.0, 0.0, 0.0, 0.0, 0.0, 0.0, 0.0, 0.0, 0.0, 0.0, 0.0, 0.0, 0.0, 0.0, 0.0, 0.0, 0.0, 0.0, 0.0, 0.0, 0.0, 0.0, 0.0, 0.0, 0.0, 0.0, 0.0, 0.0, 0.0, 0.0, 0.0, 0.0, 0.0, 0.0, 0.0, 0.0, 0.0, 0.0, 0.0, 0.0], "policy_layer_2_weights": [[0.12172384909779722, 0.04081327645488366], [0.06607816464279517, 0.15054711391683565], [0.08769432734825479, 0.03755246041299586], [0.08196693955979051, -0.18191471451963218], [0.08235765085052185, -0.2870092994885502], [0.10565866036427107, 0.2856089710991279], [-0.00032229308060270076, 0.1850469433881884], [0.18281246025403497, 0.0038632720355287037], [0.28355693280792094, -0.13564579145937178], [-0.044073751874469644, -0.02989776089647129], [-0.003844855878393392, -0.1548381857424103], [0.12339191744767565, 0.014447987628617542], [-0.19761376393638455, -0.05731805119722796], [-0.05367554241531573, -0.022813656092961408], [-0.06138871764796236, 0.03760341538114872], [-0.20772424489147223, -0.058231744678638925], [0.33038901072438664, -0.00202479952517351], [-0.24823818404675926, -0.02350153307350254], [0.1598151264721402, -0.35244116487868293], [0.015569488825068813, -0.029113762554159133], [6.481294216703902e-05, -0.1498543499873168], [-0.13888031544263627, 0.13145983977797354], [-0.05179850291170503, 0.08072446096528291], [-0.013970954569085333, -0.22982862308671465], [-0.12678774363663697, 0.4322769473704654], [-0.023069940098218857, 0.04344597517262823], [0.12978834641049405, -0.042681393557693556], [0.14747188818776624, 0.21909337572510001], [-0.06005775450392687, 0.35461120385811007], [-0.06608245690466738, -0.05448984891242297], [-0.1791011243227759, 0.09968741452039104], [-0.101326710694677, -0.05895129337816849], [-0.07374652895282431, 0.3373169912001543], [-0.11557252447717703, -0.053792417647234456], [-0.15271206703440293, -0.23891868635225913], [-0.12305434666368838, 0.12342685700161066], [0.02441120377001777, 0.06562854318577516], [0.09145129162910504, 0.44391191460721097], [0.12212968849144197, -0.0730063389434668], [-0.049950004229492674, -0.04617991566193186], [-0.0018339629002578912, -0.012144013668349088], [-0.36094028428005215, -0.24469072280420792], [-0.0022760325986924726, 0.12451324400013787], [0.014898393660100661, -0.03656585635894434], [-0.10467494856192794, 0.20283212504274206], [-0.03806950984554254, 0.08227313232980049], [-0.22148134714301818, 0.1180768593130403], [0.007541169449765793, 0.22580445661943832], [-0.12200486241516068, -0.04981767185855261], [-0.26198847845910583, 0.08635304441951296], [-0.057738791006228266, -0.13289173020126593], [0.005928443027691447, -0.18044403640448334], [-0.3179511150705653, 0.09011480391355459], [0.27427422141770397, -0.07704479843862289], [0.04779145598709942, 0.10553707368243859], [-0.2585705645156706, 0.11056145216939456], [-0.2540502665032658, -0.06329684191770327], [0.264878017651338, -0.22751593248459123], [-0.06735167416157709, -0.3291969679893117], [0.03910061300447943, 0.07012457277848969], [-0.03795084678935346, 