{"value_layer_0_weights": [[-0.35996226619138405, 0.010310198150575602, 0.2068292479249819, -0.10862558877176295, -0.14570231118643956, -0.1892213052320511, -0.033427196220520615, -0.08762367059941681, 0.014829236034113614, 0.03334279334891103, -0.30529058361069245, -0.045299257954292946, 0.09307716345117352, 0.14981677659609366, 0.29482263999726027, -0.058862530200364124, 0.01070527773335847, 0.06859277734596529, -0.07561545441416154, 0.10179292792003837, 0.2630753176639961, 0.23039889508911202, 0.19834059478568555, 0.009146806642275525, 0.17868504909359456, -0.06322843891299595, 0.1155005268512886, -0.21003743572906716, 0.25081032038736983, 0.11273122129699889, 0.2561925267865305, 0.22371435411381546, 0.05925807272152204, 0.02356541359181671, -0.23714146547538667, -0.08842602768633663, -0.03666201153633008, -0.11445459923613055, 0.0667779560714915, 0.047421315092324716, -0.1967026069129254, -0.1555392248816178, 0.4229699123700156, 0.1677082648620861, 0.057969268439591305, -0.18156645343905448, -0.06631674691653298, -0.01605006366461982, 0.21861184092174848, 0.09783498760630827, 0.14550314598405667, -0.32684091431149953, 0.20985196534424727, 0.04500449930811667, 0.007783590086368454, 0.06799241438130148, -0.06682801064824763, -0.16402215338892068, -0.13247994461174462, -0.09698943155067662, 0.04275689703602057, -0.20291149337134182, 0.12752643240349437, 0.19042501810755402], [-0.037575753418937874, 0.07835092808552967, 0.1207948281707194, -0.3269648427616364, -0.10927943458585253, 0.1140051639606007, 0.2266921394979892, -0.06306632847745475, 0.009913064302906284, 0.22131699507748323, 0.05878446022757072, -0.14124822567905435, -0.11464386760210388, 0.08517950144758483, -0.08776091824223785, -0.12766418727598003, 0.2137156152271532, 0.2231365023153821, -0.04223926120038068, 0.14519776453773156, -0.22495014154419138, 0.23926421421941793, 0.2945423305916142, 0.13140490519777243, 0.11605364524902526, -0.009715402532507838, -0.1602415788426109, 0.10939260474574651, 0.08199001381688206, -0.2282932529824659, 0.17976478320241918, -0.07699541493577695, -0.11832166819588558, 0.2108110284171752, 0.039582601123046394, -0.10013940893473484, -0.254510965577422, 0.0106095002900007, -0.3353097308697421, -0.2575758852433951, 0.04486665845224788, -0.24542509978104576, 0.24046823363893116, -0.019992694670410864, -0.04876859180090618, 0.04673507412168198, 0.057276637009030205, -0.03455885841919541, 0.06702858371866376, 0.07568956248971548, -0.14553624238708757, -0.03830408537473813, 0.15377925997076206, 0.04795529601185099, -0.06762570644555671, -0.21300370722620451, 0.36357853078663005, -0.049588664183263145, -0.015026910462983422, 0.01160647886581527, 0.13746923898129582, -0.07179082103935479, 0.08475232620839385, 0.03550570594550523], [0.1477737175091073, 0.10861878042036115, 0.03337501796371705, 0.009200788742997058, 0.26067091747881027, -0.12659313759967097, -0.11999937675401437, 0.012513306566482777, 0.1772344753209009, 0.12514748480733653, 0.20904145072187721, -0.005175024991965156, 0.26909132074219955, 0.14959358398309405, 0.19319444227455485, -0.00920374857946458, -0.12203620743173446, -0.034228455371898454, -0.039742192991402706, 0.0865112974949275, -0.43923550932867694, -0.093629185261422, 0.02602252593393377, -0.05124228419152834, -0.08849254111541761, -0.16607199620041987, 0.13146264021404752, 0.04449695197911328, 0.029534219881152873, 0.0902249256478152, 0.21611744365414837, -0.16219520221979764, 0.06989022000996283, 0.07843979450236795, -0.19946017228070267, -0.014979016532166038, 0.25118970916316, -0.1329479364292561, -0.1756485964941259, -0.11598423944730984, 0.08932186596788609, 0.18292677276447059, -0.019004493761293744, 0.12146094329658481, -0.31328990852032906, -0.004490446199506555, -0.17677129440384412, -0.06580139307808662, 0.1694570677758783, 0.21316576067660556, 0.13741964525808395, 0.15091300152279039, 0.09271215460930327, -0.00361068170483747, 0.04797629430767363, -0.011853956797589691, -0.09904840115422353, -0.25548384625988874, 0.052558734249188443, -0.11970811782419517, 0.12602045563444092, 0.4722795671551118, -0.02787925596069857, 0.17655430594676966], [-0.08274197513962118, -0.19099582103205381, -0.009081334185844146, 0.1653303726933951, 0.17764473499113523, 0.40697185603903446, -0.1922878707429208, 0.04641067019621513, -0.03598094466502987, -0.329968927245043, -0.07042812137281097, -0.1224403637984523, 0.028255525153449108, 0.1565401560730919, -0.3252938578139915, -0.040500965477106625, 0.17453545149248398, -0.12156839237772342, 0.08025520124651837, 0.10177588595743385, -0.08698615554667982, 0.155033852092937, -0.055970575089408746, 0.07577940590385059, 0.13340411552331205, 0.11547350535675921, 0.11195647135172518, 0.12265760727650718, 0.22905003785494438, 0.14505341861745374, -0.18187558565273645, 0.03245623864379215, -0.06595095886865092, -0.0436403292947304, 0.1031023153832831, 0.023762188363901583, 0.18418648638420082, -0.15483815442067428, -0.24391298993876398, 0.08721329715958029, -0.19998669629531943, -0.4319734818712389, -0.0026956668482276103, 0.08748013741445752, 0.4189277558238241, -0.3057669853570048, -0.05316069306731552, -0.20534373264102807, -0.2616293426227843, 0.1994910140158368, 0.10713953334308238, 0.4177784531517628, 0.2365372435132399, 0.16028068241938084, -0.10368137765280598, 0.07834006237332, -0.0972191684479524, 0.15893809094770014, -0.08000773338827935, -0.0309928151911057, 0.19547341417126346, 0.07124851237841488, -0.11623409099468598, 0.047139959025522246], [-0.3279750057085716, -0.27741983224797784, 0.3696986307707888, -0.22059666260801986, 0.07802276930811719, 0.27248194747977245, 0.007653750895906901, -0.07941671474723576, 0.12911402637919112, -0.03088535296562698, -0.218857934005842, 0.13943900286116548, 0.11332208840803994, -0.2828363871670663, 0.016293071262755456, -0.011776418595620168, -0.09843776722865742, 0.11117353991919213, 0.16926272997251265, 0.294586820521728, -0.22395703496400313, -0.21125934831720725, -0.23845859141333994, 0.27960283496464056, -0.04725452435707693, -0.10937726249862276, -0.1643085634913201, 0.0874222320383535, -0.24975722056614766, 0.269192528217276, 0.1538234434536137, 0.42746175968730704, 0.21206418084770953, 0.1122194736976436, 0.06285804925948668, -0.037413042245652936, -0.06499697422474848, -0.20417110008916903, 0.07533792067822936, -0.049682577837531, -0.10401261137605852, 0.16083951000377153, -0.09856803041874035, 0.3890049008675639, -0.0818585911708983, 0.1270332224687109, -0.01760762008373936, 0.2792030230511231, 0.081345270505245, 0.11040239640634979, -0.05448337146101782, -0.05473015342875277, 0.3219780696605354, 0.18374936995947902, -0.021968734464666226, 0.030229536225483064, -0.15134370942907138, -0.13948127766300464, -0.2078470513279099, 0.10193257693019007, -0.009687181104881145, -0.14809127476289624, 0.2516141885020637, -0.049205790475304614], [-0.00367646164721494, 0.02388813969364344, -0.22140870024717468, -0.07038471551707348, -0.14783486395628156, -0.00689466743458242, -0.22563773793585162, 0.3971370888900424, -0.1112333532606772, -0.045871719429038706, -0.28897129981854525, 0.31186053510612666, -0.09194398552878734, -0.15757643489513834, -0.023068674147603774, 0.1875555736710168, -0.0005719577346856657, -0.004288739564932642, 0.13072859554627933, -0.03143287526426468, -0.25695136327556883, 0.26426383835939476, 0.01609453460107758, -0.12041596968323276, -0.03163661432837167, 0.043884273231215375, -0.34714222028026026, -0.067155535830106, -0.2755685186087267, 0.1299210322458074, -0.022825260459515, -0.18672288278779792, 0.13079905889602245, 0.2533164668704706, 0.004094565497433845, -0.3005936644466307, 0.07766274733960447, 0.2375677688467616, 0.014380333188006088, -0.030443453009321324, -0.232883292348237, -0.11612018847720179, -0.12509840162788244, -0.08107648444913264, 0.06571183764877844, -0.08518221690386148, 0.1905977003389926, 0.03659801188055386, 0.12645452639638188, -0.274180596585595, 0.08911533874106299, 0.02371887831856389, -0.176553497625951, -0.06626065527554467, -0.1401048782091981, 0.17266212575289377, 0.13854300333362515, 0.1495728309147241, -0.10897384244865407, -0.08155917783217412, -0.22297556708231023, 0.025920247166875455, 0.09955780521159147, -0.17386450346324536]], "value_layer_0_biases": [0.0, 0.0, 0.0, 0.0, 0.0, 0.0, 0.0, 0.0, 0.0, 0.0, 0.0, 0.0, 0.0, 0.0, 0.0, 0.0, 0.0, 0.0, 0.0, 0.0, 0.0, 0.0, 0.0, 0.0, 0.0, 0.0, 0.0, 0.0, 0.0, 0.0, 0.0, 0.0, 0.0, 0.0, 0.0, 0.0, 0.0, 0.0, 0.0, 0.0, 0.0, 0.0, 0.0, 0.0, 0.0, 0.0, 0.0, 0.0, 0.0, 0.0, 0.0, 0.0, 0.0, 0.0, 0.0, 0.0, 0.0, 0.0, 0.0, 0.0, 0.0, 0.0, 0.0, 0.0], "value_layer_1_weights": [[-0.07779907560246457, -0.023771396158054754, -0.09775761989462517, -0.11935072797926667, 0.05677212558672705, 0.08512218298717471, -0.008523539833051891, 0.015028808531430592, 0.15717954022240552, 0.18764796630662958, -0.03737671405094146, 0.17929659165124967, -0.041379335594731524, -0.046796123442312, -0.0017306042037414857, -0.04624627687055013, -0.10940968963832945, -0.03603292573653922, -0.1418697214113379, 0.02217545284730141, -0.07988931142301177, -0.023404792961424878, -0.0167364078186097, 0.12579873160568059, -0.0794188374245953, 0.24481471922321427, -0.1520766345195674, -0.07791263689558636, -0.16625730655073742, 0.07227291849363178, 0.11214996766202745, -0.18876396678883878, 0.05800980497463281, 0.10569962461148777, -0.1658975575562613, -0.06767961567543593, -0.014591536473693113, -0.13813887789668858, 0.10868600158551754, -0.065303040476004, -0.09505596363449363, -0.07736999657555445, -0.08472259661911301, -0.07132582867905014, -0.16358247542866194, 0.2401502251587801, -0.225499663768385, 0.05433779646476095, -0.2965048013627817, 0.028871020680718514, 0.008650924554410083, 0.10356408319863557, 0.18816816519858617, -0.044275046059341225, -0.20487948829837646, -0.1183663789016358, 0.17469027901886133, 0.1753742210599615, -0.1277229863509606, -0.08044706909033297, 0.003266409969275386, 0.13731677102243797, 0.011613049066328424, 0.07788350828603625], [0.10367992070436664, -0.24472470026711007, -0.1894188698408595, -0.1293220091146516, -0.08414791636405868, -0.0010971892641241222, -0.0871215194918646, -0.20100075196812697, -0.20408321938588336, -0.12085504367993621, -0.011242453170128043, 0.09994406358105619, 0.0970433420054235, 0.07264100267956282, 0.15355814651696767, 0.06858619718085858, 0.1143264294772591, -0.00045457351626080293, -0.040601643362524927, -0.04741925392555496, -0.019678508232755125, 0.13777051903998133, -0.05839133685364249, 0.014273050664597881, -0.1527477513371678, 0.128759527823711, 0.08440992135012318, -0.11614223749971003, 0.029061881021672006, 0.08736220576092893, -0.08607704593535583, -0.03302508836096691, -0.07625501579286938, -0.10217696071780448, 0.03902977308386768, 0.16265685787306822, -0.2582243149129602, -0.04526492152329632, -0.08362254554989666, 0.18362391715728432, 0.41764769152627546, 0.35007922895161536, 0.08147152095820163, -0.06718893775025692, 0.07625844280971561, 0.05085287422101537, -0.029745908972337202, 0.22596471682124766, -0.08788514509525525, 0.2889204159386103, 0.033616382899896984, -0.0666076323847356, -0.040552569336019965, -0.11565696111204422, 0.1968035387651289, 0.014869503238376122, -0.17628165613973576, -0.04358221207540874, 0.3153229808019944, -0.24146154321217375, -0.10081216876520147, 0.0916214400019032, -0.10946016298802681, 0.048060389559737966], [-0.08392683888539686, 0.06918078809433555, -0.002309653555657329, -0.2700093847529767, 0.14684810077883886, -0.008959498733135823, -0.23584933624737195, 0.12902412290808635, 0.0025537754693562434, 0.16210445725398792, -0.12666562742171536, -0.12155110364982057, -0.0726304406982616, 0.21183305742527797, -0.1341957632018492, -0.04001157211051857, 0.1827698424017176, -0.016457699005700377, -0.10359494337020815, -0.025457174727914058, -0.04468401652946161, 0.056678067886793845, 0.27391602712959257, -0.10966108326154624, 0.07764264221150446, -0.0006424149851680472, 0.012841132968502684, 0.18491698466168813, -0.12246074849477775, -0.012760284567976213, 0.11594583606940499, 0.17106907695968224, 0.05093538382124641, -0.09660703114196689, -0.06694094517710876, 0.013380532059415605, -0.0969398950770131, 0.2272650798159955, -0.01279883833470427, 0.060220937756253784, 0.006087311668479075, -0.13384932158107293, -0.20301919666860027, 0.2099803206844254, 0.14010292279851358, 0.04024361053095929, 0.051467652643790024, -0.09087141238531017, -0.013654095422220094, 0.02475970854570354, -0.11017266908612561, -0.07617729908727508, 0.13633264589118005, -0.16815861767454718, 0.01976420836253482, 0.034353532629429535, 0.05371188683089362, 0.18219147583496068, -0.11814883445421026, -0.05928995582400986, -0.2531828508266751, 0.04411246233905568, -0.004872072988111312, -0.05889110936998478], [-0.08227459484478751, 0.013014878587693202, 0.012038614591194338, 0.10889974157145062, 0.19530978923962253, -0.1203295671172385, 0.04204586592789533, -0.09205021973298216, -0.10849859465731757, 0.006014606271688467, -0.08708054332875499, -0.12513695732032218, -0.16524790345340853, -0.10610050521972497, -0.09486660516057237, -0.06655051619560937, -0.11681947574699197, -0.0984814069955001, 0.08740866941426577, 0.15314646671047902, -0.10207017469264769, 0.015888854010000817, 0.14912981139371917, 0.1272358327705614, 0.14434600770740574, 0.13693418366227386, 0.015287611230819613, 0.03541420274354779, 0.13079436602970296, -0.14465199679095436, -0.12698569617764588, -0.06345543972276019, -0.09389101274420927, 0.2092431104019939, -0.029587569405305183, 0.16505910533980064, 0.038042402490462986, 0.11614735033321685, -0.07464178062323883, -0.11159044285833404, 0.08244504753557953, 0.05217574195362283, -0.31871698417422645, -0.05535634764430695, -0.08075973517357073, -0.18486668138927229, -0.0825872204894808, 0.060844664748917816, 0.11667875061949547, -0.04806371349475424, -0.06682523257314356, 0.19228727911578286, -0.16199730935479206, 0.02592535433479545, 0.031153645616438266, 0.08268986497687944, 0.1488759376566711, 0.029084276851001525, -0.1387998815354911, -0.1008520047098096, -0.2787813780560139, -0.12567134699681795, 0.1886253105215819, -0.044708689323944846], [-0.038502626009600395, 0.06516195937360258, -0.0026958950440486196, 0.11854832891579623, -0.10207186777961796, -0.13081916981491926, -0.04024120991613997, 0.09040065196936956, 0.010089426335449011, 0.09804815551471273, 0.1853378130003782, -0.07790940288904545, -0.12082537082483052, 0.08442743136548456, -0.08488902384447593, 0.1942636217221147, -0.15566773282949944, -0.10478422087469393, -0.165412112230956, -0.211935419398237, 0.06811105602691568, 0.06587305692438108, -0.12349486915356772, 0.247890384439062, -0.2522221206145394, 0.06357791222853239, -0.04222477913398022, 0.025595999029116714, -0.06978046264359294, -0.1614186483091196, 0.09705008239349294, -0.1056469437936899, 0.1617155112815985, -0.023590082209457543, 0.13364649288465855, 0.06833324817922437, -0.07302490026355918, 0.10052967317403168, 0.23227253846055637, 0.14761158070771713, 0.25604243732328175, -0.01861712219624442, -0.05149282128755585, -0.08536107670459461, 0.1403326520047091, 0.0023391858517247182, 0.15030965159842316, -0.16039221784495455, -0.10818277206545956, 0.034472202410799214, -0.030120994321486613, 0.055392268257994, -0.07799264624022292, 0.1090833220712164, -0.0318127879536675, 0.05922303609173574, 0.021834183136194105, 0.01029784113007444, -0.12933003122628856, -0.2985338898475213, 0.06719105284311669, 0.10351784210961533, -0.029975087795661753, 0.2010725190243392], [0.017317705041791035, 0.04447252883068321, -0.07594096921170239, 0.06563552833724443, -0.04398742394252956, 0.3148220706946636, -0.28084188896653706, 0.0795807467598114, 0.030047629346735653, 0.227473963837382, 0.01570476007399352, 0.026444693824770066, -0.08824300771078424, -0.027333504097723834, 0.04178043924312493, -0.16235688347112018, 0.01951307147281958, 0.15087738256827452, 0.06985159394349119, -0.23422794333980096, 0.01866669404433124, -0.06262679709902969, 0.1460392103094495, -0.10513408702365884, -0.12119691171298569, 0.10510306618580653, -0.1127209947976843, 0.07923268437761798, 0.33594598726255953, 0.11478628020060257, -0.010339591603305866, -0.018550207733627033, -0.13700544929947672, -0.04447232914606988, 0.1405427919627027, 0.03278649452933676, -0.15471050537003625, 0.0773472655125297, -0.17577223011479282, -0.20049735041734104, 0.005068002648330879, 0.10285133263952624, 0.017160796778578322, 0.19248803733044306, 0.07560967103496416, -0.2768987847124948, -0.1884281746189062, 0.016141922004039046, -0.017090197108339467, 0.029839989920096645, -0.24009999329424989, -0.060134121415694596, 0.0067038642183429005, -0.2020063385390863, -0.2789361413735246, -0.1445503775608358, 0.00680607341979462, -0.02868408248782934, 0.028242099515124533, -0.28356625803543717, 0.0491577773305198, 0.01618975514133672, 0.14265058434062258, 0.07769963705179965], [-0.0372463711847017, -0.14516335138522232, -0.008244554760315015, 0.11221065356379259, -0.027739231149240713, -0.19265029766564223, 0.012705755327784883, -0.1315879385230483, -0.07927511065044314, -0.12820986643448545, 0.06226467117435215, 0.1821806530010771, -0.050892477780544114, -0.20400201757736414, 0.04883860363591218, -0.08585304838311203, 0.014538988264379668, -0.11810022884941852, 0.18890549788447147, 0.14504143869601585, 0.08845133791717463, 0.13140369655625556, 0.15582808976522203, 0.008055483528874157, 0.002805888573146483, 0.1334229331553204, 0.07465738277579881, -0.18187494039385954, -0.04900239937351867, 0.0032419892891618015, -0.10301794143551549, -0.02779468640094308, 0.11232887240600595, 0.059006149522244714, 0.11714055049674606, -0.017273109171192177, -0.22421012234439652, -0.018814577617276017, 0.08057408703126784, 0.054106155068927374, -0.0401777233618353, 0.007378288215548006, -0.16680140685443545, 0.13902031648416238, -0.019570873421122535, -0.10740735701258643, 0.15190537650468053, 0.11268270660337486, 0.12722074343351636, -0.0007670797708256869, -0.15259086028991503, 0.13129615247448254, -0.023471496867456226, -0.050412480408997325, -0.050708223290449994, 0.08400693571214787, -0.1637278588774497, -0.06141207686241906, -0.030398975042356436, 0.2181137694295801, 0.15277060376642843, 0.02404327211548347, -0.031581248573943156, 0.11009918615646051], [0.03511847128707828, -0.14404815329787526, 0.12849969127674565, -0.05613672978174936, -0.09806226552574811, -0.029753416842586262, 0.0905552262251639, -0.18207508928860547, -0.15447886309399406, 0.06908264333982501, 0.12694519421561404, 2.1970525617286506e-05, -0.04794947141746236, 0.00404333436670166, -0.017215385877097474, -0.04456527704194388, 0.014207272663995225, -0.1530833248820567, 0.08953542966548117, -0.08415558847232639, -0.033454067883249866, -0.133837065631952, 0.009017677354945514, 0.022868995891151614, -0.1248458211944895, -0.028926846810966814, 0.04775670657547942, -0.13960561651263378, -0.1262052559214166, 0.005625021614966086, -0.02562827406488486, -0.0998341312465144, 0.06489344609390772, -0.021571314986981015, -0.013522261595563868, -0.10965378913269422, -0.08739526830116048, 0.12180726964962973, -0.0778697625278412, -0.1094145594199494, 0.08789479701805433, -0.1678529202167062, -0.119283366356854, 0.04407776009033307, -0.00345654581378413, -0.0854445696647277, 0.18775869528340336, 0.17205835340058626, 0.0859412939262018, 0.06885265576766801, -0.09768927961999388, 0.14956565769459415, -0.034604623874706794, 0.05399202589032343, 0.04609527554273185, -0.015414811322429375, -0.07689094404254088, 0.051997639144507155, -0.03534396566269324, 0.05852218698236577, 0.10781244481971106, -0.2126120275998005, 0.2644544191556228, 0.013719132596175354], [0.05472275769776079, -0.1023408867702112, 0.09299105049638348, 0.04484492208966743, -0.14752212579955243, 0.2285443382413501, 0.23608233065171122, -0.04689166370242973, 0.1657431133522103, -0.029660721239154166, -0.2015347815748618, -0.027461543963388797, 0.0528696251683489, 0.05836412413190129, 0.12786345344600134, -0.2223384345524483, -0.1230283971167893, 0.05947296216388575, 0.03371324165906509, 0.05730032661384924, -0.027213603168983073, 0.03256814234115635, -0.002255410543191847, 0.09784134782785117, 0.03229630262753545, -0.1433831847141783, -0.08250406446232633, 0.12973218267708259, -0.1601736656430844, -0.10865387306577369, -0.1936744436234736, -0.20584033802477053, 0.031143987372016853, -0.2090852731361919, -0.0977117433774568, 0.05710172059092987, -0.061796937667981555, -0.027959691186605358, 0.20855572520553275, -0.08090340311062523, 0.030678159418046424, 0.08946054296930248, 0.31787888788748, -0.052727926597027, -0.04683373941470886, -0.12087556684740342, 0.020558168578143604, -0.09107195481062016, -0.2921536908744715, 0.10230317417519968, 0.10933184668356391, 0.24422217086623402, 0.06542963919479451, 0.05270232906573445, -0.25679355834519296, 0.12252233895390219, 0.10927760357840492, -0.024856982240064367, 0.11647258500315036, 0.031108524838893044, 0.01848681855497741, 0.11298465245828011, -0.06809136706950826, -0.10618130352875157], [-0.062060794532413525, -0.14269248562386042, 0.09542790899708009, 0.2661203002023405, 0.10762403724531726, 0.3551556230705432, -0.2422283174323153, 0.3058126153536308, -0.15663846717119412, -0.0331502141813619, -0.07047226981186681, -0.02643366186252909, 0.08854849008088518, 0.02042010867861379, 0.11454720232074934, -0.014252991520192262, -0.1652567460824919, 0.22084013682353104, -0.23095279298424481, -0.11615397156024648, 0.12430242592683187, -0.16154541195302824, -0.014924246878711338, 0.13641762146625902, -0.07208092978643021, 0.038988003504348105, 0.0033775128049791385, -0.03775440361276272, 0.0694873618114217, -0.025662653463638385, 0.1076438089152137, -0.1324197616074121, 0.01683708045677515, 0.21648666199073383, 0.1539422154760556, -0.0043057232330831596, -0.10661270516529918, 0.0978858318342384, -0.04727246641638041, 0.07655734885497938, 0.0014018773552600076, 0.09742096776368361, 0.14370127469793337, 0.10750201211017227, 0.09335776994410695, -0.011064532934125338, 0.26118305274960657, 0.0014691961348639853, -0.04082610021046187, -0.008203122646493352, 0.020127827489751296, 0.06918793205793729, 0.07836084254250403, 0.09551882060622754, -0.018320413370485466, 0.05478540245192128, -0.13378822150900835, -0.02933724693948875, 0.020122461750671835, -0.08634273409236477, -0.15939854840748294, -0.1067144517592768, -0.055033381634617184, -0.05370820489481466], [-0.1878275699870588, -0.1151320302258508, 0.15884154790503868, -0.13636708353211183, -0.2737101826992445, -0.08123859694498411, 0.11768611601674897, -0.01319193869831192, -0.08625381930731044, -0.11176087200845825, -0.10285588351129982, -0.170321177018281, -0.02171061607627983, -0.09639693115729822, -0.25884972920314575, -0.12115399320087841, 0.14999336179848427, -0.07622163813647118, 0.018112511209612953, -0.1039285867254703, -0.14920452081883387, -0.1527980356642876, 0.1541430539582415, -0.023885534809115535, 0.15432832270483318, -0.11304311434530115, 0.1384426289007712, -0.1619986806819473, -0.018439877726074763, -0.12666341225750427, -0.04648771524452924, 0.16226216983980976, 0.08289287013677066, -0.08486578872556973, 0.08984138233891513, 0.08711458190536427, -0.14818335024183582, 0.0101492914766729, 0.054919416030521015, 0.11104635471124553, 0.020749918978054005, 0.04104200927163163, 0.026274375496485872, -0.1435147890178573, 0.0738542604839149, -0.04743771412651018, 0.30223545815834957, 0.1840037846822185, 0.05105425339830302, 0.21698444954105328, -0.33011722306674074, 0.0081152978222041, -0.01149160867532233, 0.10051001538724667, -0.047000881279214035, -0.0159027268142521, 0.06689156958230219, -0.03860603439005018, -0.0315767530247183, 0.06266993278488728, -0.10193244097245431, -0.0016831813380712001, 0.014574562090844897, 0.15111199125944358], [0.10106436875492078, 0.06342093444395926, -0.06013046045111378, 0.05198285870420867, 0.15210739283700375, 0.05317566853203558, -0.05677179727832603, 0.13441219576356717, -0.1294571473732948, -0.10353978135632244, 0.07551427761708565, -0.032878801804769514, -0.02065975157966578, 0.021450966865330087, -0.09921430739627429, 0.2921259408568683, -0.09708242655163188, -0.09328017574335155, 0.1182989359947852, -0.14100530936877098, 0.13960973415294062, 0.1095659929279278, 0.03472765476250283, -0.009661560035797238, -0.03200776060253255, -0.12358364676458644, -0.23347045575773703, -0.04685222524261116, -0.015993453477728944, 0.1076039600664129, -0.13761323376182505, 0.1930440565072378, 0.19824391737959948, 0.0019624722016400096, 0.1971824241583916, 0.025904156135493, 0.12515226098605695, -0.004125409278315056, -0.03321193839248867, -0.05404737897802076, 0.13909168690670845, -0.09106901432637804, -0.07319803294993377, -0.1501965152163783, -0.10944220977518526, -0.11814028929593033, 0.07237729368125238, 0.3724705140015872, -0.11785102825624465, 0.1962572032050904, 0.02179901292206986, -0.2078465529062823, 0.03900917385334685, -0.37681953983325506, -0.08675045432049983, 0.2726878784627693, -0.019891432971339752, -0.0667381648014906, -0.29736736257431906, -0.22305534829552448, -0.056761063723282046, -0.06334276155763756, 0.2228260171916544, 0.0349460809247414], [0.1303797743418548, 0.023835291996883876, -0.24231440585655534, 0.07620915071536552, -0.068882308285474, 0.06653230411348449, 0.07759952805557963, 0.10558156525581731, 0.04025381638814592, -0.2667404842347466, 0.08541708144538736, -0.09468176266059336, -0.144218384456578, 0.05116920653881442, 0.20802343618231378, 0.1652034586065677, 0.0013843514960687065, -0.07993968180709526, 0.01277843143744065, -0.17720291805217744, -0.16740236733683578, -0.02442628840522262, 0.17349635658234802, 0.16627233390746465, 0.01221287276705275, -0.0937450145150281, -0.03285774610003839, 0.08653239564342413, 0.04451488211370143, -0.10144221949650502, 0.10737958463886872, -0.012954839446512502, 0.1361998701888227, 0.009998521650997053, 0.12381933381090937, 0.0892392818724068, 0.047313719801823785, 0.005472520083694554, -0.10286594715061337, -0.12458016663926907, 0.015063413538924533, 0.08567474752294049, 0.22820252566559665, -0.012964546719070328, 0.020428203101395336, -0.018519803311941235, -0.06560168922656905, -0.15630772342577784, -0.012655795801285742, -0.07122183606991991, 0.0819210052999757, -0.11947966704505088, 0.02632708425059806, -0.046145143335722706, -0.08068508780989535, 0.031833808880331785, 0.17502241120724643, -0.006564034763566431, -0.10827395108406088, 0.13388373299481005, 0.12717628922251634, -0.08056850427144373, -0.10325775319143468, -0.0026368712192071995], [-0.06346102344228503, -0.24006096111166292, -0.036108277499506194, -0.002335769308213153, -0.04290212947765762, 0.03135650410216386, 0.12348848360199843, 0.12488715690908335, 0.2597434291910435, -0.24166299038135344, 0.023005664569830546, 0.15334157226059697, 0.17591286251956034, -0.0007795096981903637, -0.059615436282314076, 0.23066555960017782, -0.0369652178672167, -0.05347488936983668, -0.00979060510658146, -0.07321222168891536, 0.22497956120275234, -0.13859499832606945, -0.017835244321390047, -0.31187992001589626, -0.31493509793429925, -0.150790169272216, -0.06335901573130726, -0.04221056932068022, -0.02693039655662746, 0.3102584891528833, -0.06848829966818472, -0.0869993849468604, 0.12007998453050918, -0.23158241195231696, -0.01954168751897517, 0.08821965954815796, -0.026980266422895825, 0.14871245991608845, -0.059701945339688936, 0.0008878784074253294, -0.02422779622241905, 0.027229127238568164, -0.07138460717701064, 0.18864526736104253, -0.03666512072288635, -0.045399256942038245, -0.1164159750966574, -0.06359921561969553, -0.026213992799572962, 0.07430814581440784, -0.04733093229433401, 0.11250241344670647, -0.03062844049995401, 0.13076299223913612, -0.05127681002093846, -0.12809178099807286, 0.01754048646776455, -0.029760515097411108, -0.17030913166785225, -0.020382813256847092, 0.05386770229669133, -0.042426650687894786, 0.024067231006796707, -0.0036051061021626922], [-0.17100991244036093, -0.17059716544518905, -0.299323958459936, -0.12147441867403609, -0.14393552621596872, -0.10100819338581803, 0.029784545300624035, 0.08112909258975753, 0.2988858392072206, -0.10020832372258275, -0.1270846907271977, 0.0550041219215642, -0.22554816690149332, -0.04839982251602503, 0.022766587897387815, 0.03928297735229653, 0.13384400915794514, -0.024302665467893426, -0.17045973625208988, -0.03395572587961296, 0.09071646767695286, 0.24071541213303524, 0.1566183677143211, 0.04198541687328961, -0.10272545404107118, 0.1291376240406, 0.16959884403411385, 0.10431713415415468, 0.1543304277979829, 0.22130822623124202, -0.21498675992796318, 0.002734918234292945, -0.18634414694952012, -0.07260371997062791, -0.058028877672895725, 0.15599871136089596, -0.29842709283911756, -0.04453926616940079, -0.08527084551849168, 0.05518179254421636, 0.0005937547682839308, 0.025220432075499954, -0.26254203522686986, 0.1117985649913696, -0.24271390876774887, -0.20121088118099026, -0.11570619887520647, -0.026947332852700335, -0.10006426568679111, 0.08004907603860874, 0.0591802306932435, 0.17510796586662883, -0.01919583993393581, -0.29421486041600425, 0.2598303231493436, -0.20033832141213626, -0.03403122363172048, 0.021654001314315087, -0.12277834037530236, 0.1321987376591526, -0.02425170934435704, -0.06603734755993998, 0.18717254601332628, 0.12959112408711826], [-0.3806577895627234, -0.0795266513566382, 0.11554929806612983, -0.057324393875491486, -0.06594663752813827, -0.12087103510233319, 0.08988635040376672, 0.13758672949838763, 0.16997646938066843, 0.09155803802166985, -0.038768298692643366, -0.05492297850089393, 0.14211863818559387, -0.1270424768669727, 0.24342462535205142, -0.05128562585412969, -0.03778669705006177, 0.03082745375810486, -0.054557542388063804, -0.14947650715673885, -0.05981570985920728, 0.16681212380858043, 0.2769745880792095, 0.17617496082008183, -0.13686809495456145, -0.13341394948144916, 0.12092963511305742, -0.1562307739171969, -0.04673825323649967, -0.09175687044526257, 0.12919532901336392, -0.3101280497282357, -0.06232897754212194, -0.12109584560409044, -0.0360528501719341, 0.05726880053043772, 0.25830741792060596, 0.08900573071599567, -0.22808987097026934, -0.1256646850012076, -0.10308381512490936, 0.18876790001129587, -0.07428645944009844, -0.09625962467647717, -0.13328696035676682, -0.09093771490121497, 0.10994472584103292, -0.05038111078700059, 0.1161525990519114, 0.257435801560362, 0.039524665813932595, 0.0018118779888114825, 0.00011789674561532434, -0.09009403235367255, 0.19251810127873276, -0.060725381170180504, 0.034640796605101214, -0.07555559753607408, -0.07441351412769855, 0.09504910723486498, -0.06949468164166964, -0.0062222726905067334, -0.047690202372459786, -0.06883438717423278], [0.01754273539106684, -0.09711358817426873, -0.0005883808490355854, 0.03426876824948051, 0.07035750966853996, -0.18847922503180486, -0.10685876846934195, 0.13624120603631898, 0.002842680974488038, -0.05068357863473769, 0.09651571415045099, -0.11825936939016889, 0.18074375858375116, 0.29745226240452205, -0.1482618370001035, 0.018712638287215533, -0.07946572760043173, 0.1529717571529944, 0.0417101262519101, -0.03261674091633745, -0.001573002562848064, -0.12345626968153874, 0.07781626433810601, 0.03602636404966431, 0.10612027229983002, 0.14826950057904567, 0.11479505432297742, 0.08443079938833957, 0.026248493378550883, 0.03333568810185339, -0.12822701849782409, -0.14259886636358501, -0.21889269594868663, -0.013810884627952543, 0.04887378726223699, 0.06767331818613188, -0.027657944577926107, -0.1552930033003722, -0.02155859403018914, -0.2674300000895108, 0.15580578281519836, -0.04875205513885114, -0.18843021332244514, 0.07891889693856387, 0.0798241291900691, 0.043417759982749264, 0.045547941742219794, -0.018137817365617467, 0.08460213618435956, 0.05995326834667435, -0.06190696256080259, 0.3699335181734574, 0.17653993777322577, 0.19822903070652928, 0.04643756159539186, -0.11549159034014493, 0.04867779495346744, -0.045522279321061614, 0.14249369874611845, -0.08328884011607814, -0.03139779337143641, 0.1273216079917483, -0.04807320499139407, 0.045013103101838876], [0.06535380703628539, 0.0288150093095199, -0.1545610319138467, -0.08156901771405363, -0.02364623960754349, 0.19073088316087308, -0.029568614027382145, -0.05910913792731258, 0.08728703790583539, 0.06931920041040605, 0.1829079206770115, 0.1173646605197387, -0.05091999505108205, 0.0029448399605575687, -0.03008511295828748, -0.12916869332831607, -0.06840430175588687, -0.18218458568052426, 0.04506357684416469, 0.02051915335209302, 0.17799351913647707, 0.2785506193308857, 0.011246747538817301, -0.046821086844181146, -0.07533849077858704, -0.042812169386263046, -0.14428462195256897, 0.1805566205602991, 0.08155602003103729, -0.02562335233736793, 0.10502234714605822, 0.04314021253857704, -0.013543208098977416, -0.0829922367675364, 0.1796364358829847, -0.31206807111934143, 0.04843751895974691, -0.016720351302064482, 0.0738324052444985, 0.09244362737472878, -0.04920743717558824, -0.2266436311909512, 0.056891640844014844, 0.034074832668425474, 0.02056141931713863, 0.11838531667302797, 0.0555876458824288, -0.18649683758138375, 0.010711993013148057, -0.06490344528112602, 0.09298169439900669, 0.193920356650898, 0.1544862708398583, 0.015705788151382846, 0.08538580995304035, 0.19729647597307062, -0.29400632117817715, 0.23341609014267722, -0.0588169327222192, -0.043992603498407064, 0.16719884972556118, 0.15326963848128827, 0.018662606532223524, 0.17909453853695234], [0.17081138664723414, 0.018461218987901002, -0.005316858490076557, -0.011989857945919849, -0.27640269465058204, -0.1446985590655513, 0.034630944682904376, 0.08788854637292373, -0.02002754530179217, 0.021110322253928754, 0.14015052175588846, 0.021813810229590464, -0.0564875986614285, -0.11043569697738558, -0.16522785540584045, 0.24405806353633067, -0.01950936783256316, 0.07006186866205606, -0.06197893320613174, 0.11543876863208014, -0.0033414347309137613, 0.058069649232407296, -0.19942327401076962, 0.06467328184670902, -0.052799047795378154, 0.0449189398476935, 0.024932046977413025, -0.1668489749745856, 0.10054721110586425, 0.0914545824102763, 0.00791474115506503, 0.04770687155371293, 0.0597964604400328, 0.17338457749602365, 0.1807433796056514, 0.08855834172416129, -0.007578853959567629, -0.1447959338427327, 0.05810587179456022, 0.09480546899869217, -0.014723099480750556, 0.0795596444125589, -0.17790303839660246, 0.03299111719685538, 0.06874767483894795, 0.05760518694094859, -0.22981156245432252, 0.0002964926886240433, 0.051503552230450965, -0.022746579083286922, -0.07211661782940279, -0.2172971321816053, 0.02611537627264227, 0.08720358957667818, 0.0016706913211953743, 0.08081075952825022, 0.0900121821131181, -0.019905901903822524, 0.10614651156610524, 0.04645865527742174, -0.11348876114575007, 0.09024763504393836, -0.012784985400567444, 0.014717169561297956], [-0.12423506491903913, -0.157999016743526, -0.0816685364635248, -0.06410332094460977, -0.00968227028091664, -0.13331046545573427, 0.08435926874207642, 0.2496250536554945, -0.11028840346276851, -0.005122646107716471, -0.38612665936282903, 0.05676746342504911, -0.43045032883908246, 0.003118743817581558, -0.01856130404249526, -0.018338010031298764, -0.0212105686098851, 0.15560811309980055, 0.1805259440674957, 0.27737046372699065, -0.1575327667999324, -0.0995149427438442, -0.11163406214673291, 0.101747005053912, 0.1895851656812223, -0.03173011444088066, -0.11362777618988004, 0.25875695264226883, -0.10111686900679039, 0.16341585559189062, 0.1217284143097826, -0.0034915962543393964, -0.06609793885199661, -0.09246328605657748, 0.05488684739964137, 0.07347302010056564, -0.1894975065504881, 0.08316974567538697, 0.15922812607628786, -0.11507676964796075, 0.10918768000007924, -0.03020569060905997, 0.09946643496593162, 0.05707964068307838, 0.06602109270580711, -0.21048899743320879, 0.19681189317772024, -0.0048912148242560086, 0.15052956617887794, -0.07150528556595812, 0.112424889960288, 0.2593058273897691, -0.11845324526556432, -0.15554464762796102, 0.09331182907977795, 0.10837906958677511, 0.027368535767416775, 0.09405533235671057, -0.07136111142598185, 0.06983140915127377, 0.00015782850054663262, -0.13990051392772426, -0.09296462370758217, 0.11134787053912638], [-0.21272998974490498, 0.13195414439291825, -0.17475529395806738, 0.08218074400691376, 0.020972263479084336, 0.029898482620164417, -0.03577999958986513, 0.27532970874677665, -0.14246611910526263, -0.010936285657793792, 0.1760022876363474, -0.06717285974538308, 0.0869695038403129, -0.008197627697466842, 1.054762864800377e-05, -0.21322651383479305, 0.15759324165882752, -0.09942965759359122, 0.0362400567040633, 0.08982318580023875, -0.08170278201180772, -0.06647715868473932, -0.011469754179086538, 0.1419231556066668, 0.07140795157068547, -0.07371974700163098, 0.058651571546482394, 0.020121744566343174, 0.25962271656899355, -0.26777992450365995, 0.0692294250318013, 0.06198081283248738, -0.03759722779191304, 0.18130818340520322, 0.06605290048447841, 0.18395251981985683, -0.21489526967570055, 0.06583205289340734, 0.04384747633659958, -0.14259444788582368, -0.17274150159134283, 0.014195270044880264, 0.1670500290360534, -0.058396034633034846, -0.18890262110129896, -0.07752504222754368, -0.03418652549975483, -0.016137297813058105, -0.23689857232251293, -0.18121466862685792, 0.05336985841258354, -0.00035358250233917836, -0.06790061074515069, -0.0049367781831925785, 0.07191947654795783, 0.1125594612454812, -0.15021168479034533, -0.16253711115152294, -0.08316183701200323, -0.044590820001414094, -0.10988298943960915, 0.06042020888208054, -0.06662180760463486, 0.18491735620875374], [-0.06970545563042747, 0.007777228894366958, 0.17988068009234506, 0.006305029183396428, -0.04726659911253886, -0.06654841256823511, -0.012513409590574103, -0.22209863547574338, 0.01184625445417936, -0.08620551936813184, 0.054907242246772237, 0.03576087211581379, 0.08678691653593071, -0.28071896080685427, -0.08033033100596929, 0.07666731767379038, 0.17658121587407472, 0.31312801483802805, -0.0203490240420059, 0.24471652493624393, -0.2646481174611475, -0.014796144758872375, 0.03160037373502449, 0.018639998193908734, -0.24640597337754488, -0.02609842508339433, -0.011184775498225477, -0.10043502961827612, 0.1701484645427671, 0.177173331548188, 0.09253823302028197, 0.05425340676027608, 0.028514968667981495, -0.08039523862013226, -0.021585474832750702, -0.1831283417064377, -0.20705953098518318, 0.08018145007619085, 0.06466809160712318, 0.18541278310719886, 0.27127831365929056, 0.2543793014187558, 0.1553555821669067, 0.048376724719426084, 0.0917520911025992, -0.07587859343230911, 0.015877331090828537, -0.1517130380668465, -0.15885332287639578, 0.1577296970450713, -0.05587202182197483, 0.07014008539762054, -0.1130655396570229, -0.06401234323104703, 0.03301578514627656, 0.1505076857611303, -0.16514827105166077, 0.17873816892916056, 0.13789479224143053, 0.040324477912774714, -0.2658887757434345, -0.13342430909788686, -0.031018058466652065, 0.03176614469409825], [-0.1275193357358338, -0.07606473255268846, 0.007788809450219074, -0.1795931016554044, -0.07247865678920004, 0.036820919246233576, 0.2025880264129514, 0.07333729522363308, -0.05292623690807585, 0.11442526693255779, -0.04669902395710123, 0.13512217585836783, 0.053603550210036946, 0.005906870959150436, 0.2284632447702852, 0.05232812339778744, -0.0025374498878798896, 0.17390851622694664, 0.09928856380553859, 0.1981576608661286, -0.12350698797890107, 0.15289295141872822, -0.2091377366462623, 0.06172344569664085, -0.008108147117033854, 0.11444685998733202, 0.08112394409657564, -0.050233170534930406, -0.11821099093058915, 0.0872718407874444, -0.22015181746456444, 0.06347043655350977, -0.05965658594076484, 0.010151907037510007, -0.06462780967904834, -0.052661260882358965, 0.10515307300934355, -0.1432141451774453, -0.032174919873619895, -0.09145932238427018, 0.09830623960837628, -0.010934153007093944, -0.03555261041015614, 0.1312834427778322, -0.06898478823203771, -0.21611967045306973, 0.05833168582237221, 0.18378512040376221, 0.10754165896026151, 0.03564780751893112, -0.11864457180134648, -0.09890331466506048, 0.22195529195998043, -0.014365520949445166, 0.35848466907412363, 0.02063927549298561, 0.1292586256961095, 0.204965310456985, -0.045205423059375256, 0.09368304905777416, -0.16099966042021216, 0.03507195450105715, -0.24484443363652272, -0.04109641053933067], [0.19594802986340154, 0.23744861047168297, 0.11219424379410477, -0.07905779627052538, -0.07472985056025623, 0.04615935549667859, 0.02947894529002292, 0.06240257211602485, -0.11401296261846967, 0.03308653343882282, -0.1897426011382072, -0.18054320346250394, -0.24413050251907065, -0.07738948938845039, 0.11886802500417706, 0.002262355641806525, 0.0720763390933134, -0.10014195674067537, -0.16731322936002702, -0.05435189307683168, 0.0977195760481864, -0.16313186742451993, -0.01374853200255309, -0.13902059155442395, -0.019013889738296715, -0.023045304492406837, 0.13251937073940126, 0.12977998861172232, 0.033468366803439016, 0.24421653185601208, 0.14011519657787513, -0.025320810721426956, -0.16399404387644068, 0.07179159785990001, -0.013915945830753748, 0.10587250358513757, -0.09243551232376465, 0.09826117497743427, -0.041198844067329744, -0.017072664064153545, -0.040757475381594264, 0.11314047505245742, -0.05055215081214035, -0.24311800074613807, 0.1394690376857662, 0.1202533122411294, 0.001378374840369598, 0.05001028601787174, 0.17328112910456595, -0.013777218572258403, -0.15635859297752877, 0.010946374216409573, -0.03271010028671474, -0.08634076451925023, -0.09316308439513106, -0.1563986420903179, 0.038466349288977436, 0.049075594402812374, -0.15375436339887835, 0.02516601199421095, 0.133684377893026, -0.005358440380862355, 0.09697893714090325, 0.04536282902123726], [0.02450868230115559, 0.04849452389971591, -0.02178836661113871, -0.21547286819438796, 0.016338417798356812, 0.001064451916874977, -0.014484417118025318, 0.1262573163643533, 0.04043460311802038, -0.006085619404040912, -0.1021858420540914, 0.019588285524369534, -0.1793163194807586, -0.04101332567097206, -0.1601423268625859, 0.0195343192078664, -0.16198393586320453, 0.15109577198276797, 0.07387526112624115, 0.2171251311529094, -0.28304697702018294, 0.07550198457237242, 0.015859337844681493, -0.1990699123102841, -0.16408560391646007, -0.09983737362111099, 0.0616963924317609, 0.004200428288074132, 0.34951623168295415, 0.11992346835157537, 0.04831365858643473, 0.22260066227659525, 0.07834173378787528, -0.14282914758607226, 0.1561101180440004, -0.19105737024502484, -0.14770278424005587, 0.034792178397254986, -0.1351331192044207, 0.08519436681089446, -0.08867203691708012, 0.05527160443722814, 0.04435206072411271, -0.05922260913671954, -0.06188929433025737, -0.005987642711188918, 0.10018435012052115, -0.0971398531047218, 0.01607187363094548, 0.03448881346712099, 0.09368130302684083, 0.10876697806673558, 0.01546489397762801, -0.2980805174484756, -0.0670805455600613, 0.024198869738139863, -0.2130082323528811, 0.11518400342475191, -0.06998609843514739, 0.033830305730235176, -0.018625116976326697, 0.001977923877510121, -0.10158235027194158, 0.03564361943625426], [-0.09335171139884633, 0.0659554782763255, -0.04792353828356189, 0.19031328178351525, -0.022927591984586743, 0.030526094629070535, 0.1722219889443943, 0.018757094712410854, 0.030231924773911446, 0.05362344070755361, 0.10597197848078725, 0.10135183938252454, -0.07383551051261175, -0.22975350058276922, 0.19115602025795772, 0.18534151101393762, -0.005410222497746826, -0.009362967089631337, -0.05932578846333329, 0.09391199038038087, -0.2332398271338007, 0.030145978293342895, -0.09373490139610673, -0.015444100504539237, 0.07018911541624781, 0.07138509434258675, 0.05127858930963658, 0.12205894974530782, 0.0606993852219465, 0.023883166779456913, -0.3497242527833399, -0.049238170991160554, 0.20172532521990882, 0.0030179417712306875, 0.04955357657218387, 0.2181456346588628, 0.01662398940907114, -0.10637173366487439, 0.18367819738973076, -0.17287960092726723, -0.15521116305438148, 0.018704042369539778, -0.12915186783631039, -0.12995092639943095, 0.14635455932200503, -0.02336876616776823, 0.22322548636345574, -0.09229732518652362, -0.017901479129408437, 0.04957315058409238, -0.026406769289130622, 0.05464940008138802, 0.029134863512162226, -0.18218628415500077, 0.09154523719983076, -0.06550700187561208, 0.12229886761996062, -0.06764834623122423, -0.07733100146732119, -0.05083824050935015, 0.025105580214367363, 0.06622836952699272, -0.16071576586707823, 0.06308021061087594], [0.11053072820021798, 0.12950649834719719, -0.04753289461584508, -0.10685956522511833, -0.15340150606938072, -0.1948449534327315, -0.23042192043787976, -0.0863783111720393, 0.004146413704094613, 0.08603868778958906, -0.0042798416283987666, -0.27596156104301606, 0.00030160398106847874, -0.0003193044261939802, -0.0015933234968015528, 0.11336939274107699, -0.12925974381703623, 0.17490585256102045, -0.2632880775227732, 0.05219789839999071, 0.38092726124555704, -0.0925227879610903, 0.24917496722296742, -0.04179041016992038, -0.02146228501912352, 0.06345844865478592, 0.12602945388198258, 0.022892690645480253, 0.2193818340838375, -0.17122660517588553, -0.08048158876038429, -0.11997768880075484, 0.08163336080661708, 0.12755759717450899, -0.01586399036300533, 0.03322027313887939, -0.07969798609441976, -0.049927783890349874, -0.00950864721995248, 0.06305582539326261, 0.08981919776620924, -0.07183555654169275, 0.05324748994171537, 0.018732428544481067, 0.1280760867861858, 0.057156173519385296, 0.26868057146017543, -0.15856888303224098, -0.045051336313005785, 0.10229543382259013, -0.2170170501442908, 0.03776866472783977, 0.21741217653786882, 0.023774931093127942, 0.05812675415331332, -0.01963862965459242, 0.13554764513057244, -0.01923309976635165, -0.044635343865232165, -0.03643032890198416, -0.09103486925817592, 0.10317649354344524, -0.1133685165293629, -0.2052660844351488], [0.09971243832090723, 0.004932627017956036, 0.0417587671053905, 0.1541179443242844, -0.0683800529680477, -0.037861518093354536, 0.010595921580159848, 0.17809186427938106, 0.08769487972751196, -0.24359751243478117, -0.1312388003278232, 0.046009004868455286, -0.09127266244066518, -0.019077202165997478, -0.027766874502730802, 0.13363689768854822, -0.006982392024060551, 0.04112763055170048, 0.06653452951693377, 0.09379655565179176, 0.026641888441723476, 0.03497308690742305, 0.10593417356337226, -0.10668527360646196, -0.09376856479613356, -0.04858807310943423, -0.09115269036945237, -0.14066286526074204, -0.11166312418082507, 0.3482696576962081, -0.14990989929491622, 0.2378940620565046, -0.025291948858720308, 0.010279200406424714, 0.03943268423321845, -0.14128744890967665, -0.24695228529757934, -0.1106015503475252, -0.043722969685359936, 0.09039157267471143, -0.09583658375826906, -0.04137748647998552, 0.12942612948141566, 0.11812023682961119, 0.04682748101157999, -0.03387299840578501, 0.039972764251101765, -0.018009205304122585, -0.10982331301293682, -0.1378148829023949, -0.15350060877067592, 0.006350605734585843, 0.08702709160444976, -0.24028546181249563, 0.12166902363630284, -0.0825997950846626, -0.038620673658265846, -0.1469591809967096, -0.14113083616346264, -0.10403601817622087, 0.04695457457587433, -0.19882269481278406, -0.07459855005972536, -0.07312821912125404], [0.05612885619024596, -0.21342750583672418, 0.02768253451992586, -0.18564026965888467, -0.1508556637259625, -0.04736583587414595, -0.00687487583566509, -0.18784758614955002, 0.053876656430731126, 0.04554260818538548, 0.10096601492156417, -0.10820579168471739, 0.12188744961539467, -0.08432155535769327, 0.045507889896707114, 0.0588877321296571, -0.23303147398470303, 0.22444966635880534, 0.08624919556687667, 0.020407791645567212, -0.26920623785580383, 0.21868065378091192, 0.032324073791160535, -0.3031667186911128, -0.018398090569149355, 0.030369861384754865, -0.12165935657104467, -0.05642461334423734, 0.024706070369497873, 0.11989647548555728, 0.03832031210334764, 0.06344928981561623, -0.0372389518647095, 0.12581773717251435, 0.13467998218313576, -0.02792854578811501, 0.06253180536091074, -0.05544606927464158, -0.10570021339650731, 0.09707801657248091, -0.01921843003808993, 0.08874152141659403, 0.054934753582508156, 0.07034255933612574, 0.006844479633660121, 0.07100118982517026, 0.03107645109738466, -0.04254084467937252, -0.008850694159525205, 0.086667352902703, -0.0011674171003552146, -0.004092131203380073, -0.06645814783965527, 0.0757838922720584, -0.04341864762849541, -0.06487810174312146, -0.01978426979889221, 0.008965839522372126, 0.14159310926190735, -0.14337127735546734, 0.05489686553598763, 0.08253338645171261, 0.09530804462511548, -0.0015580052194113785], [-0.025508031917046446, -0.08336706575393033, 0.08426513232932896, -0.2057746998083067, -0.21932748233344593, -0.26826463475159623, -0.22052800634459632, -0.023166976159553848, 0.098437555502634, 0.3421984026517599, 0.1180834776279708, 0.10855757706306329, -0.02207598750852952, -0.11963835924981367, -0.10179062292906442, 0.060657627420968856, 0.020853041793552497, 0.3011564328197321, 0.16680404759404072, 0.09250170158093045, 0.10838450731341122, -0.06714712623078288, -0.14104751788043632, 0.034390251264721644, -0.12724415813426743, -0.1032884795621137, 0.1347832766952509, 0.18409007905280192, -0.00015519893168725556, 0.031037185277780162, -0.03699882263523437, 0.09172962838768893, 0.08058916911028166, -0.13787198494135225, -0.1388880594651719, 0.13147038024125285, 0.09786439610401271, -0.10144362640657655, 0.028740752562190608, 0.060373095564496104, -0.02160885273730407, -0.06068861842668294, 0.27099616095694135, -0.2136739593176586, -0.1586516483300027, -0.2785010302091853, -0.23961530979801152, 0.07050813152565132, -0.1853060797324694, 0.1585360282373118, 0.0953228836748727, -0.04644892536101856, -0.09444514858956704, -0.26237479221504795, -0.04062698166346823, 0.09509490897577282, 0.26983774733432236, -0.006435491932203751, -0.03177692306043482, -0.024723010287898983, -0.13574226607231912, 0.038062976525067495, -0.08758157315095016, -0.0568851010074984], [-0.06037642569183939, -0.021768626554333936, -0.1044729561473627, -0.0169944411292577, -0.012902213473610234, -0.10880355135981397, 0.11011395649114926, -0.035039246970837296, -0.044128328835091796, -0.09066792171463782, -0.06364822846712459, 0.09840483654476309, -0.02848934798633233, -0.029014908838661715, -0.19566460795411741, 0.2843347573206951, -0.056670257799743176, -0.26722794896511404, -0.13220775915976715, -0.26928384916026266, -0.05029345413801042, -0.08751698641963061, -0.019266448585322046, -0.13076766938153928, 0.1627360504180003, -0.01158863336780961, 0.06293821578927226, 0.028772474481933305, -0.07464789086218272, -0.07102331595211511, 0.1456970703157772, -0.1143607682335283, -0.16740505210043358, -0.2500931631030213, 0.024303883412036986, 0.00043253642612954714, 0.207002584819166, -0.10352830183181942, 0.2155422219615081, -0.02874652182643999, -0.05774782221396559, 0.055326257071751185, -0.05025203078446894, -0.1930274841061613, -0.2868375509130531, -0.11502089538397117, -0.032260555916609646, 0.20725120604582434, -0.19407586154851442, 0.049519202988095666, 0.16789787052041605, 0.07483266900644481, -0.17429339889982215, 0.03884360537615284, 0.02901216416703361, -0.2562062987593025, -0.0550472205458436, 0.18594318396911483, 0.05366114997879923, 0.12907902145829195, -0.03584814327572548, -0.011106346800670491, 0.14778421056366953, -0.10076972152119085], [0.06243862092265345, 0.09192849428614971, 0.0033092894743644687, -0.013917063567628197, 0.006415845222212233, 0.007433629536806159, -0.13089687655017448, 0.22447476855226312, 0.08323331833425855, -0.2603614171500279, 0.045359933830431, -0.12644215416263152, 0.01098734148152406, -0.03134717453919037, -0.05539774128015342, 0.016628409355330376, 0.09405300463492748, 0.28564641762516296, -0.1272464711973252, -0.10604936013579014, -0.016858181163062643, 0.03880028281986755, 0.11309506355895843, 0.10565690230872168, -0.05303796765579218, -0.10693355808903923, 0.057576939023162736, 0.16951009240150797, -0.07554072389982827, -0.13852957137601665, -0.2819203189837548, 0.12039564375502648, -0.0924367042044096, 0.13317952163902189, -0.030169946234241643, 0.11135422128299664, -0.11204769017957729, -0.005569003965981407, 0.0714540574599667, 0.15347808293086215, -0.08797708075635302, 0.21835823825245218, -0.11075106586682991, 0.02295452608852904, 0.12292593540102338, -0.018834054088077794, 0.03007548258171253, 0.13536459514413657, 0.0854245493363848, 0.036522976094904486, -0.020342530198290024, 0.08701654715507766, 0.10276393349310584, -0.23159676379463134, -0.2335328273432908, -0.1332553027378021, 0.016715196013776124, 0.06707029808412564, 0.11110611232282497, -0.030836013856484767, 0.02535202539624519, 0.002048536163130444, 0.35133237177967996, 0.003622734496151535], [0.10691386712021271, -0.18122010270835043, -0.00492412469228616, -0.2764965756684555, -0.3080078574362504, 0.18621689401483044, 0.024830294256008877, -0.12202078939125642, 0.05337756497564727, -0.001532756270152133, 0.08058673360615239, 0.310985157826651, -0.04432379590364417, -0.17109212006501712, 0.0016132203037766254, 0.17475632145376427, 0.07834261006073202, -0.14483268379588282, 0.09680111732077169, 0.23962398350056843, 0.1852759875289528, 0.019457512932847844, 0.07740559270911762, 0.15334840160684596, 0.24522838753231496, -0.18153991898470623, -0.10464021677254266, -0.013692103788517538, 0.1450885429016091, 0.04373659788772189, -0.0510738990214124, -0.20951251670713558, -0.06477128183462318, -0.08420762527151399, 0.11354649763279569, 0.19728283740414973, -0.01721733299316288, -0.20647042571066013, 0.12719946716473024, 0.07844097431874586, -0.034880728236827134, -0.2041876063588304, 0.05894022600363992, 0.0345004252602966, -0.10761111439181885, 0.09518097231584642, 0.05474396756971714, -0.21092277072298382, 0.19092151823228096, 0.04268951782970176, -0.07415475554737296, -0.10862224469835692, -0.15694868883782398, 0.07502883053504245, 0.07056938704992466, 0.03769416902130429, -0.13240587214894695, 0.10728119110827841, 0.056573337853039585, -0.06378007373600723, 0.14396103003598595, -0.035124226389674745, -0.14251732242593787, 0.012421314785725505], [0.1968587147233566, 0.16404672302445947, -0.06932102350121237, 0.019434782660414106, -0.06168784754970803, -0.15211585490104704, -0.03411132536656164, 0.010987416456633729, 0.023064582156461327, -0.01559504656266022, -0.19322669829470931, 0.2890286428838429, -0.25239255109245673, 0.05595810671204515, 0.10563116701218381, -0.026865840691440237, 0.2479366450365571, 0.03342006987299544, -0.027699420740586452, -0.04233243220876822, -0.09759915921646792, -0.12591539907137356, -0.27563574741929076, 0.019866941211443615, 0.09401342796004554, 0.010128962707064648, -0.0033086615356864, 0.07778572350784865, -0.015755984924307322, -0.08901009797528943, 0.04207081278775387, -0.03498284886801518, -0.31187421476405147, 0.19546995893555635, -0.07217326093904916, -0.09681235118639243, -0.006177988289299726, 0.08729313799756167, -0.09650061528586659, 0.25520385310570215, 0.16846736804305745, 0.014729567576400844, -0.02136621934495171, 0.05688088543977148, -0.036850494491206316, 0.21182005025552722, -0.3056434082479069, 0.043387236583384184, 0.24207566430388602, -0.09569471464058525, 0.1219079292697252, 0.06477289999139423, 0.029826958249300844, 0.076599405605122, 0.23560207880083994, 0.020170388932254573, 0.2904798069599268, 0.11902344944373154, 0.12291022928534619, -0.15150629761922374, -0.16677036213022292, -0.12160381718393191, 0.351543701991531, -0.13160907189472984], [0.1630451461118808, -0.03997088603312754, -0.13829510704740786, -0.2357646171495464, -0.06824478254265334, -0.37587119757365545, 0.06692677955522913, 0.06638659936886873, -0.12591549191688187, 0.1395260370913434, 0.08269480507407544, 0.14201946783730202, 0.06139479156930035, 0.0054740032830574254, 0.1651922894920193, -0.08156288612437394, -0.13498556445110163, 0.08031788201396393, -0.004361236500295274, 0.03320323288417921, 0.19236246306845936, -0.1273649449498307, 0.21946937908601505, 0.05076760358888087, -0.21196589670741423, -0.18906240546900013, -0.015418688540895627, -0.020642529304624332, 0.1385442303710365, 0.046611136677804164, 0.21079422191266015, 0.017394217543146646, -0.06021946340361597, -0.12170935291181852, 0.0397667406276825, 0.15643649793246908, 0.0036368896592908345, -0.06332948732152548, 0.1768812865783259, 0.06683581949794341, 0.009098422804226161, 0.01279627489843407, 0.033838252146450996, -0.027432986143987512, -0.02994623141970453, 0.060440522076972106, -0.0038954267502210745, -0.1375323193674867, -0.0014523688363821416, 0.008456606977384509, 0.19387326591184187, 0.18295010256464228, 0.1646767299682203, 0.00030998241517118735, -0.10960104175869008, -0.06499615566739442, -0.04192743869917139, -0.12434128410243458, 0.0409060623565354, 0.18616977382877803, 0.055665317094294064, -0.1948273261558268, 0.010975085949366982, -0.04368712922664847], [0.10598942782959903, 0.03928810352079516, -0.02314662394899148, 0.06339704089313446, -0.07060884266803816, -0.12943291002974405, 0.14330332094803783, -0.15465196546757815, 0.11105053458898799, -0.08358850658830026, -0.00773407487813554, 0.03447180894965241, -0.00851226302112315, 0.026849517098212188, 0.10395160658816584, 0.09824416559333249, -0.005796002961854748, -0.15416100892701787, -0.029143123090186587, 0.26197067378492356, -0.125207127434918, -0.1152409572074534, -0.23354700348098686, 0.15516776294761586, 0.1404847506122833, 0.07534961314479617, -0.1876189008874239, -0.08020708933824922, 0.008866835533284097, 0.09494339546388376, -0.05492207930217936, 0.1922960462637167, 0.21654206614858465, 0.13819764783832725, -0.26326070480532643, -0.08170919638259609, -0.37537824827168703, -0.03650336741651003, -0.09146976595731604, -0.022194081531294527, 0.11759105097553907, 0.14973704805496205, -0.08593146933478657, 0.05153485412890877, -0.14603193096773517, -0.07152731019928735, 0.06798900398491312, -0.13073188714667885, -0.3161121927623695, 0.04786041373751063, -0.020071544125982155, 0.42030039375941447, 0.04456468153934701, 0.15465126425556458, 0.1329136491137685, -0.04362379759596159, 0.10338186174515764, 0.1936991492890781, 0.08239237295848839, 0.017773568662218606, -0.008653995738060034, 0.10527073237027254, -0.05858144734379194, 0.008586679209796078], [0.07715218789732925, -0.33771246567140956, -0.07772276980823159, 0.08140367723427556, -0.11475091249150163, 0.07272566645606, -0.02564205176997779, 0.09080800948877253, -0.21219374443778827, 0.1617553800588914, 0.4067965519268793, 0.021591760756387173, -0.06949400848934013, 0.08272863486379486, 0.19702747836199258, 0.012785634933061488, 0.04151408586828596, 0.23527436679846017, -0.2061274455819133, 0.06787723393512841, 0.030290254157958163, -0.026358767380968897, -0.07772587902624166, -0.06371377725621766, 0.16749008480104435, 0.2170259659449027, 0.0252153610739777, -0.280929168085866, 0.049377072598778965, -0.08424278541061, 0.030341695792022588, -0.04383126298365197, -0.14828967006428953, -0.04202448818650114, -0.10431750052027496, 0.0651223402554926, 0.0870009586231883, -0.10228874834479458, 0.06212201181322202, -0.24735339541414836, -0.12770155943940195, -0.17786048778276922, 0.031449004430360354, -0.04120297993163329, 0.1806211383168151, -0.04078763326062069, -0.1165690021966258, 0.044252040473589695, -0.06158867537566609, -0.032862756249947694, -0.0232243178141479, -0.22456066963930335, 0.1903438482640919, -0.18544878987942323, 0.10920320651836092, -0.2522796855094507, 0.025299190226960838, -0.16139202862908444, 0.08490828775656166, -0.17392567917947316, 0.05110332008459356, 0.06974486989404595, 0.06096759051935295, -0.07449728111195097], [0.1388927752245439, 0.11930737430626637, -0.03881637683751784, 0.1649501063720883, -0.22200896306896964, 0.06715900984306691, 0.0024076527123000147, -0.21947758188107225, -0.10444795954189819, -0.08082236709373872, -0.13354272825854685, -0.05783157733958262, 0.020294317509081516, 0.04063544406935647, -0.09536545678138218, 0.05697265305347855, -0.13033758435513493, -0.0770598867167117, -0.14250223890657152, -0.04643216953536525, 0.12928649834442194, 0.07674357321422366, -0.05470465926693777, -0.13888341103795065, -0.22335207549742842, 0.10815873397329008, 0.160398695262189, 0.03531402479896472, -0.007375745062303853, 0.0822621393523685, -0.08595918408640653, 0.17560572952126097, 0.3030493291977741, 0.04042345916276882, 0.13687991542472372, -0.11405083741384033, 0.03885488303092521, -0.05836204871406595, -0.08316598295440769, -0.1172368419233061, 0.05594414968845924, -0.11372022543352818, 0.1545493856937252, 0.014863341573906248, -0.10971083477423169, 0.21034113359242645, 0.19795563941933464, 0.2258551776494778, -0.2461515526866854, 0.10121675286625208, 0.06266885233444033, 0.13413034083414851, 0.08258028470898664, -0.009413792272325814, -0.07251023828826593, -0.10940277992181466, -0.21400909644899543, -0.212757079989942, 0.072579770924436, 0.0279298426668835, 0.009380289711012787, 0.1910309326641131, -0.05710270747667632, -0.03805333141849894], [-0.18634030027481077, -0.24256720458970785, -0.24708976458255005, 0.1398648041100543, -0.05358972428121308, 0.18474435021467747, -0.12229484679623244, 0.13876509943502788, -0.07363568462547498, 0.05226998113778735, -0.17711359593736797, 0.04813725385333, 0.1503088445441834, 0.037943994393442114, -0.09341487401187125, -0.08147533242097002, 0.03131444887988687, 0.03858757024568329, -0.059274239220574995, -0.09711854290317086, -0.03716243267143381, -0.02830759923940213, -0.12812916512036793, 0.03879892104561027, -0.09513202069724475, -0.07265638938788949, 0.3759435124932755, -0.005521603514245521, -0.12032801581629277, -0.17832685635660916, -0.15319976872983476, 0.019409638366018268, 0.16300757422999212, -0.06692650456262685, -0.12501780388734432, -0.17432389523749536, 0.06137715546800676, -0.02214109737855684, -0.046433529483674026, -0.14755762421863974, 0.1645623206571667, -0.026337504859503418, -0.12169464061108018, 0.2045615412573917, -0.018495065224157316, 0.08455190988752449, 0.007976802887573596, -0.03388872424215779, -0.22443120276447, 0.2882989745445332, 0.11316569673481659, -0.21687211108696086, 0.09016868734519598, -0.10283864182595566, 0.16128886640004178, 0.0414591328456496, 0.026578614920924972, 0.10083419894575098, 0.07361378611981377, -0.17205513850138937, -0.0011746113384292363, 0.06694812361348687, 0.13404568847678006, -0.08660955841415148], [-0.03399760138412163, 0.10478655374933094, 0.07707844733651925, -0.08256951910329718, -0.010354979079617927, 0.1432656806573836, -0.1529338859050728, -0.13570091582601665, 0.11642570325499356, 0.18286741001720752, -0.11953080246922931, -0.0637661425553963, 0.026147022040180403, 0.07986283667769871, 0.10058308612028326, 0.00810118595251515, 0.0017598432783283463, -0.1636801785246337, 0.1305791228569959, 0.1203558084915535, -0.0028449754431661453, 0.0367467535638622, 0.14114606637967206, -0.15187182319823864, -0.041068942064404965, -0.03398904743868102, 0.1468302274403929, -0.12587863522717171, 0.11899082879569084, 0.1175445117901012, -0.20155086624936924, -0.12798489848757158, 0.14119481191292083, 0.12583067248154792, 0.035492634761552226, 0.011693272347621984, -0.014000846772899206, 0.04254637891768954, -0.057234985735037665, 0.37708290016627954, 0.2085142478748969, -0.1581101891755886, 0.10526702078774497, -0.04710410721723827, -0.03000978327778324, -0.05968843508913597, -0.04412526932352518, -0.11791610394750417, 0.08947710737311396, 0.12700936015200742, 0.08587072677587522, -0.31785582147812724, 0.16762366440259757, -0.009527889128051435, 0.17000314914844997, 0.06212058861474541, -0.08200333280659289, 0.12032403524033904, 0.09770888576992232, 0.12085417690540629, -0.24860506065341664, 0.06128769156691568, -0.12150683446376832, 0.14603180489598674], [-0.17425733046174463, -0.07181509827053362, -0.13431382490798963, 0.3189581262158689, -0.01834888077770269, -0.043869246125999406, -0.0020437089344127624, 0.011673184940347947, -0.006714783172267791, 0.25820669557044357, -0.03451353367272432, 0.04882220141508508, 0.23652318139309558, -0.17032166415749728, 0.18347078497426844, 0.12099527475169848, -0.05031516768511806, -0.13602183221036204, -0.28754227570933605, 0.07890928561767727, 0.013948298421345736, -0.05660549514910568, -0.0935605629907077, 0.052756864036701843, -0.012398188054595078, 0.060833121308169064, -0.14151124974564025, 0.05235887459295843, -0.05201359586938202, -0.08430198784252126, -0.061790095673465946, -0.23785278650886452, 0.06640870221566857, 0.07973584990306934, 0.19390707277431835, 0.19550073895311668, -0.11917616455610475, -0.07565358692042691, -0.06088612009077546, 0.07666859161178806, 0.0835749544415172, 0.008866784295543101, 0.2295921430371118, 0.04412100707551419, 0.152270209200807, 0.19709292309753668, 0.11448125701391641, 0.15138517349795688, 0.08210201922530033, 0.06323089023407306, -0.13438911479269816, -0.08496322572411462, -0.11572270294484331, 0.05852820000674915, 0.010177784621805507, -0.002193690045840933, -0.1499492887594895, -0.01865996812858501, 0.10592246341066401, -0.01614778386724282, -0.1774622213234827, 0.3216474119481174, 0.018940393976333226, 0.040403206991977664], [0.011551998361331393, 0.005971735475908298, 0.01002734961325526, -0.10475272689161767, -0.18023770550063237, 0.03520290942360967, -0.09882782338970847, -0.12425650483819048, -0.03654285531938033, -0.3060599419817497, 0.14742994486181435, -0.024165452794161303, 0.0985432081880433, -0.02541038322828895, -0.13493846695583236, 0.22884090413053915, -0.07134719625188903, 0.010742006832840097, 0.05783923192265826, 0.08359593105803088, -0.2581754458283706, -0.060876089761784706, -0.18157476228956035, -0.15842201533144576, -0.07919089512073015, 0.043192812598210284, -0.10061960191728288, 0.12412386444345569, -0.06860274527817209, 0.07209918482594507, -0.0032955791393266135, 0.14395148290564297, 0.08216307059725983, -0.025542113126207674, -0.05458903845994603, -0.02193411716958338, -0.03561018159271938, 0.045736309801511575, -0.13121325889161992, -0.033951834168212014, -0.13087607298392387, 0.0783507908814353, -0.015312543111473046, 0.10867672057288824, 0.060821306212397896, 0.014587449691816995, 0.06358316670004145, 0.12162413398807846, 0.016201930290572306, 0.29054983621488994, -0.010520795212094959, -0.05718424701112421, -0.072620305571506, -0.035093652605926784, -0.10951039936118992, -0.195396263954002, -0.032186780780954806, -0.018177962570647174, 0.040974419310818536, 0.10252673976848091, 0.09683789479648956, 0.3258171415699231, 0.033045243790752125, 0.03682977693489825], [0.05591512328452406, 0.11687313560544763, 0.03390658881967478, 0.13582836803576653, 0.0378474971215269, -0.0792114690433633, 0.04850573899234644, -0.05438457113362331, -0.13622988348340645, 0.06290544392542612, -0.16089212405645478, -0.28248038179165635, -0.20114392979709672, -0.05984313345416092, 0.11247108863802817, 0.08582447721641207, -0.10381359619657575, -0.05643552387099412, 0.07320307990757353, -0.04338185614659892, -0.07686150646299832, -0.029363904383775164, -0.025684820826794977, -0.26714164825119746, -0.0193113773339206, -0.07399717996035149, 0.17030413202010403, -0.04705842196680702, -0.02255546926121441, 0.02548327837956829, 0.21963403672655457, -0.06547863571583062, -0.09320819859190745, 0.11236257581527237, 0.0839608715676664, -0.050641558154025844, 0.07699356472496297, 0.09040009814439254, 0.11453197725797015, 0.029252952439070282, 0.224787097842912, -0.09771177592607339, -0.08159426091926944, -0.20019771088284258, 0.24269480230809265, -0.020150843504300093, -0.0773734421041145, -0.11493158904214387, -0.11169400129136108, -0.13748557938301295, -0.2505243763612041, 0.11108474673597364, -0.19400079987585092, 0.054150766676327844, 0.06129535198008756, -0.18248581999433197, -0.19889159866526815, 0.10118695332911419, -0.04482801439170272, 0.07258893435476715, 0.135215429272841, -0.023148249752305197, -0.010338637945967101, -0.0002283418659374131], [-0.04513318655746961, 0.01582293823348754, -0.1851643204584352, -0.06341684351148386, 0.08855243567830341, -0.10401783503071825, 0.12452788715595857, 0.112625909494822, 0.07988708369596692, -0.03085944620965716, -0.06107048223735359, -0.20669256896819896, -0.3337629726689234, -0.021271308237944674, 0.184219689076017, 0.11108289419298935, 0.3310852080107365, 0.004966369903540252, -0.101895237884812, -0.04803092546362991, -0.035945859140682206, 0.16741327010287171, -0.051731225937402876, 0.0879733255884989, 0.009756759902799351, -0.22134201347551657, -0.12718201847778002, -0.05906360470126295, 0.2592209810391703, -0.05273022239515476, -0.35469507212292356, 0.13438766077073303, -0.07183393388795893, -0.12650241883367405, -0.025383531455941282, 0.04523075567738971, 0.1038063411883174, 0.20402750141088755, 0.02150113450844543, -0.05733514124842744, 0.13725107171513884, 0.1482856573123724, 0.06202918224598867, 0.0008603767084913712, 0.009169186298759832, 0.17134665486105902, 0.04519023417740837, 0.2777736744178075, 0.18408545884076805, -0.02034607067168775, 0.0683772724853463, -0.03630379230178717, -0.12228798463599916, 0.056851472013708264, -0.18012288065330884, 0.10189214094489457, -0.12938580445995265, 0.1396257446484033, -0.10113149712243694, -0.12000130098600843, 0.1923947235696187, 0.04376924009140011, 0.11048235471704203, -0.11826705535820829], [-0.11029534459400164, 0.0059673527084896216, 0.12439394381300985, 0.0803501869283735, -0.07834187829139184, 0.15247066287548097, 0.06328909610888202, 0.02121265371342811, 0.13473953357685658, 0.015756700856321207, 0.12117245381495242, -0.06456957642824297, 0.21253857189493197, 0.0535161691953722, 0.21461900322801875, 0.21468251548434866, 0.34227247583422765, -0.17004024632867137, -0.04041058199582921, -0.06592068599645873, 0.06090575822046191, 0.0862770411398742, 0.008225037014907058, 0.030174254484851146, 0.03860085782479504, -0.10250977020323898, -0.050184885476014574, 0.05682003415043335, 5.417254526836218e-06, 0.16869636150996972, 0.044062627764449434, 0.2080871823213514, -0.010292516484017989, 0.010994128558543266, 0.14880765541524202, -0.1477453715021716, -0.2052228637078506, 0.012819471045795457, -0.2252882390188369, 0.0018420957876333732, 0.0241030745448331, -0.16268878551806773, 0.22574474030589614, -0.053749589203218255, 0.0343463794841232, 0.05208972141775346, 0.03963603094323558, 0.14327400016261135, -0.027673468667829423, -0.08172102779696946, 0.04766770806399311, 0.15220784587428696, 0.014359788021987592, 0.0795241675692362, -0.08653607249786073, 0.24948559066837545, 0.15879474902363747, 0.2907821345877076, -0.14285907640604795, -0.007003921494647486, -0.04304562972103075, 0.1882985573354207, 0.10907264511130511, 0.08103482704211097], [0.1073483574228793, 0.10931806134043275, 0.10768318219337719, 0.1531789081633224, 0.11927851999790512, 0.011744174699890713, 0.08120246130617478, -0.00289114436141102, 0.0024844636416214956, -0.03714779111053975, -0.05681626481087557, 0.10675926007836296, -0.04301715902996444, 0.09780439436353279, 0.12265632037474707, -0.03488175155122061, -0.11749989892038276, 0.07554697632807432, -0.04125769088816523, 0.12050601089508765, 0.21964346785635205, -0.06849643185794657, -0.11113041051221607, -0.06366393054315998, -0.0036279952670184635, -0.17208035495252427, 0.040272697460618935, -0.010806292976247146, -0.09350375010110092, -0.1698459083444169, -0.10321060320718746, -0.004159031597205116, 0.1101824459405487, -0.16777871625936547, 0.3599820309624019, -0.08510494450420138, -0.04722601887817667, -0.0496860781729135, -0.01884781573763348, 0.10643598613866145, -0.23398706315786647, 0.014746118010656211, -0.06503251196114956, -0.040055606160336675, 0.013487379583689266, -0.08151144005879155, 0.04198290015931052, -0.02557481285553821, -0.020242466091797015, -0.16640793798561673, 0.014733278411510708, 0.042719209529540385, 0.01596340080868841, -0.04518764263057711, 0.058383303340626254, -0.010532084106433876, -0.06852777799016405, -0.05785699797673423, 0.11274746181167815, -0.1853441878524008, -0.025690451564644907, -0.10795621111762849, -0.15403224195818654, 0.05452129712981334], [0.09759395486531629, 0.04461957950881858, -0.054276072877483955, 0.028238334183732006, 0.011915438932193786, 0.09170007975591168, 0.1181682148329127, -0.01865073941065119, -0.049009709788393585, 0.04960181799419254, -0.0005221970752436747, -0.09393807361032314, -0.09955142674037458, -0.0500182394454306, 0.10143758209998846, 0.004206865448263385, -0.17532217728179866, 0.07054703210845338, 0.27444254669110746, 0.12556329302040525, 0.018118548961821836, 0.06508120016483292, 0.06237798517078101, -0.18536694071353527, 0.07183858548820199, 0.18593305195397616, -0.18367285294531785, 0.10243049140736994, -0.0556691268209063, -0.09418531324335076, -0.12745447264201457, 0.1488230204291893, -0.20197276256328814, -0.051481748342475486, 0.08818645210481546, -0.14736274465412053, 0.05344927003689047, -0.03292234860184038, -0.03512677487894565, 0.033299614970090256, -0.2539392675521145, -0.11089039538839317, 0.03895274790261761, -0.0007459027536313925, -0.24097611454645732, -0.04646489753247338, -0.008684146404539251, 0.08983152448649019, 0.14396762326594365, 0.017652887837157478, -0.08630357677895345, -0.09160935242311538, -0.0783388456261289, 0.08780484174150259, -0.05626994922683786, -0.10909809129501057, -0.056009964648404034, -0.05222391595874695, 0.009728974412383573, 0.015123551485719495, 0.1502476333658891, 0.07440846129173168, 0.11684620100191155, -0.07649478931598121], [-0.058864002636566014, -0.09798763179948064, -0.14814296277153652, 0.06395010042175968, -0.04418674646805213, -0.13283936978586525, 0.024798658640882806, -0.021460422394898673, -0.0461581348986153, 0.06313271292121414, 0.019134407494795724, -0.043519154942085386, -0.1256872754851093, -0.03147044654995517, -0.024317930889920476, 0.06155266729575972, -0.09808029946196783, 0.09212871368421095, 0.02780283712831496, 0.04691614108177562, 0.05797511903904688, 0.019880104417640165, 0.11825259174576735, 0.08918505413113029, 0.20112773116414873, -0.13840230054830158, 0.29088675596361324, -0.14864232093949611, 0.09410778000343799, 0.010962807783446589, 0.009938918992013669, 0.06431101838056653, 0.09030190856418512, 0.05454482470041601, -0.2812126447334075, 0.17122411222414075, -0.09393816143445895, 0.10093327566770503, 0.06430403487579427, 0.14011337191362588, 0.29382595934161293, 0.12286330733618443, 0.18442861401996513, -0.24168529336989425, -0.2982755190380905, 0.05390561584497755, 0.11891638410912703, -0.13156679247763386, 0.2644881672045918, 0.13650793943256997, 0.0512080078145061, 0.11751951767576439, -0.1923369146751771, -0.22364984619355427, 0.1959886764733674, 0.07647891861460544, 0.09669553851679484, 0.08157773009955852, -0.11212301190881985, -0.16894883156932777, 0.026780276449546947, 0.25677114111506355, 0.14832636282127576, 0.1750968807719504], [0.09908709373971974, -0.18933472378853466, -0.044502745939584545, -0.08062750101585314, -0.12637695143572486, 0.03078387280659797, -0.04589627868285757, -0.16554203808423607, 0.032951548626564624, -0.14576141926115543, 0.029139345244653187, -0.09536738967792967, 0.08312889946565613, -0.1840618456476466, 0.24543146043091368, -0.03151014477294805, -0.15960628062812124, -0.3185267353593226, -0.1712334588847089, -0.35665505727325103, -0.09376310425378909, -0.03788685498336975, 0.015169570069097076, -0.0304942504504749, 0.01870669832463326, -0.030938755497874955, 0.08076049678635142, -0.15759921439834998, -0.030843764734667142, -0.20983666666327824, 0.11243633928872275, -0.16670086625078, -0.1576568656160667, -0.010247708898530642, -0.14709453004423656, -0.038405317288644124, 0.10181802643178457, -0.11220151860339304, -0.38780785104313553, -0.0515318252056714, 0.053474534228644566, -0.2471809295018733, 0.08371690739765703, -0.03901425498596934, -0.0971467521591552, -0.05387284153584465, 0.12674016365285656, -0.05070096481094116, 0.06341107766681929, 0.04120612723863008, 0.18914404123916123, 0.0579176724403147, 0.017714582966135407, -0.12154164628060575, 0.11336880232295952, 0.10748887908539709, -0.12204042597769281, -0.0204014781350638, 0.0021579492564801368, 0.22732077982649376, -0.06637848523435955, -0.10719466113504683, -0.3577267326915721, -0.018642071619373132], [-0.048639606135688664, 0.16606003617060025, -0.2445645273983627, -0.12417788006179731, -0.018175693885144447, -0.13854781096657084, 0.27470735764562637, 0.11762717951584822, 0.034523254293801243, -0.2651896778058721, -0.2178024191453742, 0.012531678047946302, -0.02912665412538426, -0.14465675478142814, 0.0590645365317798, -0.13312930321944993, 0.24429510216008246, 0.07877448604064337, -0.07486580128662383, -0.07062917220821331, 0.16698755816945252, -0.030456033095025425, -0.06852458083579724, 0.12584597740892023, -0.08632717656314172, 0.048585852958292874, -0.0840356483312582, -0.16484956929766642, -0.06216296891676669, 0.221766145727144, 0.026961634343865726, 0.021318410141170797, 0.03385697666901123, 0.12121935825871918, -0.051537211473616146, -0.054324688545499336, 0.16340197831571882, 0.0027148040610319455, -0.03258010456524925, -0.10918896221716375, 0.16867535766211222, 0.01372248927230807, 0.010079217032956393, -0.05322135988274886, -0.36598286370170136, 0.12312970478494802, -0.019889004429908933, -0.09805627906000788, -0.06450834916651255, 0.07589230569269587, -0.017202001485835536, 0.13812817508812997, 0.11105065121655651, 0.04231925110355422, 0.03289577718973167, -0.05534655643005856, -0.3028039820175346, 0.15116128066378803, 0.14867524088020748, 0.2090564368330404, -0.1751525558293396, -0.00813925411933448, -0.16609121369298677, -0.10508394097811578], [0.05036183088432213, 0.10587049783585369, -0.09372000030091523, -0.05248960700818574, 0.11455476459103046, -0.12536524475932417, -0.05557017684044994, -0.17762903420407744, -0.2511242611628291, -0.048297487700692726, 0.1030702923349069, 0.09939260112042253, 0.1477489997509606, 0.12947379037556866, -0.08684473076112872, 0.18071419927342716, -0.07807354472303588, -0.07266913339466413, -0.11714358614227843, 0.17147855626201497, -0.017561680542022038, 0.032199716095431985, -0.1831869209352374, 0.14074620600354965, 0.045321608307843826, -0.03737127963887873, 0.047513365526947356, -0.04142988491866601, 0.12601385802689993, 0.02379315859157795, -0.01447442826500369, -0.04554350093900032, 0.02895060176518065, -0.034541743120972246, -0.18689313881879396, 0.13950927988349593, -0.05316574756559429, 0.11996261973119719, 0.25611979737934226, -0.01544826126392485, -0.020784416248098774, 0.20448051231441927, -0.020704675290832274, -0.0995442273535366, -0.01509576551629441, 0.06626535129713879, -0.10675148805468801, -0.15463996172505304, -0.15269545322139566, 0.045885113597757744, 0.106882463746305, -0.07015181188749482, 0.05386307823377421, -0.09486853591071581, -0.12959996130145407, 0.22177895438362202, 0.08839494641149544, 0.20642866131703103, -0.016848395356553827, 0.2106415023983189, -0.04936430511443815, -0.11844983253836462, 0.08349099574536241, -0.130496659339723], [-0.012357342890569948, 0.09663482816172786, -0.009256245474292456, -0.22269865201849498, 0.1881656837805165, 0.032015090368181065, 0.047344703271992465, 0.18027478814033918, -0.0015800625915214314, 0.10810618167020075, -0.08233954117328796, -0.1488837343205779, 0.18190826227088094, 0.11166833381235855, -0.13900994568411915, -0.055881679076836145, 0.009722529016213104, -0.14611131188236545, -0.13015545904041495, 0.005418390690987393, -0.20109208586799587, -0.053365090270416485, 0.08906198155166532, 0.16530402784452713, 0.19475132347189852, -0.21473878577786484, 0.2342590879185354, -0.012721075820138017, -0.12425626847380124, 0.24856248162673109, 0.018978159942851534, -0.16123682902359635, 0.24534483899473372, -0.0628571578047673, 0.008813668228741706, 0.11180887096717909, -0.24012757022466194, -0.09172537964454142, 0.07504996775835673, -0.02701024659149508, 0.001925515217412203, -0.1924436203307173, 0.07103509193014632, -0.17572247872652624, -0.21137366250833556, -0.18108944539897226, -0.35433998442815795, 0.16401172736165276, 0.14544318052939736, -0.20416362600491497, 0.06663473790852681, -0.1106015502767697, 0.09506877170279296, 0.05857817288529094, -0.02607360757889453, -0.05436012356500046, 0.10442506982582465, 0.0014793275407663064, -0.08554496059704458, 0.26507351404983637, 0.11211861210578028, 0.19613349332982763, -0.06952647032298513, -0.016862329259289193], [0.20145235274024215, 0.048497920113222785, -0.023970272402522565, 0.06306453538964467, 0.2001710292614447, 0.002364693095361534, 0.12958568628963746, 0.012276289390714014, 0.08228716237224272, -0.23104112326194004, 0.009679726790850409, 0.046255308827952354, 0.20328014158864308, 0.05158072451822078, -0.09148452464689023, -0.13774658309744528, 0.1068150030875, 0.09996586720864484, 0.1905612850187683, 0.1794252904801653, -0.01649357078245823, 0.11255691345583296, -0.13900097880335044, 0.02074826210337023, 0.03492135956185788, 0.05211039508811461, -0.20615519079661387, -0.19821235864047201, -0.244314128732116, 0.21809544101403694, 0.24267674172943968, -0.015805860586386833, 0.0816822733585235, 0.2232724703992301, -0.06830490190770717, 0.040575015988290566, -0.17371109966017342, 0.08729958220455769, -0.16060216013441642, -0.06277068747184214, -0.07592299588548711, 0.013389046161431158, 0.11146623554775584, 0.022752089625551312, -0.16142022180982601, 0.2151456577483614, -0.22459969401523755, -0.0483490102094134, -0.2165558317879199, 0.06876040402350021, 0.02198449992133313, -0.10831413198438675, 0.14204068247749219, -0.2632424089090113, 0.05124442408883173, 0.013097374417569889, -0.19212545960736208, 0.05335216652304675, 0.013281231804662782, 0.056676401436926406, -0.026450927981797188, -0.0363550281532888, -0.163244634776339, -0.02852008095946983], [-0.049492830251924434, -0.025860165981841085, -0.07864225217606556, -0.26118963665787603, -0.027227714005195726, -0.016373945795541963, 0.14873131122009067, 0.05749980665137561, -0.00931088039063511, -0.13014233448203533, 0.027730895620707, -0.00731693974949736, 0.16311634898083818, 0.08086177706746212, 0.08529207349671261, -0.20331380819607098, -0.1477189641247713, 0.042002372578242075, 0.021095844796049503, -0.10782530813683935, -0.15303364031616656, -0.2025628528950835, -0.06170944791216935, -0.1395133645491782, -0.03666049081783218, 0.018070162404732852, 0.22574443664462848, 0.08912401683694617, 0.1117704059309199, -0.07801898618075201, 0.09382044327860659, -0.0755749331663806, 0.09001068310367942, -0.020827831338524276, 0.02171025983286098, -0.030952842292466226, -0.021333747562990495, -0.15656651837365992, -0.1224223269068378, -0.03913821820180698, -0.007140292144114289, 0.054549741795541784, -0.04908668687745837, 0.08837849445778873, 0.16461817043816568, -0.04459861722497089, -0.07815008082267945, -0.056483103985940426, 0.13729191846953828, -0.0032608796663614117, -0.08350698811138224, -0.02098810272736319, 0.2756358397107295, 0.052246990161462316, -0.04414556038101746, 0.025577359489147185, 0.15868068825925546, -0.17774277806182837, -0.10141907393827097, 0.19887466209979793, -0.026204931653995317, 0.10980029632516505, 0.00551080885043791, 0.08624709157818505], [0.12970492664752598, 0.15038889631113792, 0.12924715900776415, -0.06092859229155634, -0.1597124837173005, 0.035547404473941495, 0.0691700357615163, 0.15459872668296998, -0.015735047096331913, -0.12647606735555306, -0.07971049747580754, 0.05415163837473875, 0.003610069682945374, -0.11048361172135511, -0.08540418030530453, 0.15930043766754728, 0.01414386528466675, -0.19597996983825117, 0.1873095432804646, -0.10887928227101977, 0.01671514207932158, 0.09919631421103792, 0.061272961068121745, 0.0789275203403143, -0.29480360249846327, -0.23765193672907436, -0.19916617441731735, 0.02191350281842953, 0.041639456517016595, -0.22511876650437837, 0.02204770159424028, 0.08672890408893821, 0.1652114624030385, 0.1920708946600407, 0.054994816314410166, -0.04669128549971148, 0.004513937964217802, -0.007587553242673095, -0.09243288992293741, -0.15887290211778066, 0.20718247908862267, -0.053380310641916874, -0.020860100564607433, 0.1342844136402193, 0.16279585922214285, -0.1298406906624662, 0.029138247262467176, 0.04637925174585205, 0.14319088179421774, 0.26627182477519795, 0.16820336748482345, -0.19571287927237407, 0.07716649592757069, -0.18841526250405574, 0.18283830897569867, -0.07706224268010185, 0.00533426526963422, 0.08184399953296553, -0.1947718152410415, 0.08984006124091345, 0.11674922097725779, -0.08777779253283621, 0.0946458775146212, -0.04791258624085491], [0.2329121929311951, 0.08217256532836507, -0.09340844301244168, 0.10490078318430626, 0.0646137217315107, 0.05397384405780295, -0.2849212123384968, 0.04614833270964445, -0.15705708412437838, 0.09160745218572182, -0.21773861795107452, -0.052497057884638085, -0.0675940267431025, -0.2130519075412739, -0.09044298011334871, 0.1314017208792129, -0.32330116965655514, -0.08644927304839017, -0.13904239545357283, 0.3452386375442074, 0.17489777336101198, 0.18214887167414748, -0.03846520123701331, 0.10497678378601535, 0.03186294657373765, -0.010004870417072155, 0.02655747490538114, 0.01989267073663181, 0.06522297489612973, 0.13819439137850134, -0.1922303931181036, -0.07552553467714013, -0.11291952124314272, 0.07778815551982454, -0.0938237056490013, 0.16968059567630475, -0.07763730292340949, -0.20224525552742384, 0.11488709969965986, 0.13928961991673802, -0.09081980437623872, 0.16944012651416188, -0.12553376026006952, -0.02702177844592666, -0.2530337812893363, 0.15130097089844724, -0.13567087271473918, -0.21922162551204266, -0.04061864519043213, 0.04769187993376015, -0.13215060579000237, 0.2601439129527855, 0.09293993910193164, 0.1412058055111798, -0.3060606810380631, 0.0409513257448739, -0.10281224820849767, 0.094900914809676, 0.013767704705187338, 0.0016449243717767267, -0.09413607841859618, 0.24586641122709438, -0.10042821825643301, -0.0693110143827239], [0.010243325510945808, -0.2658655751903284, -0.0637469343759598, -0.07871757197473606, -0.012046623224433083, 0.04327036830272466, 0.04813183568889346, -0.12172693550075811, -0.0399092449232903, -0.2048761086365396, -0.001028240175539341, 0.2795927670083588, -0.007947436698594974, -0.03095428146074747, 0.009311689065546209, 0.142534504144556, -0.08398208407085525, -0.15629356577813672, 0.24337294712296978, 0.07986315100639875, 0.10363574773478142, 0.21060094289444511, 0.053912500579779164, -0.02999798167814661, 0.17940570663412697, 0.32141511231959724, 0.30686791149006704, 0.0014422315644817202, 0.15059626975928891, -0.14098589314751167, -0.0570012413527841, -0.25839550880223433, -0.1455284775990723, -0.07536643272925976, 0.015593868971703556, 0.10670695496457015, 0.24283547218494467, 0.0160183681743, 0.13339306339049314, 0.044371474223132555, -0.12763740428750925, 0.13940906903187017, 0.014405355132802607, -0.25678228365808536, 0.06855515280424136, -0.012124305487458352, -0.07609497801601792, -0.07544748778351555, 0.04801049420322347, -0.09188601594972357, 0.0690169004149397, 0.08738674193076365, -0.2803023972983217, -0.17976754433231373, -0.040972827522506534, 0.17845222443809605, -0.05817317494984927, 0.03606918026710596, 0.07115543471975673, -0.14350350050571165, -0.23980115596604973, 0.16767994322379032, 0.02433545346978653, -0.1743405897876059], [0.010417310427410478, 0.11392407303071296, 0.07570584117606029, 0.2053195390016629, -0.004345487896982229, -0.06841749855901277, -0.07967660357811464, 0.017969134288781496, -0.18787867723276513, 0.1092159868530116, 0.06385951208546077, 0.1560770967558477, -0.09557976544446845, 0.07761669556860223, -0.10300055862654435, 0.19621800004166776, -0.1401805186234061, -0.07870661837820239, 0.08356203502312119, -0.158479509005754, -0.058360846830307976, -0.0858670427430044, 0.08994761855353504, -0.16953360050715158, 0.09278642642334048, 0.040002324326347365, 0.10750991426054851, -0.1420423716244742, -0.062135037015229135, 0.08693310881460216, -0.08563316438460879, -0.0631168612857568, 0.10725922915693335, 0.07895998504615126, 0.008226884101405178, -0.057014477386285185, -0.011139150633150146, -0.0702835342178379, -0.24104458695216896, 0.06189641682493448, 0.01249062053331718, -0.07889540234004692, -0.0023307965333437923, 0.08726070734323865, 0.07265121480853862, 0.12348471338409843, -0.10845482398232884, 0.17256218831319572, -0.04874924672152195, 0.03494081236114608, 0.009417193971408657, -0.016413293269032955, 0.18046629542907042, 0.028376681468927047, -0.09211566483215793, -0.14037040237235035, 0.19176038294642764, 0.02163700733450513, -0.16398439214558722, -0.1815004027173995, 0.1637596661766204, -0.12475354799721099, 0.0635619764543397, -0.1035404323552337], [-0.1174559349659229, -0.12870109443412991, -0.012714997306043033, 0.1344809366331066, -0.16178335256297663, 0.053127450047367054, 0.08968949269805539, -0.24122318651790378, -0.3351330477362835, -0.07210454059454682, 0.2381716286019804, 0.10014937196344692, -0.14971676107052675, -0.14317466606248136, 0.1811614961002378, 0.2226789207573183, 0.12427911479928924, 0.03552830100093145, -0.047976321873687035, 0.19085074028153312, 0.028514977731370794, 0.02481616029410493, -0.10435295226836837, -0.14135464151720228, -0.05332908855556748, 0.07704599054677855, 0.036383166174627335, 0.037723950173871534, 0.0913458788526702, 0.08563534395149891, -0.06502666279301873, 0.01594365670293846, 0.03573030463896473, -0.024208444809185783, -0.025602511229159797, -0.18937583059331797, -0.1842680425304151, 0.10467732367592733, -0.04652368868799109, -0.06627328386796502, -0.10316532834366056, 0.03887140948584463, -0.031637865176964874, -0.3069219579900759, -0.08551610647075047, 0.26139675671726187, 0.2215545818353007, -0.064024656854909, 0.05150895421082307, -0.22697679738751583, -0.19765315375664969, -0.11707785138436207, 0.003110058928251865, -0.0731928642789504, -0.13767705973540684, -0.02428234123908855, 0.0881458300937909, -0.08467136815771877, 0.03973174376000537, -0.14361076331434647, -0.05946900619949491, -0.19233214938259194, -0.15659441941959337, 0.0446534853654032], [-0.2089652816265034, -0.24319772693785824, -0.2427537403420457, -0.12859558577017463, -0.19611359073929302, 0.03930091982465711, 0.24834156119104414, 0.13913561336185568, -0.09690912206205624, -0.08865886550698363, -0.2209785240026394, -0.06635178094371288, 0.17717291759766582, -0.12263323810731451, -0.04681877725789286, -0.040324056685032826, -0.15408674852184853, 0.004522466079435878, 0.002607237918090298, 0.22344354389845725, 0.03337033617291318, -0.0036257064719362035, -0.00963527538674177, -0.026137862218550953, -0.14785875368736434, 0.03403489109049997, -0.0839322353563771, -0.12885840663327952, -0.18077400425528667, -0.21884905192358942, 0.28573139805512204, 0.09862144040974084, 0.06197877388971247, 0.04740034512136004, 0.0036414801974132545, -0.02446799431034923, -0.1814912505537161, 0.14140967532042728, 0.011584684938886028, -0.135797809511298, -0.018368651724003007, -0.03774767185891434, -0.0666729615101354, 0.2068100527889323, 0.014928272441387435, -0.10639802317082062, 0.13620390249929054, 0.23846688487147616, -0.12948619909920075, 0.008432854901418749, 0.14388645087587298, 0.10773690761918121, -0.02001449285448835, 0.19725396842003054, 0.08821924200760348, 0.03815527440474542, 0.014014444792134236, 0.028492522878427285, 0.07157428157889867, 0.06957646220226878, 0.12841491798744895, 0.20745192058057813, 0.02167445241109885, -0.03537663871964934], [-0.3178995015295203, -0.09395247000551636, 0.19244114181113248, -0.09441932325193678, -0.22313741000613693, -0.02625222463777565, -0.02473602980276066, 0.026786509989091354, 0.00422144043354185, 0.05310882753644919, 0.08298399272306867, 0.14471266761035634, -0.04111369581468586, 0.09307789162763125, -0.011011264546312355, 0.11756094243870878, -0.22581560219867516, 0.17076431522767493, -0.03407557763525672, 0.11442233623465678, 0.17602087151860607, -0.007365442298063801, 0.13229581172050597, -0.05061008440287767, 0.019985342618368686, 0.05648182329381077, 0.006176529363091282, -0.15871621240221034, 0.16059453952055652, 0.210325003362908, -0.08552813711491657, 0.04445323859649828, -0.0058416845709214835, 6.797937051101939e-05, -0.07389559996140413, 0.010055395398285294, -0.02337433786715529, -0.22630008240629718, -0.11564013417992462, 0.1537404724697433, -0.03929195331768943, 0.12566488449099722, 0.07167787851266134, 0.04220596214893598, -0.1442419384697914, -0.03771485780009569, -0.17071618651604964, 0.025419771806982745, -0.027105181981854604, 0.10171950478442843, 0.11132637852303008, 0.1962819405492761, -0.14211248917711033, 0.05807123511822746, -0.15076856001736094, 0.03458977442770047, -0.13304473243974346, -0.09035504611584348, 0.041004124579791947, 0.22324020999880784, 0.08471844106697421, -0.21187150104815672, -0.024796134816738445, -0.06993985881007708], [-0.1385012659679953, 0.010165995241942786, 0.04309171853080318, -0.12841689409741794, 0.04051412587441073, -0.0555103054056334, 0.06581850600059942, 0.012616573952690266, 0.053434353318330845, -0.013524885261341973, 0.15037868760950787, 0.0484481155498398, -0.20836102798987735, -0.007270337656407158, -0.0593021835890567, -0.1652374801740178, -0.0936925535719882, -0.1360185769300996, -0.02071808420429443, 0.1109018733824367, -0.24169253695408668, 0.024236153511239096, -0.15972690713811533, -0.1371818577239258, 0.11639746961576501, -0.10562244737842554, 0.004083525617864907, -0.049059806522970276, 0.02720019907390246, -0.02654770876419564, 0.014828592777696535, 0.27324643569061047, -0.05061162351309856, -0.08104930273203868, 0.14369942895560742, 0.0735807217451242, 0.09552904604007144, -0.1012681166151743, -0.05588346432093007, -0.04455744907368207, -0.11755149677491956, -0.0398183972376019, 0.15451054164739494, -0.21480359002015018, -0.028352202138281275, -0.04610835887588537, 0.2137739255175792, -0.0005043832023735795, 0.10642051777713292, 0.059059842926149055, 0.3241524066558812, 0.20000703305304726, 0.09285812912090217, 0.18831437168898738, -0.06447005276836901, 0.20770049566319687, -0.030537713135951675, -0.3012690287098714, 0.2195725708316088, -0.031131867776376526, 0.01757692249500283, 0.12838519120258582, -0.11130731988659609, -0.151166321902999], [0.060301873086866686, -0.03140054065775301, 0.19926806225314825, 0.06417847863907121, 0.0220654791040139, 0.01180051369370226, 0.0014084365795451988, -0.14765762924159434, 0.20902026345131078, -7.75096151120439e-05, 0.10014590933449952, -0.16412029702012704, -0.11588477946760094, -0.00933947982670385, 0.08192976578527081, -0.11593545466776513, 0.24660976976699198, 0.1547623346578696, 0.10306318623085516, 0.038148525381187855, 0.06268337338618861, 0.2114795349814606, -0.06065544162238793, -0.03196728460441674, -0.11970097524262459, 0.012174836453780206, 0.0514550813302066, -0.22286612806826397, -0.06355813702576274, -0.10622012001761487, 0.25419379883152227, -0.0016824479501514559, 0.13321092368607665, 0.07432236921336137, 0.04926638619887754, 0.009161565827287915, 0.1928311080001896, -0.0360793869920716, -0.03689290856679602, -0.07257802753794063, 0.11927063648363893, -0.06315401433680445, -0.1487386096254356, 0.12556114686470982, -0.07121549148547889, 0.10493198539228563, 0.035799219854642995, 0.13678675747550323, -0.15063896912042976, -0.18979463905632005, 0.049111975712156926, -0.06990471904109649, 0.06969264034839309, -0.013973619267647982, 0.08186440744600436, 0.1322390454959521, 0.15070975120858185, -0.1433625061160719, -0.2084463547712692, -0.13764474646327318, -0.16856695012675982, 0.19324565679335606, 0.035415172156939186, -0.18359347379557525], [-0.021312708181810566, 0.04695216608819005, -0.00420189362405216, 0.011262403003969397, 0.043746531398899384, 0.026343121339186357, -0.05366110808968876, -0.11867522010719667, 0.19238018201150198, 0.027579270294853398, -0.04979016266714068, 0.11586450788012172, 0.20723479811328152, -0.11809062945105403, -0.06559800735401732, 0.2466063754556856, 0.024347555511934536, -0.09208343841898363, -0.08369689506676416, -0.0804473580122126, 0.04732609273071565, 0.09395910348842222, 0.1034395603229504, -0.14846574917946767, 0.09726778761866073, -0.008816936813688829, 0.09509454461218392, -0.15317043306401074, -0.08548816617845674, -0.03193162110159147, -0.2571037431736518, 0.014767541915099741, 0.29851497005806527, 0.20774314350755457, -0.14512262167841763, 0.05982460227717735, -0.05828701529280258, -0.048718466330883614, -0.09306650252390651, 0.016724238582455517, -0.08440045143304654, -0.1625343185545924, -0.03273913947723182, -0.07578681369369882, 0.09809594571383873, 0.07387286958840068, -0.13328978492493235, -0.029803513939217884, 0.039596735331901625, -0.0836176272988412, 0.2596323987507892, 0.004091507584435863, -0.04739894697212527, 0.17098379355523433, -0.1603208447079017, 0.0324027208397625, -0.09696751671205638, 0.08462555774329292, -0.02459279470875585, -0.05340796062358525, 0.039834301928371556, 0.2510452953558543, -0.05727596294855933, -0.13338539565871696]], "value_layer_1_biases": [0.0, 0.0, 0.0, 0.0, 0.0, 0.0, 0.0, 0.0, 0.0, 0.0, 0.0, 0.0, 0.0, 0.0, 0.0, 0.0, 0.0, 0.0, 0.0, 0.0, 0.0, 0.0, 0.0, 0.0, 0.0, 0.0, 0.0, 0.0, 0.0, 0.0, 0.0, 0.0, 0.0, 0.0, 0.0, 0.0, 0.0, 0.0, 0.0, 0.0, 0.0, 0.0, 0.0, 0.0, 0.0, 0.0, 0.0, 0.0, 0.0, 0.0, 0.0, 0.0, 0.0, 0.0, 0.0, 0.0, 0.0, 0.0, 0.0, 0.0, 0.0, 0.0, 0.0, 0.0], "value_layer_2_weights": [[-0.10349288395279349], [-0.02865847378293219], [0.2612899578052193], [-0.13990874896001249], [0.04629654571119503], [-0.17064705465525323], [0.16161842180042826], [0.26799657439252544], [0.042239112424195494], [0.11298289719081527], [-0.17376606577417372], [0.10444935447624418], [-0.04485615244329639], [0.10425866448401248], [0.0818924205126092], [-0.2240201574675284], [-0.08727773655834646], [0.02852419336322729], [-0.31797575075277124], [0.06936120394158979], [0.22872969609210828], [-0.19581579566291357], [-0.28002602535117577], [0.07847178145836084], [0.3117078394360938], [-0.002635554627618046], [0.2151989026455372], [0.35813557294922693], [0.26379692590348575], [0.028114675402750346], [0.019411718297060013], [0.10732093585590564], [-0.00028035178423150176], [0.024101141596484767], [0.18150563925965357], [0.07518186692012932], [0.29048668828762436], [0.27638943968519286], [-0.044893669267537344], [0.0711918389924065], [-0.12702792845020566], [-0.06214807181706277], [-0.007333484417212659], [-0.09600726127220963], [-0.014424477824006184], [-0.025324413343357277], [-0.09569176073763305], [0.19843492857050085], [-0.09175701063147312], [-0.1820012851662337], [-0.050594118118889614], [-0.055315765740634765], [-0.03976054480336871], [-0.23027680477148296], [-0.15487275111595764], [0.024161987579999992], [0.029662058517175738], [-0.24393714505011188], [-0.3332906388327417], [0.008964558262563458], [-0.06144612745407477], [-0.03930222517664113], [-0.12112674900882278], [0.05567325695141455]], "value_layer_2_biases": [0.0]}